tree
version=v4
num_class=1
num_tree_per_iteration=1
label_index=0
max_feature_idx=50
objective=poisson
feature_names=last_5_avg_hits last_10_avg_hits last_20_avg_hits season_avg_hits last_10_rate_over_0.5_hits last_10_rate_over_1.5_hits last_10_rate_over_2.5_hits last_5_avg_total_bases last_10_avg_total_bases season_avg_total_bases last_5_avg_at_bats last_10_avg_at_bats season_avg_at_bats last_5_avg_strikeouts last_10_avg_strikeouts season_avg_strikeouts last_5_avg_walks last_10_avg_walks last_5_avg_runs last_10_avg_runs last_5_avg_rbis last_10_avg_rbis last_5_avg_home_runs last_10_avg_home_runs days_rest games_played_season pitcher_last_5_k_rate pitcher_last_10_k_rate pitcher_last_5_h_per_9 pitcher_last_10_h_per_9 pitcher_last_5_bb_per_9 pitcher_last_10_bb_per_9 pitcher_last_5_era pitcher_last_10_era pitcher_last_5_avg_outs pitcher_last_10_avg_outs last_5_avg_batter_k_rate last_10_avg_batter_k_rate last_5_avg_batter_bb_rate last_10_avg_batter_bb_rate last_10_avg_batter_iso last_10_avg_batter_slg last_10_avg_batter_hard_contact last_10_avg_batter_babip season_avg_batter_k_rate season_avg_batter_hard_contact last_10_avg_pitcher_command last_10_avg_pitcher_bb9 park_factor wx_temp wx_wind_out
feature_infos=[0:4] [0:4] [0:4] [0:4] [0:1] [0:0.75] [0:0.66669999999999996] [0:10] [0:10] [0:10] [0.5:6] [0.5:6] [0.5:6] [0:4] [0:4] [0:4] [0:3] [0:3] [0:3] [0:3] [0:7] [0:7] [0:2] [0:2] [0:10] [1:13] [0:0.57140000000000002] [0:0.57140000000000002] [0:30.857099999999999] [0:30.857099999999999] [0:40.5] [0:40.5] [0:67.5] [0:67.5] [0:8.4000000000000004] [0:4.2000000000000002] none none none none none none none none none none none none none none none
tree_sizes=2126 2188 2193 2078 2197 2306 2196 2300 2201 2084 2095 2195 2311 2209 2303 2088 2094 2200 2098 2092 1979 2305 2086 2094 2088

Tree=0
num_leaves=19
num_cat=0
split_feature=12 34 11 11 15 34 4 14 5 22 5 7 22 0 8 10 17 7
split_gain=10.2595 4.33216 2.64071 2.82638 2.35765 3.55984 2.76151 2.04068 1.71184 4.38636 2.4884 1.57414 1.31051 1.1447 1.82063 1.49802 0.926659 1.70254
threshold=3.1055500000000005 3.5000000000000004 2.2678500000000006 2.5278000000000005 0.72080000000000011 3.7000000000000006 0.64585000000000015 1.1548000000000003 0.23610000000000003 1.0000000180025095e-35 0.29285000000000005 1.9000000000000001 0.22500000000000003 0.70835000000000015 0.56350000000000011 3.7750000000000004 0.13395000000000004 1.2250000000000003
decision_type=2 2 2 2 2 2 2 2 2 2 2 2 2 2 2 2 2 2
left_child=2 8 -1 -4 6 -6 -3 -7 9 13 -10 -12 -13 14 -2 -15 -5 -18
right_child=1 4 3 16 5 7 -8 -9 10 -11 11 12 -14 15 -16 -17 17 -19
leaf_value=-0.11021348701997948 -0.10527969777802096 -0.095622822213588865 -0.10187047541828972 -0.10941119964386836 -0.098091395848059815 -0.10598779793514349 -0.10210263990798928 -0.10090561236554517 -0.10860482575538982 -0.099230269419926936 -0.10081464351874234 -0.10759624474522053 -0.1029381163313121 -0.10860482576242654 -0.1003715558011222 -0.10379441913707832 -0.10452235767482039 -0.1091557558864682
leaf_weight=314.01443696022034 277.71218991279602 237.77971816062927 208.73792052268982 206.9228081703186 234.14949345588684 324.90511107444763 188.77168464660645 206.9228081703186 254.11572933197021 359.39224576950073 185.14145994186401 196.03213405609131 190.58679699897766 190.58679699897766 214.18325757980347 226.88904404640198 337.61089754104614 203.29258346557617
leaf_count=173 153 131 115 114 129 179 104 114 140 198 102 108 105 105 118 125 186 112
internal_value=-0.103978 -0.102798 -0.107031 -0.105986 -0.100874 -0.102201 -0.0984905 -0.10401 -0.103894 -0.102971 -0.105311 -0.103848 -0.1053 -0.10445 -0.103143 -0.10599 -0.107135 -0.106264
internal_weight=4557.75 3287.17 1270.58 956.564 1192.53 765.977 426.551 531.828 2094.64 1268.76 825.876 571.76 386.619 909.371 491.895 417.476 747.826 540.903
internal_count=2511 1811 700 527 657 422 235 293 1154 699 455 315 213 501 271 230 412 298
is_linear=0
shrinkage=1


Tree=1
num_leaves=19
num_cat=0
split_feature=11 25 32 11 11 25 15 26 15 28 18 13 32 26 0 5 18 7
split_gain=9.58716 4.78117 2.75157 2.62562 2.6613 2.64762 2.45392 2.07538 2.87822 2.30669 2.65685 1.90115 3.42712 1.07473 0.653832 0.327642 1.28113 0.312412
threshold=3.0500000000000003 4.5000000000000009 1.5441000000000003 2.2678500000000006 2.5278000000000005 5.5000000000000009 0.8660500000000001 0.23330000000000004 1.1055500000000003 8.2337000000000007 0.55000000000000016 1.4500000000000002 1.3534000000000004 0.2828500000000001 0.55000000000000016 0.18335000000000004 0.29165000000000002 2.2250000000000005
decision_type=2 2 2 2 2 2 2 2 2 2 2 2 2 2 2 2 2 2
left_child=3 11 6 -1 -5 14 -3 9 13 -4 -11 12 15 -9 -6 16 -2 -17
right_child=1 2 7 4 5 -7 -8 8 -10 10 -12 -13 -14 -15 -16 17 -18 -19
leaf_value=-0.0062746870782013318 -0.004262717518959183 0.0065925505890165083 -0.00041176376398089373 0.0019389051100979148 -0.0033643363383851609 0.00025110128629348338 0.0017609724925660073 -0.00087583728725938682 -0.0046994898569873355 0.0070498078282347932 0.0011007923287855404 0.0019005120002949334 0.003238948038328881 0.0033256895124352814 -0.0062709852533651559 -0.0045387029342332215 0.00039605626677860289 -0.0023799610200054807
leaf_weight=312.02336943149567 192.29913115501404 356.81936812400818 267.32952404022217 209.15208518505096 242.43782699108124 242.61089098453522 318.15933883190155 185.38438904285431 187.28663325309753 252.6639301776886 228.9617018699646 301.41623091697693 181.79960501194 205.26883780956268 253.0821076631546 242.74522185325623 185.59223186969757 192.18173265457153
leaf_count=173 106 196 147 115 134 134 175 102 103 139 126 166 100 113 140 134 102 106
internal_value=-0.000123282 0.00101043 0.00223588 -0.00309227 -0.00204403 -0.0031726 0.00431513 0.00117819 -0.000622656 0.00256784 0.00422168 -0.000882431 -0.00172579 0.00133186 -0.00484888 -0.00283624 -0.00197467 -0.00358482
internal_weight=4557.21 3297.91 2001.87 1259.31 947.283 738.131 674.979 1326.9 577.94 748.955 481.626 1296.03 994.618 390.653 495.52 812.818 377.891 434.927
internal_count=2511 1815 1101 696 523 408 371 730 318 412 265 714 548 215 274 448 208 240
is_linear=0
shrinkage=0.04


Tree=2
num_leaves=19
num_cat=0
split_feature=12 25 28 28 34 13 13 21 11 11 25 15 8 5 8 16 0 30
split_gain=9.51809 4.80403 4.49402 3.42149 3.31605 3.40258 2.93865 2.66077 2.49315 2.6283 2.34699 1.82408 0.980378 0.864267 1.5136 0.686581 0.637389 0.351224
threshold=3.1055500000000005 7.5000000000000009 11.145000000000001 4.2500000000000009 2.7000000000000006 0.90000000000000013 1.4500000000000002 0.31665000000000004 2.2678500000000006 2.5278000000000005 5.5000000000000009 0.72080000000000011 1.1833500000000001 0.18335000000000004 0.78890000000000016 0.29165000000000002 0.55000000000000016 2.5513000000000008
decision_type=2 2 2 2 2 2 2 2 2 2 2 2 2 2 2 2 2 2
left_child=8 4 3 -3 6 7 13 -6 -1 -10 16 -5 -7 14 -2 -15 -11 -13
right_child=1 2 -4 11 5 12 -8 -9 9 10 -12 17 -14 15 -16 -17 -18 -19
leaf_value=-0.006189153881488778 -0.0038767841011311931 0.0060518083542266642 0.0089459359709940095 0.0035324169137585229 0.0078699346302824845 0.0014618687195845448 0.0024118364556452491 0.0017674628894649234 0.0018966729897229814 -0.0033087344927692618 -1.774855483130778e-05 -0.0024967587864946623 -0.0023760840694632781 -0.0043741212597058036 0.00054616259501504157 -0.0015469708176570061 -0.0061854797169829771 -3.9965980070241944e-05
leaf_weight=310.07165098190308 190.1589252948761 239.24164414405823 186.0507208108902 189.77741706371307 191.8268301486969 191.32221531867981 285.51870000362396 282.9289139509201 209.55799698829651 241.62355256080627 249.92865490913391 188.86770725250244 240.17391121387482 338.29824936389923 354.73546266555786 231.48601257801056 251.49999332427979 183.62094974517822
leaf_count=173 105 131 102 104 105 105 157 155 115 134 138 104 132 187 195 128 140 101
internal_value=-0.000121009 0.00101086 0.00334534 0.0020453 1.12937e-05 0.00189654 -0.0012089 0.00423319 -0.00307375 -0.0020597 -0.00317549 0.000340546 -0.000674364 -0.00213633 -0.000997371 -0.00322554 -0.00477592 -0.00128567
internal_weight=4556.69 3294.01 987.558 801.508 2306.45 906.252 1400.2 474.756 1262.68 952.61 743.052 562.266 431.496 1114.68 544.894 569.784 493.124 372.489
internal_count=2511 1811 542 440 1269 497 772 260 700 527 412 309 237 615 300 315 274 205
is_linear=0
shrinkage=0.04


Tree=3
num_leaves=18
num_cat=0
split_feature=12 25 28 19 34 13 13 32 11 32 25 10 8 5 8 19 1
split_gain=9.16383 4.59446 4.25492 3.87968 3.18322 3.25064 2.82575 2.62685 2.4228 2.25328 2.05205 2.09163 0.943334 0.83562 1.46048 0.679894 0.621225
threshold=3.1055500000000005 7.5000000000000009 11.145000000000001 0.52780000000000016 2.7000000000000006 0.90000000000000013 1.4500000000000002 2.9210500000000006 2.1548000000000003 2.7346000000000008 5.5000000000000009 2.5500000000000003 1.1833500000000001 0.18335000000000004 0.78890000000000016 0.73215000000000019 0.58570000000000011
decision_type=2 2 2 2 2 2 2 2 2 2 2 2 2 2 2 2 2
left_child=8 4 3 9 6 7 13 -6 -1 -3 11 -10 -7 14 -2 -15 -13
right_child=1 2 -4 -5 5 12 -8 -9 10 -11 -12 16 -14 15 -16 -17 -18
leaf_value=-0.0063604721002878508 -0.0038146870343548985 0.0025730762185246104 0.0086893587018695706 0.0059445717961097034 0.007094039819483703 0.0014307167926593169 0.0023581770657826874 0.0011558636817069062 0.00033509755076262487 -0.0026125746840670624 0.00056196826225589933 -0.0032538687496693934 -0.0023344832812602317 -0.004287924588222628 0.00053501878218441322 -0.0014557168519298781 -0.0061006129369052973
leaf_weight=272.53323805332184 189.42314398288727 274.55276811122894 187.72258675098419 266.58417081832886 238.89498114585876 191.60210728645325 286.20815622806549 237.87689220905304 180.21131908893585 262.01626515388489 315.2940080165863 240.82540249824524 239.60391652584076 344.13047647476196 354.9292585849762 223.81943333148956 249.94914960861206
leaf_count=153 105 150 102 146 130 105 157 130 99 144 174 134 132 191 195 124 140
internal_value=-0.00011879 0.000989608 0.00326764 0.00200041 1.09564e-05 0.00185518 -0.0011864 0.00413129 -0.00302215 4.083e-05 -0.00209969 -0.0033504 -0.000661454 -0.00209846 -0.000978587 -0.0031718 -0.0047037
internal_weight=4556.18 3297.36 990.876 803.153 2306.49 907.978 1398.51 476.772 1258.81 536.569 986.28 670.986 431.206 1112.3 544.352 567.95 490.775
internal_count=2511 1811 542 440 1269 497 772 260 700 294 547 373 237 615 300 315 274
is_linear=0
shrinkage=0.04


Tree=4
num_leaves=19
num_cat=0
split_feature=12 25 28 19 34 13 13 21 11 11 25 32 8 24 0 11 0 20
split_gain=8.82243 4.39446 4.03012 3.69707 3.05578 3.1059 2.71716 2.50507 2.36673 2.47447 2.19085 2.16466 0.907668 0.81963 1.38633 1.26786 0.605341 0.596195
threshold=3.1055500000000005 7.5000000000000009 11.145000000000001 0.52780000000000016 2.7000000000000006 0.90000000000000013 1.4500000000000002 0.31665000000000004 2.2678500000000006 2.5278000000000005 5.5000000000000009 2.7346000000000008 1.1833500000000001 1.5000000000000002 0.77500000000000013 3.7071500000000008 0.55000000000000016 0.55000000000000016
decision_type=2 2 2 2 2 2 2 2 2 2 2 2 2 2 2 2 2 2
left_child=8 4 3 11 6 7 13 -6 -1 -10 16 -3 -7 14 -2 -16 -11 -17
right_child=1 2 -4 -5 5 12 -8 -9 9 10 -12 -13 -14 -15 15 17 -18 -19
leaf_value=-0.0060273573751102559 0.00090604654120215664 0.0025154195918676969 0.0084423283503268394 0.0057916096427255972 0.0075351365828906008 0.0014002726829006852 0.0023058363159270609 0.0016422004944895714 0.0018469642045872035 -0.0031997356679483737 -2.8546207552141669e-05 -0.0025674467253758112 -0.0022935144397258954 -0.0041228980791818545 0.00017155438158380696 -0.00519243243912864 -0.0060163946399418482 -0.0021432493973562415
leaf_weight=306.44574439525604 267.70076680183411 275.26012420654297 189.36088275909424 268.17361950874329 194.1708687543869 191.87643218040466 286.88387775421143 284.57687294483185 210.03780853748322 240.04306387901306 250.06470203399658 261.33262145519257 239.04521751403809 241.41524255275726 187.67188954353333 223.57061886787415 248.42894816398621 189.6145111322403
leaf_count=173 148 150 102 146 105 105 157 155 115 134 138 144 132 134 104 124 140 105
internal_value=-0.000116608 0.000968826 0.00319199 0.00195659 1.06296e-05 0.00181479 -0.00116429 0.00403226 -0.00297125 -0.00198395 -0.00307345 3.99505e-05 -0.000648782 -0.00206118 -0.00148812 -0.0025548 -0.00463224 -0.00379313
internal_weight=4555.67 3300.65 994.127 804.766 2306.53 909.669 1396.86 478.748 1255.02 948.575 738.537 536.593 430.922 1109.97 868.558 600.857 488.472 413.185
internal_count=2511 1811 542 440 1269 497 772 260 700 527 412 294 237 615 481 333 274 229
is_linear=0
shrinkage=0.04


Tree=5
num_leaves=20
num_cat=0
split_feature=11 13 17 6 17 5 10 21 10 5 1 15 26 1 34 17 26 1 15
split_gain=5.75756 1.88386 2.23486 2.3069 1.99599 1.83628 2.83724 2.33656 1.9795 2.73489 2.3425 1.79416 2.06462 2.16094 1.76379 1.30484 1.29708 1.0125 0.619374
threshold=3.0500000000000003 1.9000000000000001 1.0000000180025095e-35 0.15480000000000002 0.15480000000000002 0.13395000000000004 3.7750000000000004 0.21110000000000004 3.9000000000000004 0.29285000000000005 1.1180500000000002 0.21110000000000004 0.22475000000000003 0.29285000000000005 2.5000000000000004 0.43650000000000005 0.23905000000000001 0.89445000000000008 0.8257500000000001
decision_type=2 2 2 2 2 2 2 2 2 2 2 2 2 2 2 2 2 2 2
left_child=11 2 14 4 -4 6 7 -6 9 16 -10 -1 13 -13 18 -15 17 -7 -2
right_child=1 -3 3 -5 5 8 -8 -9 10 -11 -12 12 -14 15 -16 -17 -18 -19 -20
leaf_value=-0.0053574323749566019 -0.0039383041754525406 0.0047153221875218974 0.0046342318174030055 0.0055874336258801343 0.00061690137087455784 0.00037955654224043964 -0.0015314669528773883 0.0064071771002811168 0.0051635319849964228 0.0021139785471229106 -0.001024159982572957 -0.0037207354909801651 -0.0044857478803881495 0.0026781851258543404 0.0016521621335073941 -0.0014644110825493546 -0.0057219642759367148 -0.0037257645576326622 -0.0011867057200624154
leaf_weight=234.38610064983368 233.59339356422424 205.05531167984009 217.16374015808105 191.74215376377106 189.4502249956131 193.64748537540436 216.01635658740997 271.02551567554474 190.19501388072968 238.42684662342072 201.70651912689209 215.57763373851776 265.31987822055817 310.53700113296509 254.69922125339508 200.01085937023163 186.68526756763458 190.85805320739746 297.69702875614166
leaf_count=132 130 112 118 105 104 106 118 148 104 130 111 121 148 173 139 112 102 105 165
internal_value=0.000128623 0.00100321 0.000755501 0.0013879 0.00100358 0.000583749 0.00225067 0.00402493 -0.000354777 -0.00148437 0.00197881 -0.00221009 -0.00146603 -0.000362651 -0.00108454 0.00105529 -0.00298639 -0.00165821 -0.00239651
internal_weight=4503.79 3277.96 3072.91 2286.92 2095.18 1878.01 676.492 460.476 1201.52 809.618 391.902 1225.83 991.445 726.125 785.99 510.548 571.191 384.506 531.29
internal_count=2483 1797 1685 1251 1146 1028 370 252 658 443 215 686 554 406 434 285 313 211 295
is_linear=0
shrinkage=0.04


Tree=6
num_leaves=19
num_cat=0
split_feature=25 13 18 32 10 32 28 28 25 26 4 23 25 7 16 10 0 16
split_gain=4.28335 2.8746 2.90612 2.40391 2.62321 2.02299 2.498 1.92064 2.55014 2.5258 1.66922 1.33818 1.09918 1.05234 1.14142 1.04424 0.853553 0.299175
threshold=4.5000000000000009 0.22500000000000003 0.70835000000000015 1.5441000000000003 3.9000000000000004 0.90910000000000013 3.6750000000000003 9.6117500000000025 7.5000000000000009 0.19755000000000003 0.58570000000000011 1.0000000180025095e-35 1.5000000000000002 0.70835000000000015 0.29165000000000002 3.7750000000000004 0.70835000000000015 0.29165000000000002
decision_type=2 2 2 2 2 2 2 2 2 2 2 2 2 2 2 2 2 2
left_child=1 -1 10 5 7 6 15 9 -9 -5 12 -11 -3 14 -14 -2 -15 -4
right_child=3 2 17 4 -6 -7 -8 8 -10 11 -12 -13 13 16 -16 -17 -18 -19
leaf_value=-0.004499508743071666 0.0055102597906660838 -0.0033000695944464236 0.0037270663235079273 -0.0055975242482083675 0.0035207522925713853 0.0065985852231195685 -0.0015804880741253442 -0.00080555917292489702 0.0049109589425838599 0.0019690058703976023 -0.0041996948541470173 -0.0020394616510069361 0.00065506105673422482 0.0031977096103955774 -0.0035581993849132082 0.0015543132658458855 -0.00034757831880176637 0.0014595352939813456
leaf_weight=354.07668673992157 231.73626732826233 207.68754696846008 184.82033061981201 201.88017785549164 331.848503947258 191.9734148979187 216.59554982185364 327.42408049106598 201.82147085666656 229.01723396778107 273.24292945861816 318.67233920097351 200.79466664791107 204.67347860336304 210.97547578811646 197.96686685085297 231.60680854320526 187.59132659435272
leaf_count=199 127 116 102 111 181 104 118 180 109 126 152 175 112 113 117 108 129 104
internal_value=0.000125909 -0.00122047 -0.000538066 0.00125596 0.000351856 0.00299313 0.00192218 -0.000470463 0.00137437 -0.00177303 -0.00141318 -0.000363315 -0.000691989 -5.32695e-05 -0.00150365 0.00368773 0.00131563 0.00258486
internal_weight=4504.41 2055.47 1701.39 2448.94 1610.66 838.272 646.299 1278.82 529.246 749.57 1328.98 547.69 1055.74 848.05 411.77 429.703 436.28 372.412
internal_count=2483 1144 945 1339 882 457 353 701 289 412 739 301 587 471 229 235 242 206
is_linear=0
shrinkage=0.04


Tree=7
num_leaves=20
num_cat=0
split_feature=12 34 13 13 26 26 4 5 23 16 5 5 13 14 4 2 4 4 4
split_gain=5.67302 1.85612 1.93805 2.56978 1.83007 3.60044 1.7808 1.50115 2.84476 2.38711 2.33568 1.86862 1.37573 1.35323 2.75402 0.926079 2.09561 1.28146 0.350158
threshold=3.1055500000000005 3.5000000000000004 0.77500000000000013 1.1000000000000003 0.22475000000000003 0.16500000000000001 0.61250000000000016 0.23610000000000003 0.10555000000000002 0.22500000000000003 0.31665000000000004 0.47220000000000006 0.90000000000000013 0.23610000000000003 0.21110000000000004 0.72080000000000011 0.58570000000000011 0.29285000000000005 0.41430000000000006
decision_type=2 2 2 2 2 2 2 2 2 2 2 2 2 2 2 2 2 2 2
left_child=4 7 6 12 5 13 -3 8 15 -10 -9 -12 -4 -1 -15 17 -17 -2 -16
right_child=1 2 3 -5 -6 -7 -8 10 9 -11 11 -13 -14 14 18 16 -18 -19 -20
leaf_value=-0.0055739112783711508 -0.0011722361447015358 0.0063894741620213425 0.0010280223477958496 0.0035120361458672532 -0.0048700769965386494 0.0037159445332340768 0.0013459753956527991 -0.0038915134021010708 0.00052229135363877932 0.0064805697638131892 0.0025316481828514073 -0.0024227171757459989 -0.0036994083195491891 -0.0053637508401847859 0.0017528256096516351 -0.0045719377463966232 0.0013320963971886948 0.0030849457846140915 -0.00073724381290537295
leaf_weight=179.15251195430756 222.56491386890411 268.16099238395691 206.78331053256989 342.23942589759827 306.80298542976379 183.21110534667969 192.36764740943909 298.02342689037323 198.1781017780304 235.34786903858185 307.21060347557068 201.82682013511658 188.07221531867981 198.62532782554626 179.49469494819641 196.18775427341461 188.71922779083252 230.08182299137115 181.94966793060303
leaf_count=102 123 144 112 187 172 102 104 165 108 128 169 112 103 112 100 108 104 126 102
internal_value=0.000123267 0.00099279 0.00224704 0.000975151 -0.0021939 -0.0013038 0.00428275 0.000269971 0.00112662 0.00375686 -0.0010792 0.000567306 -0.00122368 -0.00254792 -0.00157997 -0.00023482 -0.0016772 0.000991703 0.000499334
internal_weight=4505 3275.76 1197.62 737.095 1229.24 922.433 460.529 2078.14 1271.08 433.526 807.061 509.037 394.856 739.222 560.07 837.554 384.907 452.647 361.444
internal_count=2483 1793 650 402 690 518 248 1143 697 236 446 281 215 416 314 461 212 249 202
is_linear=0
shrinkage=0.04


Tree=8
num_leaves=19
num_cat=0
split_feature=12 25 2 12 2 14 27 27 25 13 32 22 8 7 32 17 16 20
split_gain=5.45589 2.26983 2.43103 2.72511 3.06206 2.01365 1.77294 3.45934 2.3515 1.64954 2.92118 1.45841 2.00688 1.40365 1.2973 1.04049 0.845957 0.0995684
threshold=3.1055500000000005 4.5000000000000009 0.61250000000000016 3.8819500000000002 1.1742500000000002 0.52780000000000016 0.22475000000000003 0.16500000000000001 1.5000000000000002 1.6333500000000003 1.4605500000000002 1.0000000180025095e-35 1.8166500000000003 0.90000000000000013 3.8035500000000004 0.47220000000000006 0.22500000000000003 0.45000000000000007
decision_type=2 2 2 2 2 2 2 2 2 2 2 2 2 2 2 2 2 2
left_child=6 9 -3 5 -5 -4 7 8 -1 10 13 14 -13 -2 -7 -10 17 -15
right_child=1 2 3 4 -6 11 -8 -9 15 -11 -12 12 -14 16 -16 -17 -18 -19
leaf_value=-0.0060073516052660762 -0.0050483724725201799 0.0049281641011568915 0.00326919048529137 0.00096604302166865123 0.0074003410294851283 -0.00055710933584121559 -0.0047968802061277415 0.0036284876563818318 0.00048163922586446826 0.0029054353687377149 0.0034380748455844733 0.0037661739173575457 -0.0017820126496087374 -0.001768703767166634 -0.0047165088779233264 -0.0031378636083540653 0.00036841243002714235 -0.0030860978371496589
leaf_weight=216.51175498962402 186.29717242717743 333.98441159725189 259.37418603897095 276.53147709369659 206.8680694103241 310.77933740615845 305.31246399879456 183.89317345619202 300.81025111675262 209.05757331848145 195.69566524028778 211.59913635253906 205.73628520965576 179.05787217617035 195.41948342323303 220.02267956733704 320.28747463226318 188.34957301616669
leaf_count=124 104 181 140 150 112 169 172 102 168 114 107 115 112 100 107 124 177 105
internal_value=0.000120661 0.000971969 0.00181342 0.00118912 0.00371956 0.000155044 -0.00215521 -0.00127972 -0.00250382 -0.000344279 -0.000979397 -0.000719563 0.00103105 -0.00196851 -0.00216286 -0.0010474 -0.00113418 -0.00244406
internal_weight=4505.59 3279.04 2000.29 1666.31 483.4 1182.91 1226.55 921.238 737.345 1278.75 1069.69 923.534 417.335 873.992 506.199 520.833 687.695 367.407
internal_count=2483 1793 1086 905 262 643 690 518 416 707 593 503 227 486 276 292 382 205
is_linear=0
shrinkage=0.04


Tree=9
num_leaves=18
num_cat=0
split_feature=12 13 6 14 5 26 30 30 19 26 26 14 14 4 34 30 4
split_gain=5.24696 1.7797 2.07362 1.98 2.50017 3.54095 2.41447 1.78433 1.86892 1.71738 3.32381 1.35531 1.28907 2.64551 1.16334 1.19279 0.329781
threshold=3.1055500000000005 1.9000000000000001 0.15480000000000002 0.88195000000000012 0.13395000000000004 0.15190000000000001 3.3238500000000006 1.6123000000000003 0.26785000000000009 0.22475000000000003 0.16500000000000001 1.1339500000000002 0.23610000000000003 0.21110000000000004 2.7000000000000006 1.8953500000000003 0.41430000000000006
decision_type=2 2 2 2 2 2 2 2 2 2 2 2 2 2 2 2 2
left_child=9 2 3 4 5 -2 7 8 -5 10 12 -10 -1 -14 -6 -16 -15
right_child=1 -3 -4 6 14 -7 -8 -9 11 -11 -12 -13 13 16 15 -17 -18
leaf_value=-0.0054308298672089373 0.00028850827734892457 0.0045465541376802131 0.0039460625123651427 -0.0035078691184013185 -0.0015856458740687309 0.0071573072683165963 0.002281573359868993 -0.0043349793914765943 -0.0011741275911000934 -0.0047244342357655794 0.0035434019785039578 0.002863096398945459 -0.0052447951301732602 0.0017325303211031865 0.0036948838566676174 -0.00011257267637665807 -0.0006850659039555686
leaf_weight=177.37643766403198 236.2057774066925 206.47304129600525 287.28059279918671 247.01105809211731 352.34064757823944 244.25700497627258 334.16142857074738 283.35119640827179 286.79535448551178 303.85142409801483 184.56164002418518 248.16834497451782 197.00905954837799 179.66337859630585 213.9373744726181 342.26393175125122 181.45464444160461
leaf_count=102 130 112 157 137 195 131 182 155 158 172 102 136 112 100 115 185 102
internal_value=0.000118114 0.000951604 0.00071028 0.000376918 0.00144681 0.00378046 -0.000684961 -0.00161548 -0.000630055 -0.0021171 -0.00125603 0.000698731 -0.00246037 -0.00151634 0.000212711 0.00135193 0.000517736
internal_weight=4506.16 3282.25 3075.77 2788.49 1389 480.463 1399.49 1065.33 781.975 1223.92 920.065 534.964 735.504 558.127 908.542 556.201 361.118
internal_count=2483 1793 1681 1524 756 261 768 586 431 690 518 294 416 314 495 300 202
is_linear=0
shrinkage=0.04


Tree=10
num_leaves=18
num_cat=0
split_feature=11 6 25 13 12 12 1 10 18 11 0 32 34 17 11 21 10
split_gain=6.13004 2.75481 2.01356 2.08281 3.25322 2.3977 1.79056 1.45028 1.4064 2.90417 1.42003 1.24244 1.19378 1.01473 1.00199 0.705017 0.144509
threshold=3.1055500000000005 0.15480000000000002 3.5000000000000004 0.70835000000000015 3.6125000000000003 3.8819500000000002 0.58570000000000011 3.9000000000000004 1.0000000180025095e-35 2.3541500000000002 0.90000000000000013 4.2916000000000016 3.1000000000000005 0.38750000000000007 3.8452000000000006 0.31665000000000004 2.5500000000000003
decision_type=2 2 2 2 2 2 2 2 2 2 2 2 2 2 2 2 2
left_child=8 2 7 4 -4 6 -5 -2 16 -10 13 12 -8 -11 -6 -9 -1
right_child=1 -3 3 5 14 -7 11 15 9 10 -12 -13 -14 -15 -16 -17 -18
leaf_value=0.00032006465366820859 -0.0031020199285789439 0.0045794876198835552 0.0057181111264031489 0.0025398354845678462 -0.0016710494875282539 0.0031823276658794514 -0.0028853859622772096 -0.0010767032345904031 -0.0071834548588791862 0.0017387449704138081 -0.0046175681031274934 -0.0036380261063012689 0.0010156979531926922 -0.0024441850159192522 0.0024341910851282201 0.0018033668010444515 -0.0011594246843780072
leaf_weight=196.20009326934814 326.941814661026 310.92873954772949 361.19819414615631 230.32374918460846 186.89161288738251 364.49252903461456 193.19088923931122 291.69558191299438 223.97551846504211 185.16669368743896 188.90393996238708 276.11053359508514 358.25281691551208 186.00136351585388 193.74279630184174 254.76791179180145 228.82821202278137
leaf_count=112 181 169 194 125 101 198 106 162 127 103 107 151 195 104 104 141 130
internal_value=0.000111957 0.000993457 0.000626391 0.00128063 0.00299889 0.000384477 -0.000579525 -0.000994738 -0.00232936 -0.0033338 -0.00179431 -0.0014477 -0.000350994 -0.000357423 0.000418517 0.00026602 -0.000476468
internal_weight=4557.61 3348.54 3037.61 2164.2 741.833 1422.37 1057.88 873.405 1209.08 784.048 560.072 827.554 551.444 371.168 380.634 546.463 425.028
internal_count=2510 1827 1658 1174 399 775 577 484 683 441 314 452 301 207 205 303 242
is_linear=0
shrinkage=0.04


Tree=11
num_leaves=19
num_cat=0
split_feature=11 34 13 14 26 14 8 0 30 7 26 4 13 23 26 26 11 7
split_gain=5.89627 2.41855 2.75569 2.62711 3.22572 2.27861 2.1298 2.25087 1.79959 1.51795 3.07404 1.63484 1.26353 1.09366 0.80929 0.576882 0.896846 0.823235
threshold=3.1055500000000005 3.1000000000000005 0.77500000000000013 1.1339500000000002 0.25510000000000005 1.3541500000000002 0.76390000000000013 0.90000000000000013 3.2563500000000007 1.2250000000000003 0.064750000000000016 0.21110000000000004 1.2916500000000002 0.13395000000000004 0.20415000000000003 0.14905000000000004 3.8944500000000004 2.1000000000000005
decision_type=2 2 2 2 2 2 2 2 2 2 2 2 2 2 2 2 2 2
left_child=9 6 8 4 -4 -5 -2 13 -3 11 -11 -1 15 -8 -13 16 -9 -18
right_child=1 2 3 5 -6 -7 7 12 -10 10 -12 14 -14 -15 -16 -17 17 -19
leaf_value=-0.003500807185544207 -0.002749825293877088 0.0026843757251106123 -0.0034127344775457757 0.0063424630000336723 0.00314315990596503 0.00021645147250303883 0.0051447255413487837 -0.0033583880579091873 0.0073602845818658462 -0.00078365783377943015 -0.0080951031750768464 -0.0013353628129604866 0.0025172735791170382 0.0011508735845928081 0.0019007019811723947 0.0010026012471468049 -0.0021951349171361765 0.0013535443328281215
leaf_weight=337.35459649562836 359.94792032241821 370.76807773113251 333.11697506904602 195.3760359287262 187.77243280410767 193.2284038066864 212.73075449466705 261.73848569393158 204.23383593559265 184.48874700069427 183.54378652572632 278.49666559696198 203.74710762500763 226.51257526874542 222.38442409038544 184.03132128715515 203.75501012802124 214.92243802547455
leaf_count=193 199 197 181 106 102 105 116 145 109 105 104 156 111 123 125 100 114 119
internal_value=0.000109605 0.000972647 0.00217774 0.000807426 -0.00104944 0.00329639 1.46461e-05 0.00067475 0.0043452 -0.00228855 -0.00442999 -0.00134833 -0.000316408 0.00308514 0.000101406 -0.000984296 -0.00152169 -0.000373468
internal_weight=4558.15 3351.88 1484.5 909.494 520.889 388.604 1867.39 1507.44 575.002 1206.27 368.033 838.236 1068.19 439.243 500.881 864.447 680.416 418.677
internal_count=2510 1827 800 494 283 211 1027 828 306 683 209 474 589 239 281 478 378 233
is_linear=0
shrinkage=0.04


Tree=12
num_leaves=20
num_cat=0
split_feature=11 6 22 23 10 34 23 11 21 14 15 33 7 26 4 25 10 25 18
split_gain=5.67125 2.61764 1.92067 3.18949 1.97778 1.90861 2.37392 1.79457 2.01354 1.8152 1.77296 1.60246 1.47029 2.9932 1.57809 1.23523 1.23431 0.810525 0.0427358
threshold=3.1055500000000005 0.15480000000000002 1.0000000180025095e-35 0.13395000000000004 3.4500000000000006 2.5000000000000004 1.0000000180025095e-35 3.8660500000000004 0.70715000000000006 0.89445000000000008 0.60770000000000002 3.6620500000000002 1.2250000000000003 0.064750000000000016 0.21110000000000004 4.5000000000000009 3.9000000000000004 3.5000000000000004 0.29165000000000002
decision_type=2 2 2 2 2 2 2 2 2 2 2 2 2 2 2 2 2 2 2
left_child=12 2 5 -4 -5 15 10 9 -9 -6 -7 -12 14 -14 -1 16 -2 -16 -18
right_child=1 -3 3 4 7 6 -8 8 -10 -11 11 -13 13 -15 17 -17 18 -19 -20
leaf_value=-0.0034434244892882614 -0.004417568257747125 0.0044369820591716206 0.0065847854066114998 0.004424730192085718 0.00087259428338879092 0.0051891210449372697 -0.0023739697911511529 0.0049998611228182898 -0.00068073247970202601 -0.004504631726677164 0.0027578352018149421 -0.0019484935959647848 -0.00076869986027871748 -0.0079994507826691794 -0.0019072724519636343 0.0011686236669397349 -0.00056913046305880728 0.0013895060284984297 -0.0013834013970556456
leaf_weight=336.17564606666565 277.09719395637512 312.7521276473999 190.56118977069855 207.50866568088531 198.68821024894714 220.33699929714203 242.43197059631348 185.01184225082397 216.86229860782623 203.14112901687622 286.45635175704956 194.2515115737915 184.34422898292542 182.06397879123688 196.03322720527649 207.30280375480652 211.46161603927612 304.89930737018585 201.29858434200287
leaf_count=193 155 169 102 112 108 117 131 100 118 111 155 106 105 104 111 113 118 170 112
internal_value=0.000107286 0.000952271 0.000594052 0.00183785 0.0009433 -0.00021804 0.001038 4.44275e-05 0.00193446 -0.00184581 0.00221791 0.000856033 -0.00224836 -0.00436158 -0.0013234 -0.00153893 -0.00235255 9.9356e-05 -0.000966241
internal_weight=4558.68 3355.16 3042.41 1201.77 1011.21 1840.64 943.477 803.703 401.874 401.829 701.045 480.708 1203.52 366.408 837.108 897.16 689.857 500.933 412.76
internal_count=2510 1827 1658 651 549 1007 509 437 218 219 378 261 683 209 474 498 385 281 230
is_linear=0
shrinkage=0.04


Tree=13
num_leaves=19
num_cat=0
split_feature=11 6 30 30 29 34 24 26 14 14 25 7 26 4 18 26 20 18
split_gain=5.45468 2.49958 1.8446 4.01336 2.34051 2.28082 2.23501 1.63692 1.77596 1.69701 1.98507 1.42393 2.91395 1.53136 3.45117 1.38305 1.0776 1.04682
threshold=3.1055500000000005 0.15480000000000002 4.7302000000000008 3.3238500000000006 11.940000000000003 3.1000000000000005 1.0000000180025095e-35 0.30215000000000009 1.4365000000000003 0.88195000000000012 7.5000000000000009 1.2250000000000003 0.064750000000000016 0.38750000000000007 1.0000000180025095e-35 0.15690000000000001 0.29165000000000002 0.36665000000000009
decision_type=2 2 2 2 2 2 2 2 2 2 2 2 2 2 2 2 2 2
left_child=11 2 3 4 6 -5 -2 8 9 10 17 13 -13 14 -1 16 -11 -8
right_child=1 -3 -4 5 -6 -7 7 -9 -10 15 -12 12 -14 -15 -16 -17 -18 -19
leaf_value=0.00024884336370700711 0.0036417567996950883 0.0043294004906676668 -0.0024676079311999307 0.0010252569888286791 0.0044903640785577742 0.0066453818381240898 -0.0037198714825479738 0.0025343261668595691 0.001848087866823455 -0.0037577983669820287 0.0026852378421337755 -0.00075401613697006987 -0.0079041650029699068 0.0011524100832654791 -0.006076525874724896 -0.0056707572484366421 0.00039767105138707379 -7.2993461622449017e-05
leaf_weight=318.21393609046936 219.52618134021759 314.14288640022278 287.42562997341156 201.06594491004944 187.23995661735535 271.60798072814941 235.38826465606689 230.3804042339325 278.19358539581299 208.62291061878204 234.16035985946655 184.20257723331451 180.61337637901306 274.07921254634857 243.70984947681427 228.28709828853607 191.50012648105621 270.83813107013702
leaf_count=182 120 169 156 109 101 145 130 124 151 117 125 105 104 154 138 125 106 149
internal_value=0.00010501 0.000932332 0.000581779 0.000899709 0.000205436 0.00425469 -0.000177181 -0.00062374 -0.00106549 -0.00165764 -0.000360092 -0.00220879 -0.00429392 -0.00129889 -0.00249451 -0.00318641 -0.00176898 -0.00176874
internal_weight=4559.2 3358.38 3044.24 2756.81 2284.14 472.674 2096.9 1877.37 1646.99 1368.8 740.387 1200.82 364.816 836.003 561.924 628.41 400.123 506.226
internal_count=2510 1827 1658 1502 1248 254 1147 1027 903 752 404 683 209 474 320 348 223 279
is_linear=0
shrinkage=0.04


Tree=14
num_leaves=20
num_cat=0
split_feature=11 25 13 12 19 12 25 15 14 32 17 10 7 27 4 27 25 0 7
split_gain=5.24639 2.31154 2.05293 3.34842 4.29498 2.69412 1.57371 1.53889 3.54092 2.39589 1.5982 1.38899 1.3788 2.83629 1.51655 1.18614 0.781353 0.698371 0.678248
threshold=3.1055500000000005 3.5000000000000004 0.70835000000000015 3.8819500000000002 0.58570000000000011 3.6125000000000003 7.5000000000000009 1.1339500000000002 1.2928500000000003 2.0384500000000005 0.35415000000000002 4.2916500000000015 1.2250000000000003 0.064750000000000016 0.21110000000000004 0.22475000000000003 3.5000000000000004 0.90000000000000013 1.9000000000000001
decision_type=2 2 2 2 2 2 2 2 2 2 2 2 2 2 2 2 2 2 2
left_child=12 11 5 7 -5 15 -7 9 -9 -4 -11 17 14 -14 -1 -3 -16 -2 -19
right_child=1 2 3 4 -6 6 -8 8 -10 10 -12 -13 13 -15 16 -17 -18 18 -20
leaf_value=-0.0033600963267531939 -0.0029838509673496671 0.007694032347709945 0.0010335830775782535 1.6532864238614091e-05 0.0080098471274616043 -0.0013526395595820015 0.0033799335249715848 0.0049603070072817296 -0.0020884824272870621 -0.0064066388466911626 -0.0011568253043958922 0.0022281507310043238 -0.00073960182667822175 -0.0078092624915877496 -0.0018553800510115826 0.0033264302449306578 0.0013842142739779182 0.0012255693590627755 -0.001898856694845498
leaf_weight=334.47823631763458 310.43460929393768 203.21187603473663 292.86507189273834 233.40104949474335 199.47434020042419 222.57309722900391 227.16178953647614 222.36796736717224 234.03749406337738 187.26628923416138 183.8924446105957 199.17106103897095 184.06373906135559 179.19140589237213 195.46833193302155 194.9129239320755 304.97524082660675 199.15613210201263 251.60656118392944
leaf_count=193 172 108 159 126 107 120 120 121 127 103 100 110 105 104 111 103 170 111 140
internal_value=0.000102771 0.000912825 0.00157619 0.000712075 0.00369995 0.00315927 0.00103779 -0.000442284 0.0013458 -0.00167129 -0.00380559 -0.000745748 -0.00216987 -0.00422702 -0.00127485 0.00555575 0.000118861 -0.00152388 -0.000518422
internal_weight=4559.71 3361.53 2401.16 1553.3 432.875 847.86 449.735 1120.43 456.405 664.024 371.159 960.368 1198.18 363.255 834.922 398.125 500.444 761.197 450.763
internal_count=2510 1827 1294 843 233 451 240 610 248 362 203 533 683 209 474 211 281 423 251
is_linear=0
shrinkage=0.04


Tree=15
num_leaves=18
num_cat=0
split_feature=12 6 14 25 33 14 28 26 11 14 14 30 17 33 7 7 22
split_gain=5.38548 3.51686 2.5217 2.25905 2.58205 3.00212 2.67623 2.38116 1.92036 1.9272 1.07109 1.27777 1.02509 1.01661 0.811027 1.34913 1.09978
threshold=3.1055500000000005 0.15480000000000002 0.15480000000000002 4.5000000000000009 1.5441000000000003 0.88195000000000012 10.254800000000001 0.19755000000000003 2.3541500000000002 0.64585000000000015 0.89445000000000008 2.7710500000000002 0.47220000000000006 1.8643000000000003 1.2250000000000003 0.70835000000000015 0.22500000000000003
decision_type=2 2 2 2 2 2 2 2 2 2 2 2 2 2 2 2 2
left_child=2 3 -1 12 5 -5 10 -8 -4 -10 -6 -12 14 -11 15 -2 -16
right_child=1 -3 8 4 6 -7 7 -9 9 13 11 -13 -14 -15 16 -17 -18
leaf_value=-0.0062252424022573617 -0.0010168752261740998 0.0049310699313343921 -0.0041705063576598315 0.0060805302029049426 0.00028930563071970548 0.00050514239076106292 0.0051455701642350738 -0.00031172938272573154 0.0023857446115923119 -0.0033117216094368093 -0.0051414834685888158 -0.00042225233621747917 -0.0027879523119818121 0.00052489153618800208 -0.0032464508804988246 0.0037134582396899513 0.00068915388063916724
leaf_weight=205.30613946914673 205.87336504459381 316.19938552379608 282.93039321899414 329.94214403629303 369.18097519874573 290.6440896987915 267.10403144359589 245.5031646490097 271.47096061706543 290.0005863904953 182.04136550426483 185.17413663864136 325.61348581314087 178.53373420238495 228.68200361728668 181.53384685516357 225.76256430149078
leaf_count=120 115 169 163 174 198 157 143 132 153 165 100 101 180 101 128 100 124
internal_value=8.64017e-05 0.0009164 -0.0021796 0.000498417 0.00136049 0.00346936 0.000312669 0.0025319 -0.00136763 -0.000295984 -0.00123214 -0.00276174 -0.000882119 -0.00184979 -0.000144977 0.0011997 -0.00129129
internal_weight=4581.5 3353.25 1228.24 3037.06 1869.59 620.586 1249 512.607 1022.94 740.005 736.396 367.216 1167.47 468.534 841.852 387.407 454.445
internal_count=2523 1821 702 1652 1005 331 674 275 582 419 399 201 647 266 467 215 252
is_linear=0
shrinkage=0.04


Tree=16
num_leaves=18
num_cat=0
split_feature=12 6 14 25 32 15 28 26 11 14 14 30 16 32 7 7 23
split_gain=5.17981 3.35694 2.44658 2.16795 2.46759 2.85526 2.56672 2.27049 1.85572 1.85097 1.03286 1.23791 0.988543 0.981217 0.779302 1.29096 1.06065
threshold=3.1055500000000005 0.15480000000000002 0.15480000000000002 4.5000000000000009 1.5441000000000003 0.88195000000000012 10.254800000000001 0.19755000000000003 2.3541500000000002 0.64585000000000015 0.89445000000000008 2.7710500000000002 0.45000000000000007 1.8643000000000003 1.2250000000000003 0.70835000000000015 0.23610000000000003
decision_type=2 2 2 2 2 2 2 2 2 2 2 2 2 2 2 2 2
left_child=2 3 -1 12 5 -5 10 -8 -4 -10 -6 -12 14 -11 15 -2 -16
right_child=1 -3 8 4 6 -7 7 -9 9 13 11 -13 -14 -15 16 -17 -18
leaf_value=-0.0061400765631530255 -0.00099770091691366415 0.00480910750147756 -0.0041049223235379764 0.005923493418109326 0.00028347611756984493 0.00049464207659534714 0.0050172151274801048 -0.00030563356550579674 0.0023327271434897337 -0.0032568160332041465 -0.0050655960505788427 -0.00041404141953419848 -0.0027402803649836959 0.00051419271835810999 -0.0031924170811455533 0.0036260691416792543 0.00067499486987564617
leaf_weight=204.03202962875366 205.66412377357483 317.7624374628067 281.75288546085358 331.95142340660095 369.28779685497284 290.79399907588959 268.48197638988495 245.4266471862793 272.11939477920532 289.04177618026733 181.10780477523804 185.09596240520477 324.706955909729 178.62746894359589 227.940802693367 182.20921850204468 225.91820311546326
leaf_count=120 115 169 163 174 198 157 143 132 153 165 100 101 180 101 128 100 124
internal_value=8.45533e-05 0.000897252 -0.0021411 0.000488167 0.00133152 0.00338846 0.000306266 0.00247519 -0.00134238 -0.000290254 -0.00120922 -0.00271449 -0.000865424 -0.00181647 -0.000142179 0.00117438 -0.00126733
internal_weight=4581.92 3356.35 1225.57 3038.58 1872.15 622.745 1249.4 513.909 1021.54 739.789 735.492 366.204 1166.44 467.669 841.732 387.873 453.859
internal_count=2523 1821 702 1652 1005 331 674 275 582 419 399 201 647 266 467 215 252
is_linear=0
shrinkage=0.04


Tree=17
num_leaves=19
num_cat=0
split_feature=11 25 15 32 34 22 13 18 15 2 10 19 28 11 4 2 18 10
split_gain=4.79941 3.93695 2.93376 2.86435 2.07523 2.03501 2.00318 2.35545 1.82552 1.93319 2.38054 1.77915 1.43523 1.32757 1.00414 0.910884 0.753249 0.197735
threshold=2.3541500000000002 4.5000000000000009 1.3166500000000003 1.5441000000000003 2.9000000000000004 1.0000000180025095e-35 0.22500000000000003 0.63335000000000008 1.1339500000000002 1.1548000000000003 3.5500000000000003 0.18335000000000004 3.4483500000000005 3.2678500000000006 0.58570000000000011 0.90455000000000008 0.22500000000000003 3.6333500000000005
decision_type=2 2 2 2 2 2 2 2 2 2 2 2 2 2 2 2 2 2
left_child=11 4 3 5 6 12 -2 14 9 10 13 -1 -3 -5 16 -12 17 -8
right_child=1 2 -4 8 -6 -7 7 -9 -10 -11 15 -13 -14 -15 -16 -17 -18 -19
leaf_value=-0.0012841093372205307 -0.0050184747525064488 0.0047996862175378324 -0.002086520492269631 -0.0002412281266213619 0.0019704252500303988 0.0066602367404821686 -0.0032160457609424378 0.0018219195193032603 0.0047249279820341461 0.003290144623609016 -0.00099763694917030668 -0.006798725528721121 5.7598113908648545e-05 0.004099414197831993 -0.0045681344561033952 -0.0046432601092456696 0.00029733506857677878 -0.0014856754091814005
leaf_weight=174.38759768009186 229.0343109369278 194.6227490901947 312.76558911800385 273.16021370887756 320.60328495502472 297.09336137771606 221.05598676204681 352.31188213825226 183.82696759700775 290.23618590831757 260.7897082567215 202.07143616676331 214.84854233264923 191.96399974822998 196.1389673948288 189.22281384468079 275.78342914581299 202.4188324213028
leaf_count=102 131 104 170 151 177 158 126 195 100 156 140 118 114 103 110 102 153 113
internal_value=8.27469e-05 0.000470041 0.00152723 0.00206653 -0.000946639 0.00414005 -0.00157994 -0.000948747 0.00101191 0.000445655 -0.000456476 -0.00424418 0.00231152 0.00155022 -0.00203892 -0.00253056 -0.00132949 -0.00238894
internal_weight=4582.34 4205.88 2408.53 2095.76 1797.35 706.565 1476.74 1247.71 1389.2 1205.37 915.137 376.459 409.471 465.124 895.397 450.013 699.258 423.475
internal_count=2523 2303 1298 1128 1005 376 828 697 752 652 496 220 218 254 502 242 392 239
is_linear=0
shrinkage=0.04


Tree=18
num_leaves=18
num_cat=0
split_feature=12 6 14 25 32 14 28 26 11 14 17 16 14 7 7 23 32
split_gain=4.85227 3.16294 2.3338 1.9915 2.26258 2.67127 2.45872 2.15774 1.71776 1.77147 1.01987 0.958686 0.776668 0.755724 1.23001 1.00946 0.703048
threshold=3.1055500000000005 0.15480000000000002 0.15480000000000002 4.5000000000000009 1.5441000000000003 0.88195000000000012 10.254800000000001 0.19755000000000003 2.3541500000000002 0.70715000000000006 0.38750000000000007 0.45000000000000007 0.89445000000000008 1.2250000000000003 0.70835000000000015 0.23610000000000003 1.5441000000000003
decision_type=2 2 2 2 2 2 2 2 2 2 2 2 2 2 2 2 2
left_child=2 3 -1 11 5 -5 10 -8 -4 -10 12 13 -6 14 -2 -15 -11
right_child=1 -3 8 4 6 -7 7 -9 9 16 -12 -13 -14 15 -16 -17 -18
leaf_value=-0.0060056538654792817 -0.00094978240071389775 0.0046493330672211638 -0.0039720144216829935 0.0056703322228429387 -0.00061046603846130396 0.00043543339286990711 0.0048758177818419889 -0.00030610822903109967 0.0019701743656099589 -0.0034048059491694959 0.0007389974201977307 -0.0026820261356661924 -0.0038982734689917064 -0.0031145581706578732 0.003563006028188178 0.00066216195128120288 -0.00011131443400805961
leaf_weight=202.05288302898407 205.14306914806366 319.8336181640625 279.39644575119019 335.24264478683472 218.14843034744263 291.64220106601715 270.01648926734924 245.43260324001312 316.94288861751556 240.60360383987427 273.75438749790192 323.60602343082428 243.02951943874359 226.8811936378479 182.69971811771393 226.059450507164 182.25912225246429
leaf_count=120 115 169 163 174 117 157 143 132 178 138 148 180 134 128 100 124 103
internal_value=8.09692e-05 0.000865495 -0.00207843 0.00046762 0.00127371 0.00323493 0.000290438 0.00240843 -0.00129987 -0.000290703 -0.00119503 -0.000831979 -0.00234306 -0.000119921 0.00117604 -0.00122962 -0.00198527
internal_weight=4582.74 3361.49 1221.25 3041.66 1877.27 626.885 1250.38 515.449 1019.2 739.806 734.932 1164.39 461.178 840.783 387.843 452.941 422.863
internal_count=2523 1821 702 1652 1005 331 674 275 582 419 399 647 251 467 215 252 241
is_linear=0
shrinkage=0.04


Tree=19
num_leaves=18
num_cat=0
split_feature=12 6 14 24 13 32 20 11 14 19 34 26 1 8 8 32 5
split_gain=4.66676 3.02023 2.2634 1.83429 2.31698 2.3653 2.01728 1.6595 1.70264 1.4192 1.67295 1.48745 1.35646 1.78237 1.52752 0.914375 0.62468
threshold=3.1055500000000005 0.15480000000000002 0.15480000000000002 1.0000000180025095e-35 0.63335000000000008 1.0869500000000001 0.55000000000000016 2.3541500000000002 0.64585000000000015 0.58570000000000011 4.1000000000000005 0.14550000000000005 0.95000000000000007 0.76390000000000013 1.1833500000000001 1.8643000000000003 0.15480000000000002
decision_type=2 2 2 2 2 2 2 2 2 2 2 2 2 2 2 2 2
left_child=2 3 -1 -2 5 16 -7 -4 -9 10 12 -11 13 -6 -15 -10 -5
right_child=1 -3 7 4 9 6 -8 8 15 11 -12 -13 -14 14 -16 -17 -18
leaf_value=-0.0059221785122810797 0.0032124041884135906 0.0045356296050540089 -0.0039087681601433335 0.001022242238667847 -0.0020083640541966189 0.0054094129427576963 0.00028798798577118887 0.0022203366228377521 -0.0031531969617336533 -0.0008743021332694393 -0.0042646527128998224 0.0035043325290458911 -0.0027863509308681377 0.0046278509429363004 -0.00035650501796879536 0.00049010940677352401 -0.0022274208842118001
leaf_weight=200.84305965900421 343.21645975112915 321.32409477233887 278.28887856006622 183.85825622081757 300.19521450996399 329.20735991001129 196.51239907741547 273.50428938865662 287.24944317340851 278.05410504341125 264.12356913089752 224.2407249212265 334.95224559307098 192.72178769111633 200.954460978508 178.83883130550385 195.05566370487213
leaf_count=120 186 169 163 100 167 173 104 153 165 152 144 121 185 104 109 101 107
internal_value=7.92436e-05 0.000847461 -0.0020415 0.000458022 0.000107877 0.0017586 0.00349504 -0.00127579 -0.000285065 -0.000723932 -0.00142492 0.00108046 -0.000695891 0.000313235 0.00208356 -0.00175525 -0.000650605
internal_weight=4583.14 3364.42 1218.72 3043.09 2699.88 904.634 525.72 1017.88 739.593 1795.24 1292.95 502.295 1028.82 693.871 393.676 466.088 378.914
internal_count=2523 1821 702 1652 1466 484 277 582 419 982 709 273 565 380 213 266 207
is_linear=0
shrinkage=0.04


Tree=20
num_leaves=17
num_cat=0
split_feature=25 2 34 11 21 34 30 9 14 11 34 28 7 9 0 11
split_gain=5.24155 3.39451 4.00227 2.75444 2.36445 2.0291 2.75596 2.12999 1.83823 1.57033 1.19877 0.767421 1.02716 2.21478 1.54297 0.75611
threshold=7.5000000000000009 1.0954500000000003 6.1000000000000005 2.2928500000000001 0.35415000000000002 3.1000000000000005 3.2082500000000005 1.4226500000000002 0.13395000000000004 4.1833500000000008 3.7000000000000006 13.307150000000002 1.4500000000000002 1.8257500000000002 0.45000000000000007 3.3875000000000006
decision_type=2 2 2 2 2 2 2 2 2 2 2 2 2 2 2 2
left_child=3 2 4 -1 -2 8 7 10 -5 11 -7 12 14 -14 -10 -16
right_child=1 -3 -4 5 -6 6 -8 -9 9 -11 -12 -13 13 -15 15 -17
leaf_value=-0.0044302038041080178 0.0056049123884265263 0.006004361410434274 -0.0033326197338358976 -0.0043832460820604881 0.00051369859780267513 0.0036855985119356787 0.0042275478953684963 -0.0028318751096205481 0.00043992583774916781 0.0021201368832775413 -0.00063971881641329347 -0.0033270147088390574 0.004167380423279598 -0.0013099083851237519 -0.0047946681843460421 -0.0017475212210298771
leaf_weight=298.05857062339783 266.99832534790039 303.07981514930725 237.13321816921234 242.89145267009735 321.92984044551849 210.62456107139587 307.16916084289551 305.31595325469971 348.71113252639771 272.93136322498322 199.75349879264832 224.95830893516541 181.43388342857361 338.48054111003876 217.66910350322723 324.57691562175751
leaf_count=178 143 159 128 140 173 114 166 166 197 149 108 123 100 188 122 180
internal_value=1.613e-05 0.00238358 0.00105513 -0.000753671 0.00282187 -0.000408477 0.00105825 -0.00030198 -0.00110574 -0.000688672 0.00158023 -0.00115731 -0.000811359 0.000601494 -0.00163582 -0.00297071
internal_weight=4601.72 1129.14 826.061 3472.57 588.928 3174.52 1022.86 715.694 2151.65 1908.76 410.378 1635.83 1410.87 519.914 890.957 542.246
internal_count=2534 603 444 1931 316 1753 554 388 1199 1059 222 910 787 288 499 302
is_linear=0
shrinkage=0.04


Tree=21
num_leaves=20
num_cat=0
split_feature=25 2 11 30 28 26 26 26 4 28 8 14 10 32 4 7 8 1 16
split_gain=5.02677 3.23003 2.66107 2.58215 2.63528 1.81221 1.47538 3.12333 2.08656 2.19703 1.87556 1.76386 1.50053 1.14257 1.27437 0.984271 0.878672 0.82583 0.714733
threshold=7.5000000000000009 1.0954500000000003 2.2928500000000001 1.0869500000000001 9.7305500000000009 0.21845000000000003 0.14905000000000004 0.22475000000000003 0.61250000000000016 5.6761500000000007 1.1339500000000002 0.13395000000000004 3.9000000000000004 1.5441000000000003 0.56350000000000011 2.2250000000000005 0.95000000000000007 0.78890000000000016 0.22500000000000003
decision_type=2 2 2 2 2 2 2 2 2 2 2 2 2 2 2 2 2 2 2
left_child=2 3 -1 -2 5 -5 11 10 9 -9 -8 -4 13 14 16 17 -13 -14 -11
right_child=1 -3 6 4 -6 -7 7 8 -10 18 -12 12 15 -15 -16 -17 -18 -19 -20
leaf_value=-0.0043616798450477447 0.0048822181966399108 0.0058495073068002001 -0.0042720029136356667 -0.0050026995623095949 0.0035632227089807721 0.00027752516134568392 0.0064122210430578594 0.0015982918552074057 0.0026667041949929196 -0.0020270099841030267 0.0011409645662592771 -0.001419553169925037 0.0018196414984236917 -0.0039279772281078824 -0.0035726916051855842 0.003134753427641006 0.0016821782377136605 -0.0016674098434844963 -0.0053788127614006155
leaf_weight=296.74102962017059 208.52166342735291 304.90508925914764 243.72396039962769 185.72460544109344 196.35769402980804 236.33458256721497 187.24572479724884 184.51470589637756 204.17116045951843 208.56224000453949 255.18491065502167 294.9491218328476 188.16537833213806 251.01291680335999 201.3416166305542 208.71229803562164 289.61842632293701 257.19935142993927 198.83187103271484
leaf_count=178 111 159 141 101 104 128 101 100 110 114 139 168 104 138 112 113 161 142 110
internal_value=1.56863e-05 0.00233047 -0.000739353 0.00103294 -0.000264982 -0.00204601 -0.000400616 0.000677389 -0.000820099 -0.00202283 0.00337187 -0.0010907 -0.000632178 -0.00157853 -0.000828133 0.000868091 0.00011717 -0.00019414 -0.00366288
internal_weight=4601.82 1131.84 3469.97 826.939 618.417 422.059 3173.23 1238.51 796.08 591.909 442.431 1934.72 1691 1036.92 785.909 654.077 584.568 445.365 407.394
internal_count=2534 603 1931 444 333 229 1753 674 434 324 240 1079 938 579 441 359 329 246 224
is_linear=0
shrinkage=0.04


Tree=22
num_leaves=18
num_cat=0
split_feature=25 2 34 11 21 34 30 8 14 11 34 28 7 8 1 13 21
split_gain=4.82099 3.07427 3.8177 2.57063 2.2463 1.89997 2.64164 2.04086 1.71633 1.47253 1.15525 0.720492 0.980016 2.13269 1.40018 0.506579 1.47626
threshold=7.5000000000000009 1.0954500000000003 6.1000000000000005 2.2928500000000001 0.35415000000000002 3.1000000000000005 3.2082500000000005 1.4143000000000001 0.13395000000000004 4.1833500000000008 3.7000000000000006 13.307150000000002 1.4500000000000002 1.8166500000000003 0.47220000000000006 0.77500000000000013 0.15480000000000002
decision_type=2 2 2 2 2 2 2 2 2 2 2 2 2 2 2 2 2
left_child=3 2 4 -1 -2 8 7 10 -5 11 -7 12 14 -14 -10 -16 -17
right_child=1 -3 -4 5 -6 6 -8 -9 9 -11 -12 -13 13 -15 15 16 -18
leaf_value=-0.0042939186170185273 0.005428969940615625 0.0056995383551689763 -0.0032846706711839985 -0.0042509058632473912 0.0004779411248560366 0.0035893642780350384 0.004118287887962163 -0.0027909341214768101 0.00047959635687572287 0.0020472144457595459 -0.00065179840108713538 -0.003231472539209931 0.0040813414117799977 -0.0012883065596171297 -0.0011457810628953825 -0.0061722278421570175 -0.0011063627829785241
leaf_weight=295.44955813884735 268.8556569814682 306.69386124610901 236.44738245010376 240.83257043361664 322.49575114250183 211.48881936073303 308.5686149597168 304.5837858915329 328.36834192276001 273.83972692489624 199.87909555435181 223.6660350561142 182.08581578731537 338.08690655231476 192.33203113079071 186.98163366317749 181.26518297195435
leaf_count=178 143 159 128 140 173 114 166 166 186 149 108 123 100 188 107 105 101
internal_value=1.52438e-05 0.00227864 0.00101123 -0.000725308 0.00272891 -0.000392915 0.00102441 -0.00030902 -0.0010691 -0.000667195 0.00152863 -0.00112244 -0.000787676 0.000591332 -0.00159461 -0.00280961 -0.00367862
internal_weight=4601.92 1134.49 827.799 3467.43 591.351 3171.98 1024.52 715.952 2147.46 1906.63 411.368 1632.79 1409.12 520.173 888.947 560.579 368.247
internal_count=2534 603 444 1931 316 1753 554 388 1199 1059 222 910 787 288 499 313 206
is_linear=0
shrinkage=0.04


Tree=23
num_leaves=18
num_cat=0
split_feature=11 34 28 11 14 19 15 4 5 10 10 5 22 5 22 3 17
split_gain=3.49384 2.71281 5.07826 2.73795 2.34341 2.19042 3.34443 3.18287 1.43624 1.28943 1.81069 1.19988 3.35635 2.07471 1.35164 1.13319 0.7737
threshold=2.2928500000000001 3.1000000000000005 11.145000000000001 3.8819500000000002 0.13395000000000004 0.43650000000000005 0.72080000000000011 0.47220000000000006 0.18335000000000004 2.9000000000000004 3.3666500000000004 0.23610000000000003 1.0000000180025095e-35 0.31665000000000004 1.0000000180025095e-35 0.70715000000000006 0.38750000000000007
decision_type=2 2 2 2 2 2 2 2 2 2 2 2 2 2 2 2 2
left_child=-1 4 3 5 -2 7 -7 -3 -9 -6 16 12 15 -13 -15 -12 -11
right_child=1 2 -4 -5 9 6 -8 8 -10 10 11 13 -14 14 -16 -17 -18
leaf_value=-0.0041387668594359325 -0.0043069411778823919 -0.0016809224380200662 0.0065158127766763033 0.0037853982228841865 0.0026712915623660328 0.0014982681569350848 -0.0051542349670084739 0.0059103660463457955 0.0011056089049827804 -0.001169279205183495 0.0011908828125345968 -0.0044017054398140104 0.0050137317228267407 0.0027112636367335979 -0.0018332697939931453 -0.0022162183119516774 -0.0044498498640109666
leaf_weight=302.70953190326691 241.7000640630722 351.98699855804443 271.42571604251862 338.28340113162994 230.75519812107086 209.7213294506073 285.53602540493011 201.7554417848587 196.48032140731812 250.34592425823212 326.77418196201324 209.54995775222778 254.04845666885376 212.62763941287994 206.32116615772247 299.19771063327789 212.79960632324219
leaf_count=183 141 192 143 178 129 112 156 108 106 141 181 116 136 117 111 164 120
internal_value=1.4821e-05 0.00030727 0.00146056 0.000594187 -0.000568123 -0.000272574 -0.00233717 0.00109036 0.00353981 -0.000157814 -0.000488921 0.000182738 0.0011361 -0.00115216 0.000473202 -0.00043762 -0.00267659
internal_weight=4602.02 4299.31 1855.19 1583.76 2444.12 1245.48 495.257 750.223 398.236 2202.42 1971.66 1508.52 880.02 628.499 418.949 625.972 463.146
internal_count=2534 2351 995 852 1356 674 268 406 214 1215 1086 825 481 344 228 345 261
is_linear=0
shrinkage=0.04


Tree=24
num_leaves=18
num_cat=0
split_feature=25 2 35 11 20 35 30 9 14 11 17 4 4 11 13 11 17
split_gain=4.53626 2.91301 3.66712 2.38983 2.19468 1.7528 2.49868 1.96252 1.5928 1.41014 1.11762 0.696071 1.36671 2.07139 1.24669 1.65489 1.26161
threshold=7.5000000000000009 1.0954500000000003 3.0500000000000003 2.2928500000000001 0.36665000000000009 1.5500000000000003 3.2082500000000005 1.4226500000000002 0.13395000000000004 4.1833500000000008 0.26785000000000009 0.18335000000000004 0.38750000000000007 3.4722000000000004 0.55000000000000016 3.5635000000000008 0.18335000000000004
decision_type=2 2 2 2 2 2 2 2 2 2 2 2 2 2 2 2 2
left_child=3 2 4 -1 -2 8 7 10 -5 11 -7 -10 13 -13 -14 -16 -17
right_child=1 -3 -4 5 -6 6 -8 -9 9 -11 -12 12 14 -15 15 16 -18
leaf_value=-0.0041620709344071544 0.0056314317789373271 0.0055211743242491234 -0.003248139979894731 -0.0041167231141297275 0.00066459435669145818 0.003725191103269273 0.0039698141780700495 -0.0027640591089680513 -0.0032241304141816447 0.0020017977904219397 -0.00045216341144954013 0.0037283370919207644 0.0010443493396824271 -0.0018392763497946999 -0.0045614997001909444 -0.00271819538007183 0.001553520978092084
leaf_weight=292.96860039234161 236.91064870357513 308.84883725643158 235.92752170562744 238.78035640716553 356.58601307868958 189.92222368717194 310.49090373516083 304.10507273674011 213.95154106616974 274.40852522850037 222.55137026309967 227.19807386398315 221.92715466022491 201.95143067836761 318.91438353061676 244.96628105640411 201.70955181121826
leaf_count=178 126 159 128 140 190 102 166 166 122 149 120 127 123 112 179 136 111
internal_value=1.43898e-05 0.00220511 0.000970318 -0.000705514 0.00264725 -0.00038615 0.000972567 -0.000326129 -0.00103709 -0.000651085 0.00147129 -0.00109753 -0.000776356 0.0011083 -0.00159538 -0.00236058 -0.000789177
internal_weight=4602.12 1138.27 829.424 3463.85 593.497 3170.88 1027.07 716.579 2143.81 1905.03 412.474 1630.62 1416.67 429.15 987.517 765.59 446.676
internal_count=2534 603 444 1931 316 1753 554 388 1199 1059 222 910 788 239 549 426 247
is_linear=0
shrinkage=0.04


end of trees

feature_importances:
last_10_avg_at_bats=39
last_10_avg_strikeouts=30
games_played_season=28
pitcher_last_5_k_rate=25
last_5_avg_strikeouts=22
pitcher_last_5_avg_outs=21
last_5_avg_total_bases=20
last_10_rate_over_0.5_hits=19
pitcher_last_5_era=19
last_5_avg_at_bats=16
season_avg_at_bats=16
pitcher_last_5_h_per_9=16
last_10_rate_over_1.5_hits=15
last_10_avg_total_bases=14
pitcher_last_5_bb_per_9=13
season_avg_strikeouts=12
last_10_avg_walks=12
last_5_avg_hits=10
last_20_avg_hits=9
last_10_rate_over_2.5_hits=9
last_5_avg_runs=9
last_10_avg_hits=8
last_5_avg_walks=8
last_10_avg_runs=8
last_10_avg_rbis=8
last_5_avg_home_runs=8
last_10_avg_home_runs=7
last_5_avg_rbis=5
pitcher_last_10_k_rate=4
season_avg_total_bases=3
days_rest=3
pitcher_last_10_era=3
pitcher_last_10_avg_outs=2
season_avg_hits=1
pitcher_last_10_h_per_9=1

parameters:
[boosting: gbdt]
[objective: poisson]
[metric: poisson,l1,rmse]
[tree_learner: serial]
[device_type: cpu]
[data_sample_strategy: bagging]
[data: ]
[valid: ]
[num_iterations: 2000]
[learning_rate: 0.04]
[num_leaves: 31]
[num_threads: 0]
[seed: 42]
[deterministic: 0]
[force_col_wise: 0]
[force_row_wise: 0]
[histogram_pool_size: -1]
[max_depth: -1]
[min_data_in_leaf: 100]
[min_sum_hessian_in_leaf: 0.001]
[bagging_fraction: 0.9]
[pos_bagging_fraction: 1]
[neg_bagging_fraction: 1]
[bagging_freq: 5]
[bagging_seed: 400]
[bagging_by_query: 0]
[feature_fraction: 0.9]
[feature_fraction_bynode: 1]
[feature_fraction_seed: 30056]
[extra_trees: 0]
[extra_seed: 12879]
[early_stopping_round: 0]
[early_stopping_min_delta: 0]
[first_metric_only: 0]
[max_delta_step: 0]
[lambda_l1: 0]
[lambda_l2: 0]
[linear_lambda: 0]
[min_gain_to_split: 0]
[drop_rate: 0.1]
[max_drop: 50]
[skip_drop: 0.5]
[xgboost_dart_mode: 0]
[uniform_drop: 0]
[drop_seed: 17869]
[top_rate: 0.2]
[other_rate: 0.1]
[min_data_per_group: 100]
[max_cat_threshold: 32]
[cat_l2: 10]
[cat_smooth: 10]
[max_cat_to_onehot: 4]
[top_k: 20]
[monotone_constraints: ]
[monotone_constraints_method: basic]
[monotone_penalty: 0]
[feature_contri: ]
[forcedsplits_filename: ]
[refit_decay_rate: 0.9]
[cegb_tradeoff: 1]
[cegb_penalty_split: 0]
[cegb_penalty_feature_lazy: ]
[cegb_penalty_feature_coupled: ]
[path_smooth: 0]
[interaction_constraints: ]
[verbosity: -1]
[saved_feature_importance_type: 0]
[use_quantized_grad: 0]
[num_grad_quant_bins: 4]
[quant_train_renew_leaf: 0]
[stochastic_rounding: 1]
[linear_tree: 0]
[max_bin: 255]
[max_bin_by_feature: ]
[min_data_in_bin: 3]
[bin_construct_sample_cnt: 200000]
[data_random_seed: 175]
[is_enable_sparse: 1]
[enable_bundle: 1]
[use_missing: 1]
[zero_as_missing: 0]
[feature_pre_filter: 1]
[pre_partition: 0]
[two_round: 0]
[header: 0]
[label_column: ]
[weight_column: ]
[group_column: ]
[ignore_column: ]
[categorical_feature: ]
[forcedbins_filename: ]
[precise_float_parser: 0]
[parser_config_file: ]
[objective_seed: 16083]
[num_class: 1]
[is_unbalance: 0]
[scale_pos_weight: 1]
[sigmoid: 1]
[boost_from_average: 1]
[reg_sqrt: 0]
[alpha: 0.9]
[fair_c: 1]
[poisson_max_delta_step: 0.7]
[tweedie_variance_power: 1.5]
[lambdarank_truncation_level: 30]
[lambdarank_norm: 1]
[label_gain: ]
[lambdarank_position_bias_regularization: 0]
[eval_at: ]
[multi_error_top_k: 1]
[auc_mu_weights: ]
[num_machines: 1]
[local_listen_port: 12400]
[time_out: 120]
[machine_list_filename: ]
[machines: ]
[gpu_platform_id: -1]
[gpu_device_id: -1]
[gpu_use_dp: 0]
[num_gpu: 1]

end of parameters

pandas_categorical:[]
