tree
version=v4
num_class=1
num_tree_per_iteration=1
label_index=0
max_feature_idx=65
objective=binary sigmoid:1
feature_names=home_last_5_avg_runs_scored home_last_10_avg_runs_scored home_last_20_avg_runs_scored home_season_avg_runs_scored home_last_5_avg_runs_allowed home_last_10_avg_runs_allowed home_last_20_avg_runs_allowed home_season_avg_runs_allowed home_last_5_avg_margin home_last_10_avg_margin home_season_avg_margin home_last_5_win_rate home_last_10_win_rate home_season_win_rate home_last_10_avg_hits_scored home_last_10_avg_hr_scored home_last_10_avg_bb_scored home_days_rest home_is_back_to_back home_games_played_season away_last_5_avg_runs_scored away_last_10_avg_runs_scored away_last_20_avg_runs_scored away_season_avg_runs_scored away_last_5_avg_runs_allowed away_last_10_avg_runs_allowed away_last_20_avg_runs_allowed away_season_avg_runs_allowed away_last_5_avg_margin away_last_10_avg_margin away_season_avg_margin away_last_5_win_rate away_last_10_win_rate away_season_win_rate away_last_10_avg_hits_scored away_last_10_avg_hr_scored away_last_10_avg_bb_scored away_days_rest away_is_back_to_back away_games_played_season home_sp_last_3_era home_sp_last_5_era home_sp_last_10_era home_sp_last_3_whip home_sp_last_5_whip home_sp_last_10_whip home_sp_last_3_k9 home_sp_last_5_k9 home_sp_last_10_k9 home_sp_season_era home_sp_season_whip home_sp_season_k9 home_sp_games_started away_sp_last_3_era away_sp_last_5_era away_sp_last_10_era away_sp_last_3_whip away_sp_last_5_whip away_sp_last_10_whip away_sp_last_3_k9 away_sp_last_5_k9 away_sp_last_10_k9 away_sp_season_era away_sp_season_whip away_sp_season_k9 away_sp_games_started
feature_infos=[0:13.5] [0:13.5] [0:13.5] [0:16] [0:12.6] [0:10] [0:10] [0:12] [-9:8.5] [-5.7000000000000002:8.5] [-10:15] [0:1] [0:1] [0:1] [0:15] [0:3] [0:7] [1:7] [0:1] [0:178] [0:11.199999999999999] [0:10] [0:10] [0:12] [0:13.5] [0:13.5] [0:13.5] [0:16] [-8.5:7.2000000000000002] [-8.5:6] [-15:10] [0:1] [0:1] [0:1] [0:19] [0:3.2000000000000002] [0:9] [1:7] [0:1] [0:178] [0:21] [0:21] [0:21] [0:3.6666666666666665] [0:3.6666666666666665] [0:3.6666666666666665] [0:18] [0:18] [0:18] [0:21] [0:3.6666666666666665] [0:18] [0:86] [0:24.299999999999997] [0:24.299999999999997] [0:24.299999999999997] [0.23809523809523808:3.5999999999999996] [0.23809523809523808:3.5999999999999996] [0.23809523809523808:3.5999999999999996] [0:21.599999999999998] [0:21.599999999999998] [0:21.599999999999998] [0:24.299999999999997] [0.23809523809523808:3.5999999999999996] [0:21.599999999999998] [0:84]
tree_sizes=2255 2273 2266 2261 2269 2270 2263 2266 2269 2270 2267 2262 2270 2269 2278 2268 2272 2265 2268 2264 2258 2271 2255 2255 2269 2259 2258 2265 2272 2266 2260 2260 2275 2259 2269 2262 2265 2261

Tree=0
num_leaves=20
num_cat=0
split_feature=23 13 10 60 52 29 41 52 51 36 33 42 33 13 60 29 65 21 13
split_gain=46.8085 30.7325 25.5946 22.8996 14.5191 13.7827 13.9057 13.1951 12.309 17.5923 13.7922 11.9704 11.5842 15.1231 11.2425 11.1348 10.9912 10.0973 10.0483
threshold=4.4452991452991464 0.28623949579831937 0.043717152412804598 8.0000840336134473 4.5000000000000009 -1.9499999999999997 3.2705769230769239 2.5000000000000004 8.0645491639363609 2.2250000000000005 0.35050715707650021 3.0072874919198451 0.40075757575757581 0.5286169244767972 9.2920389208314926 -0.1714285714285714 1.5000000000000002 3.4500000000000006 0.53242081659347862
decision_type=2 2 2 2 2 2 2 2 2 2 2 2 2 2 2 2 2 2 2
left_child=1 -1 16 7 18 -6 -7 -3 9 -5 11 -10 -9 -14 15 -11 -2 -15 -4
right_child=2 3 4 8 5 6 -8 12 10 14 -12 -13 13 17 -16 -17 -18 -19 -20
leaf_value=-0.017606180880472388 0.01560317247003035 0.0061937158114155804 0.01374946614673182 -0.031697488563281591 0.063084071277326084 0.025749775502822314 0.0046746053401360201 0.039682107453657543 0.0032627093220401228 0.0097493630280349863 0.012981769588598084 0.057062410668535159 0.014948658486299213 0.012249427477220506 0.019399417244346413 -0.028770148485341915 -0.0097191191457210255 0.04930094442638569 -0.022131158068345785
leaf_weight=38.748999908566475 30.749206379055977 44.998838603496552 19.999483823776245 20.749464467167854 8.9997677206993085 79.99793529510498 133.99654161930084 110.24715457856655 9.2497612684965116 29.499238640069962 148.49616739153862 23.249399945139885 119.24692229926586 15.999587059020994 64.248341783881187 20.249477371573448 253.74345101416111 44.498851507902145 33.249141857028008
leaf_count=155 123 180 80 83 36 320 536 441 37 118 594 93 477 64 257 81 1015 178 133
internal_value=0.0100213 0.0170012 0.00143885 0.0190619 0.0101114 0.0145925 0.0125532 0.0263468 0.0113329 0.00217959 0.0181474 0.0417502 0.029474 0.0232129 0.00834582 -0.00592943 -0.00698218 0.0395022 -0.00865487
internal_weight=1250.22 689.482 560.736 650.733 276.243 222.994 213.994 334.991 315.742 134.747 180.995 32.4992 289.993 179.745 113.997 49.7487 284.493 60.4984 53.2486
internal_count=5001 2758 2243 2603 1105 892 856 1340 1263 539 724 130 1160 719 456 199 1138 242 213
is_linear=0
shrinkage=1


Tree=1
num_leaves=20
num_cat=0
split_feature=30 51 60 2 51 48 56 26 26 51 60 42 48 27 15 5 23 3 52
split_gain=48.0518 27.8321 24.7002 24.1475 17.5661 15.211 17.7683 13.3061 12.2449 12.1292 12.0491 11.6163 11.5184 13.4241 11.433 11.9362 11.2608 10.2078 10.0187
threshold=0.16727493917274941 8.0645491639363609 8.0000840336134473 3.8786764705882359 8.0645491639363609 8.3858250572956479 1.2497607376283848 3.7029411764705888 5.7596153846153859 7.8401908473597901 10.672889610389612 4.7541713066345421 8.9813402406417122 4.2771680782536095 0.89444444444444449 6.0500000000000007 4.3993670886075966 3.6431339977851609 6.5000000000000009
decision_type=2 2 2 2 2 2 2 2 2 2 2 2 2 2 2 2 2 2 2
left_child=1 2 14 -4 9 -6 10 -5 18 17 -7 -12 -8 -14 16 -16 -1 -2 -3
right_child=4 8 3 7 5 6 12 -9 -10 -11 11 -13 13 -15 15 -17 -18 -19 -20
leaf_value=-0.020288527656817049 -0.031853754260085014 -0.0040465953848989704 -0.044380233448642274 -0.042667381232983824 0.014408810374542525 -0.011016772931707813 -0.017750021861735507 0.00067444689034753473 0.036115458460775338 -0.030745933295081386 -0.023308423019501753 -0.079922145568727912 0.019990106598739944 -0.012061306802741591 0.017843810828035017 -0.031943551636853841 0.033372811556017352 -0.0070802952605306989 0.015226327657423456
leaf_weight=32.495402172207832 31.748664543032646 51.242938965559006 32.746710374951363 12.997972920536993 69.244005933403969 98.243278682231903 30.74790458381176 88.489429160952568 38.239529952406883 67.494918897747993 18.249000668525699 8.4997740089893323 68.995316624641418 29.998520106077194 116.72586390376091 8.2490194290876371 7.7491162270307532 164.48906551301479 273.44528940320015
leaf_count=130 127 205 131 52 277 393 123 354 153 270 73 34 276 120 467 33 31 658 1094
internal_value=-0.000128871 0.00725819 -0.00176841 -0.0145136 -0.00845448 -0.00221512 -0.00673398 -0.00487655 0.0147061 -0.0161191 -0.0174971 -0.0412982 0.00363512 0.0102774 0.0085865 0.0145576 -0.00995599 -0.0110883 0.0121846
internal_weight=1250.09 662.381 299.454 134.234 587.71 323.978 254.734 101.487 362.928 263.733 124.992 26.7488 129.742 98.9938 165.219 124.975 40.2445 196.238 324.688
internal_count=5001 2650 1198 537 2351 1296 1019 406 1452 1055 500 107 519 396 661 500 161 785 1299
is_linear=0
shrinkage=0.04


Tree=2
num_leaves=20
num_cat=0
split_feature=23 10 60 10 49 47 52 41 50 44 29 65 65 14 25 62 44 60 4
split_gain=40.8071 22.9835 21.3456 17.9608 14.7987 13.3434 13.0985 11.9681 10.7988 14.9487 10.7468 10.4861 10.1514 9.39019 10.6327 9.4278 11.2094 11.4786 10.1764
threshold=4.4452991452991464 0.043717152412804598 8.0000840336134473 -1.2274865591397848 4.4999124649859956 8.159621848739496 1.0000000180025095e-35 5.8158782394076525 1.3499516382740069 1.3743778564057203 -1.9499999999999997 45.500000000000007 1.5000000000000002 7.1333333333333337 2.9500000000000006 4.1598377181435611 1.1714005602240898 8.5845492742551581 5.9000000000000012
decision_type=2 2 2 2 2 2 2 2 2 2 2 2 2 2 2 2 2 2 2
left_child=2 12 3 5 7 -1 -3 -4 9 -5 -8 -6 -2 -12 -15 16 17 -16 -17
right_child=1 6 4 8 11 -7 10 -9 -10 -11 13 -13 -14 14 15 18 -18 -19 -20
leaf_value=-0.028031231733792735 0.0055886153408711064 -0.032674222786230035 0.003590154692890144 0.016596986164518365 -0.0061629918239249591 0.021299388424900114 0.042557682349341708 0.041110050781557439 0.0072967869145744661 0.043944687328932641 0.02553139831438573 -0.037363917978924584 -0.018748470882772986 0.028009146139288121 0.028408990675184941 1.1775480569204019e-05 -0.023142377576718578 -0.015631595435975049 0.041511889734004312
leaf_weight=26.993032798171043 30.745974287390709 18.242772802710533 175.69906109571457 148.91723400354385 124.95853830873966 12.997484713792799 10.23841807246208 14.744082465767859 124.19874043762684 40.726296499371529 22.246598213911057 19.99175488948822 253.7035901248455 17.747648105025291 17.24703711271286 94.987248435616493 63.991947114467621 20.996378809213638 10.498917549848555
leaf_count=108 123 73 703 596 500 52 41 59 497 163 89 80 1015 71 69 380 256 84 42
internal_value=-0.000123733 -0.00813739 0.00639493 0.0132484 -0.000835353 -0.0119981 8.15534e-05 0.00649494 0.0164654 0.02247 0.00239807 -0.0104663 -0.0161179 0.000738225 -0.00170807 -0.0042471 -0.0129032 0.00422985 0.00414223
internal_weight=1249.87 560.647 689.226 353.833 335.393 39.9905 276.197 190.443 313.842 189.644 257.954 144.95 284.45 247.716 225.469 207.722 102.235 38.2434 105.486
internal_count=5001 2243 2758 1416 1342 160 1105 762 1256 759 1032 580 1138 991 902 831 409 153 422
is_linear=0
shrinkage=0.04


Tree=3
num_leaves=20
num_cat=0
split_feature=23 10 26 6 4 3 52 50 29 1 64 52 64 44 21 6 9 44 65
split_gain=37.6175 21.1868 19.767 13.7667 14.362 12.7707 12.483 12.2949 11.7154 11.585 11.4503 12.8724 10.5019 9.99971 9.8472 9.41114 11.6728 9.39587 9.35896
threshold=4.4452991452991464 0.043717152412804598 5.3416666666666677 4.8944444444444457 2.2666666666666671 3.3246621621621624 4.5000000000000009 1.4538255990655371 -1.9499999999999997 5.2678571428571432 9.0931182787800449 6.5000000000000009 7.3989236866075112 1.4169733452821691 4.3166666666666673 6.3750000000000009 -2.6833333333333331 1.2144257703081234 1.5000000000000002
decision_type=2 2 2 2 2 2 2 2 2 2 2 2 2 2 2 2 2 2 2
left_child=2 18 3 4 9 -5 -3 10 -8 -1 11 -6 -9 -14 -4 16 -7 -10 -2
right_child=1 6 14 5 7 15 8 12 17 -11 -12 -13 13 -15 -16 -17 -18 -19 -20
leaf_value=-0.028967990516705927 0.00536521443570908 -0.017327782670060056 0.012986905998466219 -0.047787174078221764 -0.0034849617915150093 0.039968294200743014 0.049014677040654216 0.023377759504635484 0.011918281572451487 0.023510661252211316 0.00084721032360334349 0.021594522840990806 -0.056528494061246708 -0.0082204222597453778 0.037083023632262888 -0.045606255693064715 -0.0051317154231048361 -0.0049924873930235125 -0.018003246905761199
leaf_weight=29.237387210130692 30.74516399204731 53.21762727200985 89.418347075581551 11.7391489893198 39.984542146325111 9.9946226030588132 8.9712529033422452 12.991744831204413 92.968216046690941 8.7432902455329877 101.96003745496273 180.84621602296829 8.4977608621120435 35.485467255115509 38.958057954907417 8.2465852499008161 112.94640249013901 120.97408592700958 253.6383418738842
leaf_count=117 123 213 358 47 160 40 36 52 372 35 408 724 34 142 156 33 452 484 1015
internal_value=-0.000118764 -0.00781375 0.0061408 0.00289895 0.00656519 -0.00781671 7.83662e-05 0.00891068 0.00423385 -0.0168872 0.0119344 0.0170535 -0.00822033 -0.0175538 0.0202993 -0.00424001 -0.00146526 0.00235605 -0.0154768
internal_weight=1249.56 560.515 689.05 560.673 417.746 142.927 276.131 379.766 222.914 37.9807 322.791 220.831 56.975 43.9832 128.376 131.188 122.941 213.942 284.384
internal_count=5001 2243 2758 2244 1672 572 1105 1520 892 152 1292 884 228 176 514 525 492 856 1138
is_linear=0
shrinkage=0.04


Tree=4
num_leaves=20
num_cat=0
split_feature=30 51 60 7 3 52 59 16 26 47 57 28 49 54 63 3 19 15 52
split_gain=38.9167 24.2753 21.6505 19.3514 15.5069 15.3716 11.2335 11.0927 11.1675 11.0606 11.0929 10.209 10.4719 9.76058 9.78191 9.75674 9.53469 9.16831 9.07567
threshold=0.16727493917274941 8.0645491639363609 8.0000840336134473 4.625631313131314 4.2408083265747507 1.0000000180025095e-35 11.003246753246756 1.8500000000000003 5.7596153846153859 7.7094642857142865 1.6188808985132517 0.3000000000000001 3.2835780415405034 4.5524737762237777 1.4247520435659824 3.3246621621621624 151.50000000000003 0.5277777777777779 6.5000000000000009
decision_type=2 2 2 2 2 2 2 2 2 2 2 2 2 2 2 2 2 2 2
left_child=1 2 9 5 -4 -2 -7 -3 17 10 -1 12 -6 -11 -15 -5 -17 -9 -19
right_child=3 7 4 15 11 6 -8 8 -10 13 -12 -13 -14 14 -16 16 -18 18 -20
leaf_value=0.0087058714573097443 -0.033697711335412099 -0.031010806170888021 -0.030093952717323038 -0.041538160995094157 0.04717622949357634 0.0032636977595871543 -0.016348487583300451 -0.026570895620022891 0.035187119421482012 0.0073832864329803584 0.040031200666628193 -0.024233193657646188 -0.00055269095639239442 -0.052828357083502607 -0.0018562053765608724 -0.012123833508799229 -0.053225122792146438 -0.0024888542189192161 0.016333051032499091
leaf_weight=81.912820488214493 22.964318871498108 8.7436413764953596 55.204847037792206 23.219878867268562 8.7467794716358167 289.58579558134079 55.719785302877426 9.4932766258716565 37.658022493124008 35.721224755048752 23.213086947798729 23.986446797847748 46.223113358020782 11.239701598882677 12.981095567345617 186.36865764856339 9.4904411882162076 48.733004972338676 257.95971581339836
leaf_count=328 92 35 221 93 35 1159 223 38 151 143 93 96 185 45 52 746 38 195 1033
internal_value=-0.000114 0.00653715 -0.00189576 -0.00760843 -0.0138304 -0.00200847 9.9003e-05 0.0134965 0.0145963 0.0078043 0.0156229 -0.00245927 0.00704191 -0.00590788 -0.0255099 -0.0170219 -0.0141154 0.0121439 0.0133423
internal_weight=1249.17 661.817 299.229 587.349 134.161 368.27 345.306 362.588 353.844 165.068 105.126 78.9563 54.9699 59.942 24.2208 219.079 195.859 316.186 306.693
internal_count=5001 2650 1198 2351 537 1474 1382 1452 1417 661 421 316 220 240 97 877 784 1266 1228
is_linear=0
shrinkage=0.04


Tree=5
num_leaves=20
num_cat=0
split_feature=33 10 60 63 33 48 27 43 59 43 10 41 29 54 52 10 36 52 30
split_gain=40.9738 28.7668 22.1358 13.8737 16.0595 13.2468 12.3568 11.8825 13.3264 13.2571 12.852 10.8787 10.7057 10.1709 10.8269 10.4145 10.0993 9.70425 10.7537
threshold=0.35879752431476575 -0.72281323877068548 8.4508928571428594 1.6556279963908642 0.42629304867200407 11.925877504848096 5.4508064516129044 1.3458158263305322 6.4511029411764715 1.7584149768360298 -0.058578431372549013 3.6947899159663873 -1.6833333333333331 4.0039285714285722 19.500000000000004 0.45380220646178099 2.7388888888888894 4.5000000000000009 0.22005021520803444
decision_type=2 2 2 2 2 2 2 2 2 2 2 2 2 2 2 2 2 2 2
left_child=11 -2 6 4 -4 17 7 10 9 16 -3 -1 -10 -12 -15 -16 -9 18 -6
right_child=1 2 3 -5 5 -7 -8 8 12 -11 13 -13 -14 14 15 -17 -18 -19 -20
leaf_value=0.030975654003107003 -0.014255786707014866 -0.0037302409626434382 -0.034759582463646542 0.031817017469497 0.0021058752338718044 0.038821286260732717 0.044597674234918713 -0.054688849438788982 0.045903492948427785 0.017646161414665757 0.029080056276504829 0.010125358817951558 0.0027026467387248425 -0.0039106884529938732 0.041430041292999154 0.0083370305605761589 -0.014777781941542228 -0.0033270708064353587 -0.036336158535921266
leaf_weight=70.847910448908806 248.93484066426754 63.940625861287117 31.475126102566719 14.988482639193533 18.237741351127625 10.746510773897169 13.710359469056128 13.982218742370604 9.9825547188520414 14.475641921162604 70.167274698615074 92.068014696240425 113.88202418386936 51.447194680571556 24.21633069217205 40.936418920755386 36.95876769721508 271.04382364451885 32.198648422956467
leaf_count=284 997 256 126 60 73 43 55 56 40 58 281 369 456 206 97 164 148 1085 129
internal_value=0.000491937 -0.00232557 0.00124229 -0.00589751 -0.00745176 -0.00486462 0.00720168 0.0060364 -0.00152886 -0.0161335 0.0117481 0.0191926 0.00618431 0.0170471 0.00980599 0.0206372 -0.0257325 -0.00632496 -0.0224356
internal_weight=1244.24 1081.32 832.39 378.69 363.702 332.227 453.699 439.989 189.281 65.4166 250.708 162.916 123.865 186.767 116.6 65.1527 50.941 321.48 50.4364
internal_count=4983 4330 3333 1516 1456 1330 1817 1762 758 262 1004 653 496 748 467 261 204 1287 202
is_linear=0
shrinkage=0.04


Tree=6
num_leaves=20
num_cat=0
split_feature=33 10 64 51 16 29 28 58 33 49 24 44 41 61 9 27 11 54 29
split_gain=37.7901 26.521 21.0128 15.7177 12.9206 12.3885 12.2195 11.8286 14.5735 12.6308 11.0426 11.8653 17.1904 10.5407 11.0936 13.0484 12.8295 10.2162 13.5814
threshold=0.35879752431476575 -0.72281323877068548 8.6240145076195009 8.0645491639363609 2.4222222222222229 0.15000000000000005 1.1000000000000003 1.5528279338051012 0.46446608946608953 5.4159475660647285 2.1000000000000005 1.2501712992889467 5.8735423400129294 5.5736678395134289 -1.4499999999999997 5.4136662795199397 0.45000000000000007 4.4438502673796796 -2.4499999999999997
decision_type=2 2 2 2 2 2 2 2 2 2 2 2 2 2 2 2 2 2 2
left_child=17 -2 5 -4 -5 6 13 8 -6 -10 -7 -12 -13 -3 -15 16 -16 18 -1
right_child=1 2 3 4 7 10 -8 -9 9 -11 11 12 -14 14 15 -17 -18 -19 -20
leaf_value=0.044061611561915862 -0.01369016334801678 -0.016244705731686002 -0.015836326726330337 0.023021029159044609 -0.02783053805834252 0.031247839023891725 0.043053735231314942 0.033289115678357357 0.0036494963141356718 -0.038078424101266585 0.0084523852056778911 -0.022228993811391949 0.011513692465738801 -0.02089869710222075 0.026919095060574875 0.061856661293792956 0.0046796528033604253 0.02656694899227011 -0.0027727897973725919
leaf_weight=12.217565670609472 248.85267961025238 21.210030630230904 149.54579894244671 35.46773724257946 38.221706703305244 16.725445449352264 20.217985674738884 13.235210984945295 131.14717157185078 12.73332943022251 86.891096085309982 74.644569009542465 35.715945601463318 13.983459234237669 69.142989590764046 9.4428841322660428 103.82358884811401 98.192964687943459 52.380703404545784
leaf_count=49 997 85 599 142 153 67 81 53 525 51 348 299 143 56 277 38 416 394 210
internal_value=0.000472525 -0.00223316 0.00119304 -0.00573454 0.000810717 0.00702509 0.0133079 -0.00322205 -0.00587568 -4.33971e-05 4.21531e-05 -0.00260385 -0.0113089 0.0105442 0.0134373 0.0160695 0.0135698 0.0184394 0.00608507
internal_weight=1243.79 1081 832.149 380.351 230.805 451.798 237.821 195.337 182.102 143.881 213.977 197.252 110.361 217.603 196.393 182.409 172.967 162.791 64.5983
internal_count=4983 4330 3333 1523 924 1810 953 782 729 576 857 790 442 872 787 731 693 653 259
is_linear=0
shrinkage=0.04


Tree=7
num_leaves=20
num_cat=0
split_feature=33 51 61 64 27 43 2 63 52 63 22 52 48 19 59 41 33 56 2
split_gain=34.8608 24.6405 16.8103 16.3632 11.5489 12.4883 11.4781 11.1685 12.7082 11.1728 11.0507 11.7591 14.1437 13.1084 10.9648 10.1014 10.0574 9.8826 9.33906
threshold=0.35879752431476575 8.0645491639363609 8.4046165966386592 8.5441092683240338 5.506756756756757 1.3717021540550953 4.2565789473684221 1.1494925610310227 3.5000000000000004 1.5765889201397012 5.2225274725274735 8.5000000000000018 9.0658685064935085 60.500000000000007 6.1751918158567785 3.6947899159663873 0.42629304867200407 1.0834415584415591 4.452272727272728
decision_type=2 2 2 2 2 2 2 2 2 2 2 2 2 2 2 2 2 2 2
left_child=15 3 4 7 5 18 -5 17 9 -9 16 -12 -13 -14 -7 -1 -4 -2 -3
right_child=1 2 10 6 -6 14 -8 8 -10 -11 11 12 13 -15 -16 -17 -18 -19 -20
leaf_value=0.029091155870503465 0.0020101501324109533 0.0064448002322341092 -0.023493354235162849 -0.026979593696148531 0.056120278009196937 -0.022317007469721994 -0.0085189436299411159 -0.014267724872876397 0.00013467267494329764 -0.064370260815005284 -0.049035109351813655 -0.033573986932403488 -0.028448288354187265 0.034987548961739078 0.0062067404849853128 0.0089804468760206878 0.0032543707321867725 0.046746262494891541 0.02406152455797881
leaf_weight=70.672080799937248 20.218741625547409 104.80910065770149 25.222496792674065 99.496034115552902 8.4298418760299665 31.703659668564796 117.56183187663555 52.638656511902809 177.42693792283535 8.2355002313852292 15.466083168983458 19.230282291769981 7.9920616745948818 14.982945278286932 67.412814170122147 91.962092101573944 207.78400394320488 12.968602403998373 89.059847205877304
leaf_count=284 81 420 101 399 34 127 471 211 711 33 62 77 32 60 270 369 832 52 357
internal_value=0.00045395 -0.00214448 0.00334211 -0.00879395 0.00996087 0.00863276 -0.016981 -0.00224829 -0.00527593 -0.021046 -0.00352114 -0.0191978 -0.00826392 0.0129208 -0.00291694 0.0177195 0.000358982 0.0194917 0.0145376
internal_weight=1243.27 1080.64 592.093 488.546 301.415 292.985 217.058 271.488 238.301 60.8742 290.678 57.6714 42.2053 22.975 99.1165 162.634 233.007 33.1873 193.869
internal_count=4983 4330 2372 1958 1208 1174 870 1088 955 244 1164 231 169 92 397 653 933 133 777
is_linear=0
shrinkage=0.04


Tree=8
num_leaves=20
num_cat=0
split_feature=64 51 30 10 1 22 54 48 52 42 44 13 52 1 1 3 43 10 62
split_gain=30.6939 22.6908 22.0648 15.0359 12.6706 15.6314 13.0868 14.3055 11.4593 14.6012 11.4704 12.8952 11.3095 10.8962 11.8835 10.6409 11.0909 10.388 10.3546
threshold=8.5441092683240338 8.0645491639363609 -1.0816666666666663 -0.16613588110403393 5.5357142857142865 5.2225274725274735 5.0264423076923093 8.434021098870172 36.500000000000007 4.5859506302521016 1.2381684981684984 0.36127844712182067 8.5000000000000018 5.0500000000000007 3.4500000000000006 4.3201941747572823 1.1951680672268907 -0.72281323877068548 4.7040814780349045
decision_type=2 2 2 2 2 2 2 2 2 2 2 2 2 2 2 2 2 2 2
left_child=2 15 -1 8 5 6 7 -3 9 -4 -10 -12 -7 14 -5 -2 -17 18 -11
right_child=1 4 3 13 -6 12 -8 -9 10 17 11 -13 -14 -15 -16 16 -18 -19 -20
leaf_value=0.021315238228340007 -0.024528247647656633 0.018693878910302771 -0.019998822104319552 -0.0051304274339496279 0.018893756838116418 -0.058106446516324538 0.018309443316907287 -0.010307536966968005 0.039045135241410234 0.0040936986546207072 0.041731852986122656 -0.016070402783517627 -0.012659446193749169 -0.0012692707369383613 0.018667890370316111 0.011310209105515952 -0.015330251011542902 0.020690088200037728 -0.032970320531880475
leaf_weight=124.51457837224007 116.60580785572529 34.448267430067062 99.572102680802345 42.155279263854027 50.162062123417854 11.691484570503233 55.135452970862389 129.57696914672852 16.725604444742203 36.686982065439224 8.2322275340557081 24.715169087052345 34.952180325984955 121.4624565243721 164.86977775394917 35.200198546051979 86.317598208785057 31.707391873002052 17.965864777565002
leaf_count=501 468 138 399 169 201 47 221 519 67 147 33 99 140 487 661 141 346 127 72
internal_value=0.000436021 -0.00657205 0.00607509 0.00271107 0.000455035 -0.00302468 0.00145031 -0.00421671 -0.00500003 -0.00955967 0.0120673 -0.00162795 -0.024051 0.0082418 0.013822 -0.0158963 -0.00761328 0.00247653 -0.00809024
internal_weight=1242.7 554.09 688.607 564.093 315.966 265.804 219.161 164.025 235.605 185.932 49.673 32.9474 46.6437 328.488 207.025 238.124 121.518 86.3602 54.6528
internal_count=4983 2221 2762 2261 1266 1065 878 657 944 745 199 132 187 1317 830 955 487 346 219
is_linear=0
shrinkage=0.04


Tree=9
num_leaves=20
num_cat=0
split_feature=33 10 60 63 33 51 14 45 57 32 59 34 57 49 41 41 6 65 44
split_gain=30.5027 22.2137 17.3869 12.3549 14.0459 12.2347 10.3639 9.6796 12.219 11.1614 10.4455 11.9377 9.48947 10.5756 9.24105 8.99278 9.55326 9.04864 8.98976
threshold=0.35879752431476575 -0.72281323877068548 8.4508928571428594 1.6556279963908642 0.42629304867200407 8.1677357078284825 8.8819444444444464 1.3592154098481499 1.4000980392156868 0.38750000000000007 6.2485294117647063 8.6125000000000025 1.3967309651133182 3.9568780382999127 3.6947899159663873 4.6998190045248878 4.5941176470588241 23.500000000000004 1.1801960784313728
decision_type=2 2 2 2 2 2 2 2 2 2 2 2 2 2 2 2 2 2 2
left_child=14 -2 5 4 -4 7 12 8 9 -3 11 -11 13 -7 -1 17 -17 -16 -6
right_child=1 2 3 -5 18 6 -8 -9 -10 10 -12 -13 -14 -15 15 16 -18 -19 -20
leaf_value=0.027486884736970568 -0.012505909406580121 0.041084242114781858 -0.032227476691122595 0.030408918199773684 0.0043769193598096629 0.0010208816014647456 0.023794396788265414 0.0097589919946247435 -0.02475770472950967 0.0020193131131735066 0.0043570805612859502 -0.068279223298092481 -0.0073945013983089582 0.025531709095635801 0.0064790499970252356 0.035607110415203334 0.00038154392598048329 -0.034387344710134264 -0.009274953985337701
leaf_weight=70.441702112555504 248.4558838903904 9.9678541272878629 31.435871452093124 14.968215629458426 122.09772339463234 57.084411665797234 83.937783852219582 81.832630068063736 44.384323969483376 7.7317770570516569 51.642262071371078 7.7281963229179382 53.11304946243763 55.595066830515862 29.86779648065567 27.345027565956116 22.416789725422859 12.214156493544577 209.76709458231926
leaf_count=284 997 40 126 60 489 229 337 328 178 31 207 31 213 223 120 110 90 49 841
internal_value=0.000418772 -0.00201143 0.00112517 -0.00520556 -0.00667289 0.00641131 0.0123422 -0.000874533 -0.00803911 0.00158906 -0.00427784 -0.0331218 0.00654414 0.0131143 0.0165878 0.00822846 0.0197386 -0.00538229 -0.00425224
internal_weight=1242.03 1079.74 831.286 378.269 363.301 453.017 249.73 203.287 121.454 77.0701 67.1022 15.46 165.793 112.679 162.285 91.8438 49.7618 42.082 331.865
internal_count=4983 4330 3333 1516 1456 1817 1002 815 487 309 269 62 665 452 653 369 200 169 1330
is_linear=0
shrinkage=0.04


Tree=10
num_leaves=20
num_cat=0
split_feature=30 7 52 10 39 55 26 39 52 25 16 20 5 24 55 49 60 29 25
split_gain=25.4507 17.8232 16.3867 12.4036 13.5618 11.1796 11.1248 10.4153 10.5609 9.52969 11.4376 13.0113 13.7206 11.6135 11.2466 9.48379 9.09909 10.1934 10.809
threshold=-0.21834935897435895 4.7879791290387326 1.0000000180025095e-35 -1.7440476190476188 13.500000000000002 4.3715675133689844 6.2750000000000012 153.50000000000003 2.5000000000000004 3.8444444444444446 3.7071428571428577 2.2666666666666671 3.1125000000000003 4.2666666666666675 3.857984221660693 4.1188375657445677 10.086696536738268 -0.1714285714285714 2.9500000000000006
decision_type=2 2 2 2 2 2 2 2 2 2 2 2 2 2 2 2 2 2 2
left_child=1 5 -2 4 -4 9 -3 8 -7 14 11 -11 -13 -12 -1 -14 17 -5 -19
right_child=2 6 3 16 -6 7 -8 -9 -10 10 13 12 15 -15 -16 -17 -18 18 -20
leaf_value=0.036747227464203613 -0.025543782303777865 -0.010074163741611389 0.010561153066178315 0.0098481880361056592 -0.034370284159850759 -0.0029734196037514327 0.037734171819665117 -0.026091039253550198 0.023531038648433596 0.038165036755108753 -0.02511723272576202 -0.062948130956454101 0.0062786816930564338 0.031630708037846733 -0.01805949392439115 -0.023128706972459442 -0.009289656145094638 0.014088048048763893 -0.0051821652688718543
leaf_weight=24.168824538588524 52.443779438734055 100.46099147200584 15.188029453158377 164.33871027827263 36.768459409475327 27.91553807258606 8.4420106261968595 8.2117807120084745 173.87990123033524 8.4566788971424085 7.467251017689704 8.2213893979787809 35.317903533577919 25.387502312660217 7.9649099558591834 34.870694696903229 160.35607686638832 55.109800696372986 300.64489410817623
leaf_count=97 211 403 61 659 148 112 34 33 700 34 30 33 142 102 32 140 643 221 1205
internal_value=0.00046612 0.00781926 -0.00394441 -0.00239779 -0.0212358 0.012089 -0.00636813 0.0180676 0.0198645 0.00382093 -0.00137041 -0.00897394 -0.014058 0.018733 0.0231624 -0.00833133 -0.00095939 0.00160901 -0.00219703
internal_weight=1255.62 470.765 784.85 732.406 51.9565 361.862 108.903 210.007 201.795 151.855 119.721 86.8667 78.41 32.8548 32.1337 70.1886 680.449 520.093 355.755
internal_count=5040 1892 3148 2937 209 1455 437 845 812 610 481 349 315 132 129 282 2728 2085 1426
is_linear=0
shrinkage=0.04


Tree=11
num_leaves=20
num_cat=0
split_feature=30 7 52 64 10 4 55 48 26 52 55 50 23 33 19 63 0 40 3
split_gain=23.4731 16.443 15.1378 13.6703 15.3232 12.4446 11.5514 11.7185 10.2712 9.60108 9.48828 12.4854 9.86225 9.46374 9.03399 8.61822 8.50705 9.98581 9.41619
threshold=-0.21834935897435895 4.7879791290387326 1.0000000180025095e-35 8.3678412990278499 -0.18942218080149112 2.2666666666666671 4.319732142857144 9.4071002623537474 6.2750000000000012 69.500000000000014 4.1134698634698648 1.3772463799959931 3.3364779874213841 0.45127347291172032 81.500000000000014 1.2666856233464936 4.1000000000000005 5.2467934542237948 3.1463511369645691
decision_type=2 2 2 2 2 2 2 2 2 2 2 2 2 2 2 2 2 2 2
left_child=1 5 14 4 16 -1 10 15 -3 -5 11 12 -7 -13 -2 -8 18 -18 -4
right_child=2 8 3 9 -6 6 7 -9 -10 -11 -12 13 -14 -15 -16 -17 17 -19 -20
leaf_value=-0.015832628547275941 -0.010528430161979756 -0.0096710504852774767 -0.032723158449439238 -0.0083354352036456563 0.0108532453182782 0.049516303563951668 -0.0129769455299154 0.03570086777420306 0.03632246621846761 0.030472756663562084 -0.024632607828677787 -0.024375380541750164 0.011189781533646368 0.019675493357526011 -0.044235684997394435 0.01737545483895488 -0.034497322744493783 -6.454113239467727e-05 0.0066926914416659961
leaf_weight=24.626040861010551 30.542718261480331 100.46246828138828 11.186659917235373 387.34370093047619 196.01508289575577 12.65194061398506 16.917861685156822 53.794320553541183 8.4197545200586301 10.475694894790648 15.678964182734488 25.627209797501564 71.170661568641663 11.219412535428999 21.803874224424362 129.83745190501213 29.676729261875153 24.685346767306328 72.840196743607521
leaf_count=99 123 403 45 1554 786 51 68 217 34 42 63 103 286 45 88 523 119 99 292
internal_value=0.000447789 0.00751271 -0.00378814 -0.00230255 0.00365867 0.0116169 0.0136233 0.0197305 -0.00611442 -0.00731351 0.00464049 0.00844404 0.0169747 -0.0109623 -0.0245685 0.0138764 -0.00653179 -0.0188617 0.00144518
internal_weight=1254.98 470.406 784.57 732.223 334.404 361.524 336.898 200.55 108.882 397.819 136.348 120.669 83.8226 36.8466 52.3466 146.755 138.389 54.3621 84.0269
internal_count=5040 1892 3148 2937 1341 1455 1356 808 437 1596 548 485 337 148 211 591 555 218 337
is_linear=0
shrinkage=0.04


Tree=12
num_leaves=20
num_cat=0
split_feature=30 7 46 52 64 10 49 4 52 49 51 26 62 4 39 25 57 58 14
split_gain=21.6509 15.1706 14.496 13.9926 12.6015 14.1276 12.166 11.4792 11.3651 12.0838 11.2882 10.8361 10.4686 10.1481 9.70326 8.95449 8.88478 10.1209 8.49112
threshold=-0.21834935897435895 4.7879791290387326 5.1244318181818196 1.0000000180025095e-35 8.3678412990278499 -0.18942218080149112 5.0031727934162111 2.2666666666666671 31.500000000000004 4.4525758133120759 10.032006439026054 4.9455882352941183 5.3185031597239645 3.7333333333333338 71.500000000000014 6.4500000000000011 1.4665476190476194 1.6346517079053846 7.2750000000000012
decision_type=2 2 2 2 2 2 2 2 2 2 2 2 2 2 2 2 2 2 2
left_child=1 7 -3 -2 5 -5 10 -1 12 -10 13 -11 16 14 -6 -4 -9 -18 -12
right_child=3 2 15 4 6 -7 -8 8 9 11 18 -13 -14 -15 -16 -17 17 -19 -20
leaf_value=-0.015189175247861911 -0.023641344036914539 0.033851268665916444 -0.016051874323839158 -0.0062732436025507441 -0.0064723048327675571 0.010422885034270135 -0.019321031531777517 0.0085316678080398084 0.034389927268126848 -0.016318571838859111 0.044370798360150961 0.029688518312013482 0.02268522932021336 -0.0010339517596500698 -0.034410429102889044 0.019781829692936414 -0.022203404689838592 0.025601360231088936 0.0053838203711743049
leaf_weight=24.642148539423943 52.227127522230148 12.950364306569098 83.011183321475983 138.3357325643301 46.640342682600021 195.94559831917286 97.23406945168972 133.72011476755142 65.861743539571762 17.899518951773643 10.974657788872717 15.102201014757155 60.708552047610283 160.03464950621128 34.680226922035217 12.890411764383314 34.30171674489975 8.9308696091175062 48.166284471750259
leaf_count=99 211 52 333 555 187 786 391 538 266 72 44 61 245 642 139 52 138 36 193
internal_value=0.000430228 0.00721869 -0.0058713 -0.00363831 -0.00221115 0.00351352 -0.00702257 0.0111639 0.0130936 0.0244908 -0.00304306 0.00473513 0.00835252 -0.00688073 -0.0183869 -0.0112354 0.00343529 -0.012328 0.0126186
internal_weight=1254.26 470.019 108.852 784.239 732.012 334.281 397.73 361.167 336.525 98.8635 300.496 33.0017 237.661 241.355 81.3206 95.9016 176.953 43.2326 59.1409
internal_count=5040 1892 437 3148 2937 1341 1596 1455 1356 399 1205 133 957 968 326 385 712 174 237
is_linear=0
shrinkage=0.04


Tree=13
num_leaves=20
num_cat=0
split_feature=30 7 46 52 64 10 49 4 52 49 65 58 51 8 4 46 39 60 52
split_gain=19.9714 13.9978 13.364 12.9332 11.6184 13.025 11.2344 10.5895 10.5261 11.1998 10.8336 11.2537 10.4041 9.61533 9.35729 9.32858 10.8841 9.66442 8.68951
threshold=-0.21834935897435895 4.7879791290387326 5.1244318181818196 1.0000000180025095e-35 8.3678412990278499 -0.18942218080149112 5.0031727934162111 2.2666666666666671 31.500000000000004 4.4525758133120759 11.500000000000002 1.4204463692911837 10.032006439026054 -2.7333333333333329 3.7333333333333338 10.49732142857143 71.500000000000014 10.540212287712292 28.500000000000004
decision_type=2 2 2 2 2 2 2 2 2 2 2 2 2 2 2 2 2 2 2
left_child=1 7 -3 -2 5 -5 12 -1 13 -10 -11 -12 14 -9 15 16 17 -6 -15
right_child=3 2 -4 4 6 -7 -8 8 9 10 11 -13 -14 18 -16 -17 -18 -19 -20
leaf_value=-0.014574002531316996 -0.022748790510653417 0.032508230758500602 -0.010789497783205693 -0.0060237322596905628 0.015189207744118536 0.010010009441592818 -0.018571461803655445 0.04304888203004216 0.033122981223651801 0.037213641461541019 -0.036687219109605283 0.02087453640677054 0.012114206624224586 0.0081268669737632419 -0.00099261960291029865 -0.052398271821253568 -0.030816849595545759 -0.025658544711736692 -0.025391902311821916
leaf_weight=24.654736652970314 52.10765440762043 12.946041971445082 95.869815602898598 138.30381137132645 26.695717453956604 195.86809742450714 97.114649534225464 11.911925822496412 65.649968683719635 10.884112343192099 12.440889135003092 9.6493258178234083 59.138984546065331 212.45667545497417 160.0305693000555 10.733982831239699 29.667158544063568 14.195364266633986 13.140196084976195
leaf_count=99 211 52 385 555 107 786 391 48 266 44 50 39 237 856 642 43 119 57 53
internal_value=0.000413403 0.00693661 -0.00563828 -0.00349461 -0.00212353 0.00337412 -0.00674443 0.0107293 0.0125852 0.0235699 0.00455024 -0.0115434 -0.00292172 0.0080239 -0.00660644 -0.0176577 -0.0123727 0.00100889 0.00617452
internal_weight=1253.46 469.604 108.816 783.856 731.748 334.172 397.576 360.788 336.133 98.6243 32.9743 22.0902 300.462 237.509 241.323 81.2922 70.5582 40.8911 225.597
internal_count=5040 1892 437 3148 2937 1341 1596 1455 1356 399 133 89 1205 957 968 326 283 164 909
is_linear=0
shrinkage=0.04


Tree=14
num_leaves=20
num_cat=0
split_feature=52 65 61 7 48 63 28 55 57 62 63 21 7 57 16 62 61 8 35
split_gain=18.8206 20.0756 16.6134 16.1612 17.1016 15.1864 13.7241 13.1158 10.7428 12.0993 10.1765 10.5685 9.64614 9.43316 13.2093 9.08139 8.66915 10.5306 8.34486
threshold=1.0000000180025095e-35 2.5000000000000004 11.550171886936594 4.7879791290387326 12.000842346507982 1.5665582778726319 -3.3249999999999997 2.1017481203007526 0.9499579831932774 4.2435463793065882 1.0480158730158733 6.5500000000000007 5.6516544117647074 1.3794742370632465 4.0500000000000007 3.7866603006144821 7.0216941881647772 3.5000000000000004 0.5277777777777779
decision_type=2 2 2 2 2 2 2 2 2 2 2 2 2 2 2 2 2 2 2
left_child=13 6 3 4 5 7 -2 -3 -4 -10 -9 16 -8 14 -1 -13 18 -18 -12
right_child=1 2 8 -5 -6 -7 12 10 9 -11 11 15 -14 -15 -16 -17 17 -19 -20
leaf_value=-0.017684297463136031 0.058299384644812664 0.025908158057567951 0.0093578488760966191 -0.0083199912265607637 0.037128087254626338 0.021621010946030379 0.014759244354227159 -0.024825927549443662 -0.051733629259013494 -0.0068177396804177254 -0.025138418618943226 -0.061804462528568901 -0.029326381325245104 -0.037295971204706888 0.032655355238819753 -0.0068086532204882921 0.00050702857143180018 -0.026146068365388998 0.013482908743169335
leaf_weight=46.283353894948959 11.087394788861273 31.873949036002159 12.933492839336393 231.49874716997147 23.829750075936317 61.86701825261116 127.98103187978268 26.144471287727356 22.611812874674797 16.670159786939621 9.6562937051057798 7.7230836600065258 8.4664103984832746 27.176584824919701 10.173535034060476 12.710818141698836 416.15553817152977 25.151552259922028 122.59975092113018
leaf_count=187 45 128 52 931 96 250 515 105 91 67 39 31 34 110 41 51 1672 101 494
internal_value=0.000397233 0.00170871 -0.000283511 0.000900556 0.00379402 0.00268131 0.0155014 0.000884206 -0.0222619 -0.0326726 -0.000401972 0.000673036 0.0120238 -0.0179336 -0.00861309 -0.0275946 0.0016801 -0.00101202 0.0106631
internal_weight=1252.59 1168.96 1021.43 969.211 737.712 713.882 147.535 652.015 52.2155 39.282 620.142 593.997 136.447 83.6335 56.4569 20.4339 573.563 441.307 132.256
internal_count=5040 4702 4108 3898 2967 2871 594 2621 210 158 2493 2388 549 338 228 82 2306 1773 533
is_linear=0
shrinkage=0.04


Tree=15
num_leaves=20
num_cat=0
split_feature=33 13 60 51 3 63 33 52 64 54 14 35 13 3 53 54 56 22 14
split_gain=24.6228 13.5716 12.4924 11.876 11.8379 10.8422 12.1247 10.7357 10.6898 9.90609 13.4039 9.79854 9.29825 8.92453 8.25098 9.62978 8.78624 8.08769 9.03164
threshold=0.36149622512010987 0.23582887700534763 8.5514835164835183 6.1883149551686714 4.7549703752468737 1.7646581359816655 0.40075757575757581 69.500000000000014 6.0043449197860967 1.6363533834586466 7.8500000000000005 1.1714285714285715 0.47939544888486363 3.3246621621621624 1.2857142857142863 2.0615021008403365 0.8887426900584795 4.7596153846153859 8.0500000000000025
decision_type=2 2 2 2 2 2 2 2 2 2 2 2 2 2 2 2 2 2 2
left_child=3 -2 4 -1 7 6 -4 14 11 10 -8 -6 -10 -5 16 -16 -3 -11 -19
right_child=1 2 5 13 8 -7 9 -9 12 17 -12 -13 -14 -15 15 -17 -18 18 -20
leaf_value=-0.023678027711960481 -0.023852485757611588 0.00047466197981047741 -0.036458282927344293 -0.024527375499857444 0.015107293591382692 0.040050482504378399 0.047272161288721241 0.036908002446042969 0.045032335058160719 -0.0024144925540397237 -0.0031605396161909611 -0.045581430134581928 0.012458257062509109 0.02034213975357016 0.027418398529436953 -0.0013051938045354095 -0.048821910805267439 -0.026356098326291388 -0.0057381369654343128
leaf_weight=11.677646726369856 41.294590398669243 11.441153377294542 20.412879675626755 7.4542183578014365 7.929764777421954 8.2065431773662549 13.174090147018431 12.148509562015532 15.689152553677557 245.23229363560677 23.424525648355484 9.1894279867410642 131.8634234815836 146.18155232071877 19.652168735861778 375.54552516341209 11.701021596789358 59.052825227379799 80.106071874499321
leaf_count=47 167 46 82 30 32 33 53 49 63 985 94 37 531 593 79 1510 47 238 322
internal_value=0.000827727 -0.00136135 -0.000472383 0.0152093 0.00332927 -0.00550474 -0.0063517 -0.000159788 0.0124504 -0.0048919 0.0149933 -0.0174699 0.0159218 0.0181651 -0.00123623 0.000123157 -0.0244504 -0.00678521 -0.0144875
internal_weight=1251.38 1086.06 1044.77 165.313 595.16 449.609 441.403 430.488 164.672 420.99 36.5986 17.1192 147.553 153.636 418.34 395.198 23.1422 384.391 139.159
internal_count=5038 4368 4201 670 2394 1807 1774 1731 663 1692 147 69 594 623 1682 1589 93 1545 560
is_linear=0
shrinkage=0.04


Tree=16
num_leaves=20
num_cat=0
split_feature=33 13 60 3 15 63 33 52 64 35 13 23 19 12 48 48 30 53 55
split_gain=22.7329 12.5407 11.5175 10.9189 10.615 10.0015 11.1973 9.91639 9.85686 9.01206 8.5921 8.48507 8.19431 8.181 7.79646 7.74584 7.91327 7.60852 8.34329
threshold=0.36149622512010987 0.23582887700534763 8.5514835164835183 4.7549703752468737 0.68333333333333346 1.7646581359816655 0.40075757575757581 69.500000000000014 6.0043449197860967 1.1714285714285715 0.47939544888486363 5.0912560721721034 101.50000000000001 0.13333333333333336 12.000842346507982 8.0458516483516487 0.66791979949874702 1.2857142857142863 2.4861292016806726
decision_type=2 2 2 2 2 2 2 2 2 2 2 2 2 2 2 2 2 2 2
left_child=4 13 3 7 -1 6 -4 17 9 -5 -10 14 -13 -2 -8 16 -12 -3 -19
right_child=1 2 5 8 -6 -7 11 -9 10 -11 15 12 -14 -15 -16 -17 -18 18 -20
leaf_value=-0.014090417757491815 0.0073461370764329442 -0.023485038957500405 -0.035055670816052861 0.014517792798908647 0.018210645973487097 0.038490739407690794 -0.0033927954952529551 0.035513291902693318 0.043305574697441743 -0.043674941355878981 0.0097302594899072812 -0.0094171362601205826 -0.041482435387866085 -0.033440382415435392 0.028823288973597833 0.021157397571414591 -0.023663272086955608 0.023563643687520008 -0.0013225058148415671
leaf_weight=18.309663131833076 10.591647699475287 23.13011708855629 20.381050199270248 7.9218476414680508 146.71968996524811 8.1976914256811124 343.14179199934006 12.121133491396902 15.662646934390066 9.2065502703189832 47.413317084312439 47.895853459835052 17.378178581595421 30.604708537459373 12.455375790596007 69.43326061964035 14.929154068231581 22.879242822527885 372.31768722832203
leaf_count=74 43 93 82 32 596 33 1379 49 63 37 191 193 70 124 50 280 60 92 1497
internal_value=0.000795111 -0.00130743 -0.000453635 0.00319701 0.0146269 -0.00528662 -0.00609993 -0.000153385 0.0119604 -0.0167609 0.0152971 -0.00469772 -0.017954 -0.0229541 -0.00226437 0.011968 0.00173351 -0.00118684 0.000118235
internal_weight=1250.69 1085.66 1044.46 595.015 165.029 449.45 441.252 430.448 164.567 17.1284 147.438 420.871 65.274 41.1964 355.597 131.776 62.3425 418.327 395.197
internal_count=5038 4368 4201 2394 670 1807 1774 1731 663 69 594 1692 263 167 1429 531 251 1682 1589
is_linear=0
shrinkage=0.04


Tree=17
num_leaves=20
num_cat=0
split_feature=30 10 51 26 13 64 10 13 2 53 31 30 24 23 53 30 49 7 54
split_gain=21.1187 15.1847 11.0145 10.3258 10.3069 11.4949 9.80975 9.61112 9.34947 11.957 9.35381 8.94709 9.01081 8.6299 7.80738 14.5375 8.74105 8.16062 9.06532
threshold=-1.0816666666666663 -1.7440476190476188 8.0000668449197878 4.0250000000000012 0.58847248576850109 10.18007958814737 -1.0969982078853044 0.35740354535974977 3.9354166666666672 3.6703477443609036 0.45000000000000007 1.0000000180025095e-35 3.3000000000000003 2.7559523809523814 3.0420329670329673 -0.2080128205128205 5.7397403894924643 3.7912217941662085 3.6003896103896111
decision_type=2 2 2 2 2 2 2 2 2 2 2 2 2 2 2 2 2 2 2
left_child=6 3 -3 -2 14 11 7 -1 9 -5 -11 -6 -13 -8 15 -4 -17 18 -16
right_child=1 2 4 8 5 -7 13 -9 -10 10 -12 12 -14 -15 17 16 -18 -19 -20
leaf_value=0.0087347366621437564 -0.036964445943053849 -0.0050168218590111412 0.030266422045069588 0.044500134023119156 0.04365816536362304 -0.016734987718127713 -0.01082907749614527 -0.048877466894980411 -0.036354491331576325 -0.042924295658952984 0.018193198060037444 0.040091005631962065 0.0017446905479864552 0.019941028754579006 0.013217114254634232 0.0045389736063647908 -0.039390606775589906 0.00017868407735444406 -0.028204902537224581
leaf_weight=12.196115195751192 30.550182744860649 425.74512130022049 37.244602724909782 9.1536830216646212 22.747063517570496 13.930364727973936 16.243992909789085 7.4711567014455786 10.874072223901747 8.1291802227497119 7.9005330801010123 13.930695205926893 33.104415938258171 142.68419395387173 11.195056855678557 127.28459882736206 7.6847331076860419 277.29375427961349 34.520862430334091
leaf_count=49 124 1714 150 37 92 56 66 30 44 33 32 56 133 581 45 511 31 1115 139
internal_value=0.000763874 -0.00135908 -0.000132889 -0.0198544 0.00345872 0.0164399 0.0134982 -0.0131509 -0.00535769 0.00802659 -0.0128014 0.0230624 0.013102 0.016796 0.00126438 0.00814276 0.00203776 -0.00240285 -0.0180613
internal_weight=1249.88 1071.29 1004.68 66.6077 578.936 83.7125 178.595 19.6673 36.0575 25.1834 16.0297 69.7822 47.0351 158.928 495.224 172.214 134.969 323.01 45.7159
internal_count=5038 4312 4042 270 2328 337 726 79 146 102 65 281 189 647 1991 692 542 1299 184
is_linear=0
shrinkage=0.04


Tree=18
num_leaves=20
num_cat=0
split_feature=33 60 10 63 33 6 27 52 54 56 10 19 40 59 52 42 14 27 62
split_gain=19.6525 11.3888 12.2805 10.8545 10.8563 10.2004 12.4843 13.0468 12.9047 10.6816 9.72394 9.59052 9.26273 9.88224 10.0036 11.2773 11.0646 10.3214 9.14037
threshold=0.36149622512010987 8.5514835164835183 -0.058578431372549013 1.6556279963908642 0.40075757575757581 4.2970588235294125 5.2803508771929835 13.500000000000002 4.1255769230769239 0.97166199813258658 -2.7053413120567371 62.500000000000007 6.8882367632367645 8.4973684210526343 31.500000000000004 5.6067229645354653 7.1333333333333337 4.2466642946095012 3.3467372323004891
decision_type=2 2 2 2 2 2 2 2 2 2 2 2 2 2 2 2 2 2 2
left_child=-1 2 12 4 -3 6 7 8 9 -4 -6 -10 13 14 -2 16 -16 -18 -14
right_child=1 3 5 -5 10 -7 -8 -9 11 -11 -12 -13 18 -15 15 -17 17 -19 -20
leaf_value=0.013618261357476681 -0.0093960704931355631 -0.035160638819098276 -0.030520060358247249 0.025122953287943325 -0.047375000241816005 0.016161832069217986 0.048048721224227244 0.0077673059110732268 -0.0091159155997438037 0.021966830732643172 -0.0048808742555296802 -0.046074789611633429 0.051834310103660998 -0.029101173215668321 0.05452441051990875 -0.032479815388174633 -0.017481505523418251 0.02813368707401686 0.0043824290890004539
leaf_weight=164.47227793931961 147.57662278413773 21.073050275444984 8.7022148370742816 17.337565824389458 8.7965259253978711 131.31315882503986 8.9980737566947919 125.93309997022152 23.389906018972397 21.60752846300602 419.78057165443897 21.615097507834435 7.7166932374238959 29.069211602210999 10.714501500129698 7.974125698208808 14.450400128960608 17.607330366969109 41.0236586779356
leaf_count=670 594 85 35 70 36 529 37 508 94 87 1689 87 31 117 43 32 58 71 165
internal_value=0.000733818 -0.00121988 0.00234393 -0.00593378 -0.00713126 0.0074151 0.00195215 -0.000108889 -0.0132786 0.00689735 -0.00575306 -0.0268666 -0.00392879 -0.00732057 -0.00412808 0.0111919 0.0193337 0.0075721 0.0118951
internal_weight=1249.15 1084.68 617.692 466.988 449.65 341.559 210.246 201.248 75.3147 30.3097 428.577 45.005 276.133 227.392 198.323 50.7464 42.7722 32.0577 48.7404
internal_count=5038 4368 2488 1880 1810 1377 848 811 303 122 1725 181 1111 915 798 204 172 129 196
is_linear=0
shrinkage=0.04


Tree=19
num_leaves=20
num_cat=0
split_feature=30 52 59 9 8 50 65 59 10 34 40 10 40 61 20 39 46 13 48
split_gain=18.1925 14.9509 16.8813 11.8897 12.0772 10.7547 9.41033 9.8565 8.97275 8.96551 8.37046 11.6171 9.99761 9.31724 13.7429 9.05762 9.50458 12.9843 11.2785
threshold=-1.0816666666666663 31.500000000000004 11.003246753246756 2.8500000000000001 2.6333333333333337 1.2672935973523038 10.500000000000002 10.037412587412589 -1.0969982078853044 7.7071428571428582 5.2467934542237948 -2.4359318996415769 4.4462566844919786 8.2639226444406333 4.2250000000000005 9.5000000000000018 6.8472307104660066 0.39173060528559256 5.6205252100840344
decision_type=2 2 2 2 2 2 2 2 2 2 2 2 2 2 2 2 2 2 2
left_child=8 3 5 10 -5 -3 -7 -8 9 -1 12 -12 15 -14 -15 -2 18 -18 -17
right_child=1 2 -4 4 -6 6 7 -9 -10 -11 11 -13 13 14 -16 16 17 -19 -20
leaf_value=-0.042453398738883957 0.025749179558159568 0.018672291488521561 -0.016557906367346248 0.063549286263703431 0.0038758911519051298 0.02348597737415016 -0.0067111490093450937 0.02708451415268227 0.01571210020900058 0.011785125484869 -0.038020338302122918 0.0033608355656312111 -0.0072733386846392011 -0.0079535484345589665 -0.043705645685777644 -0.019779537036527607 -0.033763745914053317 -0.006405241153509462 0.013189629963000415
leaf_weight=8.9615420550107974 15.15316231548786 121.46146231889725 45.23726849257946 7.9383762478828457 17.149995520710945 28.047847732901573 104.41928978264332 15.91173669695854 158.31184849143028 10.696238875389097 11.444163575768469 210.68169045448303 76.197878897190094 31.416920304298401 38.021814435720444 21.85393200814724 31.669251009821892 224.60907030105591 69.080776959657669
leaf_count=36 61 490 182 32 69 113 420 64 647 43 47 848 308 127 154 88 128 903 278
internal_value=0.000705011 -0.00126412 0.00605517 -0.00431774 0.0227575 0.00984613 0.00262112 -0.00224225 0.0125472 -0.012941 -0.00524809 0.00122883 -0.00808014 -0.0169316 -0.0275299 -0.00452271 -0.00584384 -0.00978603 0.0052663
internal_weight=1248.26 1070.29 315.078 755.217 25.0884 269.84 148.379 120.331 177.97 19.6578 730.129 222.126 508.003 145.637 69.4387 362.366 347.213 256.278 90.9347
internal_count=5038 4312 1269 3043 101 1087 597 484 726 79 2942 895 2047 589 281 1458 1397 1031 366
is_linear=0
shrinkage=0.04


Tree=20
num_leaves=20
num_cat=0
split_feature=51 44 33 54 58 47 13 64 47 26 26 34 13 14 54 52 53 52 52
split_gain=16.1307 14.5169 12.1158 14.4413 11.0667 13.3471 14.3469 10.5902 10.3128 9.41375 15.0854 9.29821 8.9542 10.3302 8.89933 8.35815 9.04275 7.70241 9.17694
threshold=8.0645491639363609 1.9375735294117649 0.39223227752639522 4.4438502673796796 1.3858995835176178 7.6687281835811261 0.53869184707508067 8.4442283800999718 5.9117495236961188 5.7947368421052641 5.3416666666666677 8.2250000000000014 0.33150183150183155 7.7071428571428582 5.7007563025210102 69.500000000000014 9.8554945054945069 4.5000000000000009 12.500000000000002
decision_type=2 2 2 2 2 2 2 2 2 2 2 2 2 2 2 2 2 2 2
left_child=4 2 3 11 9 6 7 12 -4 10 -1 -2 -6 -14 -15 16 -10 -8 -19
right_child=1 -3 8 -5 5 -7 17 -9 15 -11 -12 -13 13 14 -16 -17 -18 18 -20
leaf_value=-0.0023615989392145971 0.011904818358113675 -0.039079205418907574 0.043331824098373495 0.028476504685456563 -0.04286815581909844 -0.027712515251673567 -0.014055849238982461 -0.031517840828059203 0.0010094530630872821 -0.029292322158759525 0.03166577179773572 -0.026367246703146635 0.026442868863768731 -0.029284285538136442 0.013269507163829011 0.027046991618649534 -0.035018804789625969 0.062460916024235744 0.008962663266250807
leaf_weight=336.72790360450745 30.410541072487831 12.597299605607985 9.443041652441023 64.972928106784821 7.8757367283105841 68.141138449311256 8.1879632025957125 32.909068524837494 522.94014821946621 18.799258753657341 22.221607074141502 15.250127524137495 18.86813585460186 18.167878150939941 13.863457933068274 19.283248424530029 11.389143154025076 8.9174215644598025 12.079904809594153
leaf_count=1359 124 51 38 267 32 276 33 133 2105 76 90 62 76 73 56 78 46 36 49
internal_value=-0.000659815 0.00346448 0.00426 0.0163615 -0.0056539 -0.0135557 -0.00557474 -0.01335 0.00188221 -0.00170014 -0.000255055 -0.000877602 -0.00317758 0.00296379 -0.0108666 0.0011752 0.000241517 0.0188509 0.031683
internal_weight=1253.05 686.286 673.689 110.634 566.759 189.011 120.87 91.6843 563.056 377.749 358.95 45.6607 58.7752 50.8995 32.0313 553.613 534.329 29.1853 20.9973
internal_count=5060 2771 2720 453 2289 764 488 370 2267 1525 1449 186 237 205 129 2229 2151 118 85
is_linear=0
shrinkage=0.04


Tree=21
num_leaves=20
num_cat=0
split_feature=51 44 33 54 3 33 12 46 43 57 0 60 62 43 64 16 28 29 16
split_gain=14.8752 13.3875 11.2085 13.397 10.7754 13.4664 9.71422 9.18832 15.5483 9.44992 9.86929 8.80512 9.53096 9.83744 12.2704 9.65687 9.351 9.33581 11.2771
threshold=8.0645491639363609 1.9375735294117649 0.39223227752639522 4.4438502673796796 4.2795363908275181 0.56711867491809254 0.68333333333333346 8.0982954545454557 1.2865715983363046 1.6238586413586418 4.9000000000000012 8.4097058823529434 4.9964680128224188 1.2302308802308806 6.2619526340659997 3.1214285714285719 -1.8999999999999997 -1.7888888888888885 2.4222222222222229
decision_type=2 2 2 2 2 2 2 2 2 2 2 2 2 2 2 2 2 2 2
left_child=4 2 3 -2 6 -6 -1 8 9 10 -4 12 13 -9 -15 -14 -16 -13 -19
right_child=1 -3 7 -5 5 -7 -8 11 -10 -11 -12 17 15 14 16 -17 -18 18 -20
leaf_value=-0.0092876570119754306 -0.00084193547366901746 -0.037540657473488552 -0.006765474731391957 0.027456647194188343 0.0036714285699374506 -0.01888734791260609 -0.040835682861440362 0.017759908930114136 0.025141320245073522 -0.043057695366867738 0.027964278049420553 0.027146990902781894 -0.029383780837489687 -0.045338623114319923 0.03714262416965762 0.0069484589407944808 -0.0017187700467880351 0.013252899988325788 -0.013543676339850066
leaf_weight=251.73285138607025 45.656119138002396 12.589174941182135 45.695459857583046 64.696499764919281 246.97628453373909 51.098908513784409 16.649345904588699 91.120857253670692 64.315644696354866 7.9483039975166312 18.34891365468502 11.938187673687933 24.057528704404831 8.9710845351219159 11.632283583283423 22.796491891145706 66.79430927336216 29.825139746069908 159.55252608656883
leaf_count=1019 186 51 184 267 997 206 67 368 259 32 74 48 97 36 47 92 269 120 641
internal_value=-0.000633597 0.00332792 0.00409201 0.0157487 -0.0054307 -0.000195813 -0.0112448 0.0018072 0.0108483 -0.00192065 0.00318471 -0.00108103 0.00434973 0.00856388 -0.00102391 -0.0117066 0.00404518 -0.00716075 -0.00932348
internal_weight=1252.4 685.939 673.349 110.353 566.457 298.075 268.382 562.997 136.308 71.9927 64.0444 426.688 225.373 178.519 87.3977 46.854 78.4266 201.316 189.378
internal_count=5060 2771 2720 453 2289 1203 1086 2267 549 290 258 1718 909 720 352 189 316 809 761
is_linear=0
shrinkage=0.04


Tree=22
num_leaves=20
num_cat=0
split_feature=23 7 60 47 58 43 25 52 65 47 4 53 24 47 45 60 63 26 23
split_gain=12.3296 12.918 10.7451 10.5547 10.22 9.77781 10.4904 9.52362 13.4001 11.0749 9.11434 9.06484 8.98605 9.33727 9.41399 9.38702 13.7412 9.47091 8.8805
threshold=4.4452991452991464 6.1558704453441306 8.2679395604395634 9.4927443609022593 1.1746874255775188 0.66944444444444451 6.366666666666668 40.500000000000007 1.0000000180025095e-35 12.200686592818949 4.6333333333333337 4.5413063909774438 6.2666666666666675 6.0012032085561504 1.5427407886231417 6.9365832696715053 1.2989627181384151 4.0954545454545466 4.2633618931048565
decision_type=2 2 2 2 2 2 2 2 2 2 2 2 2 2 2 2 2 2 2
left_child=1 2 3 11 -5 -4 -7 8 -2 -10 -11 12 13 14 -1 -15 -17 -18 -13
right_child=7 -3 5 4 -6 6 -8 -9 9 10 -12 18 -14 15 -16 16 17 -19 -20
leaf_value=0.054538339012410675 0.017607791426626936 -0.045102252163080142 -0.044429853255387376 0.046414700653321636 0.013270523710002936 -0.0024276320676243283 0.033372601960923669 0.006941046588936281 -0.010312957824964246 -0.0020888350042249661 0.054455244211709587 -0.010337159790786251 -0.01651313612041732 0.022452258773698046 0.0015725719610000938 -0.0238271528706193 -0.0094178843985962199 0.026272190592123493 0.0189122560686763
leaf_weight=15.576303049921991 32.502218946814537 8.8075206279754621 8.4336672276258451 18.388381808996201 78.135866224765778 278.20848622918129 13.742940545082091 90.715803012251854 428.6251246035099 11.17551811039448 7.7063353061676017 87.775664016604424 18.148306787014008 49.565714985132217 8.1933582574129087 25.525617688894272 19.58869457244873 30.294769123196602 20.48405034840107
leaf_count=63 131 36 34 75 319 1122 56 365 1730 45 31 357 74 201 33 103 79 123 83
internal_value=-0.000608498 0.00302633 0.00365707 0.00820399 0.0195847 -0.001969 -0.000742419 -0.00494482 -0.0071911 -0.00899223 0.0209888 0.00421162 0.0100591 0.0133012 0.0362811 0.00893048 4.27414e-05 0.0122571 -0.00480282
internal_weight=1251.59 680.869 672.062 371.677 96.5242 300.385 291.951 570.725 480.009 447.507 18.8819 275.152 166.893 148.744 23.7697 124.975 75.4091 49.8835 108.26
internal_count=5060 2758 2722 1510 394 1212 1178 2302 1937 1806 76 1116 676 602 96 506 305 202 440
is_linear=0
shrinkage=0.04


Tree=23
num_leaves=20
num_cat=0
split_feature=51 44 59 36 58 24 27 29 47 63 6 52 50 48 50 53 51 52 65
split_gain=13.3268 12.2766 10.8814 10.6276 10.1623 12.7247 10.0337 9.95932 9.4461 11.4959 12.772 10.3728 10.2161 9.29973 10.7292 9.3539 9.23663 9.21882 10.767
threshold=8.0645491639363609 1.9375735294117649 8.0347226303108688 2.7388888888888894 1.3858995835176178 7.5000000000000009 3.4825557809330632 -2.1714285714285713 7.6687281835811261 1.5375070428427529 3.9750000000000005 3.5000000000000004 1.3333823069238124 7.9553519642122597 1.2672935973523038 4.4993212669683267 10.099397577654544 22.500000000000004 16.500000000000004
decision_type=2 2 2 2 2 2 2 2 2 2 2 2 2 2 2 2 2 2 2
left_child=4 2 3 7 -1 8 -5 -2 9 -6 -11 -12 -13 15 17 -8 -16 18 -15
right_child=1 -3 -4 6 5 -7 13 -9 -10 10 11 12 -14 14 16 -17 -18 -19 -20
leaf_value=-0.0013370833770632968 0.052603761353926873 -0.036011358612844359 -0.0010992300843809886 0.03552536007641028 -0.017802792032424426 0.03799664856226672 0.05083659756532917 0.015063768722291019 -0.02700241561549474 0.046279153398256216 -0.042473475047217615 0.042001977119286452 -0.011068515892861766 0.0095579016593436462 -0.0011948760572466331 3.2816717381598507e-05 -0.028258720569046339 0.020103213971156223 -0.027813654074081273
leaf_weight=377.31807243824005 12.969655126333235 12.56135009229183 342.13825538754463 15.370873987674711 71.962475627660751 7.5997645258903495 11.848734840750696 88.222840026021004 65.289633378386497 10.658559337258337 8.3966619819402677 9.3312420696020144 15.351640194654463 34.75487819314003 54.172070264816284 11.355984091758726 32.152350708842278 50.327461004257202 19.121149241924286
leaf_count=1525 54 51 1380 62 291 31 48 358 265 43 34 38 62 141 219 46 130 205 77
internal_value=-0.000584267 0.00316841 0.0039003 0.00907908 -0.00512664 -0.0127085 0.00431055 0.0198752 -0.0148376 -0.00797307 0.00819982 -0.00406973 0.00899452 0.0020657 -0.000846148 0.0259741 -0.0112751 0.00779339 -0.00370564
internal_weight=1250.9 684.996 672.434 330.296 565.908 188.59 229.104 101.192 180.99 115.701 43.7381 33.0795 24.6829 213.733 190.528 23.2047 86.3244 104.203 53.876
internal_count=5060 2771 2720 1340 2289 764 928 412 733 468 177 134 100 866 772 94 349 423 218
is_linear=0
shrinkage=0.04


Tree=24
num_leaves=20
num_cat=0
split_feature=9 65 23 54 52 10 3 62 43 39 57 56 60 64 50 57 36 46 50
split_gain=12.8469 11.2276 9.96711 13.5717 9.71162 9.43438 12.2209 9.40379 10.2857 8.88589 8.585 15.3499 8.34569 14.7441 14.5212 13.5609 10.4896 8.98952 9.88239
threshold=-2.7499999999999996 1.0000000180025095e-35 4.4452991452991464 2.0232692307692313 1.5000000000000002 0.10050505050505053 4.3343313373253496 3.7000555594138484 1.4707107843137257 154.50000000000003 1.3428904428904433 1.5003267973856211 6.9365832696715053 8.1319662314686649 1.3124534683725864 1.2148634453781513 2.2250000000000005 10.048221515326782 1.1473268287779093
decision_type=2 2 2 2 2 2 2 2 2 2 2 2 2 2 2 2 2 2 2
left_child=-1 4 12 7 -2 9 -7 8 -4 10 -5 -12 13 14 17 -16 -14 18 -3
right_child=1 2 3 5 -6 6 -8 -9 -10 -11 11 -13 16 -15 15 -17 -18 -19 -20
leaf_value=-0.02051783989026798 -0.010887821521122297 -0.014879772907561784 -0.0078353701615948654 -0.018734471160526785 0.021501782441527534 0.023149245987321439 -0.0049994763114529963 0.042000695637411573 0.035521704630076464 -0.054037109881678688 0.014925627470515941 -0.016649210582066913 -0.016280089193174516 0.04020008060995027 0.01923433306625159 -0.017426069461305625 0.0021146653111000901 0.039274169149546199 0.022322681278915863
leaf_weight=49.564111635088921 19.082088157534599 17.885033488273621 31.480189099907875 119.28017535805702 66.182466253638268 28.264187604188919 194.47849124670029 13.903432339429854 12.127109438180922 8.1434989124536497 43.760460004210472 56.363519862294197 57.08347974717617 22.626819983124733 22.990717619657516 54.211686715483665 378.40988922119141 22.72062212228775 31.627325505018234
leaf_count=202 77 73 127 482 269 114 783 56 49 33 177 228 231 92 93 220 1530 94 130
internal_value=-0.000560987 0.000262873 -0.000806619 -0.00494265 0.014253 -0.00727965 -0.00142764 0.0133553 0.00422215 -0.0130081 -0.0114852 -0.00284903 0.00265032 0.0101087 0.00555243 -0.00650868 -0.000296477 0.0184433 0.00888428
internal_weight=1250.19 1200.62 1115.36 507.801 85.2646 450.29 222.743 57.5107 43.6073 227.548 219.404 100.124 607.556 172.062 149.435 77.2024 435.493 72.233 49.5124
internal_count=5060 4858 4512 2049 346 1817 897 232 176 920 887 405 2463 702 610 313 1761 297 203
is_linear=0
shrinkage=0.04


Tree=25
num_leaves=20
num_cat=0
split_feature=6 16 3 61 52 48 20 57 56 20 50 27 10 46 28 40 22 10 43
split_gain=11.2811 14.5073 12.6119 12.196 18.2148 12.2326 10.8605 10.227 15.7261 13.1609 12.682 10.7393 11.5468 10.5304 10.8614 10.1618 13.2219 9.84702 10.1428
threshold=4.8944444444444457 3.2750000000000004 4.3079814921920194 8.2337975453339247 2.5000000000000004 11.925877504848096 3.2666666666666671 1.4073214285714288 1.8740634365634368 5.4500000000000011 1.4140113486391062 4.8338641188959661 0.79730781201369449 9.5733979835953544 1.6333333333333335 9.5250000000000021 3.4472222222222229 0.42221607086365082 1.2002063983488136
decision_type=2 2 2 2 2 2 2 2 2 2 2 2 2 2 2 2 2 2 2
left_child=3 6 -3 4 -1 -5 -2 11 10 -10 13 12 17 14 -9 16 -8 -6 -19
right_child=1 2 -4 5 7 -7 15 8 9 -11 -12 -13 -14 -15 -16 -17 -18 18 -20
leaf_value=-0.013646109783947534 -0.033336750980447798 -0.013328630578895264 0.013855681184299702 -0.0042894629603849347 0.010157025600550811 0.031034009103912918 0.029851074831562775 0.0022063292000357418 0.033181971914493458 -0.024841974125263379 -0.03206332452056105 0.029910050395420665 0.026694456227181546 -0.019743215545403842 0.04647293371231264 0.026929788860078956 -0.014519508671022955 0.0096238457932920161 -0.033429279388511361
leaf_weight=63.19310300052166 34.79340036213398 41.732696652412415 78.99300529062748 410.47872231900692 116.4452735632658 16.309280514717102 11.544346019625662 53.438574954867363 33.957856804132462 7.6665368676185599 23.993411362171173 55.478075429797173 50.079217523336411 28.303429618477821 10.633262783288954 11.82075387239456 155.27218559384346 15.990218624472616 19.350138425827026
leaf_count=256 141 169 319 1657 470 66 47 217 139 31 97 228 204 115 43 48 629 65 78
internal_value=-0.000341967 -0.00662316 0.00445856 0.00197645 0.00636096 -0.00293961 -0.0128915 0.00940502 0.0013943 0.0224949 -0.00615326 0.0143231 0.0100394 0.000576575 0.00955275 -0.00890931 -0.0114489 0.00454433 -0.0139493
internal_weight=1239.47 334.156 120.726 905.317 478.529 426.788 213.431 415.336 157.993 41.6244 116.369 257.343 201.865 92.3753 64.0718 178.637 166.817 151.786 35.3404
internal_count=5019 1353 488 3666 1943 1723 865 1687 642 170 472 1045 817 375 260 724 676 613 143
is_linear=0
shrinkage=0.04


Tree=26
num_leaves=20
num_cat=0
split_feature=51 33 33 3 52 54 47 46 60 9 64 46 60 42 4 30 48 9 26
split_gain=10.9739 10.6895 10.6193 13.332 10.5889 9.58332 9.02799 8.84211 11.1011 9.5557 9.14513 8.52769 8.30284 10.9272 11.4616 10.6555 8.176 8.07003 7.83486
threshold=8.0645491639363609 0.38910093299406284 0.5366750358680058 4.2355042016806737 69.500000000000014 4.4438502673796796 5.9117495236961188 5.7687062937062947 7.1750126216494499 0.53571428571428581 7.1772686545521198 8.9973684210526343 8.0000840336134473 4.5519380619380625 5.1000000000000005 -0.39525506376594138 9.0013028612254633 -1.1499999999999997 4.0250000000000012
decision_type=2 2 2 2 2 2 2 2 2 2 2 2 2 2 2 2 2 2 2
left_child=2 5 3 12 6 16 -3 8 -4 10 17 18 13 -1 -15 -14 -2 -9 -12
right_child=1 4 7 -5 -6 -7 -8 9 -10 -11 11 -13 15 14 -16 -17 -18 -19 -20
leaf_value=-0.013438962963771896 0.021533434776713014 0.039900729786910588 -0.034815246645448918 0.0051018002821389321 0.030955706835936132 0.024667727351785063 -0.00076270654104990902 -0.01430483459269416 0.016791253954883879 -0.03689637024629467 -0.0105212272834507 0.019387515047287109 -0.036905431189991907 0.03091680114053753 -0.0136915408639081 -0.0071828460263723718 -0.012565325528446983 0.042554439170971223 -0.040345003108185146
leaf_weight=51.597137168049812 18.533279553055763 8.8780048191547376 8.8955357074737531 233.22453698515892 18.127752393484116 63.105610191822052 545.39830681681633 7.6075018197298077 26.648311391472816 33.607176586985588 31.86631315946579 8.4290171563625318 31.888476222753525 25.030033305287361 14.5863099694252 48.878901273012161 28.632395803928375 8.4079282730817777 25.27010652422905
leaf_count=209 76 36 36 943 74 263 2201 31 108 136 130 34 129 101 59 199 117 34 103
internal_value=-0.00032826 0.00306939 -0.00450048 -0.0011287 0.000872491 0.0144732 -0.000111388 -0.0135647 0.00387573 -0.0189463 -0.0115518 -0.0181708 -0.00957793 -0.00130762 0.0144925 -0.0189179 0.000833441 0.0155457 -0.0237116
internal_weight=1238.61 682.675 555.937 405.205 572.404 110.271 554.276 150.732 35.5438 115.188 81.5809 65.5654 171.981 91.2135 39.6163 80.7674 47.1657 16.0154 57.1364
internal_count=5019 2767 2252 1640 2311 456 2237 612 144 468 332 267 697 369 160 328 193 65 233
is_linear=0
shrinkage=0.04


Tree=27
num_leaves=20
num_cat=0
split_feature=6 16 26 48 65 19 34 20 40 22 3 63 22 57 51 20 43 43 60
split_gain=10.2077 13.3009 12.1589 10.2581 10.8439 10.8306 10.4747 9.9975 9.23493 12.1637 9.20349 8.65995 8.39656 9.58872 10.804 9.47167 8.23704 10.0651 9.50111
threshold=4.8944444444444457 3.2750000000000004 5.2426470588235299 12.000842346507982 1.0000000180025095e-35 9.5000000000000018 6.1500000000000012 3.2666666666666671 9.5250000000000021 3.4472222222222229 4.3079814921920194 1.9437062937062939 5.0954545454545466 1.4665476190476194 6.1590339485076333 4.4500000000000011 0.64365079365079381 1.0890873015873019 6.9825757575757583
decision_type=2 2 2 2 2 2 2 2 2 2 2 2 2 2 2 2 2 2 2
left_child=3 7 10 4 5 -1 -6 -2 9 -9 -3 16 13 14 -11 -16 -8 18 -18
right_child=1 2 -4 -5 6 -7 11 8 -10 12 -12 -13 -14 -15 15 -17 17 -19 -20
leaf_value=-0.011806831958061391 -0.031943637116231764 -0.017386003312855006 0.031669992632436604 0.023944199459932591 0.025906427355453295 0.025729459757451393 -0.030426290451993486 0.028724481430812413 0.0256492638898577 0.022774424738618473 0.0078125602091247276 0.028560663214570941 -0.027193981857633276 0.013873593966825153 -0.038246062140259551 -0.0078092354883010371 0.020014294508511072 -0.0040090996064216147 0.0011899523314934397
leaf_weight=16.268554270267487 34.70962555706501 36.965879932045937 21.395415857434273 32.534329280257225 23.83332684636116 50.404846176505089 15.552031368017195 11.532680496573446 11.842826694250105 10.845943018794058 62.235248059034348 15.527612492442129 50.778303354978561 25.656474426388741 27.630779266357422 40.099229976534843 58.27722929418087 529.13466623425484 162.5804912596941
leaf_count=66 141 150 87 133 97 206 63 47 48 44 251 64 207 104 112 162 238 2143 656
internal_value=-0.00031539 -0.00629448 0.00432119 0.00189139 0.0010682 0.0165705 -0.000215911 -0.0123022 -0.00848042 -0.0109074 -0.00157732 -0.001013 -0.0138559 -0.00735812 -0.0142907 -0.0202261 -0.00161284 -0.00101536 0.00615709
internal_weight=1237.81 333.692 120.597 904.113 871.579 66.6734 804.905 213.096 178.386 166.543 99.2011 781.072 155.011 104.232 78.576 67.73 765.544 749.992 220.858
internal_count=5019 1353 488 3666 3533 272 3261 865 724 676 401 3164 629 422 318 274 3100 3037 894
is_linear=0
shrinkage=0.04


Tree=28
num_leaves=20
num_cat=0
split_feature=13 65 55 43 52 19 52 61 33 51 49 2 41 65 27 15 46 50 63
split_gain=10.8684 11.5964 12.3184 10.7816 10.4474 9.748 10.2686 14.1915 11.1368 10.6014 9.93696 10.0061 9.26643 9.08192 8.83003 13.3089 10.9697 8.75313 8.60799
threshold=0.28623949579831937 2.5000000000000004 2.1017481203007526 0.98888888888888882 3.5000000000000004 158.50000000000003 31.500000000000004 10.400258858788272 0.57200460829493094 5.1364285714285716 4.0648756353024522 3.6214285714285719 4.320252100840337 29.500000000000004 3.8967607105538145 1.0500000000000003 7.0008928571428584 1.1798463416640497 1.4750202867308133
decision_type=2 2 2 2 2 2 2 2 2 2 2 2 2 2 2 2 2 2 2
left_child=3 4 -3 -1 -2 6 8 10 9 -4 11 -8 -5 -7 15 -10 -16 -13 -11
right_child=1 2 5 12 -6 13 7 -9 14 18 -12 17 -14 -15 16 -17 -18 -19 -20
leaf_value=0.025281373671137822 -0.0026504093623919874 0.019284488708211384 0.029889170631551602 -0.044876894903783444 0.018344778723600779 -0.050593739317626694 -0.0096148720129057598 -0.018309784924878753 -0.028646862182285987 -0.0055147895628228369 0.00149198986837523 0.0083271795334184957 -0.011522994641619218 -0.0020854047371233792 0.0013240648804547092 0.016277184368996351 -0.037651345377408357 0.033496574415941546 0.0071197559085020594
leaf_weight=9.5755300819873792 60.167469441890717 45.97384937107563 16.356503441929817 17.833336398005486 102.56740328669548 12.543514207005503 18.209950238466263 36.714928716421127 18.274935841560364 404.78517931699753 146.73320928215981 38.239994257688522 52.743386477231979 12.163921013474463 16.085633814334869 24.965179041028023 41.012662649154663 52.402426555752754 109.65003789961338
leaf_count=39 244 186 66 73 419 51 74 148 74 1637 594 156 217 49 65 101 166 214 446
internal_value=-0.00030294 0.000683969 -0.000936374 -0.0145471 0.0105823 -0.00191685 -0.00125343 0.00494467 -0.004124 -0.00181378 0.00828517 0.0174424 -0.0199509 -0.0267122 -0.0163451 -0.00270945 -0.0266713 0.0228782 -0.00282178
internal_weight=1237 1156.85 994.112 80.1523 162.735 948.138 923.431 292.301 631.13 530.792 255.586 108.852 70.5767 24.7074 100.338 43.2401 57.0983 90.6424 514.435
internal_count=5019 4690 4027 329 663 3841 3741 1186 2555 2149 1038 444 290 100 406 175 231 370 2083
is_linear=0
shrinkage=0.04


Tree=29
num_leaves=20
num_cat=0
split_feature=13 65 55 43 36 19 52 61 62 51 42 1 47 15 41 53 25 33 27
split_gain=10.0398 10.7004 11.3538 9.95302 9.81668 9.04356 9.1931 13.0635 11.8325 12.0059 11.2262 9.95984 8.89133 9.352 8.62842 8.61165 8.46912 7.91224 9.59758
threshold=0.28623949579831937 2.5000000000000004 2.1017481203007526 0.98888888888888882 3.0500000000000003 157.50000000000003 31.500000000000004 10.400258858788272 5.8773549244872783 5.1364285714285716 5.2923056722689088 4.0500000000000007 8.1762774725274756 1.1833333333333336 4.320252100840337 4.4151260504201693 5.3166666666666673 0.58705624252094146 3.5397225725094583
decision_type=2 2 2 2 2 2 2 2 2 2 2 2 2 2 2 2 2 2 2
left_child=3 4 -3 -1 12 6 8 10 9 -4 -8 -10 13 -2 -5 -9 -16 18 -11
right_child=1 2 5 14 -6 -7 7 15 11 17 -12 -13 -14 -15 16 -17 -18 -19 -20
leaf_value=0.02422464340317124 -0.0091414333761501623 0.01851393079414651 0.027054145215421356 -0.043344065805078595 0.0010502152854250004 -0.024192152572293735 0.011858330008143238 -0.03019714406255682 0.034490057281678428 0.024513547410066439 -0.010110122172829703 0.0012013703125265151 0.035120547885466466 0.030400880091723245 -0.019013994812796822 0.012194355310538991 0.021356381467098787 -0.019123077505649323 -0.0059984234230012895
leaf_weight=9.5931277871131879 22.620630979537964 45.97182160615921 17.318830117583275 17.727571353316307 87.346335515379906 28.105322808027267 208.85655280947685 25.778685495257378 21.610915213823318 17.111297652125359 45.288231864571571 42.983198910951614 35.992830574512482 16.586894005537033 42.30917152762413 10.913405179977415 10.347976595163344 72.065632864832878 457.65443605184555
leaf_count=39 92 186 70 73 355 114 850 104 88 69 183 175 148 68 175 44 42 292 1852
internal_value=-0.00029109 0.000656999 -0.00089937 -0.0139972 0.0101712 -0.0018411 -0.00115798 0.00472244 -0.00387807 -0.00573485 0.00794358 0.0123386 0.0207653 0.00758709 -0.0192067 -0.0175886 -0.0110806 -0.00677332 -0.00489872
internal_weight=1236.18 1156.21 993.658 79.9778 162.547 947.687 919.581 290.837 628.744 564.15 254.145 64.5941 75.2004 39.2075 70.3847 36.6921 52.6571 546.831 474.766
internal_count=5019 4690 4027 329 663 3841 3727 1181 2546 2283 1033 263 308 160 290 148 217 2213 1921
is_linear=0
shrinkage=0.04


Tree=30
num_leaves=20
num_cat=0
split_feature=52 22 57 51 16 10 25 16 48 51 43 60 34 52 16 51 26 40 30
split_gain=13.7054 11.2427 9.21122 12.029 10.2708 9.09662 8.24565 7.97068 7.13967 10.6139 7.96541 7.98372 6.7906 9.19789 6.71625 6.51895 8.30548 8.72754 10.3333
threshold=1.0000000180025095e-35 5.0513157894736844 0.8743977591036417 9.9969027698391937 1.5277777777777779 1.8580586080586083 4.7638888888888902 4.1333333333333337 12.000842346507982 11.774820380857534 0.64365079365079381 12.228816771463832 8.6125000000000025 19.500000000000004 4.3875000000000011 7.8197116766747188 5.1833333333333345 5.8290584415584421 -0.93218483100956262
decision_type=2 2 2 2 2 2 2 2 2 2 2 2 2 2 2 2 2 2 2
left_child=-1 2 3 6 -4 7 -2 -3 9 10 -6 15 13 -13 -9 -12 -17 -18 -19
right_child=1 5 4 -5 8 -7 -8 14 -10 -11 11 12 -14 -15 -16 16 17 18 -20
leaf_value=-0.015042296593088696 -0.028549828374658172 -0.00991014914024195 -0.040772011515214077 0.027289506455430372 -0.023422607630830032 0.0340742914003756 0.012887541067683925 0.045387430493529453 0.024173882593451587 -0.036249420327204518 0.001496388577814467 0.029617188279498743 -0.043426046582772417 -0.023937078184282774 -0.0037526437150984132 0.0065796399130014418 0.026181953303287174 -0.027799502612069267 0.032155729380064085
leaf_weight=83.795249193906784 38.128850355744362 206.62874664366245 7.8626356124877921 10.391296207904814 15.521164402365683 8.6695668399333936 9.6226264387369138 7.9238740056753185 30.455321252346039 10.125238403677939 284.2840584218502 8.635954633355146 9.1397796571254712 12.643703326582907 10.151234790682791 391.75863011181355 73.408935606479645 11.628430560231211 7.6090934872627249
leaf_count=344 154 838 32 42 63 35 39 32 125 41 1152 35 37 51 41 1589 304 48 31
internal_value=0.000577762 0.0017114 0.00369808 -0.0117123 0.00473623 -0.00613078 -0.0201996 -0.00768198 0.00515463 0.00445231 0.0049582 0.00550945 -0.0145889 -0.00220307 0.0177897 0.0063048 0.00912672 0.0198972 -0.00408517
internal_weight=1238.38 1154.59 921.216 58.1428 863.073 233.373 47.7515 224.704 855.21 824.755 814.63 799.109 30.4194 21.2797 18.0751 768.689 484.405 92.6465 19.2375
internal_count=5033 4689 3743 235 3508 946 193 911 3476 3351 3310 3247 123 86 73 3124 1972 383 79
is_linear=0
shrinkage=0.04


Tree=31
num_leaves=20
num_cat=0
split_feature=52 22 59 54 65 8 10 15 16 3 52 19 21 30 7 7 57 40 65
split_gain=12.6538 10.3677 8.92804 14.0646 10.395 9.76779 8.3878 9.80814 13.3343 8.77404 8.04532 7.68845 10.4013 8.24617 7.66893 9.08323 7.78834 7.60695 11.5188
threshold=1.0000000180025095e-35 5.0513157894736844 10.80097402597403 0.90000000000000024 3.5000000000000004 1.0000000180025095e-35 1.8580586080586083 1.4142857142857144 4.1333333333333337 3.668439716312057 51.500000000000007 113.50000000000001 4.3166666666666673 0.042019774011299436 4.1673333333333344 4.5807987711213523 0.99162280701754402 5.1401785714285726 15.500000000000002
decision_type=2 2 2 2 2 2 2 2 2 2 2 2 2 2 2 2 2 2 2
left_child=-1 2 3 -2 -4 17 7 8 9 -3 14 12 -7 -13 -11 -16 -17 -6 -19
right_child=1 6 4 -5 5 11 -8 -9 -10 10 -12 13 -14 -15 15 16 -18 18 -20
leaf_value=-0.014468680025316451 -0.036340701352121065 -0.02578318526353603 0.023305026380708953 0.0059473263867405061 -0.02908051508765739 -0.005924199999412778 0.032727467301168496 -0.023889122718670431 0.037809498680638133 -0.021417992837425289 0.027689167453228324 0.010084301098967878 0.034526331770941651 -0.04731706053771953 0.016158604937027733 0.025854948260580112 -0.01617282065825813 -0.042272783232637154 0.018253885145657442
leaf_weight=83.635933741927147 12.794679820537565 29.673267245292664 17.508854225277901 763.6036584675312 46.122753471136093 23.269517496228218 8.6653599441051465 45.823200523853302 11.874244332313536 33.21912993490696 13.364937037229536 7.4380960464477566 18.068587005138397 8.673944875597952 37.39303731918335 8.371296361088751 44.864890187978745 7.3772437870502499 15.816624268889425
leaf_count=344 52 122 71 3107 187 94 35 185 48 134 54 30 73 35 151 34 183 30 64
internal_value=0.000555111 0.00164403 0.00355243 0.00525044 -0.00558514 -0.00957541 -0.00588876 -0.00737873 -0.00314649 -0.00606057 -0.00179543 0.0026209 0.0117564 -0.0208178 -0.00497722 0.00104897 -0.00956403 -0.0196838 -0.000997754
internal_weight=1237.56 1153.92 920.674 776.398 144.276 126.767 233.249 224.584 178.761 166.887 137.213 57.4501 41.3381 16.112 123.848 90.6292 53.2362 69.3166 23.1939
internal_count=5033 4689 3743 3159 584 513 946 911 726 678 556 232 167 65 502 368 217 281 94
is_linear=0
shrinkage=0.04


Tree=32
num_leaves=20
num_cat=0
split_feature=51 26 63 15 33 33 44 23 61 40 24 59 64 0 13 36 47 65 42
split_gain=12.0435 13.7262 8.97118 7.81906 11.3694 9.92394 9.56989 7.77993 8.02088 7.95027 7.61432 11.0058 8.23295 7.48087 8.14549 8.85838 8.50397 9.26547 8.54265
threshold=8.0645491639363609 5.7071428571428582 0.85773109243697487 1.1339285714285716 0.25121359223300976 0.2814700704225353 0.98571428571428577 4.7685080469769474 5.3068365844681642 2.9558441558441562 5.2666666666666675 7.0042650444184984 8.5254743146318415 5.9000000000000012 0.50625097671511188 2.3875000000000006 6.834148606811147 42.500000000000007 6.4711011047775751
decision_type=2 2 2 2 2 2 2 2 2 2 2 2 2 2 2 2 2 2 2
left_child=3 2 -2 4 -1 -5 -7 8 -8 -10 11 -9 -12 14 16 -16 18 -18 -6
right_child=1 -3 -4 5 13 6 7 10 9 -11 12 -13 -14 -15 15 -17 17 -19 -20
leaf_value=-0.043962761552470968 -0.030890083255984885 0.025328544953535214 0.0032609505451614909 0.031771654283931666 -0.0052588323442145637 -0.028689393919365761 -0.033195024963719524 -0.036803381972704372 0.028258669954459657 0.0040499713192094396 -0.0061369212744230607 0.010406639882517615 -0.061180674535191389 -0.030596874162649206 -0.031107462382492068 0.012863662637487129 -0.011329028795462952 -0.043405061647952235 0.027295849829922728
leaf_weight=13.554779738187788 12.55593268573284 45.503030553460121 621.44515050947666 16.078351646661758 79.134468629956245 18.059148967266083 7.8709893375635138 10.575690597295759 26.213312596082687 126.20109549164772 8.9012061059474963 31.237943083047867 8.4988815635442716 19.220250815153122 8.3818811029195768 58.446660935878754 92.427288129925728 17.069809675216675 15.408024147152899
leaf_count=55 51 191 2524 66 322 73 32 43 106 512 36 127 35 78 34 237 378 70 63
internal_value=0.000533047 0.00410766 0.00258461 -0.00382556 -0.00815593 0.00135857 -0.000699837 0.00160299 0.00618014 0.00821356 -0.0107869 -0.00153393 -0.0330224 -0.00648281 -0.00477173 0.00734864 -0.00874148 -0.0163295 4.67537e-05
internal_weight=1236.78 679.504 634.001 557.28 303.643 253.637 237.558 219.499 160.285 152.414 59.2137 41.8136 17.4001 290.088 270.868 66.8285 204.04 109.497 94.5425
internal_count=5033 2766 2575 2267 1237 1030 964 891 650 618 241 170 71 1182 1104 271 833 448 385
is_linear=0
shrinkage=0.04


Tree=33
num_leaves=20
num_cat=0
split_feature=52 22 59 54 65 2 48 58 36 54 27 21 33 53 29 10 57 29 48
split_gain=11.1624 9.41538 8.20431 12.8623 9.67469 10.9771 10.0585 7.75278 10.211 9.37785 11.8631 7.83029 7.71552 11.0086 8.70087 7.70271 7.29483 8.53856 6.93072
threshold=1.0000000180025095e-35 5.0645833333333341 10.80097402597403 0.90000000000000024 3.5000000000000004 3.6214285714285719 9.2981898345462604 1.0682579185520364 2.6333333333333337 3.6003896103896111 3.930901856763926 4.7250000000000005 0.51153914432806691 5.7116133866133882 -0.87857142857142845 1.8580586080586083 0.8743977591036417 2.6333333333333337 12.000842346507982
decision_type=2 2 2 2 2 2 2 2 2 2 2 2 2 2 2 2 2 2 2
left_child=-1 2 3 -2 -4 6 -6 8 -7 11 -11 -9 13 14 -12 -3 -5 18 -18
right_child=1 15 4 16 5 7 -8 9 -10 10 12 -13 -14 -15 -16 -17 17 -19 -20
leaf_value=-0.013625119281841045 -0.034820799031093072 -0.0070915327333020703 0.02246705754281185 -0.011890087429375916 -0.053303897413674042 -0.022664022111739155 0.0035608479877280086 -0.039131588539958698 0.033961685611278256 0.040231518963281934 -0.0081771168279538581 0.0055919827137924996 -0.040305422111739618 -0.029133531663358157 0.04743303585271056 0.031368423131900122 0.0052366111188639278 0.04131073106443349 0.026920907296948259
leaf_weight=83.338638976216316 12.779036194086073 223.77453030645847 17.49379825592041 36.1662677526474 15.114558294415476 7.4054199606180218 7.4203950464725486 22.714680314064029 16.332697063684464 9.9385629296302778 8.6287223994731885 8.6484315246343595 9.3949068933725339 11.583910167217253 9.4119911044836098 8.6541628241538984 691.80024908483028 11.111756399273871 24.415784358978271
leaf_count=344 52 909 71 146 62 30 30 92 66 40 35 35 38 47 38 35 2817 45 101
internal_value=0.000511927 0.00153394 0.00335058 0.00497766 -0.00541529 -0.0092683 -0.0345793 -0.00378699 0.0162965 -0.00972247 0.00121694 -0.026799 -0.00872037 0.00129625 0.0208352 -0.00565953 0.00564379 0.00651566 0.00597583
internal_weight=1236.13 1152.79 920.361 776.273 144.088 126.594 22.535 104.059 23.7381 80.3212 48.9581 31.3631 39.0195 29.6246 18.0407 232.429 763.494 727.328 716.216
internal_count=5033 4689 3745 3161 584 513 92 421 96 325 198 127 158 120 73 944 3109 2963 2918
is_linear=0
shrinkage=0.04


Tree=34
num_leaves=20
num_cat=0
split_feature=51 26 41 46 47 42 46 49 53 30 53 44 23 46 58 30 15 47 51
split_gain=10.7251 11.1702 10.392 8.919 11.2755 8.67889 8.44151 14.8964 9.65499 8.73022 8.44023 9.69095 8.72824 8.38454 8.37876 7.92626 7.84679 10.7159 12.239
threshold=8.0000668449197878 5.7071428571428582 1.7121428571428574 5.1244318181818196 8.6034478021978025 5.3914334195216549 8.0982954545454557 3.9758188433680153 4.6175460568842928 0.44482496194824966 4.571771978021979 1.3788944388944391 4.4033672891907196 8.3688259109311769 0.97204743396214333 -0.77448416158093558 0.89444444444444449 7.6200412087912097 6.1883149551686714
decision_type=2 2 2 2 2 2 2 2 2 2 2 2 2 2 2 2 2 2 2
left_child=2 5 -1 15 16 6 7 -2 -9 -10 11 -6 -12 -8 -7 -4 17 18 -5
right_child=1 -3 3 4 10 14 13 8 9 -11 12 -13 -14 -15 -16 -17 -18 -19 -20
leaf_value=-0.029363746373874726 0.00051507900723706521 0.022654874506557513 0.032979201598030035 -0.039130011184825231 0.0073794614614382491 -0.045640302107741115 -0.020435501965669539 0.037850238010721127 -0.011427945768312542 0.04069214651996185 0.022678042193325105 0.059021961206492217 -0.035842397569966739 0.0029731108607897196 -0.0048272537289985882 0.0029056259855064696 -0.0034382061520262341 -0.03123862707352041 0.0039877710935263206
leaf_weight=24.213647976517677 73.986524432897568 46.71804091334343 18.135286197066307 13.473058447241781 12.788652628660204 8.8254815489053708 26.145833060145378 43.014236733317375 15.520865499973299 7.6895674467086783 8.1478510499000567 10.660352379083632 8.1635758876800519 384.72801338136196 91.388324737548828 61.827345088124275 287.57957091927528 44.093249127268791 48.269150212407112
leaf_count=98 301 197 74 55 52 36 106 175 63 31 33 43 33 1564 371 251 1172 182 196
internal_value=0.000491599 0.00376168 -0.00375622 -0.00254787 -0.00481362 0.00240646 0.00437551 0.0128502 0.0266311 0.00583933 0.0154863 0.0308571 -0.00661039 0.00148351 -0.00842152 0.00972622 -0.00686523 -0.0161773 -0.00542116
internal_weight=1235.37 698.017 537.352 513.138 433.175 651.299 551.085 140.211 66.2247 23.2104 39.7604 23.449 16.3114 410.874 100.214 79.9626 393.415 105.835 61.7422
internal_count=5033 2844 2189 2091 1766 2647 2240 570 269 94 161 95 66 1670 407 325 1605 433 251
is_linear=0
shrinkage=0.04


Tree=35
num_leaves=20
num_cat=0
split_feature=14 33 15 2 45 52 10 52 44 23 2 43 47 46 40 0 58 62 6
split_gain=8.77848 9.00024 10.676 11.5318 8.22944 7.62717 7.68235 9.87041 8.40716 7.79201 7.44604 7.20216 8.26797 8.21073 8.34881 8.2004 8.99185 7.76876 7.13562
threshold=11.550000000000002 0.36149622512010987 0.68333333333333346 3.6794871794871802 1.3014609952168004 69.500000000000014 0.95555311676909582 5.5000000000000009 0.78474310776942369 4.2388833992094872 5.5607142857142859 0.94480519480519509 5.0321848739495811 4.3062500000000012 5.2006493506493525 2.9000000000000004 1.5332457145537643 3.845676700974352 4.3717105263157903
decision_type=2 2 2 2 2 2 2 2 2 2 2 2 2 2 2 2 2 2 2
left_child=1 2 3 -1 -4 6 8 9 -3 -8 -6 15 13 17 -15 -10 -17 -13 -14
right_child=-2 5 4 -5 10 -7 7 -9 11 -11 -12 12 18 14 -16 16 -18 -19 -20
leaf_value=0.011097657463868095 -0.038673234180351457 -0.024468712347528489 0.023395393705588529 -0.051617029069787067 0.0087605515617756678 0.021643328847225737 0.013765704162967017 0.012169449923129802 0.031278140473522953 -0.022511175742274556 -0.029533887250358559 -0.033926916731506274 -0.0090187624212570358 0.0083999827919373354 0.063364847365174434 0.0075494644015099326 -0.029268410452601309 0.018387639214703363 -0.0010145627387850259
leaf_weight=9.7702153176069277 9.3172703534364683 28.170139208436012 65.469714239239693 9.0240145325660688 62.895743429660797 23.290007263422012 14.320259660482405 122.79023543000221 19.04915526509285 27.990238800644875 9.329092010855673 7.8218145072460201 320.25496165454388 9.3241026848554629 8.4092825055122358 74.364387810230255 12.380240023136137 10.830696851015089 401.75864213705063
leaf_count=40 38 114 276 37 259 96 58 499 77 114 38 32 1299 38 34 301 50 44 1635
internal_value=7.62858e-06 0.000298921 0.00926457 -0.0190147 0.0131245 -0.000999267 -0.00149796 0.00642835 -0.00296444 -0.010233 0.00381416 -0.00226347 -0.00362732 0.0149771 0.0344647 0.00751352 0.0022948 -0.00355014 -0.00456489
internal_weight=1246.56 1237.24 156.489 18.7942 137.695 1080.75 1057.46 165.101 892.363 42.3105 72.2248 864.193 758.4 36.3859 17.7334 105.794 86.7446 18.6525 722.014
internal_count=5079 5041 650 77 573 4391 4295 671 3624 172 297 3510 3082 148 72 428 351 76 2934
is_linear=0
shrinkage=0.04


Tree=36
num_leaves=20
num_cat=0
split_feature=30 52 64 41 23 51 30 62 52 21 60 57 27 53 29 36 27 35 27
split_gain=8.82151 10.2649 12.7178 9.47086 11.5418 8.81334 8.02931 7.41016 7.64589 7.36571 7.18112 9.10486 8.534 6.72353 6.71006 14.4832 7.47529 7.13497 6.99421
threshold=-1.0816666666666663 31.500000000000004 10.93849470327998 3.9606766917293235 4.1179633143580014 10.472817195992967 2.4031250000000006 4.2985186382245208 17.500000000000004 6.5500000000000007 8.132176573426575 1.2209307359307362 5.580729166666667 3.350000000000001 -1.0499999999999998 3.2928571428571431 5.0814667330346781 1.1714285714285715 5.0814667330346781
decision_type=2 2 2 2 2 2 2 2 2 2 2 2 2 2 2 2 2 2 2
left_child=3 6 -3 7 5 10 9 8 -1 14 12 -12 -5 -4 15 18 -16 -17 -2
right_child=1 2 13 4 -6 -7 -8 -9 -10 -11 11 -13 -14 -15 16 17 -18 -19 -20
leaf_value=0.026764655337636053 -0.024975190919108398 0.0068239656968826683 -0.044941315412601164 0.0096181071799389534 0.027901970593974285 0.030134229458966443 0.022622167222132502 0.025926399079005891 -0.023787243058645786 -0.022775774838324669 0.005341754363858065 -0.045873475588039253 -0.028639908404162473 0.002039975403308057 -0.00093981182297259895 0.017283454674693138 -0.026720916674045424 -0.017085516664237247 0.014646072761709912
leaf_weight=8.2699813842773455 78.595918148756027 294.50921748578548 12.060278728604318 30.814121276140213 19.100154489278793 9.1419952660799009 17.858112469315529 58.078930333256721 11.366839766502379 33.751282408833504 8.3327005505561846 16.653947740793228 13.379404082894323 8.1791478991508466 554.33399756252766 31.047694250941277 18.598463162779808 14.032507359981535 7.8396021574735633
leaf_count=34 319 1196 49 127 79 38 73 247 47 138 34 68 55 33 2251 126 76 57 32
internal_value=7.50483e-06 -0.00135368 0.00471615 0.00832988 2.20106e-05 -0.00677698 -0.00388056 0.0187444 -0.00249748 -0.0045217 -0.0116547 -0.0287939 -0.00196435 -0.0259553 -0.00364712 -0.0117953 -0.00177671 0.00658513 -0.0213816
internal_weight=1245.94 1070.81 314.749 175.138 97.4223 78.3222 756.058 77.7158 19.6368 738.199 69.1802 24.9866 44.1935 20.2394 704.448 131.516 572.932 45.0802 86.4355
internal_count=5079 4350 1278 729 401 322 3072 328 81 2999 284 102 182 82 2861 534 2327 183 351
is_linear=0
shrinkage=0.04


Tree=37
num_leaves=20
num_cat=0
split_feature=30 24 26 57 6 23 13 5 3 50 8 64 22 32 52 6 58 0 62
split_gain=8.14955 9.76972 10.423 11.0549 8.7414 8.67545 9.09867 8.51245 9.67354 8.28789 8.77398 8.01773 7.88751 7.6562 9.50167 9.17863 7.52911 7.27978 8.65203
threshold=-1.0816666666666663 3.6333333333333337 4.3875000000000011 1.0702329192546587 5.5857142857142863 2.7559523809523814 0.42812219227313569 4.6125000000000007 5.5638586956521747 1.2740143273908757 -2.0999999999999996 8.0705917298260967 4.0954545454545466 0.43650793650793657 57.500000000000007 3.1375000000000006 0.89649557550292858 4.4500000000000011 5.2968843407808484
decision_type=2 2 2 2 2 2 2 2 2 2 2 2 2 2 2 2 2 2 2
left_child=5 2 4 -4 7 -1 9 8 13 -7 -11 -6 -9 -2 15 -15 -3 18 -8
right_child=1 16 3 -5 11 6 17 12 -10 10 -12 -13 -14 14 -16 -17 -18 -19 -20
leaf_value=-0.01756548409702163 -0.021208492069256089 -0.025572503604466616 0.044478751044645763 0.0086357496890583536 0.0030994344302283168 0.029189804461430137 -0.0056595867926127995 -0.0035399034728223417 0.035222507438880869 0.015128406337479408 -0.031066095063688057 -0.035704241025592401 0.021162465080863894 0.031620241841143454 0.030739845357977798 -0.0064007691673867474 -0.0034450261775757175 0.02582677419828994 0.027992128854077349
leaf_weight=18.913732871413231 34.163018450140953 25.592655837535858 17.576280891895294 63.539644837379456 15.211012527346609 8.4126456677913648 35.67916265130043 31.430985987186432 10.589754208922384 9.8313165754079801 19.884110853075985 19.367530182003975 60.471988096833229 11.016252413392065 14.328462421894072 130.54850994050503 636.68831953406334 63.418138936161995 18.595388129353523
leaf_count=78 139 104 71 258 62 35 149 128 43 40 81 80 245 45 58 529 2588 267 79
internal_value=7.37336e-06 -0.00129997 0.00356707 0.0164022 0.000384401 0.00801688 0.0111221 0.0026324 -0.00198543 -0.00585988 -0.0157827 -0.0186346 0.0127142 -0.00405862 -0.000300331 -0.00344206 -0.0043001 0.0166236 0.00587007
internal_weight=1245.26 1070.52 408.243 81.1159 327.128 174.734 155.821 292.549 200.646 38.1281 29.7154 34.5785 91.903 190.056 155.893 141.565 662.281 117.693 54.2746
internal_count=5079 4350 1658 329 1329 729 651 1187 814 156 121 142 373 771 632 574 2692 495 228
is_linear=0
shrinkage=0.04


end of trees

feature_importances:
home_sp_games_started=51
home_season_avg_margin=28
away_season_win_rate=28
home_sp_season_k9=28
away_sp_last_5_k9=23
away_season_avg_margin=21
away_sp_games_started=19
away_sp_season_k9=18
home_season_win_rate=17
away_last_20_avg_runs_allowed=17
home_sp_last_10_k9=17
home_season_avg_runs_scored=16
away_sp_last_5_era=16
away_sp_last_5_whip=16
away_sp_season_whip=16
away_season_avg_runs_scored=15
home_sp_last_3_whip=15
away_season_avg_runs_allowed=14
home_sp_last_3_k9=14
home_sp_last_5_k9=14
away_last_10_avg_margin=13
home_sp_last_5_whip=13
home_last_10_avg_bb_scored=12
home_sp_season_era=12
away_sp_last_3_era=12
away_sp_season_era=12
home_season_avg_runs_allowed=11
home_sp_last_5_era=11
home_sp_season_whip=11
away_sp_last_3_k9=11
home_last_20_avg_runs_allowed=10
away_last_20_avg_runs_scored=10
home_sp_last_3_era=10
away_sp_last_10_whip=10
home_last_5_avg_runs_allowed=9
home_last_10_avg_hr_scored=9
home_games_played_season=9
away_sp_last_10_k9=9
home_last_20_avg_runs_scored=8
home_last_10_avg_hits_scored=8
away_last_10_avg_bb_scored=8
home_sp_last_10_era=8
away_sp_last_10_era=8
away_last_5_avg_runs_allowed=7
away_last_10_avg_runs_allowed=7
home_last_10_avg_margin=6
away_last_5_avg_runs_scored=6
away_last_10_avg_runs_scored=6
away_games_played_season=6
away_sp_last_3_whip=6
home_last_5_avg_runs_scored=5
home_last_10_avg_runs_scored=5
home_last_5_avg_margin=5
away_last_5_avg_margin=5
away_last_10_avg_hits_scored=5
away_last_10_avg_hr_scored=4
home_last_10_avg_runs_allowed=3
home_sp_last_10_whip=3
home_last_10_win_rate=2
away_last_10_win_rate=2
home_last_5_win_rate=1
away_last_5_win_rate=1

parameters:
[boosting: gbdt]
[objective: binary]
[metric: binary_logloss,auc]
[tree_learner: serial]
[device_type: cpu]
[data_sample_strategy: bagging]
[data: ]
[valid: ]
[num_iterations: 1000]
[learning_rate: 0.04]
[num_leaves: 20]
[num_threads: 0]
[seed: 42]
[deterministic: 0]
[force_col_wise: 0]
[force_row_wise: 0]
[histogram_pool_size: -1]
[max_depth: -1]
[min_data_in_leaf: 30]
[min_sum_hessian_in_leaf: 0.001]
[bagging_fraction: 0.8]
[pos_bagging_fraction: 1]
[neg_bagging_fraction: 1]
[bagging_freq: 5]
[bagging_seed: 400]
[bagging_by_query: 0]
[feature_fraction: 0.8]
[feature_fraction_bynode: 1]
[feature_fraction_seed: 30056]
[extra_trees: 0]
[extra_seed: 12879]
[early_stopping_round: 0]
[early_stopping_min_delta: 0]
[first_metric_only: 0]
[max_delta_step: 0]
[lambda_l1: 0]
[lambda_l2: 0]
[linear_lambda: 0]
[min_gain_to_split: 0]
[drop_rate: 0.1]
[max_drop: 50]
[skip_drop: 0.5]
[xgboost_dart_mode: 0]
[uniform_drop: 0]
[drop_seed: 17869]
[top_rate: 0.2]
[other_rate: 0.1]
[min_data_per_group: 100]
[max_cat_threshold: 32]
[cat_l2: 10]
[cat_smooth: 10]
[max_cat_to_onehot: 4]
[top_k: 20]
[monotone_constraints: ]
[monotone_constraints_method: basic]
[monotone_penalty: 0]
[feature_contri: ]
[forcedsplits_filename: ]
[refit_decay_rate: 0.9]
[cegb_tradeoff: 1]
[cegb_penalty_split: 0]
[cegb_penalty_feature_lazy: ]
[cegb_penalty_feature_coupled: ]
[path_smooth: 0]
[interaction_constraints: ]
[verbosity: -1]
[saved_feature_importance_type: 0]
[use_quantized_grad: 0]
[num_grad_quant_bins: 4]
[quant_train_renew_leaf: 0]
[stochastic_rounding: 1]
[linear_tree: 0]
[max_bin: 255]
[max_bin_by_feature: ]
[min_data_in_bin: 3]
[bin_construct_sample_cnt: 200000]
[data_random_seed: 175]
[is_enable_sparse: 1]
[enable_bundle: 1]
[use_missing: 1]
[zero_as_missing: 0]
[feature_pre_filter: 1]
[pre_partition: 0]
[two_round: 0]
[header: 0]
[label_column: ]
[weight_column: ]
[group_column: ]
[ignore_column: ]
[categorical_feature: ]
[forcedbins_filename: ]
[precise_float_parser: 0]
[parser_config_file: ]
[objective_seed: 16083]
[num_class: 1]
[is_unbalance: 0]
[scale_pos_weight: 1]
[sigmoid: 1]
[boost_from_average: 1]
[reg_sqrt: 0]
[alpha: 0.9]
[fair_c: 1]
[poisson_max_delta_step: 0.7]
[tweedie_variance_power: 1.5]
[lambdarank_truncation_level: 30]
[lambdarank_norm: 1]
[label_gain: ]
[lambdarank_position_bias_regularization: 0]
[eval_at: ]
[multi_error_top_k: 1]
[auc_mu_weights: ]
[num_machines: 1]
[local_listen_port: 12400]
[time_out: 120]
[machine_list_filename: ]
[machines: ]
[gpu_platform_id: -1]
[gpu_device_id: -1]
[gpu_use_dp: 0]
[num_gpu: 1]

end of parameters

pandas_categorical:[]
