tree
version=v4
num_class=1
num_tree_per_iteration=1
label_index=0
max_feature_idx=43
objective=regression
feature_names=home_last_5_avg_pts_scored home_last_10_avg_pts_scored home_last_20_avg_pts_scored home_season_avg_pts_scored home_last_5_avg_pts_allowed home_last_10_avg_pts_allowed home_last_20_avg_pts_allowed home_season_avg_pts_allowed home_last_5_avg_margin home_last_10_avg_margin home_season_avg_margin home_last_5_win_rate home_last_10_win_rate home_season_win_rate home_last_10_avg_possessions home_season_avg_possessions home_last_5_avg_fg_pct home_last_10_avg_fg_pct home_days_rest home_is_back_to_back home_games_played_season home_is_playoffs away_last_5_avg_pts_scored away_last_10_avg_pts_scored away_last_20_avg_pts_scored away_season_avg_pts_scored away_last_5_avg_pts_allowed away_last_10_avg_pts_allowed away_last_20_avg_pts_allowed away_season_avg_pts_allowed away_last_5_avg_margin away_last_10_avg_margin away_season_avg_margin away_last_5_win_rate away_last_10_win_rate away_season_win_rate away_last_10_avg_possessions away_season_avg_possessions away_last_5_avg_fg_pct away_last_10_avg_fg_pct away_days_rest away_is_back_to_back away_games_played_season away_is_playoffs
feature_infos=[0:136] [0:136] [0:136] [0:138] [0:140] [0:140] [0:140] [0:140] [-36:38.5] [-36:38.5] [-36:38.5] [0:1] [0:1] [0:1] [0:111.03999999999999] [0:116.63999999999999] [0:0.58620689655172409] [0:0.58620689655172409] [1:14] [0:1] [0:25] none [0:140] [0:140] [0:140] [0:140] [0:134.19999999999999] [0:130.59999999999999] [0:128.94444444444446] [0:141] [-25:36] [-21.5:36] [-21.5:36] [0:1] [0:1] [0:1] [0:113.2] [0:125.59999999999999] [0:0.54920100925147186] [0:0.54920100925147186] [1:14] [0:1] [0:24] none
tree_sizes=1001 1121 1047 1203 1112 1211 1125 1210 1132

Tree=0
num_leaves=11
num_cat=0
split_feature=31 5 11 0 14 37 5 30 35 6
split_gain=8580.08 6450.1 2763.12 2275.73 2140.82 1683.4 1144.47 850.552 556.86 544.662
threshold=-2.7638888888888884 119.26111111111113 0.77500000000000013 113.30000000000003 102.21866666666668 104.26421052631581 122.72500000000001 9.3000000000000025 0.54006410256410264 113.69642857142858
decision_type=2 2 2 2 2 2 2 2 2 2
left_child=2 3 5 4 -2 -1 -3 8 -5 -10
right_child=1 6 -4 7 -6 -7 -8 -9 9 -11
leaf_value=1.2576014851846185 0.82375533194979433 0.96846687026232114 1.8590589752352986 1.3291134218888307 1.3742168704113329 1.6316905545591174 0.62152721515670561 1.1793597269865266 1.7102168702921237 1.4348094627390158
leaf_weight=39 26 32 38 29 20 38 29 21 20 27
leaf_count=39 26 32 38 29 20 38 29 21 20 27
internal_value=1.30366 1.1479 1.57996 1.2948 1.06309 1.44222 0.803528 1.40469 1.46695 1.552
internal_weight=319 204 115 143 46 77 61 97 76 47
internal_count=319 204 115 143 46 77 61 97 76 47
is_linear=0
shrinkage=1


Tree=1
num_leaves=12
num_cat=0
split_feature=28 6 1 8 16 15 30 25 36 22 28
split_gain=7933.59 5830.16 2519.73 2107.26 1479.08 1256.96 1209.14 940.7 873.583 657.722 472.828
threshold=117.72500000000001 119.39015151515153 114.52777777777779 7.1000000000000005 0.46374543953606934 105.35618181818184 5.9000000000000012 114.37121212121214 102.48200000000001 111.90000000000002 114.07878787878789
decision_type=2 2 2 2 2 2 2 2 2 2 2
left_child=1 2 8 5 -3 7 9 -2 -1 -4 -11
right_child=3 4 6 -5 -6 -7 -8 -9 -10 10 -12
leaf_value=-0.34106283419662048 0.46107013364632926 -0.33143053136553086 0.035494132936000823 0.55899849861860273 -0.76263967561721802 -0.091113519100915821 -0.099580942869186409 0.12978723108768464 -0.011346984624862671 0.16221503225239839 0.42159878228021702
leaf_weight=36 24 35 24 32 20 21 30 32 20 22 23
leaf_count=36 24 35 24 32 20 21 30 32 20 22 23
internal_value=0.00929565 -0.13442 -0.0088727 0.286178 -0.488234 0.172799 0.112424 0.271766 -0.223307 0.204599 0.294789
internal_weight=319 210 155 109 55 77 99 56 56 69 45
internal_count=319 210 155 109 55 77 99 56 56 69 45
is_linear=0
shrinkage=0.04


Tree=2
num_leaves=11
num_cat=0
split_feature=31 5 11 0 14 37 22 30 35 42
split_gain=7403.66 5571.31 2382.09 1968.77 1925.07 1528.58 1074.15 723.427 499.889 831.879
threshold=-2.7638888888888884 119.26111111111113 0.77500000000000013 113.30000000000003 102.21866666666668 104.26421052631581 118.90000000000002 9.3000000000000025 0.54006410256410264 12.500000000000002
decision_type=2 2 2 2 2 2 2 2 2 2
left_child=2 3 5 4 -2 -1 -3 8 -5 -10
right_child=1 6 -4 7 -6 -7 -8 -9 9 -11
leaf_value=-0.038229864682906713 -0.44170903077492346 -0.31594030102094012 0.52472684148110849 0.029796924950747657 0.080279075622558593 0.31824227496197349 -0.65723948860168468 -0.10483645938691639 0.40571851794918379 0.069075653967650044
leaf_weight=39 26 36 38 29 20 38 25 21 24 23
leaf_count=39 26 36 38 29 20 38 25 21 24 23
internal_value=0.00892382 -0.135761 0.265581 0.000766968 -0.214758 0.137691 -0.455817 0.102975 0.160396 0.240978
internal_weight=319 204 115 143 46 77 61 97 76 47
internal_count=319 204 115 143 46 77 61 97 76 47
is_linear=0
shrinkage=0.04


Tree=3
num_leaves=13
num_cat=0
split_feature=28 6 0 4 16 14 15 15 31 30 4 29
split_gain=6845.18 5006.55 2923.19 1857.11 1356.71 1270.27 1254.14 1408.95 815.968 688.53 650.043 431.882
threshold=117.72500000000001 119.39015151515153 113.67500000000001 109.63333333333334 0.46374543953606934 102.24200000000002 105.84714285714288 103.58200000000001 -7.0499999999999989 9.3000000000000025 118.10000000000001 115.13392857142858
decision_type=2 2 2 2 2 2 2 2 2 2 2 2
left_child=1 2 5 -2 -3 -1 7 8 -5 10 11 -4
right_child=3 4 9 6 -6 -7 -8 -9 -10 -11 -12 -13
leaf_value=-0.4020173819859823 0.61405020330846316 -0.30262196636199951 0.13988858539977986 0.29492111282348632 -0.7156079263687134 0.001975765824317932 -0.091411080479621876 0.52395100054533583 -0.043296207320832066 -0.081546823544935754 -0.02636097652465105 0.35560298001324692
leaf_weight=33 20 35 33 25 20 20 20 23 21 22 20 27
leaf_count=33 20 35 33 25 20 20 20 23 21 22 20 27
internal_value=0.00856687 -0.124927 -0.00858519 0.265757 -0.452799 -0.249567 0.187488 0.268329 0.140518 0.116631 0.17113 0.23696
internal_weight=319 210 155 109 55 53 89 69 46 102 80 60
internal_count=319 210 155 109 55 53 89 69 46 102 80 60
is_linear=0
shrinkage=0.04


Tree=4
num_leaves=12
num_cat=0
split_feature=31 5 11 0 14 25 4 36 29 42 4
split_gain=6376.92 5381.83 1958.46 1829.22 1713.33 971.445 966.088 885.667 488.823 674.264 993.541
threshold=-3.9499999999999997 119.26111111111113 0.77500000000000013 113.67500000000001 102.24200000000002 120.90000000000002 122.22500000000001 103.598 112.60745614035089 7.5000000000000009 114.63333333333334
decision_type=2 2 2 2 2 2 2 2 2 2 2
left_child=2 3 7 4 -2 6 -3 -1 -5 -10 -11
right_child=1 5 -4 8 -6 -7 -8 -9 9 10 -12
leaf_value=-0.0036604770141489369 -0.3688158393675281 -0.51395299275716144 0.50908603995186941 -0.042145989727973933 0.1060486946105957 -0.65732811665534974 -0.13465404098684139 0.28298585087912426 0.32697663104304903 0.25414670934677125 -0.10246682212650775
leaf_weight=34 31 21 35 25 20 20 22 35 26 25 25
leaf_count=34 31 21 35 25 20 20 22 35 26 25 25
internal_value=0.0082242 -0.116161 0.265366 0.0126804 -0.182594 -0.427015 -0.319893 0.14174 0.111285 0.161755 0.0758399
internal_weight=319 215 104 152 51 63 43 69 101 76 50
internal_count=319 215 104 152 51 63 43 69 101 76 50
is_linear=0
shrinkage=0.04


Tree=5
num_leaves=13
num_cat=0
split_feature=8 36 9 30 17 34 22 16 37 10 26 16
split_gain=4372.17 3186.29 1735.45 1666.96 1630.4 1044.87 948.807 1239.08 800.728 740.644 662.79 580.747
threshold=3.7000000000000006 103.06600000000002 -9.1999999999999975 5.3000000000000016 0.43982128610951748 0.61250000000000016 121.90000000000002 0.44056556481532899 101.16575757575758 7.0952380952380958 118.10000000000001 0.45774356176124792
decision_type=2 2 2 2 2 2 2 2 2 2 2 2
left_child=1 2 -1 9 -3 11 7 -4 -9 10 -2 -6
right_child=3 4 6 -5 5 -7 -8 8 -10 -11 -12 -13
leaf_value=-0.56595154012952531 0.037486654520034794 0.38393105098179414 -0.3599053846706044 -0.091946877137474403 0.22293429078534246 -0.26240652871131898 -0.39992346720262006 0.19760428142547606 -0.11369716706948403 0.440120106754881 0.32501909810921242 -0.03915438329019854
leaf_weight=21 23 21 22 23 24 20 22 20 39 33 29 31
leaf_count=21 23 21 22 23 24 20 22 20 39 33 29 31
internal_value=0.00172155 -0.100601 -0.234543 0.210157 0.0724069 -0.0148199 -0.166974 -0.103704 -0.00817125 0.291902 0.197841 0.0752116
internal_weight=328 220 124 108 96 75 103 81 59 85 52 55
internal_count=328 220 124 108 96 75 103 81 59 85 52 55
is_linear=0
shrinkage=0.04


Tree=6
num_leaves=12
num_cat=0
split_feature=8 36 12 30 17 5 28 4 30 10 26
split_gain=4029.39 2936.48 1710.22 1536.27 1502.57 1133.24 972.984 817.476 688.467 682.577 610.828
threshold=3.7000000000000006 103.06600000000002 0.41428571428571431 5.3000000000000016 0.43982128610951748 112.58333333333336 120.92954545454548 119.50000000000001 1.5000000000000002 7.0952380952380958 118.10000000000001
decision_type=2 2 2 2 2 2 2 2 2 2 2
left_child=1 2 8 9 -3 -4 7 -6 -1 10 -2
right_child=3 4 5 -5 6 -7 -8 -9 -10 -11 -12
leaf_value=-0.205134619140625 0.035987185187961741 0.36857381025950114 -0.27742646310329439 -0.088269004096155582 0.025770075956980391 0.075181440251214163 0.2024035296232804 -0.29524624369361185 -0.4740336219622539 0.42251529852549236 0.31201833436201359
leaf_weight=25 23 21 25 23 30 35 23 22 39 33 29
leaf_count=25 23 21 25 23 30 35 23 22 39 33 29
internal_value=0.00165269 -0.0965771 -0.225161 0.201751 0.0695106 -0.0717385 -0.0142271 -0.110045 -0.368995 0.280226 0.189928
internal_weight=328 220 124 108 96 60 75 52 64 85 52
internal_count=328 220 124 108 96 60 75 52 64 85 52
is_linear=0
shrinkage=0.04


Tree=7
num_leaves=13
num_cat=0
split_feature=8 28 42 39 16 30 22 6 22 10 26 24
split_gain=3713.49 2160.84 2061.57 1431.96 1807.88 1415.82 991.722 788.741 785.596 629.063 562.939 422.428
threshold=3.7000000000000006 117.24285714285716 8.5000000000000018 0.45994453369701754 0.45490581627027632 5.3000000000000016 119.90000000000002 112.72794117647059 115.30000000000003 7.0952380952380958 118.10000000000001 116.70329670329672
decision_type=2 2 2 2 2 2 2 2 2 2 2 2
left_child=1 2 7 4 -3 9 11 -1 -9 10 -2 -4
right_child=5 3 6 -5 -6 -7 -8 8 -10 -11 -12 -13
leaf_value=-0.24179000294208527 0.034547698756922846 0.18290470391511918 -0.32559353162348276 0.30172016612414654 -0.31909813046455382 -0.084738243649835177 -0.48943806255564976 0.2500471234321594 -0.071503149155647525 0.40561468196637707 0.29953760623931885 -0.065615591347217561
leaf_weight=20 23 24 20 29 22 23 34 20 31 33 29 20
leaf_count=20 23 24 20 29 22 23 34 20 31 33 29 20
internal_value=0.00158658 -0.0927141 -0.182873 0.0815925 -0.0571836 0.19368 -0.330609 -0.0288937 0.054595 0.269017 0.182331 -0.195605
internal_weight=328 220 145 75 46 108 74 71 51 85 52 40
internal_count=328 220 145 75 46 108 74 71 51 85 52 40
is_linear=0
shrinkage=0.04


Tree=8
num_leaves=12
num_cat=0
split_feature=8 36 12 17 30 22 34 5 22 16 13
split_gain=3422.35 2551.79 1576.66 1331.94 1304.82 1130.35 892.567 815.703 813.351 564.184 1082.09
threshold=3.7000000000000006 103.06600000000002 0.41428571428571431 0.43982128610951748 5.3000000000000016 111.36666666666669 0.61250000000000016 119.45000000000002 119.90000000000002 0.49619089560681312 0.61721611721611735
decision_type=2 2 2 2 2 2 2 2 2 2 2
left_child=1 2 8 -3 9 -4 7 -5 -1 10 -2
right_child=4 3 5 6 -6 -7 -8 -9 -10 -11 -12
leaf_value=-0.23280606343195989 0.11706830680370331 0.34739250410170786 -0.26698705830574038 0.19125673055648804 -0.081348708511694609 0.085171610014779228 -0.24185041952133179 -0.12581546783447267 -0.52507765197753908 0.11872213117281596 0.47923171599706016
leaf_weight=39 22 21 25 34 23 35 20 21 25 30 33
leaf_count=39 22 21 25 34 23 35 20 21 25 30 33
internal_value=0.00152312 -0.0890055 -0.208871 0.0658212 0.185933 -0.0615612 -0.0130187 0.0701928 -0.346975 0.258257 0.334366
internal_weight=328 220 124 96 108 60 75 55 64 85 55
internal_count=328 220 124 96 108 60 75 55 64 85 55
is_linear=0
shrinkage=0.04


end of trees

feature_importances:
away_last_5_avg_margin=9
away_last_5_avg_pts_scored=7
home_last_10_avg_pts_allowed=6
home_last_5_avg_fg_pct=6
home_last_5_avg_pts_allowed=5
home_last_5_avg_margin=5
away_last_20_avg_pts_allowed=5
away_last_10_avg_possessions=5
home_last_5_avg_pts_scored=4
home_last_20_avg_pts_allowed=4
home_last_10_avg_possessions=4
away_last_10_avg_margin=4
home_season_avg_margin=3
home_last_5_win_rate=3
home_season_avg_possessions=3
home_last_10_avg_fg_pct=3
away_last_5_avg_pts_allowed=3
away_season_avg_possessions=3
away_games_played_season=3
home_last_10_win_rate=2
away_season_avg_pts_scored=2
away_season_avg_pts_allowed=2
away_last_10_win_rate=2
away_season_win_rate=2
home_last_10_avg_pts_scored=1
home_last_10_avg_margin=1
home_season_win_rate=1
away_last_20_avg_pts_scored=1
away_last_10_avg_fg_pct=1

parameters:
[boosting: gbdt]
[objective: regression]
[metric: l1,rmse]
[tree_learner: serial]
[device_type: cpu]
[data_sample_strategy: bagging]
[data: ]
[valid: ]
[num_iterations: 1000]
[learning_rate: 0.04]
[num_leaves: 15]
[num_threads: 0]
[seed: 42]
[deterministic: 0]
[force_col_wise: 0]
[force_row_wise: 0]
[histogram_pool_size: -1]
[max_depth: -1]
[min_data_in_leaf: 20]
[min_sum_hessian_in_leaf: 0.001]
[bagging_fraction: 0.8]
[pos_bagging_fraction: 1]
[neg_bagging_fraction: 1]
[bagging_freq: 5]
[bagging_seed: 400]
[bagging_by_query: 0]
[feature_fraction: 0.8]
[feature_fraction_bynode: 1]
[feature_fraction_seed: 30056]
[extra_trees: 0]
[extra_seed: 12879]
[early_stopping_round: 0]
[early_stopping_min_delta: 0]
[first_metric_only: 0]
[max_delta_step: 0]
[lambda_l1: 0]
[lambda_l2: 0]
[linear_lambda: 0]
[min_gain_to_split: 0]
[drop_rate: 0.1]
[max_drop: 50]
[skip_drop: 0.5]
[xgboost_dart_mode: 0]
[uniform_drop: 0]
[drop_seed: 17869]
[top_rate: 0.2]
[other_rate: 0.1]
[min_data_per_group: 100]
[max_cat_threshold: 32]
[cat_l2: 10]
[cat_smooth: 10]
[max_cat_to_onehot: 4]
[top_k: 20]
[monotone_constraints: ]
[monotone_constraints_method: basic]
[monotone_penalty: 0]
[feature_contri: ]
[forcedsplits_filename: ]
[refit_decay_rate: 0.9]
[cegb_tradeoff: 1]
[cegb_penalty_split: 0]
[cegb_penalty_feature_lazy: ]
[cegb_penalty_feature_coupled: ]
[path_smooth: 0]
[interaction_constraints: ]
[verbosity: -1]
[saved_feature_importance_type: 0]
[use_quantized_grad: 0]
[num_grad_quant_bins: 4]
[quant_train_renew_leaf: 0]
[stochastic_rounding: 1]
[linear_tree: 0]
[max_bin: 255]
[max_bin_by_feature: ]
[min_data_in_bin: 3]
[bin_construct_sample_cnt: 200000]
[data_random_seed: 175]
[is_enable_sparse: 1]
[enable_bundle: 1]
[use_missing: 1]
[zero_as_missing: 0]
[feature_pre_filter: 1]
[pre_partition: 0]
[two_round: 0]
[header: 0]
[label_column: ]
[weight_column: ]
[group_column: ]
[ignore_column: ]
[categorical_feature: ]
[forcedbins_filename: ]
[precise_float_parser: 0]
[parser_config_file: ]
[objective_seed: 16083]
[num_class: 1]
[is_unbalance: 0]
[scale_pos_weight: 1]
[sigmoid: 1]
[boost_from_average: 1]
[reg_sqrt: 0]
[alpha: 0.9]
[fair_c: 1]
[poisson_max_delta_step: 0.7]
[tweedie_variance_power: 1.5]
[lambdarank_truncation_level: 30]
[lambdarank_norm: 1]
[label_gain: ]
[lambdarank_position_bias_regularization: 0]
[eval_at: ]
[multi_error_top_k: 1]
[auc_mu_weights: ]
[num_machines: 1]
[local_listen_port: 12400]
[time_out: 120]
[machine_list_filename: ]
[machines: ]
[gpu_platform_id: -1]
[gpu_device_id: -1]
[gpu_use_dp: 0]
[num_gpu: 1]

end of parameters

pandas_categorical:[]
