tree
version=v4
num_class=1
num_tree_per_iteration=1
label_index=0
max_feature_idx=49
objective=regression_l1
feature_names=last_3_avg_passing_yards last_5_avg_passing_yards last_8_avg_passing_yards last_3_avg_passing_tds last_5_avg_passing_tds last_8_avg_passing_tds last_3_avg_completions last_5_avg_completions last_8_avg_completions last_3_avg_pass_attempts last_5_avg_pass_attempts last_8_avg_pass_attempts last_3_avg_interceptions last_5_avg_interceptions last_8_avg_interceptions last_3_avg_rushing_yards last_5_avg_rushing_yards last_8_avg_rushing_yards last_3_avg_rushing_tds last_5_avg_rushing_tds last_8_avg_rushing_tds last_3_avg_carries last_5_avg_carries last_8_avg_carries last_3_avg_receiving_yards last_5_avg_receiving_yards last_8_avg_receiving_yards last_3_avg_receiving_tds last_5_avg_receiving_tds last_8_avg_receiving_tds last_3_avg_receptions last_5_avg_receptions last_8_avg_receptions last_3_avg_targets last_5_avg_targets last_8_avg_targets season_avg_passing_yards season_avg_passing_tds season_avg_completions season_avg_pass_attempts season_avg_interceptions season_avg_rushing_yards season_avg_rushing_tds season_avg_carries season_avg_receiving_yards season_avg_receiving_tds season_avg_receptions season_avg_targets days_rest games_played_season
feature_infos=[-1:466] [-1:466] [-1:466] [0:4] [0:4] [0:4] [0:33] [0:33] [0:33] [0:49.332999999999998] [0:48] [0:48] [0:3] [0:3] [0:3] [-4:169.333] [-4:152] [-4:152] [0:2.3330000000000002] [0:2] [0:2] [0.33300000000000002:28.332999999999998] [0.59999999999999998:26] [1.125:24.875] [-3:89.667000000000002] [-3:122.8] [-3:106.75] [0:1] [0:1] [0:1] [0:13] [0:13] [0:13] [0:14] [0:14] [0:14] [-1:466] [0:4] [0:33] [0:48] [0:3] [-4:159] [0:2] [3:30] [-3:86] [0:1] [0:13] [0:14] [4:105] [1:19]
tree_sizes=2490 2676 2743 2747 2748 2740 2743 2750 2732 2725 2739 2713 2757 2753 2761 2759 2760 2767 2745 2744 2750 2764 2754 2760 2769 2761 2783 2770 2768 2767 2774 2773 2769 2785 2744 2764

Tree=0
num_leaves=31
num_cat=0
split_feature=23 41 15 21 41 33 44 17 15 32 7 24 47 17 8 5 42 21 15 41 36 37 17 47 20 15 33 25 15 15
split_gain=498.304 66.3433 22.9985 18.4801 8.74631 8.4305 8.68327 8.04875 8.18347 7.96377 7.59424 6.89586 6.14464 5.81139 5.51012 8.61096 5.33136 5.21059 5.18738 4.64124 4.49872 6.85714 4.80737 4.06865 3.97642 3.68549 3.6626 7.16957 3.47148 3.29438
threshold=7.6460000000000008 51.322500000000005 14.833500000000003 7.416500000000001 43.033500000000011 2.1665000000000005 8.041500000000001 42.562500000000007 28.416500000000003 0.46450000000000008 25.100000000000005 17.833500000000004 2.3225000000000002 18.937500000000004 19.646000000000004 0.81650000000000011 0.17900000000000002 16.833500000000004 40.833500000000008 21.207000000000004 225.59900000000002 0.26800000000000007 15.562500000000002 2.1290000000000004 0.15500000000000003 48.833500000000008 2.1665000000000005 4.9000000000000012 7.8335000000000008 27.500000000000004
decision_type=2 2 2 2 2 2 2 2 2 2 2 2 2 2 2 2 2 2 2 2 2 2 2 2 2 2 2 2 2 2
left_child=2 3 28 16 5 6 10 8 -5 -3 13 12 -7 20 15 19 -2 23 -10 -15 21 22 -4 -11 -16 -20 27 -9 -1 -21
right_child=1 9 4 7 -6 11 -8 26 18 17 -12 -13 -14 14 24 -17 -18 -19 25 29 -22 -23 -24 -25 -26 -27 -28 -29 -30 -31
leaf_value=28.050000000000001 29 29.5 28.375 28.5 29.199999999999999 28.274999999999999 28.125 30.300000000000001 29.850000000000001 30 28.225000000000001 28.449999999999999 29.274999999999999 29.100000000000001 28.550000000000001 28.050000000000001 28.5 31.199999999999999 28.75 28.5 28.074999999999999 28.949999999999999 27.899999999999999 30.524999999999999 29.149999999999999 29.550000000000001 30.550000000000001 28.850000000000001 28.074999999999999 28.449999999999999
leaf_weight=141 36 44 30 40 33 32 86 35 84 47 34 76 36 32 58 43 36 217 35 47 34 30 39 346 42 33 126 31 266 85
leaf_count=141 36 44 30 40 33 32 86 35 84 47 34 76 36 32 58 43 36 217 35 47 34 30 39 346 42 33 126 31 266 85
internal_value=29.0002 29.0241 28.9771 29.0094 28.9824 28.9812 28.9784 29.0138 29.0065 29.0343 28.9812 28.9921 29.0036 28.983 28.9869 28.9822 28.9863 29.0358 29.0118 28.9876 28.9743 28.98 28.9714 29.0321 28.9965 29.0014 29.021 29.0112 28.9675 28.9835
internal_weight=2254 1110 1144 456 737 704 560 384 192 654 474 144 68 440 307 207 72 610 152 164 133 99 69 393 100 68 192 66 407 132
internal_count=2254 1110 1144 456 737 704 560 384 192 654 474 144 68 440 307 207 72 610 152 164 133 99 69 393 100 68 192 66 407 132
is_linear=0
shrinkage=1


Tree=1
num_leaves=31
num_cat=0
split_feature=17 17 17 21 15 47 47 43 33 19 33 49 2 25 16 26 43 31 47 49 21 16 25 25 43 25 46 30 16 40
split_gain=467.87 60.9269 18.4718 15.0325 13.8998 13.7996 8.02745 13.2481 6.22495 12.3983 6.00181 5.75698 9.60276 5.01791 4.77835 4.75569 4.70311 10.3956 4.53987 4.30185 6.68549 4.46247 4.02519 8.39899 3.87765 3.73185 3.71682 4.97876 3.54502 3.43557
threshold=42.562500000000007 26.562500000000004 52.562500000000007 6.166500000000001 14.833500000000003 2.4335000000000004 2.0310000000000001 15.516500000000002 2.8335000000000004 0.3665000000000001 0.83350000000000013 4.5000000000000009 201.75000000000003 3.6750000000000003 23.100000000000005 12.062500000000002 5.0355000000000008 0.29150000000000004 0.51900000000000013 4.5000000000000009 14.833500000000003 77.100000000000009 5.2250000000000005 7.6335000000000006 9.5855000000000015 22.100000000000005 2.2265000000000001 3.5835000000000004 18.100000000000005 0.6775000000000001
decision_type=2 2 2 2 2 2 2 2 2 2 2 2 2 2 2 2 2 2 2 2 2 2 2 2 2 2 2 2 2 2
left_child=1 4 10 11 -1 16 7 18 9 13 -2 -3 -13 -5 -7 -12 28 -18 -4 21 25 -8 -19 -24 -15 -21 -17 -28 -6 -30
right_child=2 3 6 8 5 14 19 -9 -10 -11 15 12 -14 24 -16 26 17 22 -20 20 -22 -23 23 -25 -26 -27 27 -29 29 -31
leaf_value=-0.90375000000000005 0.040000000000000036 -0.041249999999999967 0.77500000000000002 0.11749999999999999 -0.65625 0.17750000000000005 1.9318750000000002 1.9000000000000001 0.45749999999999996 0.36875000000000002 1.2125000000000001 -0.60375000000000001 0.03874999999999993 -0.60625000000000007 -0.41812499999999997 0.10749999999999993 0.10250000000000004 -0.875 -0.1125 1.2237500000000001 1.8399999999999999 1.1400000000000001 0.060625000000000019 -0.82250000000000001 -0.1125 1.6237500000000002 1.5231250000000001 0.32375000000000009 -0.71875 -0.82250000000000001
leaf_weight=396 51 54 33 48 99 45 82 45 96 78 34 87 33 58 32 33 37 44 44 105 235 41 32 39 30 64 54 43 119 63
leaf_count=396 51 54 33 48 99 45 82 45 96 78 34 87 33 58 32 33 37 44 44 105 235 41 32 39 30 64 54 43 119 63
internal_value=-8.86918e-05 -0.0180446 0.0287861 -0.00371134 -0.0256891 -0.0201566 0.033 0.0211382 0.00289389 -0.00186047 0.0159722 -0.0154286 -0.0214876 -0.0109489 -0.000641026 0.0206061 -0.0236175 -0.0163399 0.00833333 0.0357008 0.0382716 0.0270161 -0.0237069 -0.0159722 -0.0179775 0.0302941 0.0160305 0.0209184 -0.0274823 -0.031694
internal_weight=2254 1390 864 484 906 510 649 122 310 214 215 174 120 136 77 164 433 152 77 527 404 123 115 71 88 169 130 97 281 182
internal_count=2254 1390 864 484 906 510 649 122 310 214 215 174 120 136 77 164 433 152 77 527 404 123 115 71 88 169 130 97 281 182
is_linear=0
shrinkage=0.05


Tree=2
num_leaves=31
num_cat=0
split_feature=22 17 17 41 16 16 34 30 16 18 49 17 18 34 49 36 16 2 22 22 25 25 32 44 32 16 43 43 32 9
split_gain=425.358 43.5896 37.9908 14.9058 12.3899 9.08809 8.72806 7.89954 10.2774 8.58769 6.30276 6.09142 5.99168 6.18646 5.47687 5.11722 4.93894 4.92477 4.89859 5.40783 4.70247 5.25616 4.69789 4.89829 4.69428 5.68289 4.45502 4.31871 4.27238 4.15812
threshold=9.2665000000000024 26.062500000000004 52.562500000000007 47.708500000000008 14.291500000000001 33.100000000000009 2.3665000000000007 1.8335000000000001 34.100000000000009 0.41650000000000004 5.5000000000000009 66.791500000000013 0.58350000000000013 3.2250000000000005 13.500000000000002 223.51100000000005 26.100000000000005 208.85400000000001 7.6335000000000006 4.9000000000000012 8.4500000000000011 4.2250000000000005 0.7320000000000001 9.938500000000003 2.2250000000000005 43.100000000000009 3.7205000000000004 11.964500000000003 1.6905000000000003 33.833500000000008
decision_type=2 2 2 2 2 2 2 2 2 2 2 2 2 2 2 2 2 2 2 2 2 2 2 2 2 2 2 2 2 2
left_child=1 4 5 7 15 -2 14 9 -9 17 -4 28 13 24 16 22 20 18 19 -3 21 29 -1 -24 25 -7 -25 -15 -12 -6
right_child=2 3 10 -5 6 12 -8 8 -10 -11 11 -13 -14 27 -16 -17 -18 -19 -20 -21 -22 -23 23 26 -26 -27 -28 -29 -30 -31
leaf_value=-0.75793750000000015 -0.74243749999999997 -0.12231249999999996 1.44340625 0.82300000000000006 -0.81781250000000005 1.218375 -0.30856250000000007 0.31781250000000016 -0.51815624999999998 0.15906250000000011 0.36712500000000009 1.8452812500000002 0.68337500000000007 0.93462500000000004 -0.26250000000000001 -1.0579375000000002 -0.62943749999999998 -0.033375000000000023 -0.21981249999999994 -0.78546875000000005 -0.73684375000000002 -0.55906249999999991 -0.98593750000000002 -1.0073125000000001 -0.26037499999999997 -0.082874999999999949 -0.60793750000000013 0.60473437500000016 1.3925625000000001 -0.46678124999999993
leaf_weight=132 31 30 211 57 193 43 83 51 36 55 36 212 70 47 49 62 50 39 49 110 56 65 65 31 33 51 32 46 167 62
leaf_count=132 31 30 211 57 193 43 83 51 36 55 36 212 70 47 49 62 50 39 49 110 56 65 65 31 33 51 32 46 167 62
internal_value=-0.000133038 -0.0186162 0.0253692 -0.00549065 -0.0249716 0.0113354 -0.0203936 -0.00916442 0.00397727 -0.0132042 0.0325359 0.0361779 0.0140893 0.00995475 -0.0230042 -0.0328173 -0.0248244 -0.0174672 -0.0207895 -0.0255319 -0.0267905 -0.0242991 -0.0295019 -0.0364341 0.00273438 0.00842105 -0.0257813 0.0196809 0.0296569 -0.0275391
internal_weight=2254 1307 947 427 880 321 558 370 87 283 626 415 290 220 475 322 426 228 189 140 376 320 260 128 127 94 63 93 203 255
internal_count=2254 1307 947 427 880 321 558 370 87 283 626 415 290 220 475 322 426 228 189 140 376 320 260 128 127 94 63 93 203 255
is_linear=0
shrinkage=0.05


Tree=3
num_leaves=31
num_cat=0
split_feature=17 17 17 42 33 15 47 15 23 17 32 15 47 17 17 31 25 49 16 25 31 15 46 21 34 47 21 23 16 23
split_gain=394.336 51.0728 16.5563 12.6811 13.1356 12.4712 11.2155 10.6393 9.14386 8.85598 9.04555 7.7182 6.38615 5.5198 5.39088 5.09666 7.28255 4.7537 5.89929 5.86765 4.74922 4.67706 4.47488 4.22514 4.20703 8.27756 4.10763 4.03738 3.80275 3.56437
threshold=42.562500000000007 26.062500000000004 52.562500000000007 0.65500000000000014 1.5835000000000001 7.8335000000000008 2.4335000000000004 25.833500000000004 11.812500000000002 15.562500000000002 2.2680000000000002 50.833500000000008 0.38750000000000007 48.646000000000008 58.45000000000001 0.90000000000000013 2.7335000000000003 5.5000000000000009 57.70000000000001 22.100000000000005 0.22500000000000003 23.833500000000004 0.095500000000000015 6.166500000000001 2.1000000000000005 3.3205000000000005 8.8335000000000026 7.9375000000000009 17.100000000000005 12.708500000000003
decision_type=2 2 2 2 2 2 2 2 2 2 2 2 2 2 2 2 2 2 2 2 2 2 2 2 2 2 2 2 2 2
left_child=1 5 11 4 12 -1 15 -6 14 -8 -11 13 23 26 -4 16 20 -10 19 -19 22 -17 -7 -3 -9 -26 -2 -14 -18 -28
right_child=2 3 8 -5 7 6 9 24 17 10 -12 -13 27 -15 -16 21 28 18 -20 -21 -22 -23 -24 -25 25 -27 29 -29 -30 -31
leaf_value=-0.83871562500000008 -0.078731249999999878 -0.37040234374999992 0.85654843750000009 0.33665312500000005 -0.50820312499999987 -0.69678593750000006 -0.92205625000000002 0.59696093750000012 1.4756109375000002 0.46383437500000008 -0.38616562499999996 1.3071660156250002 -0.68889921875000004 -0.1556375000000001 0.24743359375000012 -0.8092656250000001 0.11576562500000005 0.74293437500000015 1.6429343750000003 1.0894859375000003 -0.86767187500000009 -0.72828281250000004 -0.34567187500000007 0.72589843750000016 -0.15400312499999994 0.65123437500000014 1.2848671875000002 -0.24705546875000001 -0.39567187500000006 0.066107031250000156
leaf_weight=136 31 80 34 50 50 265 30 35 190 33 45 78 62 41 44 141 39 51 297 33 53 53 41 45 74 55 34 54 49 31
leaf_count=136 31 80 34 50 50 265 30 35 190 33 45 78 62 41 44 141 39 51 297 33 53 53 41 45 74 55 34 54 49 31
internal_value=-0.000266075 -0.0167505 0.0262428 -0.00405138 -0.0066886 -0.0239842 -0.0214 0.00232558 0.0302308 -0.00642202 0.00253165 0.0141204 -0.0146694 0.00688406 0.0139241 -0.0239097 -0.0208705 0.0324301 0.035733 0.0235294 -0.0240278 -0.0307692 -0.0214984 -0.00674603 0.00848485 0.00423077 0.0134021 -0.0230769 -0.00786517 0.0204545
internal_weight=2254 1390 864 505 455 885 749 214 649 108 78 215 241 137 78 641 447 571 381 84 359 194 306 125 164 129 96 116 88 65
internal_count=2254 1390 864 505 455 885 749 214 649 108 78 215 241 137 78 641 447 571 381 84 359 194 306 125 164 129 96 116 88 65
is_linear=0
shrinkage=0.05


Tree=4
num_leaves=31
num_cat=0
split_feature=22 17 17 17 47 15 32 19 45 23 22 36 36 43 42 34 25 49 30 15 16 16 49 17 25 6 32 26 24 32
split_gain=361.455 37.2612 32.9166 13.4409 12.594 10.8554 7.42747 7.34829 7.34592 6.32866 5.92814 6.34168 5.25424 5.16275 6.57304 9.36696 4.56548 4.4861 4.36397 4.14714 4.00353 5.49948 7.64307 4.81687 3.94551 4.48579 3.9012 3.89472 6.66825 3.71613
threshold=9.2665000000000024 26.062500000000004 52.562500000000007 14.937500000000002 2.4335000000000004 58.833500000000008 2.2250000000000005 0.55000000000000016 0.06900000000000002 7.6460000000000008 4.6335000000000006 212.41650000000001 231.66650000000001 8.041500000000001 0.39250000000000007 1.7750000000000001 8.4500000000000011 2.5000000000000004 1.8335000000000001 81.833500000000015 33.45000000000001 44.100000000000009 6.5000000000000009 45.562500000000007 5.2250000000000005 24.166500000000003 0.7320000000000001 16.937500000000004 32.500000000000007 0.41450000000000004
decision_type=2 2 2 2 2 2 2 2 2 2 2 2 2 2 2 2 2 2 2 2 2 2 2 2 2 2 2 2 2 2
left_child=1 3 5 12 16 7 -6 20 27 10 -3 18 26 -11 15 -15 17 -5 -12 -10 -2 22 -22 -23 25 -19 29 -4 -29 -1
right_child=2 9 8 4 6 -7 -8 -9 19 13 11 -13 -14 14 -16 -17 -18 24 -20 -21 21 23 -24 -25 -26 -27 -28 28 -30 -31
leaf_value=-0.80665308593750007 -0.69967343750000011 0.06109980468750003 0.70906343750000012 -0.92082968750000005 0.40887703125000008 1.4030198242187504 -0.36685734374999995 0.61308242187500006 1.4462251562500001 0.62944937499999998 -0.58331441406250006 0.13826404296875003 -0.91247984375000013 -0.56818628906250002 0.62255898437500001 0.19675234375000006 -0.63096406250000003 -0.63370703125000005 -0.082667968749999876 2.7020491406250002 -0.018593593750000005 -0.21003109374999998 0.66121316406250008 0.29031166992187529 -0.48742359375000022 -0.20528570312500005 -0.83206281250000014 1.6023973046875 0.88537152343749992 -0.10238093750000009
leaf_weight=104 33 48 188 46 32 40 46 53 195 48 143 40 57 33 32 38 86 251 45 105 48 35 60 52 61 50 117 108 30 30
leaf_count=104 33 48 188 46 32 40 46 53 195 48 143 40 57 33 32 38 86 251 45 105 48 35 60 52 61 50 117 108 30 30
internal_value=-0.000354767 -0.017393 0.023154 -0.023269 -0.0186736 0.0100932 0 0.00656028 0.0298246 -0.00525701 -0.00974729 -0.0131004 -0.0317152 0.00296053 -0.00336538 -0.0118056 -0.0216162 -0.0193154 -0.0169312 0.0355482 0.00262009 0.00535714 0.012844 -0.00397727 -0.0173554 -0.019702 -0.028373 0.0244648 0.0309353 -0.0222222
internal_weight=2254 1307 947 880 572 321 78 281 626 427 276 228 308 151 103 71 494 408 188 300 228 195 108 87 362 301 251 326 138 134
internal_count=2254 1307 947 880 572 321 78 281 626 427 276 228 308 151 103 71 494 408 188 300 228 195 108 87 362 301 251 326 138 134
is_linear=0
shrinkage=0.05


Tree=5
num_leaves=31
num_cat=0
split_feature=41 41 23 16 33 40 11 41 21 40 46 34 31 45 43 39 21 26 47 21 43 43 31 16 20 44 26 47 26 49
split_gain=323.639 31.2652 30.3735 10.4776 10.0847 10.683 13.9711 9.30638 8.93603 8.14151 7.23013 7.1327 6.41945 6.03567 6.8805 5.96329 5.6357 6.39265 7.11414 4.7536 4.22064 4.16985 7.31728 3.45685 4.01975 6.77095 3.40489 9.0754 3.13485 2.95521
threshold=38.732000000000006 26.916500000000003 11.812500000000002 86.90000000000002 1.5835000000000001 0.32250000000000006 33.312500000000007 12.045500000000002 6.166500000000001 0.22650000000000003 1.7030000000000001 1.7750000000000001 1.1000000000000003 0.064500000000000016 9.677500000000002 28.268000000000004 5.5835000000000008 16.062500000000004 3.5915000000000004 2.8335000000000004 4.1055000000000001 5.1290000000000004 0.29150000000000004 79.350000000000009 0.26800000000000007 15.883500000000003 14.791500000000001 2.8620000000000005 7.0625000000000009 10.500000000000002
decision_type=2 2 2 2 2 2 2 2 2 2 2 2 2 2 2 2 2 2 2 2 2 2 2 2 2 2 2 2 2 2
left_child=1 7 8 11 5 -3 -7 19 -2 12 21 28 -10 14 -14 -11 -6 -18 -19 -1 -12 29 -23 24 25 -13 -26 -28 -4 -9
right_child=2 4 3 -5 16 6 -8 10 9 15 20 23 13 -15 -16 -17 17 18 -20 -21 -22 22 -24 -25 26 -27 27 -29 -30 -31
leaf_value=-0.97700152050781264 -0.5147769746093751 -0.49623076367187502 0.71915925512695322 2.4395830185546878 -0.39430217871093753 0.45030424999999996 -0.38929980664062491 -0.61590515625000009 -0.18012228710937511 0.94398017382812505 -0.75937769921875009 0.097446958007812515 0.25695721191406257 0.1253219580078124 1.4306035571289062 0.67006889843750006 0.34622631835937495 -0.38660464843749998 0.32227137304687475 -0.73714718945312507 -0.1561541406250001 0.072493598632812531 -0.65627132812500022 1.1850279609375001 1.57320700390625 1.4061041123046876 0.32596935351562489 1.2338407470703125 -0.056404031250000132 -0.70138997656250002
leaf_weight=36 35 127 30 112 36 55 42 315 57 31 40 35 37 63 35 31 76 33 33 135 93 46 141 57 78 78 55 186 30 110
leaf_count=36 35 127 30 112 36 55 42 315 57 31 40 35 37 63 35 31 76 33 33 135 93 46 141 57 78 78 55 186 30 110
internal_value=-0.00057294 -0.0166035 0.0216614 0.027568 -0.00496278 -0.012 0.000510204 -0.0217012 0.00810345 0.0113725 -0.0192359 0.0246364 0.00621762 0.0121324 0.0219178 0.0269841 0.00391061 0.00839161 -0.00298507 -0.0322674 -0.00858209 -0.0215334 -0.0151596 0.0266327 0.0281755 0.0197368 0.0310937 0.0278926 0.00819672 -0.0242958
internal_weight=2268 1318 950 661 402 224 97 916 289 254 745 549 192 135 72 62 178 142 66 171 133 612 187 489 432 113 319 241 60 425
internal_count=2268 1318 950 661 402 224 97 916 289 254 745 549 192 135 72 62 178 142 66 171 133 612 187 489 432 113 319 241 60 425
is_linear=0
shrinkage=0.05


Tree=6
num_leaves=31
num_cat=0
split_feature=17 17 16 41 34 33 40 11 34 47 36 23 43 17 16 2 23 26 26 31 49 31 43 45 47 32 42 5 2 31
split_gain=301.394 40.0884 17.8522 10.799 11.5503 10.6943 16.5712 10.718 9.78511 9.15746 12.4111 7.22791 7.13392 7.1706 10.2084 6.44319 5.24698 6.58792 6.94056 6.20295 5.07441 4.90049 4.48715 4.11455 4.07398 6.91456 3.34418 3.24563 7.38503 5.07882
threshold=42.562500000000007 26.562500000000004 86.90000000000002 12.045500000000002 3.2915000000000005 1.5835000000000001 0.22650000000000003 33.312500000000007 2.1000000000000005 1.7820000000000003 191.94450000000003 9.9375000000000018 6.408500000000001 31.937500000000004 37.45000000000001 212.37500000000003 14.062500000000002 19.646000000000004 13.937500000000002 4.1000000000000005 4.5000000000000009 2.2915000000000005 16.174500000000005 0.12900000000000003 2.7415000000000007 3.4020000000000006 0.22650000000000003 1.9375000000000002 227.36900000000003 0.22500000000000003
decision_type=2 2 2 2 2 2 2 2 2 2 2 2 2 2 2 2 2 2 2 2 2 2 2 2 2 2 2 2 2 2
left_child=1 3 9 -1 23 6 11 15 -7 10 26 20 -10 -14 -15 -8 17 18 -11 -19 -3 -20 -18 27 -24 -26 -2 28 29 -5
right_child=2 5 -4 4 -6 8 7 -9 12 16 -12 -13 13 14 -16 -17 22 19 21 -21 -22 -23 24 -25 25 -27 -28 -29 -30 -31
leaf_value=-0.75360231240234388 -0.70664691784667977 -0.37387018056640642 2.2665076107910158 -0.4888344535644531 0.092950056420898444 0.3800076125488282 0.089628039453125127 -0.36983481630859361 -0.63747829416503909 0.85025588139648445 0.58247655771484375 -0.14083488463134763 0.62102686635742188 -0.47204987768554685 0.34451990791015635 0.80038603847656276 1.3315188854980473 1.3015295974121095 -0.2616097868408202 0.45480748969726559 -0.49824184267578142 0.37178436108398466 1.8609208858398441 -0.35243009765625005 0.23406018139648455 1.218905701904297 0.2888192696655274 -0.14307691914062506 -0.67830897773437493 -0.66079851757812502
leaf_weight=169 30 37 119 166 54 48 46 40 30 64 57 35 42 36 61 33 196 95 30 35 75 47 33 59 51 39 65 43 101 332
leaf_count=169 30 37 119 166 54 48 46 40 30 64 57 35 42 36 61 33 196 95 30 35 75 47 33 59 51 39 65 43 101 332
internal_value=-0.000837373 -0.0150923 0.0224478 -0.0211892 -0.0185847 -0.00340909 -0.0101124 0.00375 0.00481651 0.0195155 0.00849673 -0.0212838 -0.000882353 0.00392857 -0.00357143 0.014375 0.022335 0.0170956 0.00950704 0.0251908 -0.0274336 -0.000641026 0.0267188 -0.0202991 0.0189516 0.0131868 -0.00260417 -0.0214619 -0.0224167 -0.0198397
internal_weight=2268 1407 861 924 755 483 266 119 217 742 152 147 169 139 97 79 590 271 141 130 112 77 319 701 123 90 95 642 599 498
internal_count=2268 1407 861 924 755 483 266 119 217 742 152 147 169 139 97 79 590 271 141 130 112 77 319 701 123 90 95 642 599 498
is_linear=0
shrinkage=0.05


Tree=7
num_leaves=31
num_cat=0
split_feature=17 41 15 22 15 15 46 36 35 43 45 2 0 46 23 26 25 42 2 46 34 42 15 42 44 32 26 49 49 43
split_gain=273.195 36.0882 16.2767 13.4162 9.78533 8.66681 7.83266 7.82184 7.63648 7.0548 6.60482 6.47652 9.3859 7.0557 8.94088 5.76009 9.66466 6.63814 5.10198 6.07738 7.56359 5.32375 5.32123 4.46747 4.29318 4.38799 4.0611 3.92583 3.88407 3.87329
threshold=42.562500000000007 20.944500000000001 68.166500000000013 6.7750000000000012 51.500000000000007 7.8335000000000008 2.2405000000000004 191.94450000000003 4.2250000000000005 15.612500000000002 0.1145 166.56250000000003 239.16650000000001 0.78200000000000014 6.5355000000000008 21.291500000000003 10.450000000000001 0.36950000000000005 237.56250000000003 0.64500000000000013 0.55000000000000016 0.087000000000000008 14.416500000000001 0.36950000000000005 33.268000000000008 3.5500000000000003 15.402000000000003 10.500000000000002 8.5000000000000018 13.679500000000003
decision_type=2 2 2 2 2 2 2 2 2 2 2 2 2 2 2 2 2 2 2 2 2 2 2 2 2 2 2 2 2 2
left_child=1 5 6 11 8 -1 7 9 15 29 -4 13 28 -3 27 16 17 -5 19 20 -7 -21 -23 -12 25 -8 -18 -15 -13 -2
right_child=2 3 10 4 -6 18 24 -9 -10 -11 23 12 -14 14 -16 -17 26 -19 -20 21 -22 22 -24 -25 -26 -27 -28 -29 -30 -31
leaf_value=-0.796467687138672 0.34033088344665541 -0.52576725054199225 1.1311019330688479 -0.35868396733886726 0.82942811360259994 -0.58795815302978516 0.97081772984619163 0.59860290186889675 0.29641520767700202 1.527406905682678 0.91757247930908192 -0.12590384260009763 -0.49591864787353518 -0.3321279339355469 -0.58940495484619149 -0.40203130351440425 0.67540251950805663 0.047125481181640616 -0.5987912463110352 -0.70159297803222676 0.29698225400390632 -0.88027525771484383 -0.19289622646484386 2.3824901665893559 0.78764983575439451 1.1033924355908205 -0.0085054577868652007 0.062522985986328106 0.21397299219726573 -0.30456800733642597
leaf_weight=120 116 111 207 127 36 150 198 48 31 30 37 50 54 103 37 30 36 58 88 153 33 33 48 102 44 40 32 46 31 39
leaf_count=120 116 111 207 127 36 150 198 48 31 30 37 50 54 103 37 30 36 58 88 153 33 33 48 102 44 40 32 46 31 39
internal_value=-0.000881446 -0.0144531 0.0212877 -0.00727969 0 -0.0234026 0.0156008 0.00876068 -0.00285714 0.00403226 0.029683 -0.013164 -0.00404412 -0.0172819 -0.0112299 -0.00545775 -0.00295276 -0.00887097 -0.0204545 -0.0180622 -0.0111413 -0.0234043 -0.0128049 0.0382143 0.0212014 0.0238494 0.0130435 -0.00566667 0.00670732 -0.000320513
internal_weight=2268 1407 861 782 350 625 515 233 314 185 346 432 135 297 186 283 253 185 505 417 183 234 81 139 282 238 68 149 81 155
internal_count=2268 1407 861 782 350 625 515 233 314 185 346 432 135 297 186 283 253 185 505 417 183 234 81 139 282 238 68 149 81 155
is_linear=0
shrinkage=0.05


Tree=8
num_leaves=31
num_cat=0
split_feature=17 41 33 16 1 0 16 21 41 3 41 44 42 19 47 32 44 36 23 43 28 44 16 17 21 21 25 18 17 25
split_gain=251.077 32.1934 16.5727 15.5784 11.4421 9.698 8.21054 8.08876 7.88006 7.08917 9.50183 7.00337 6.49872 9.16295 6.32647 5.87688 6.28446 5.4429 7.01611 5.18074 5.00888 6.26269 4.45413 6.01239 5.246 6.89106 4.2989 4.20617 7.67503 4.35074
threshold=42.562500000000007 20.944500000000001 1.8335000000000001 88.100000000000009 155.43350000000001 264.6665000000001 8.1000000000000014 5.5835000000000008 44.690500000000007 1.5835000000000001 30.577000000000002 11.033500000000002 0.14850000000000002 0.3665000000000001 1.4060000000000001 3.3540000000000005 33.045500000000011 204.42050000000003 14.354000000000001 9.605500000000001 1.0000000180025095e-35 22.720500000000005 23.266500000000004 21.387500000000003 5.5835000000000008 4.166500000000001 17.100000000000005 0.83350000000000013 58.937500000000007 12.550000000000002
decision_type=2 2 2 2 2 2 2 2 2 2 2 2 2 2 2 2 2 2 2 2 2 2 2 2 2 2 2 2 2 2
left_child=1 6 4 8 11 9 -1 -4 14 10 -6 19 26 -14 -2 17 -17 18 27 -3 21 -20 23 24 25 -8 -9 28 29 -10
right_child=3 2 7 -5 5 -7 22 12 15 -11 -12 -13 13 -15 -16 16 -18 -19 20 -21 -22 -23 -24 -25 -26 -27 -28 -29 -30 -31
leaf_value=-0.72081808066564956 -0.47637493626889038 -0.4583158823129882 -0.31149653006988526 2.1178077219219973 -0.58513197145397966 -0.43717571637585451 -0.64454322257513441 0.5595632991381837 0.20491361944093323 0.22568221545196546 0.11669904049426255 -0.017445471446594141 -0.39627109405157457 0.3366762021391525 0.78081716438479598 1.3732785811623538 0.83050791131530777 0.72751148053643822 1.036726432991333 -0.16446303422119152 1.7814950736407469 -0.077628902083129961 -0.56299623552423106 0.082898168574890185 -0.7616726692356568 -0.26055945754772941 0.21083716698614507 1.543932792234497 -0.14618985530090303 1.0810127101696778
leaf_weight=94 35 234 66 107 51 32 278 41 64 48 63 51 64 48 49 101 57 37 136 34 60 30 34 30 78 111 50 43 60 82
leaf_count=94 35 234 66 107 51 32 278 41 64 48 63 51 64 48 49 101 57 37 136 34 60 30 34 30 78 111 50 43 60 82
internal_value=-0.000661084 -0.0136719 -0.00689655 0.0205916 -0.0121595 -0.0025641 -0.0221246 0.00314815 0.0180132 0.00245399 -0.00434783 -0.0179688 0.00808824 0 0.00352941 0.0198212 0.0283019 0.017154 0.0156513 -0.0211896 0.0220264 0.0173653 -0.0196429 -0.0183735 -0.019765 -0.0173077 0.0179348 0.0098 0.00676329 0.0129252
internal_weight=2268 1407 782 861 513 194 625 269 754 162 114 319 203 112 84 670 158 512 475 268 226 166 531 497 467 389 91 249 206 146
internal_count=2268 1407 782 861 513 194 625 269 754 162 114 319 203 112 84 670 158 512 475 268 226 166 531 497 467 389 91 249 206 146
is_linear=0
shrinkage=0.05


Tree=9
num_leaves=31
num_cat=0
split_feature=16 21 41 23 44 3 45 15 22 42 32 20 33 47 11 16 16 33 42 20 42 23 48 44 42 32 22 32 26 9
split_gain=230.523 27.693 19.4932 17.4736 14.9704 12.7051 9.7385 9.00238 6.2252 6.22067 9.48992 6.2112 5.97909 9.2744 4.96996 4.96988 6.23716 8.9812 4.40574 4.39486 6.16839 4.84104 4.39057 4.27576 4.00802 3.97768 3.69778 3.6311 5.05074 3.80816
threshold=35.633500000000005 6.416500000000001 19.4145 14.612500000000002 13.380000000000001 1.5835000000000001 0.10250000000000002 7.8335000000000008 4.7085000000000008 0.080000000000000016 2.1835000000000004 0.58550000000000002 1.8335000000000001 1.7385000000000004 32.354000000000006 53.45000000000001 76.700000000000003 2.8335000000000004 0.095500000000000015 0.22500000000000003 0.27550000000000008 10.354000000000001 12.000000000000002 33.045500000000011 0.13800000000000004 2.3540000000000005 6.1000000000000005 2.6460000000000004 14.450000000000001 29.166500000000003
decision_type=2 2 2 2 2 2 2 2 2 2 2 2 2 2 2 2 2 2 2 2 2 2 2 2 2 2 2 2 2 2
left_child=2 -2 7 9 5 11 15 -1 -7 10 -3 12 13 14 22 -5 -17 -18 -6 21 -21 -11 -4 -8 -14 -20 -9 28 29 -22
right_child=1 3 4 6 18 8 23 26 -10 19 -12 -13 24 -15 -16 16 17 -19 25 20 27 -23 -24 -25 -26 -27 -28 -29 -30 -31
leaf_value=-0.73674542597013559 -0.55284228127993706 -0.55586587698464984 -0.27252004172735306 0.17120069356938983 0.44533733262712083 -0.21060579143556188 2.0119173358258973 -0.55398524182510067 0.44910699354576117 0.69223286196076084 1.0186476247087861 0.03668123214862682 0.046169225055740171 -0.77106870868403332 -0.60610137850994261 1.0300982805541778 1.4430918594774322 -0.059613967341827494 0.32508439612589157 -0.033424639294402779 0.7099407476022348 1.0976689117538316 -0.76243637737197556 1.336972951330597 -0.43617665490166946 -0.17569274503798768 -0.8404852616795746 0.92067715295225538 0.15668807391528647 0.010707627887686222
leaf_weight=115 56 50 215 36 35 31 127 409 31 33 44 35 53 33 48 122 31 51 31 69 136 50 55 33 41 55 35 106 69 33
leaf_count=115 56 50 215 36 35 31 127 409 31 33 44 35 53 33 48 122 31 51 31 69 136 50 55 33 41 55 35 106 69 33
internal_value=-0.000793301 0.0164279 -0.0155356 0.0183653 -0.00971386 -0.0132597 0.0264339 -0.0224107 0.00793651 0.0128596 0.00105263 -0.0160083 -0.0176009 -0.0205966 -0.0178683 0.019917 0.0229268 0.0120482 0.00614754 0.0150905 0.0129227 0.0255952 -0.0151292 0.0360248 -0.00631579 0 -0.0191011 0.0156522 0.0121339 0.0167647
internal_weight=2268 1046 1222 990 663 542 400 559 62 590 94 480 445 351 318 240 204 82 121 496 413 83 270 160 94 86 444 344 238 169
internal_count=2268 1046 1222 990 663 542 400 559 62 590 94 480 445 351 318 240 204 82 121 496 413 83 270 160 94 86 444 344 238 169
is_linear=0
shrinkage=0.05


Tree=10
num_leaves=31
num_cat=0
split_feature=41 41 41 42 48 43 41 24 24 2 15 45 15 21 47 26 49 42 15 24 44 32 33 42 43 41 41 32 23 33
split_gain=201.036 28.7648 13.6676 8.97652 8.17368 7.70776 7.67738 6.52219 6.17631 9.03245 5.95628 5.90049 5.76776 5.94399 5.31163 5.24482 4.68208 4.86609 6.90943 4.5473 5.78191 4.37666 5.83628 4.61438 7.36689 6.77878 8.46476 6.84407 5.83669 7.93406
threshold=38.732000000000006 21.354000000000003 78.199000000000012 0.080000000000000016 19.000000000000004 9.8820000000000014 11.725000000000001 19.166500000000003 1.4165000000000003 182.22500000000002 30.166500000000003 0.080000000000000016 21.416500000000003 3.8335000000000004 3.3205000000000005 5.291500000000001 12.500000000000002 0.19400000000000003 29.166500000000003 40.833500000000008 33.268000000000008 3.5500000000000003 4.5835000000000008 0.91300000000000014 16.408500000000004 45.158500000000011 41.823 3.0625000000000004 10.646000000000003 2.1665000000000005
decision_type=2 2 2 2 2 2 2 2 2 2 2 2 2 2 2 2 2 2 2 2 2 2 2 2 2 2 2 2 2 2
left_child=1 6 3 14 5 8 -1 -4 9 -3 -11 -8 13 -10 -2 -14 17 18 -17 20 21 22 23 24 25 26 -5 28 -27 -30
right_child=2 4 7 19 -6 -7 11 -9 12 10 -12 -13 15 -15 -16 16 -18 -19 -20 -21 -22 -23 -24 -25 -26 27 -28 -29 29 -31
leaf_value=-0.65136686618875461 -0.28179711207019731 -0.47470639227430134 1.9820621267076466 0.47418889307116552 -0.74041872607869008 0.14624726130479707 -0.54639691686480008 0.90648865646975241 0.063684922560684143 0.17656814093895026 -0.43841048712740771 -0.088693951710689153 0.27136420953233958 -0.63877607661651103 0.44552470083389617 -0.17033413292615693 -0.57874465377487183 -0.31515353613133734 0.59620541384424453 0.9594403460489892 -0.10575569598424082 1.1413959278062327 -0.056274308203514249 1.1692524453095177 -0.039374116073713952 0.73339491913566113 -0.3511065266434365 0.97569421277159174 0.056143837356979635 0.93020449354756818
leaf_weight=150 58 101 86 45 33 70 442 58 30 85 54 48 47 52 41 39 31 63 60 44 32 47 50 76 43 68 31 39 87 116
leaf_count=150 58 101 86 45 33 70 442 58 30 85 54 48 47 52 41 39 31 63 60 44 32 47 50 76 43 68 31 39 87 116
internal_value=-0.00166143 -0.0142802 0.0162148 0.0135604 -0.00698198 -0.0056872 -0.0218409 0.0303448 -0.00763766 -0.0136929 -0.00535714 -0.0187373 -0.00309598 -0.0144578 -0.0005 0.000829876 -0.00283505 0.000613497 0.0075 0.0156112 0.0144882 0.0155887 0.0142986 0.0159091 0.0138372 0.0160207 0.0025974 0.0192926 0.0163603 0.0120098
internal_weight=2226 1305 921 777 665 632 640 144 562 240 139 490 322 82 99 240 193 162 99 678 634 602 555 505 429 386 76 310 271 203
internal_count=2226 1305 921 777 665 632 640 144 562 240 139 490 322 82 99 240 193 162 99 678 634 602 555 505 429 386 76 310 271 203
is_linear=0
shrinkage=0.05


Tree=11
num_leaves=31
num_cat=0
split_feature=41 41 43 48 16 33 48 24 24 16 43 45 47 26 47 22 4 14 20 41 15 21 44 24 21 47 43 47 41 44
split_gain=196.103 24.5148 13.425 9.65297 8.82477 8.39715 6.89602 6.34145 6.2553 5.53011 7.13492 6.75765 4.60547 4.59905 6.65118 4.30126 4.8553 5.5487 4.97984 4.21398 6.42924 4.22885 5.84233 6.28639 5.1449 4.39707 3.90173 3.84157 3.6236 3.48674
threshold=38.732000000000006 20.944500000000001 17.374500000000005 14.500000000000002 8.1000000000000014 2.1665000000000005 12.000000000000002 15.416500000000001 40.500000000000007 88.100000000000009 16.408500000000004 0.30400000000000005 0.26150000000000007 16.134000000000004 4.1145000000000005 16.266500000000004 1.3665 0.26800000000000007 0.93750000000000011 70.155000000000015 68.166500000000013 13.833500000000003 20.275000000000002 24.583500000000004 11.833500000000003 2.6570000000000005 9.8450000000000006 1.8060000000000003 81.437500000000014 19.183500000000006
decision_type=2 2 2 2 2 2 2 2 2 2 2 2 2 2 2 2 2 2 2 2 2 2 2 2 2 2 2 2 2 2
left_child=1 4 3 8 -1 6 26 -4 9 10 11 15 -8 -7 -15 16 17 18 19 20 21 22 24 -24 25 27 -3 -2 -9 -23
right_child=2 5 7 -5 -6 13 12 28 -10 -11 -12 -13 -14 14 -16 -17 -18 -19 -20 -21 -22 29 23 -25 -26 -27 -28 -29 -30 -31
leaf_value=-0.65360057503406621 0.013701012652052215 -0.21956154374062953 2.0544297616446054 -0.10247314062255626 -0.51690406591416538 0.24355726635931135 -0.17593408595648016 0.53182863948387471 1.0613397864616183 1.1649072090021257 -0.17333987246209084 -0.17021609662967646 -0.69367054143060103 -0.29065431960413646 0.29758151417334783 0.97924762142186206 0.87448419161297797 -0.1095442531015996 0.98130798773409722 -0.022114910142236613 1.3821493786184429 0.79055892718031184 1.0394109504267115 0.39639678355940156 0.57710309038524066 -0.074740752540559008 0.070811305925283105 0.68770757809725291 1.9130568532055066 -0.11212421271733711
leaf_weight=91 48 384 68 37 514 92 39 32 53 35 41 32 48 74 30 48 30 39 41 41 54 44 43 37 58 37 33 30 43 30
leaf_count=91 48 384 68 37 514 92 39 32 53 35 41 32 48 74 30 48 30 39 41 41 54 44 43 37 58 37 33 30 43 30
internal_value=-0.00220027 -0.0146631 0.0154555 0.012837 -0.0220297 -0.00827389 -0.0116832 0.0295139 0.0140836 0.0127721 0.0116972 0.0130506 -0.0244318 0.000507614 -0.00666667 0.0142857 0.0129456 0.0117296 0.0132543 0.0115839 0.0132199 0.0105183 0.0135827 0.0246914 0.00833333 0.00215517 -0.00897129 0.00886076 0.0190789 0
internal_weight=2226 1305 921 778 605 700 504 143 741 688 653 612 87 196 104 580 532 502 463 422 381 327 253 80 173 115 417 78 75 74
internal_count=2226 1305 921 778 605 700 504 143 741 688 653 612 87 196 104 580 532 502 463 422 381 327 253 80 173 115 417 78 75 74
is_linear=0
shrinkage=0.05


Tree=12
num_leaves=31
num_cat=0
split_feature=41 41 17 17 33 24 8 0 33 16 24 16 24 45 42 35 26 35 43 24 8 6 28 41 41 45 45 26 21 16
split_gain=170.494 22.4781 13.3327 10.1546 7.34161 7.24448 7.04902 13.6532 7.04432 6.72327 6.22324 6.43539 6.49058 5.83462 5.23229 4.75677 4.59905 6.70286 4.50147 4.44769 4.95557 4.51976 4.90768 4.99678 6.54133 6.90328 4.70652 8.30536 4.1829 7.68664
threshold=38.732000000000006 20.944500000000001 77.812500000000014 11.535500000000001 2.1665000000000005 40.833500000000008 19.437500000000004 264.6665000000001 4.166500000000001 27.450000000000003 1.4165000000000003 26.450000000000003 6.8335000000000008 0.080000000000000016 0.080000000000000016 0.38750000000000007 16.134000000000004 4.2250000000000005 4.9690000000000003 32.500000000000007 19.268000000000004 12.833500000000003 1.0000000180025095e-35 68.045500000000018 58.571500000000007 0.20700000000000005 0.07400000000000001 21.187500000000004 15.416500000000001 64.100000000000009
decision_type=2 2 2 2 2 2 2 2 2 2 2 2 2 2 2 2 2 2 2 2 2 2 2 2 2 2 2 2 2 2
left_child=1 3 5 -1 6 14 10 9 -4 -8 15 -12 -13 -5 -2 18 -6 -18 -3 20 21 22 26 24 25 -24 27 28 29 -16
right_child=2 4 8 13 16 -7 7 -9 -10 -11 11 12 -14 -15 19 -17 17 -19 -20 -21 -22 -23 23 -25 -26 -27 -28 -29 -30 -31
leaf_value=-0.59677826090014063 -0.026214670178879729 -0.59483838608486461 1.8174040105452314 -0.52043088260139481 0.23137940304134583 1.0082727971385375 0.30553600966086308 -0.29876221397508279 0.6921656807646942 -0.0085434580084486466 -0.30391393679188605 0.13619169179207022 -0.50330350290350567 -0.037907283996610724 0.34234049645603282 -0.52857541376212913 -0.27612160362392962 0.28270243846468052 -0.17036321073478522 -0.017954817698986859 -0.057548971984802223 0.6859728364913027 1.0625135667986865 1.7465155178145939 -0.030811083527607863 0.15568633334674564 -0.12381299306313026 0.8745480576592386 -0.015770823441791395 1.105359908193124
leaf_weight=164 95 43 103 395 92 51 39 31 34 65 116 59 45 46 156 45 72 32 61 43 30 38 46 50 33 30 43 58 75 36
leaf_count=164 95 43 103 395 92 51 39 31 34 65 116 59 45 46 156 45 72 32 61 43 30 38 46 50 33 30 43 58 75 36
internal_value=-0.00220027 -0.0138208 0.0142625 -0.0208746 -0.00770328 0.0117197 -0.0108911 -0.00110294 0.0286232 0.00761905 -0.0144595 -0.00904977 0 -0.0168552 0.0104223 -0.0223333 0.000507614 -0.00666667 -0.0161905 0.0120501 0.0131711 0.0142226 0.0129735 0.0203125 0.0140909 0.0220779 0.0097561 0.0118098 0.00802239 0.0119171
internal_weight=2226 1305 921 605 700 784 504 135 137 104 369 220 104 441 733 149 196 104 104 638 595 565 527 159 109 76 368 325 267 192
internal_count=2226 1305 921 605 700 784 504 135 137 104 369 220 104 441 733 149 196 104 104 638 595 565 527 159 109 76 368 325 267 192
is_linear=0
shrinkage=0.05


Tree=13
num_leaves=31
num_cat=0
split_feature=16 41 21 43 46 48 7 36 29 42 26 43 26 25 33 26 24 43 22 41 36 24 49 18 49 16 25 34 43 19
split_gain=157.817 22.2653 13.4908 10.2541 8.811 8.69814 7.87429 13.1324 7.59719 7.4049 6.49128 7.48896 6.37442 5.98443 5.48664 7.29837 10.8371 7.9424 4.69925 4.42813 5.61122 5.73707 4.17035 4.83465 3.97069 3.94329 5.15712 4.87413 4.27274 3.68615
threshold=35.633500000000005 11.725000000000001 6.416500000000001 17.374500000000005 1.6125000000000003 14.500000000000002 19.900000000000002 194.93450000000004 1.0000000180025095e-35 0.080000000000000016 35.437500000000007 16.408500000000004 27.312500000000004 19.633500000000005 2.1665000000000005 10.791500000000001 16.166500000000003 5.759500000000001 15.550000000000002 27.408500000000004 208.86100000000002 1.4165000000000003 12.500000000000002 1.0000000180025095e-35 14.500000000000002 45.100000000000009 18.500000000000004 1.7750000000000001 13.563500000000001 0.63350000000000006
decision_type=2 2 2 2 2 2 2 2 2 2 2 2 2 2 2 2 2 2 2 2 2 2 2 2 2 2 2 2 2 2
left_child=1 -1 -2 5 8 6 7 9 19 -4 11 18 14 -5 -6 -16 -17 -18 22 -3 21 -21 23 -11 -24 -25 27 -27 -28 -20
right_child=2 4 3 13 12 -7 -8 -9 -10 10 -12 -13 -14 -15 15 16 17 -19 29 20 -22 -23 24 25 -26 26 28 -29 -30 -31
leaf_value=-0.56940319626045055 -0.28764313924518542 -0.46503731848838731 -0.0095860158862087989 1.9635667500394902 -0.30421439460643873 -0.055913416401045524 -0.092653895325716107 0.74679763750628669 -0.018006769231485455 0.69467521413814637 1.2254016893040871 -0.13259918723890005 -0.46851888779998518 0.65849280488463879 0.47233216682835144 -0.28503165727194268 -0.13887234481175667 0.75142715549166461 0.85244187085058032 -0.52029220501000584 0.1284761156206578 0.014302043481019933 -0.04550012070821783 0.024895886842474724 0.65950649158908414 0.65257479113562233 0.6522559843774286 1.0586079855875139 -0.16738833389556795 2.043271915873726
leaf_weight=149 49 550 102 93 59 41 43 31 96 60 47 44 42 50 31 37 42 36 64 71 42 44 58 66 43 32 55 79 35 35
leaf_count=149 49 550 102 93 59 41 43 31 96 60 47 44 42 50 31 37 42 36 64 71 42 44 58 66 43 32 55 79 35 35
internal_value=-0.00197575 -0.0142917 0.0124027 0.0136874 -0.0117031 0.0115431 0.0127044 0.0138963 -0.0142413 0.0124827 0.0145396 0.0130245 -0.00342742 0.0260417 0.000242718 0.00544218 -0.000431034 0.0101266 0.014678 -0.0160311 -0.0085443 -0.0142241 0.0123543 0.0150915 0.00343137 0.0121269 0.0155941 0.0227679 0.00659341 0.0245
internal_weight=2226 1199 1027 978 1050 835 794 751 803 720 618 571 247 143 205 146 115 78 527 707 157 115 428 327 101 267 201 111 90 99
internal_count=2226 1199 1027 978 1050 835 794 751 803 720 618 571 247 143 205 146 115 78 527 707 157 115 428 327 101 267 201 111 90 99
is_linear=0
shrinkage=0.05


Tree=14
num_leaves=31
num_cat=0
split_feature=16 17 20 17 21 30 16 46 17 26 15 33 25 44 23 29 17 42 49 42 8 23 42 17 49 17 16 16 42 23
split_gain=142.857 20.1967 12.9999 12.3389 8.03701 7.8799 7.54016 6.94127 6.45333 8.31364 7.91553 6.09813 6.48467 5.90161 5.05898 4.6917 5.97913 10.1786 5.80841 4.52564 5.08115 6.96439 4.08607 7.19086 4.08042 4.41405 3.86769 4.88052 4.13167 3.49051
threshold=29.225000000000005 52.562500000000007 0.13400000000000004 11.535500000000001 6.416500000000001 3.4165000000000005 31.266500000000004 2.7205000000000004 77.812500000000014 22.791500000000003 59.166500000000006 1.1665000000000003 10.225000000000001 15.179000000000002 16.387500000000003 1.0000000180025095e-35 23.562500000000004 0.13800000000000004 1.5000000000000002 0.40600000000000008 19.268000000000004 12.535500000000001 0.35500000000000004 60.562500000000007 12.500000000000002 49.500000000000007 35.633500000000005 32.633500000000005 0.31400000000000006 8.2250000000000014
decision_type=2 2 2 2 2 2 2 2 2 2 2 2 2 2 2 2 2 2 2 2 2 2 2 2 2 2 2 2 2 2
left_child=3 4 7 -1 6 15 -2 -3 9 10 22 -12 -13 -14 -10 18 17 -17 -5 24 21 -21 -4 -24 25 26 27 -6 -28 -20
right_child=1 2 8 5 19 -7 -8 -9 14 -11 11 12 13 -15 -16 16 -18 -19 29 20 -22 -23 23 -25 -26 -27 28 -29 -30 -31
leaf_value=-0.5378911713139648 0.15762055848613665 -0.53485799136551637 0.9827930179888299 -0.64066348714282251 0.11096972352731803 0.13310694727360933 -0.29158063880212243 0.69738784328563241 0.73313828121654712 0.87793178013971174 0.76740395989885768 -0.42743882004750661 1.0366176926562503 -0.045442758930306762 1.9171121059817964 -0.27082909458326104 -0.31911745452382817 0.20064812357199183 -0.40371688365964381 0.61718563203551935 -0.01022052012962984 -0.12973508714174181 0.96985969671924899 -0.30593598569078007 -0.15882260166583695 -0.25998839869175633 0.61894668414859422 -0.28620430198575414 -0.044882244998981413 -0.032684203874099094
leaf_weight=168 38 30 43 52 38 31 89 35 30 129 34 31 36 82 99 43 41 32 594 83 31 33 37 31 59 34 139 35 31 38
leaf_count=168 38 30 43 52 38 31 89 35 30 129 34 31 36 82 99 43 41 32 594 83 31 33 37 31 59 34 139 35 31 38
internal_value=-0.00202066 0.00940554 0.0157767 -0.01605 0.00294599 -0.0135216 -0.00820313 -0.00530303 0.018264 0.0152123 0.0105085 0.00407609 -0.000333333 0.00504202 0.0280769 -0.0144819 -0.00512821 0.00328947 -0.0160584 0.00588843 0.0131757 0.0179487 0.0209821 0.0130435 0.00267062 0.00521583 0.00758197 -0.00202703 0.0116959 -0.0146919
internal_weight=2226 1227 617 999 610 831 127 65 552 423 294 183 149 118 129 800 116 75 684 483 147 116 111 68 336 277 243 73 170 632
internal_count=2226 1227 617 999 610 831 127 65 552 423 294 183 149 118 129 800 116 75 684 483 147 116 111 68 336 277 243 73 170 632
is_linear=0
shrinkage=0.05


Tree=15
num_leaves=31
num_cat=0
split_feature=21 22 46 23 5 22 35 21 15 45 44 25 46 15 44 22 31 0 5 42 33 42 23 0 42 15 32 44 24 20
split_gain=125.992 17.8013 13.1131 9.86653 9.08456 8.23358 9.02029 8.09546 7.82215 6.11321 7.9313 5.85523 6.17712 5.7786 10.0735 8.60033 8.07365 6.87006 5.88819 5.72593 5.16804 6.72335 8.28752 6.51136 5.5884 4.91519 5.11565 4.44562 4.24685 7.14064
threshold=7.166500000000001 16.100000000000005 2.2265000000000001 3.7750000000000004 1.4145000000000001 7.6335000000000006 2.6460000000000004 13.166500000000001 67.500000000000014 0.060500000000000005 25.871000000000002 19.900000000000002 2.1145000000000005 15.500000000000002 9.938500000000003 5.5500000000000007 0.90000000000000013 218.50000000000003 1.7750000000000001 0.19400000000000003 2.1665000000000005 0.087000000000000008 14.225000000000001 195.66650000000001 0.75750000000000017 48.166500000000006 2.5355000000000003 8.5165000000000024 1.4165000000000003 1.0000000180025095e-35
decision_type=2 2 2 2 2 2 2 2 2 2 2 2 2 2 2 2 2 2 2 2 2 2 2 2 2 2 2 2 2 2
left_child=3 2 4 -1 5 19 20 25 -9 11 -11 12 -3 14 15 16 17 -5 28 -2 21 -7 23 24 27 26 -4 -23 29 -15
right_child=1 9 7 13 -6 6 -8 8 -10 10 -12 -13 -14 18 -16 -17 -18 -19 -20 -21 -22 22 -24 -25 -26 -27 -28 -29 -30 -31
leaf_value=-0.43801468983497682 -0.094212865114564975 1.1293395693919397 0.81154707463932729 -0.13016907607142142 0.53361540605815705 -0.48834193809189214 -0.35498298099770942 -0.056977658014164947 0.77952809770895726 1.8212565006827068 0.32660238628917376 0.89556462703800954 -0.18935358827279636 -0.0067663359395661263 0.036686533161867277 -0.64051538325888735 -0.70264092206513074 -0.67916481329613509 0.18796722862860912 -0.63912792066517088 0.65187453688483865 0.54107085799480681 -0.29561245240356193 -0.048709451252100071 1.2120147620830601 1.0042007550887389 0.1899344285813819 -0.15651853393913173 -0.089226900918160545 -0.3880371248294141
leaf_weight=347 38 47 36 91 37 61 54 121 71 95 34 40 35 69 55 41 34 31 33 33 66 77 35 32 36 94 110 30 264 133
leaf_count=347 38 47 36 91 37 61 54 121 71 95 34 40 35 69 55 41 34 31 33 33 66 77 35 32 36 94 110 30 264 133
internal_value=-0.00109601 0.0102282 0.0070279 -0.0132848 0.0015 -0.000431965 0.00242347 0.0133949 0.00569948 0.0220238 0.0296154 0.0138211 0.0060241 -0.0100399 -0.0162055 -0.0214646 -0.0159236 -0.0097561 -0.0069 -0.0159722 0.00547337 0.00238971 0.00663507 0.0110795 0.015625 0.0195021 0.0136054 0.00972222 -0.00835118 -0.0137931
internal_weight=2280 1182 931 1098 499 462 391 432 192 251 129 122 82 751 252 197 156 122 499 71 337 271 210 175 143 240 146 107 466 202
internal_count=2280 1182 931 1098 499 462 391 432 192 251 129 122 82 751 252 197 156 122 499 71 337 271 210 175 143 240 146 107 466 202
is_linear=0
shrinkage=0.05


Tree=16
num_leaves=31
num_cat=0
split_feature=21 22 46 23 47 22 21 24 49 25 15 22 45 23 48 15 23 26 5 48 34 5 25 49 35 46 31 20 12 23
split_gain=108.981 15.677 10.6771 9.78915 9.61186 10.0503 7.74424 7.61118 7.52688 7.339 13.492 6.94197 7.24149 8.80333 5.71706 5.30461 7.61389 7.70018 5.65826 5.10841 6.52706 6.23652 5.02334 4.69957 5.65234 7.52604 5.94105 8.15094 5.42767 6.70579
threshold=7.166500000000001 16.266500000000004 2.2265000000000001 3.7750000000000004 2.6570000000000005 7.6335000000000006 11.166500000000001 38.833500000000008 10.500000000000002 18.500000000000004 67.833500000000015 17.100000000000005 0.060500000000000005 17.291500000000003 6.5000000000000009 15.500000000000002 6.5355000000000008 12.535500000000001 1.7750000000000001 7.5000000000000009 0.90000000000000013 0.93750000000000011 13.775000000000002 12.500000000000002 0.77500000000000013 0.97200000000000009 0.22500000000000003 1.0000000180025095e-35 1.0000000180025095e-35 5.3875000000000011
decision_type=2 2 2 2 2 2 2 2 2 2 2 2 2 2 2 2 2 2 2 2 2 2 2 2 2 2 2 2 2 2
left_child=3 2 4 -1 5 -2 8 9 -4 -8 -11 -3 -13 -14 -7 16 17 19 23 20 21 -5 -16 24 26 -26 27 -17 -29 -30
right_child=1 11 6 15 -6 14 7 -9 -10 10 -12 12 13 -15 22 18 -18 -19 -20 -21 -22 -23 -24 -25 25 -27 -28 28 29 -31
leaf_value=-0.41611395534322804 -0.41832542594199773 1.77794815457304 1.0985043740435114 0.23984317467728219 -0.30721377196019728 0.59483614351664615 0.83568698378661443 0.97977481454524007 0.11592544590152372 -0.11907966380975683 0.78871048079015482 0.44879489562093799 0.37593234511402152 1.5972963567619294 0.26378005990651515 0.18841710153211741 -0.5481644426226826 0.14810199266631516 0.17856886719717871 -0.62739782693777291 -0.62661986832351113 -0.57393031745271283 -0.17177240987986489 -0.57724021945061643 0.23043921021459879 -0.23336417633893253 -0.50856758136804636 -0.58500554109225522 -0.41169109744538201 0.2480872089315562
leaf_weight=347 80 41 85 39 52 46 112 44 45 120 38 83 35 74 273 53 34 31 33 69 49 30 54 51 37 177 43 31 42 32
leaf_count=347 80 41 85 39 52 46 112 44 45 120 38 83 35 74 273 53 34 31 33 69 49 30 54 51 37 177 43 31 42 32
internal_value=-0.00140289 0.00912933 0.00626316 -0.0127389 0.00128458 0.00363436 0.0119101 0.00761905 0.0221374 0.00442804 -0.00251572 0.0207265 0.0165803 0.025 0.00708556 -0.00950798 -0.015415 -0.0118721 -0.0065 -0.0156915 -0.0092437 0.000714286 0.00472561 -0.00792291 -0.00612981 -0.000465116 -0.0121287 -0.00754717 -0.015566 -0.008
internal_weight=2280 1182 949 1098 505 453 444 314 130 270 158 233 192 109 373 751 252 218 499 187 118 69 327 466 415 214 201 158 105 74
internal_count=2280 1182 949 1098 505 453 444 314 130 270 158 233 192 109 373 751 252 218 499 187 118 69 327 466 415 214 201 158 105 74
is_linear=0
shrinkage=0.05


Tree=17
num_leaves=31
num_cat=0
split_feature=21 22 16 46 22 46 5 2 36 21 15 25 24 22 17 17 48 48 41 41 24 41 24 29 15 17 7 1 20 5
split_gain=97.0178 15.8963 11.2953 10.9703 7.71798 7.57953 7.37955 6.37018 6.98219 6.19405 7.3474 7.35658 8.24683 5.53537 8.70088 5.96643 5.05142 4.59832 4.27915 4.26336 4.08784 6.80836 7.68656 6.10425 5.78072 5.33968 5.04608 9.74078 7.94158 3.89284
threshold=7.166500000000001 16.266500000000004 11.550000000000002 2.2265000000000001 7.6335000000000006 1.9130000000000003 1.9375000000000002 219.78550000000004 212.41650000000001 11.166500000000001 67.833500000000015 18.500000000000004 38.500000000000007 17.100000000000005 77.812500000000014 71.062500000000014 12.000000000000002 7.5000000000000009 13.519000000000002 53.812000000000005 1.4165000000000003 21.354000000000003 17.833500000000004 1.0000000180025095e-35 30.833500000000004 23.387500000000003 17.300000000000001 200.50000000000003 1.0000000180025095e-35 1.3540000000000003
decision_type=2 2 2 2 2 2 2 2 2 2 2 2 2 2 2 2 2 2 2 2 2 2 2 2 2 2 2 2 2 2
left_child=2 3 18 4 -2 29 7 8 16 19 11 -11 -13 -3 15 -15 20 -9 -1 -5 26 23 24 -22 25 -23 28 -28 -4 -6
right_child=1 13 6 9 5 -7 -8 17 -10 10 -12 12 -14 14 -16 -17 -18 -19 -20 -21 21 22 -24 -25 -26 -27 27 -29 -30 -31
leaf_value=-0.49482524296958363 -0.39740915464489784 1.6890507468443881 -0.17880327739106916 0.54144693214007567 0.20039962340269818 -0.12871744591940557 0.16964042383731981 -0.41622432170847079 0.25273196312384311 0.88108687904784111 0.76097250587756704 -0.10894570063054375 0.93078607381797829 0.8283466509050621 1.6773403250587624 -0.18934571889602092 -0.47365061269128506 -0.071529158354880634 -0.35783394570291827 1.3057790707781647 -0.40826519610501322 0.17289012156224787 -0.48065673490916594 0.06731596691496762 0.2365964079095722 -0.2105907979148901 0.083776907770852393 -0.72402912989197976 -0.52070886071708733 0.40542117697144459
leaf_weight=149 82 41 54 94 305 87 57 89 31 78 87 119 30 52 97 43 126 42 59 36 129 35 42 53 31 72 33 30 66 31
leaf_count=149 82 41 54 94 305 87 57 89 31 78 87 119 30 52 97 43 126 42 59 36 129 35 42 53 31 72 33 30 66 31
internal_value=-0.00131521 0.00862215 -0.0120109 0.00573684 0.0006917 0.00341981 -0.00953984 -0.0107314 -0.00881935 0.0114607 0.00761905 0.00285088 -0.00366667 0.0202991 0.0165803 0.00572917 -0.00989583 -0.0208333 -0.022488 0.0206107 -0.00778388 -0.0046832 0.00220994 -0.0114754 0.00791367 0.00231481 -0.0138587 -0.00234375 -0.0198347 0.00682493
internal_weight=2280 1182 1098 949 505 423 890 833 702 444 314 227 149 233 192 95 671 131 208 130 545 362 180 182 138 107 183 63 120 336
internal_count=2280 1182 1098 949 505 423 890 833 702 444 314 227 149 233 192 95 671 131 208 130 545 362 180 182 138 107 183 63 120 336
is_linear=0
shrinkage=0.05


Tree=18
num_leaves=31
num_cat=0
split_feature=22 41 15 23 42 41 47 23 22 15 17 45 31 25 22 43 41 17 43 41 1 34 26 26 21 24 48 13 17 49
split_gain=89.1993 19.4662 10.8626 10.7903 8.63496 7.79839 7.10136 5.30527 8.68225 5.03883 10.0132 8.13854 5.30945 6.00518 6.40103 5.5684 4.97415 9.05006 8.32896 6.66028 5.57961 7.65618 6.30011 4.65426 4.5686 4.4788 4.42596 7.38606 4.68208 6.28971
threshold=6.7750000000000012 44.690500000000007 16.833500000000004 3.7750000000000004 0.73000000000000009 41.823 4.1485000000000012 16.134000000000004 13.633500000000002 48.166500000000006 51.803500000000007 0.12150000000000001 2.1000000000000005 7.1000000000000005 16.100000000000005 12.825500000000002 19.4145 21.062500000000004 4.3450000000000015 16.973500000000005 154.25000000000003 0.90000000000000013 9.5355000000000008 15.268000000000002 4.5835000000000008 12.583500000000003 8.5000000000000018 0.90000000000000013 15.387500000000001 8.5000000000000018
decision_type=2 2 2 2 2 2 2 2 2 2 2 2 2 2 2 2 2 2 2 2 2 2 2 2 2 2 2 2 2 2
left_child=3 2 -2 23 9 6 -4 8 -6 11 -11 -3 13 -12 -15 -14 19 24 -19 20 21 -5 -23 26 -18 -17 27 28 29 -1
right_child=1 4 5 16 7 -7 -8 -9 -10 10 12 -13 15 14 -16 25 17 18 -20 -21 -22 22 -24 -25 -26 -27 -28 -29 -30 -31
leaf_value=-0.22001574022663634 -0.59914088548057587 0.25897722072056234 0.034339156925474866 0.097590212767257267 1.3689070960231462 -0.22073047329449588 1.4453085741444736 1.6157167599908417 0.10964677809171715 0.88879755735829957 0.52885021818439459 -0.36669730418453317 0.76631993095488127 -0.53507223070392729 0.64356433160572113 0.84113206510920824 -0.15820499453787473 0.1205687784374324 -0.24314554947858247 -0.57949557215302239 -0.48950991936207411 -0.61472562023638855 0.046611623348919107 -0.5461792653008285 0.32907995865796202 0.22061579989609062 -0.44354891834087717 -0.50853273046965575 0.063950168569219201 -0.57229604968732617
leaf_weight=81 33 104 322 56 64 49 31 105 62 78 44 43 43 36 32 36 39 32 323 77 43 40 30 42 49 160 80 48 63 35
leaf_count=81 33 104 322 56 64 49 31 105 62 78 44 43 43 36 32 36 39 32 323 77 43 40 30 42 49 160 80 48 63 35
internal_value=-0.00131521 0.00772325 -0.000802752 -0.012127 0.0123144 0.00148883 0.00409605 0.0204741 0.0133858 0.00901213 0.0117442 0.00101351 0.00809659 -0.000884956 -0.0101449 0.0122917 -0.00847826 -0.00529279 -0.00884831 -0.01417 -0.00852941 -0.00314961 -0.0140845 -0.0192857 0.00898876 0.00862944 -0.0170455 -0.0133772 -0.00861111 -0.0145299
internal_weight=2280 1242 435 1038 807 402 353 231 126 576 429 147 351 112 68 239 689 443 355 246 169 126 70 349 88 196 307 227 179 116
internal_count=2280 1242 435 1038 807 402 353 231 126 576 429 147 351 112 68 239 689 443 355 246 169 126 70 349 88 196 307 227 179 116
is_linear=0
shrinkage=0.05


Tree=19
num_leaves=31
num_cat=0
split_feature=22 41 41 33 4 42 42 25 47 42 22 22 20 22 24 22 41 26 42 17 17 15 17 15 33 17 47 26 41 17
split_gain=82.8453 13.0498 12.1646 10.9757 10.9352 8.44291 6.27535 10.056 5.72366 5.6603 7.77493 6.15875 6.20892 5.5939 6.68359 5.3015 5.19215 6.44633 7.78676 5.62102 5.75733 4.69479 5.62043 6.73961 5.61254 6.81557 5.77059 7.17295 7.02525 4.67601
threshold=7.6335000000000006 44.690500000000007 19.4145 2.1665000000000005 1.5500000000000003 0.73000000000000009 0.58550000000000002 16.366500000000002 4.1940000000000008 0.10550000000000002 4.1000000000000005 4.6335000000000006 0.22500000000000003 6.2250000000000005 17.833500000000004 4.4500000000000011 41.823 18.062500000000004 0.087000000000000008 41.312500000000007 32.646000000000008 37.166500000000006 51.062500000000007 52.833500000000008 2.1665000000000005 53.937500000000007 2.7595000000000005 16.937500000000004 71.369500000000016 11.535500000000001
decision_type=2 2 2 2 2 2 2 2 2 2 2 2 2 2 2 2 2 2 2 2 2 2 2 2 2 2 2 2 2 2
left_child=2 8 29 4 9 6 21 -8 16 10 -4 12 -11 14 -5 -6 17 18 -2 20 -20 -3 23 -23 -24 -26 -27 -28 -29 -1
right_child=1 5 3 13 15 -7 7 -9 -10 11 -12 -13 -14 -15 -16 -17 -18 -19 19 -21 -22 22 24 -25 25 26 27 28 -30 -31
leaf_value=-0.42110959985164514 -0.23406533478887451 -0.10670716826052457 -0.33999690566141361 0.12088998284304858 -0.075198704271037461 1.1283623443223429 -0.46482360529798117 0.35340534834810317 1.3730431454372498 -0.47694722136555046 -0.00011513882752041128 -0.45332584784118329 0.025612339543325115 0.51579010993032992 -0.42991808026222922 0.24886967346652256 -0.22193903330625117 -0.37462770462041617 0.30316545810393242 0.60971299964849202 -0.030131029446904736 0.36485028865634317 -0.023676405234902734 1.0292990931092065 -0.13672832176087618 1.1953334398071342 -0.014805487839106136 0.71439970179276535 -0.16395410649917005 -0.35252591768705888
leaf_weight=157 71 39 35 40 34 231 40 32 33 34 141 178 37 33 37 54 42 50 38 31 61 63 88 38 32 30 59 112 30 380
leaf_count=157 71 39 35 40 34 231 40 32 33 34 141 178 37 33 37 54 42 50 38 31 61 63 88 38 32 30 59 112 30 380
internal_value=-0.00157826 0.00811775 -0.0109388 -0.00616987 -0.00924125 0.0115723 0.00824468 -0.00547945 -0.00030581 -0.0125587 -0.00564972 -0.0174 -0.00486111 0.00810811 0.000641026 0.00674157 -0.00255102 0.000198413 0.00420792 0.0114504 0.0055 0.0102642 0.0116998 0.0220588 0.00866477 0.0123106 0.0153017 0.0121287 0.0181818 -0.0164498
internal_weight=2280 1120 1160 623 513 794 563 72 326 425 176 249 71 110 77 88 293 251 201 130 99 491 452 101 351 263 231 201 142 537
internal_count=2280 1120 1160 623 513 794 563 72 326 425 176 249 71 110 77 88 293 251 201 130 99 491 452 101 351 263 231 201 142 537
is_linear=0
shrinkage=0.05


Tree=20
num_leaves=31
num_cat=0
split_feature=41 16 28 16 14 41 17 15 17 47 43 33 41 15 43 21 19 49 21 22 28 25 22 22 22 25 33 47 23 16
split_gain=102.007 17.3398 8.12403 7.58181 7.38984 7.53764 9.89109 6.29944 7.31308 6.11697 6.03938 5.85332 5.14014 5.06581 12.3021 6.14138 5.03157 4.93433 5.19471 5.00609 8.94828 4.68385 4.67375 5.83104 4.57877 4.56332 5.18205 4.79619 5.25949 6.10206
threshold=44.690500000000007 11.550000000000002 1.0000000180025095e-35 29.900000000000002 0.77500000000000013 41.823 40.187500000000007 99.166500000000013 85.402000000000015 2.8210000000000002 18.516500000000004 3.5835000000000004 37.916500000000006 36.166500000000006 6.862000000000001 4.8335000000000008 0.3665000000000001 2.5000000000000004 18.583500000000004 15.633500000000002 0.22500000000000003 11.900000000000002 6.7750000000000012 10.450000000000001 14.775000000000002 25.100000000000005 3.1665000000000005 2.9690000000000007 12.646000000000003 56.733500000000006
decision_type=2 2 2 2 2 2 2 2 2 2 2 2 2 2 2 2 2 2 2 2 2 2 2 2 2 2 2 2 2 2
left_child=1 -1 3 9 5 6 16 8 10 21 17 -11 -8 14 15 -4 22 -2 19 20 24 -3 -5 -24 25 26 27 28 -19 -30
right_child=7 2 13 4 -6 -7 12 -9 -10 11 -12 -13 -14 -15 -16 -17 -18 18 -20 -21 -22 -23 23 -25 -26 -27 -28 -29 29 -31
leaf_value=-0.41472406538824025 -0.024366367670220157 -0.28500120438442506 0.27503163626501603 -0.2774873917796562 0.15257720641157865 -0.41238580465346575 -0.0032340503882368312 1.5463316089966721 -0.17904102978275863 0.31291001776502841 1.3582497640363804 -0.18421965949660166 0.93157755040213464 -0.28049328813788071 0.69270504497718122 -0.48097916746490965 -0.35258006861216917 0.54238932739165546 -0.13953861780312007 0.88714805756590287 -0.26902935509893633 -0.6032423072270755 0.37603509768263382 -0.041496197135978186 0.031039754861178895 0.66084178997388721 0.062548970072709056 1.5895432978449973 -0.52250164831316825 0.5713032328723372
leaf_weight=214 83 605 44 43 49 33 30 79 42 44 42 36 30 42 33 41 53 121 40 97 39 51 69 34 54 74 69 33 33 31
leaf_count=214 83 605 44 43 49 33 30 79 42 44 42 36 30 42 33 41 53 121 40 97 39 51 69 34 54 74 69 33 33 31
internal_value=-0.00166011 -0.00967631 -0.00739095 -0.00895176 -0.00277778 -0.00580205 -0.00288462 0.0122315 0.0108037 -0.0118046 0.0119944 0.00123457 0.0147541 0.00310559 0.00840336 -0.00174419 -0.00825 0.0108148 0.0124155 0.0136775 0.0114286 -0.0133942 -0.00340136 0.00240385 0.0135817 0.0156077 0.0126736 0.0164384 0.013172 0.00153846
internal_weight=2288 1451 1237 1077 341 292 259 837 758 736 716 80 60 160 118 85 199 674 591 551 454 656 146 103 415 361 287 218 185 64
internal_count=2288 1451 1237 1077 341 292 259 837 758 736 716 80 60 160 118 85 199 674 591 551 454 656 146 103 415 361 287 218 185 64
is_linear=0
shrinkage=0.05


Tree=21
num_leaves=31
num_cat=0
split_feature=41 41 33 44 37 41 16 32 46 49 22 49 25 32 47 22 43 42 22 23 22 16 41 37 5 6 26 15 43 23
split_gain=91.6266 15.807 8.6316 9.53261 8.19132 7.33794 8.37309 6.77377 10.8415 7.11092 5.83418 5.27888 5.79235 5.56403 8.75994 5.88582 5.22465 5.0506 5.02904 7.38791 5.34165 4.97368 5.23403 4.52386 4.79405 4.50014 4.45592 6.57996 7.44987 6.73307
threshold=45.158500000000011 18.041500000000003 2.1665000000000005 6.5635000000000003 1.2585000000000002 16.732000000000003 9.6335000000000015 4.0625000000000009 3.7735000000000007 6.5000000000000009 3.7085000000000004 13.500000000000002 4.9000000000000012 0.26800000000000007 1.2900000000000003 6.1000000000000005 18.516500000000004 0.17150000000000001 5.5500000000000007 4.354000000000001 3.7750000000000004 19.100000000000005 23.969000000000005 0.95450000000000013 1.1550000000000002 24.166500000000003 16.937500000000004 51.166500000000006 12.677500000000002 15.291500000000001
decision_type=2 2 2 2 2 2 2 2 2 2 2 2 2 2 2 2 2 2 2 2 2 2 2 2 2 2 2 2 2 2
left_child=1 4 3 10 5 6 -1 8 16 -9 17 12 13 15 -15 23 26 -3 19 20 -8 -4 -23 -12 -25 -6 -2 -28 -29 -30
right_child=7 2 21 -5 25 -7 18 9 -10 -11 11 -13 -14 14 -16 -17 -18 -19 -20 -21 -22 22 -24 24 -26 -27 27 28 29 -31
leaf_value=-0.37653792402837571 0.26853831156076957 -0.40482768268819885 0.3645305628079345 -0.37212745058017838 -0.55552156242854123 -0.45129734647345698 -0.017774525154261412 0.41732244466862484 -0.23864111475929661 1.3622900959276736 0.018029817291899699 0.33938891038577862 0.082075852286225895 -0.44132816813009668 0.086730953261302715 0.16187641491040711 1.2707392235292989 -0.24938647787053247 -0.48725808482539251 0.1097978661988039 -0.51308725793505439 -0.26879708711398193 0.053331180592258678 -0.40540632516569941 -0.10350427322043504 -0.18082162982118991 0.21002934275086071 1.1322414613995055 0.23874833745905732 1.0130324294390594
leaf_weight=105 375 34 34 179 64 49 91 31 40 42 50 40 54 74 30 92 81 43 34 59 60 30 203 38 66 30 74 36 72 78
leaf_count=105 375 34 34 179 64 49 91 31 40 42 50 40 54 74 30 92 81 43 34 59 60 30 203 38 66 30 74 36 72 78
internal_value=-0.00139799 -0.00893836 -0.00521694 -0.00813124 -0.0162272 -0.0130326 -0.0104286 0.0118675 0.0104359 0.0263514 -0.00469349 -0.00247191 -0.00419753 -0.00655271 -0.0161905 -0.00242915 0.011855 -0.0173077 -0.00530612 -0.00236967 -0.00822368 0.00242537 -0.000213675 -0.0083871 -0.0142857 -0.0294737 0.0102987 0.0153257 0.0203209 0.0152318
internal_weight=2288 1459 967 700 492 398 349 829 756 73 521 444 404 350 104 246 716 77 244 210 151 267 233 154 104 94 635 260 186 150
internal_count=2288 1459 967 700 492 398 349 829 756 73 521 444 404 350 104 246 716 77 244 210 151 267 233 154 104 94 635 260 186 150
is_linear=0
shrinkage=0.05


Tree=22
num_leaves=31
num_cat=0
split_feature=41 17 45 49 9 11 41 47 48 16 41 43 40 7 35 42 16 42 32 46 42 43 44 17 49 24 47 15 20 43
split_gain=77.262 16.4695 13.1296 7.41826 5.72794 7.61596 5.60136 5.10161 5.56589 6.73968 5.33409 6.37258 5.06604 10.3716 8.16539 5.9418 4.67045 4.55324 4.43666 9.97321 6.49527 5.11736 4.55857 7.46823 7.30691 5.21013 5.01125 4.88805 4.55625 4.40657
threshold=44.690500000000007 18.268000000000004 0.060500000000000005 4.5000000000000009 35.166500000000006 32.812500000000007 29.345000000000002 3.3205000000000005 7.5000000000000009 19.900000000000002 24.972000000000005 8.2110000000000003 0.17150000000000001 19.300000000000001 0.93750000000000011 0.25850000000000006 19.100000000000005 0.24250000000000002 4.0625000000000009 3.7735000000000007 0.36050000000000004 18.516500000000004 18.322500000000002 53.937500000000007 5.5000000000000009 16.500000000000004 1.9280000000000002 54.500000000000007 0.41450000000000004 5.6305000000000005
decision_type=2 2 2 2 2 2 2 2 2 2 2 2 2 2 2 2 2 2 2 2 2 2 2 2 2 2 2 2 2 2
left_child=1 2 4 7 5 16 -5 8 9 -3 -11 17 14 -14 -8 -16 29 -12 19 21 -20 22 23 26 -25 -24 -2 28 -27 -1
right_child=18 3 -4 6 -6 -7 12 -9 -10 10 11 -13 13 -15 15 -17 -18 -19 20 -21 -22 -23 25 24 -26 27 -28 -29 -30 -31
leaf_value=-0.35692332889539125 0.20027432360828856 0.37591636046507565 0.08991942969852218 -0.20294771519989407 -0.0037276107526436064 -0.59889724999287641 -0.32337804276378662 0.54916934434620968 0.1040758782562321 -0.40753237486646249 0.10313840521733511 -0.61399008012310297 0.65202771679496885 -0.15425805198233197 0.11087539462571083 -0.16714835701186442 -0.63691390151679572 -0.26305158058971517 0.07572940239019417 -0.22670905902133179 1.3461797891631804 1.2072022623528342 1.2376583814547002 -0.23962359040087158 0.43422861766090881 0.37951023335026624 0.84761735658969983 0.46224984274187708 -0.20109993594392395 -0.61359934671285787
leaf_weight=297 85 32 56 340 43 39 34 53 65 41 39 43 34 41 124 58 40 36 31 40 42 81 59 79 170 39 68 112 31 36
leaf_count=297 85 32 56 340 43 39 34 53 65 41 39 43 34 41 124 58 40 36 31 40 42 81 59 79 170 39 68 112 31 36
internal_value=-0.00152905 -0.00850551 -0.0157227 -0.00456961 -0.0185307 -0.020339 -0.00767405 0.00177419 -0.00116732 -0.00546875 -0.0096875 -0.00420168 -0.00256849 0.00855263 -0.00645161 -0.00218579 -0.0180481 0.00460526 0.0105609 0.00941176 0.0222973 0.0107586 0.00923913 0.00595533 0.0006 0.0146694 0.0146104 0.0103825 0 -0.016018
internal_weight=2288 1451 511 940 455 412 631 309 256 191 159 118 291 75 216 182 373 75 837 764 73 724 643 402 249 241 153 182 70 333
internal_count=2288 1451 511 940 455 412 631 309 256 191 159 118 291 75 216 182 373 75 837 764 73 724 643 402 249 241 153 182 70 333
is_linear=0
shrinkage=0.05


Tree=23
num_leaves=31
num_cat=0
split_feature=41 17 45 30 44 22 26 44 25 11 20 13 17 22 6 16 10 15 43 48 38 32 46 42 43 42 1 0 26 21
split_gain=75.4537 14.0557 12.4643 7.42864 11.4582 6.60114 6.27201 5.66071 11.231 5.39841 6.27689 5.53913 5.75987 5.33506 6.33552 6.66894 5 4.84134 5.72839 4.63975 5.37144 4.54886 9.84367 6.49527 5.266 4.46992 5.72852 4.37024 5.59066 5.73749
threshold=45.158500000000011 18.268000000000004 0.060500000000000005 1.8335000000000001 6.5635000000000003 5.3665000000000012 10.646000000000003 10.519000000000002 11.900000000000002 33.854000000000006 1.0000000180025095e-35 0.90000000000000013 20.937500000000004 4.9000000000000012 23.166500000000003 19.100000000000005 31.225000000000005 22.416500000000003 7.0310000000000015 9.5000000000000018 17.655000000000005 4.0625000000000009 3.7735000000000007 0.36050000000000004 18.516500000000004 0.65500000000000014 202.90000000000003 160.16700000000003 4.2680000000000007 5.5835000000000008
decision_type=2 2 2 2 2 2 2 2 2 2 2 2 2 2 2 2 2 2 2 2 2 2 2 2 2 2 2 2 2 2
left_child=1 2 5 4 9 13 -5 -6 -9 11 -11 12 -3 14 15 16 19 -8 -19 20 -1 22 24 -23 -2 26 27 28 29 -14
right_child=21 3 -4 6 7 -7 17 8 -10 10 -12 -13 25 -15 -16 -17 -18 18 -20 -21 -22 23 -24 -25 -26 -27 -28 -29 -30 -31
leaf_value=-0.37367961518429554 0.38255774548508836 0.34722405200728651 0.085423458213596079 0.19602179719902679 -0.52500341310674037 -0.6245438713952689 0.25309848978733962 0.10547507848187987 -0.53003658163732248 0.01103780847721918 -0.22676976821701109 0.14887821420377634 -0.55394308749506505 0.086748691381998547 -0.0035412302150113818 -0.56895238749323251 -0.52452660449154409 -0.32637498553840222 0.10688638268703557 -0.49828977187053786 0.34650885226996753 0.07194293227068442 -0.21537360607026523 1.2788707997050215 1.1468421492351923 0.18238193720992513 -0.35027205094423924 0.25712914386612518 0.013155567723723394 -0.17032130897428016
leaf_weight=148 635 44 56 41 98 41 42 39 51 35 51 55 53 41 49 31 44 49 113 68 33 31 40 42 81 40 41 34 93 69
leaf_count=148 635 44 56 41 98 41 42 39 51 35 51 55 53 41 49 31 44 49 113 68 33 31 40 42 81 40 41 34 93 69
internal_value=-0.00161643 -0.0084589 -0.0151367 -0.00484721 -0.00745739 -0.0178728 0.00264228 -0.0179894 -0.00879121 -0.00358527 -0.0149425 -0.00127907 -0.00346667 -0.0159036 -0.0177807 -0.0203077 -0.0178571 -0.00097561 -0.00490798 -0.015 -0.0107143 0.0104217 0.00924703 0.0222973 0.0105997 -0.00574018 -0.00790378 -0.005 -0.00763889 -0.0146341
internal_weight=2288 1459 511 948 703 455 245 188 90 515 86 429 374 414 373 324 293 204 162 249 181 829 756 73 716 330 290 249 215 122
internal_count=2288 1459 511 948 703 455 245 188 90 515 86 429 374 414 373 324 293 204 162 249 181 829 756 73 716 330 290 249 215 122
is_linear=0
shrinkage=0.05


Tree=24
num_leaves=31
num_cat=0
split_feature=41 17 45 46 22 49 24 26 32 26 22 6 16 10 17 41 43 15 49 43 30 44 17 35 41 49 25 44 23 26
split_gain=62.832 13.287 12.0304 7.17243 6.91968 5.3471 7.11325 7.70059 5.07596 6.5285 5.03894 5.93766 7.06622 5.46672 4.93958 4.93078 5.04791 4.70067 4.54364 7.50174 5.04064 11.77 8.90932 8.1997 6.27659 4.4417 4.44071 13.2763 4.56447 4.34278
threshold=45.158500000000011 18.268000000000004 0.060500000000000005 3.4085000000000005 5.3665000000000012 8.5000000000000018 35.416500000000006 1.0000000180025095e-35 1.2250000000000003 16.937500000000004 4.9000000000000012 23.166500000000003 19.100000000000005 31.225000000000005 53.646000000000008 73.571500000000015 15.757500000000002 16.166500000000003 2.5000000000000004 3.8090000000000006 1.8335000000000001 6.5635000000000003 20.562500000000004 3.4145000000000003 38.732000000000006 2.5000000000000004 11.900000000000002 10.972000000000003 6.0625000000000009 14.937500000000002
decision_type=2 2 2 2 2 2 2 2 2 2 2 2 2 2 2 2 2 2 2 2 2 2 2 2 2 2 2 2 2 2
left_child=1 2 4 18 10 6 7 -2 -9 14 11 12 13 17 -10 16 -7 25 -3 -20 21 22 -21 -22 -24 -1 27 28 -23 -16
right_child=5 3 -4 -5 -6 15 -8 8 9 -11 -12 -13 -14 -15 29 -17 -18 -19 19 20 23 26 24 -25 -26 -27 -28 -29 -30 -31
leaf_value=-0.1046844104942581 -0.21541894324293304 0.028437523741792516 0.081152285302916211 0.37640125476774 -0.59331667782550557 0.50732289918653917 -0.28676632265553226 0.78852442095226971 0.2476716660209487 0.57062828842807445 0.082411256812898612 -0.0033641687042608838 -0.54050476811857084 -0.49830027426696683 0.031474052196012008 1.3612937256192332 -0.13519453749865243 -0.20741203785481366 -0.330344450430201 0.56153911805904622 0.19882516463362238 -0.25785569703242095 -0.15750687974145469 -0.11128776427329329 0.21084720706248561 -0.40140276979707928 -0.56464527940799669 0.20111953192817983 -0.51405223533219135 -0.2542218840822647
leaf_weight=60 41 124 56 41 41 267 40 51 39 178 41 49 31 44 68 76 39 58 56 30 114 31 305 60 47 131 50 33 57 30
leaf_count=60 41 124 56 41 41 267 40 51 39 178 41 49 31 44 68 76 39 58 56 30 114 31 305 60 47 131 50 33 57 30
internal_value=-0.00200961 -0.00825342 -0.0147461 -0.00474183 -0.0174342 0.0089759 0.00524554 0.00723039 0.00953678 0.00712025 -0.0154217 -0.017246 -0.0196923 -0.0171769 -0.00108696 0.0133159 0.0104235 -0.0142 -0.00567181 -0.00707908 -0.00570055 -0.00803249 -0.00313316 0.00171429 -0.00538244 -0.0179688 -0.0188953 -0.0135246 -0.0235955 -0.00707071
internal_weight=2288 1459 511 948 455 829 447 407 366 315 414 373 324 293 137 382 306 249 907 783 727 553 382 174 352 191 171 121 88 98
internal_count=2288 1459 511 948 455 829 447 407 366 315 414 373 324 293 137 382 306 249 907 783 727 553 382 174 352 191 171 121 88 98
is_linear=0
shrinkage=0.05


Tree=25
num_leaves=31
num_cat=0
split_feature=23 17 25 2 21 21 45 4 16 43 16 48 17 49 0 21 47 33 23 17 26 21 47 35 30 26 25 33 16 46
split_gain=60.9679 12.4166 7.29997 8.65269 7.81562 6.77231 6.13673 6.00427 5.71264 5.63835 7.40519 5.5709 4.66569 5.52473 4.60601 5.45916 4.96797 5.6353 4.51901 6.15845 4.02501 4.76251 5.88749 5.3415 8.91516 8.8134 7.72078 3.95875 3.83506 6.51013
threshold=8.6460000000000026 18.062500000000004 9.7750000000000021 221.22900000000001 17.500000000000004 6.166500000000001 1.0000000180025095e-35 1.4500000000000002 35.900000000000006 4.0295000000000014 31.266500000000004 14.500000000000002 58.062500000000007 7.5000000000000009 207.41650000000001 4.8335000000000008 3.5225000000000004 3.1665000000000005 11.387500000000001 47.062500000000007 13.812500000000002 6.8335000000000008 1.2820000000000003 1.3875000000000002 1.5835000000000001 4.2680000000000007 6.1000000000000005 6.5000000000000009 26.100000000000005 0.26150000000000007
decision_type=2 2 2 2 2 2 2 2 2 2 2 2 2 2 2 2 2 2 2 2 2 2 2 2 2 2 2 2 2 2
left_child=1 5 3 4 8 6 -1 11 -2 -9 -11 14 13 -10 16 -16 17 20 19 -4 21 23 -23 25 -25 28 -27 -20 29 -3
right_child=2 7 18 -5 -6 -7 -8 9 12 10 -12 -13 -14 -15 15 -17 -18 -19 27 -21 -22 22 -24 24 -26 26 -28 -29 -30 -31
leaf_value=-0.3400495682826627 -0.57071219505392623 0.10227881200564193 0.24048166945357041 0.37434748254593697 1.4705288496333915 -0.52172717005785008 0.074485118857113619 -0.1784080205301482 0.44120090335275503 0.27390474822308963 -0.023056614158023337 -0.54426954781051184 -0.21574890790933507 -0.04220797297750583 -0.34634148744384252 -0.065637930320631463 -0.2877690675572579 0.46961540883727815 0.45534079776560965 -0.22457117528999471 -0.20159029845391904 -0.16642118968151909 0.27360671703543143 -0.52383358163809568 0.02512899362620882 0.35716100472151613 -0.074851088124494466 0.6794022035593692 -0.28370132057116976 -0.39692878070834664
leaf_weight=403 44 45 77 35 38 37 51 31 57 36 32 43 60 48 34 47 41 43 575 42 69 53 52 38 35 30 30 37 64 36
leaf_count=403 44 45 77 35 38 37 51 31 57 36 32 43 60 48 34 47 41 43 575 42 69 53 52 38 35 30 30 37 64 36
internal_value=-0.00156802 -0.00895284 0.00754438 0.000706714 -0.00262097 -0.0151423 -0.0134066 -0.00493421 -0.00642857 0.0065 0.0144928 -0.00665658 -0.00210843 0.00424528 -0.00542071 -0.0164634 -0.00372439 -0.00231855 0.0101776 0.00125 -0.00397351 -0.00195312 0.00707547 -0.00537634 -0.0168919 -0.00121359 0.0147541 0.0119086 -0.00787671 -0.000609756
internal_weight=2263 1250 1013 282 247 491 454 759 209 99 68 660 165 105 617 81 536 495 731 119 452 383 105 278 73 205 60 612 145 81
internal_count=2263 1250 1013 282 247 491 454 759 209 99 68 660 165 105 617 81 536 495 731 119 452 383 105 278 73 205 60 612 145 81
is_linear=0
shrinkage=0.05


Tree=26
num_leaves=31
num_cat=0
split_feature=22 16 42 26 46 35 33 25 16 42 22 42 19 9 22 49 25 22 45 22 23 43 16 37 23 42 25 33 45 33
split_gain=53.8478 9.93689 6.43702 6.55164 6.20457 7.57304 7.72967 8.91445 6.89672 6.56881 5.69812 5.54305 6.23944 7.86975 7.18546 5.78381 5.15564 5.4358 4.92971 4.778 4.6984 6.31026 5.22107 4.51295 5.71142 4.5927 4.695 5.37282 6.74517 4.28648
threshold=9.4500000000000011 10.450000000000001 0.78200000000000014 5.8125000000000009 2.2405000000000004 2.9375000000000004 2.1665000000000005 6.9000000000000012 40.45000000000001 0.58550000000000002 13.225000000000001 0.29000000000000004 0.45000000000000007 32.166500000000006 7.9000000000000012 6.5000000000000009 12.900000000000002 10.450000000000001 0.20700000000000005 11.100000000000001 12.464500000000003 13.174500000000002 70.300000000000026 2.0870000000000006 3.0625000000000004 0.17900000000000002 14.450000000000001 2.4165000000000005 0.080000000000000016 0.41650000000000004
decision_type=2 2 2 2 2 2 2 2 2 2 2 2 2 2 2 2 2 2 2 2 2 2 2 2 2 2 2 2 2 2
left_child=1 -1 4 -4 5 6 7 8 -2 16 -8 18 13 14 15 -13 -6 -18 23 -10 -19 -22 -23 24 -3 26 27 28 29 -26
right_child=2 11 3 -5 9 -7 10 -9 19 -11 -12 12 -14 -15 -16 -17 17 20 -20 -21 21 22 -24 -25 25 -27 -28 -29 -30 -31
leaf_value=-0.35429577493629183 -0.5200888395435056 -0.54824178125426215 -0.055408103997261905 0.84213988235130854 0.65877001202214913 -0.37241940002268237 0.95635875196742814 -0.39565735005719599 0.090205128025984405 -0.079728729085888267 0.26318122956029238 0.088617374976617924 -0.1600266041214532 0.26901984125754552 0.57435713209179384 -0.60334190022052869 0.9760181062676333 -0.067462741049203606 0.15791832470680084 1.0858241800608281 0.91061861658459942 0.48969463015055265 -0.20374924761968796 0.41842850965178652 -0.043629610934249108 -0.33280733777543292 -0.36937311019252778 0.25083078902617928 0.11683666381563161 -0.26744958495582088
leaf_weight=173 32 57 30 188 51 31 36 77 31 52 40 47 132 30 34 41 36 61 31 34 47 129 56 32 222 173 86 34 41 199
leaf_count=173 32 57 30 188 51 31 36 77 31 52 40 47 132 30 34 41 36 61 31 34 47 129 56 32 222 173 86 34 41 199
internal_value=-0.00165636 -0.00810203 0.00756438 0.0150685 0.0052521 -0.000531915 0.00239044 -0.00342857 0.00663265 0.00900693 0.0155844 -0.00642241 -0.000350877 0.00653595 0.000813008 -0.00674157 0.0112861 0.00893939 -0.00839041 0.0159091 0.00663265 0.00987124 0.00564516 -0.00911243 -0.0098401 -0.00866402 -0.00651801 -0.00462777 -0.00604752 -0.00793839
internal_weight=2263 1332 931 218 713 281 250 174 97 432 76 1159 284 152 122 88 380 329 875 65 293 232 185 844 812 755 582 496 462 421
internal_count=2263 1332 931 218 713 281 250 174 97 432 76 1159 284 152 122 88 380 329 875 65 293 232 185 844 812 755 582 496 462 421
is_linear=0
shrinkage=0.05


Tree=27
num_leaves=31
num_cat=0
split_feature=22 17 23 4 48 0 16 16 13 38 23 23 16 15 15 25 31 42 17 33 35 25 47 42 18 15 22 31 23 41
split_gain=47.7487 12.8113 6.61222 6.30288 6.49585 5.62221 5.54599 5.75078 5.58977 5.52391 5.16934 8.29898 7.90242 15.1084 6.27611 5.13196 8.68604 6.87546 6.22024 6.11938 7.56719 5.9771 5.89962 7.16659 4.9853 4.59071 7.91219 7.8727 3.86674 3.66789
threshold=9.2665000000000024 18.062500000000004 5.3875000000000011 1.5500000000000003 14.500000000000002 242.41650000000001 10.450000000000001 17.100000000000005 0.77500000000000013 22.436500000000002 4.3875000000000011 4.7320000000000011 18.633500000000005 14.833500000000003 31.500000000000004 9.7750000000000021 1.6335000000000004 0.78200000000000014 72.062500000000014 2.1665000000000005 2.6125000000000003 24.550000000000004 2.7415000000000007 0.62000000000000011 1.1665000000000003 37.416500000000006 7.5500000000000007 1.1000000000000003 3.0625000000000004 45.158500000000011
decision_type=2 2 2 2 2 2 2 2 2 2 2 2 2 2 2 2 2 2 2 2 2 2 2 2 2 2 2 2 2 2
left_child=1 2 6 4 9 -5 -1 8 28 10 -3 -12 13 -13 -14 16 18 19 -2 20 -17 24 -21 -24 -19 27 -27 -16 -8 -28
right_child=15 3 -4 5 -6 -7 7 -9 -10 -11 11 12 14 -15 25 17 -18 21 -20 22 -22 -23 23 -25 -26 26 29 -29 -30 -31
leaf_value=-0.33658098618947724 0.018641407350709117 0.067123808239669194 -0.48760826661355461 0.3921748917428558 -0.53107587949154034 -0.039544346534664411 -0.53641379575185688 -0.31249698823419503 0.25160211775138103 -0.25856770308357968 -0.4948748023382491 -0.17982492427025748 -0.16097440126734927 0.41325178846853972 -0.060105531946673098 -0.40047499787836272 -0.34369937597698519 1.281714466244436 1.6489614299583633 0.69542493878542122 0.45740383739434115 0.31528748738280649 0.34205883132377224 -0.10601132446003092 0.5035981838355218 -0.4116431984335604 -0.34307895707949465 0.42747177968236943 -0.037351503043130396 0.55912275948797474
leaf_weight=157 171 74 35 50 46 50 33 98 30 40 45 37 242 33 42 46 43 68 30 69 32 56 367 39 32 55 35 39 139 30
leaf_count=157 171 74 35 50 46 50 33 98 30 40 45 37 242 33 42 46 43 68 30 69 32 56 367 39 32 55 35 39 139 30
internal_value=-0.00143551 -0.00762777 -0.0139959 -0.0037851 -0.0054242 0.00792079 -0.0123362 -0.00830565 -0.00344828 -0.00416048 -0.00300158 -0.00465116 -0.00282101 0.0126761 -0.00529279 0.00707547 0.000816327 0.00922535 0.00519802 0.00658845 -0.00632911 0.0184713 0.00871849 0.00638821 0.0257426 0.00123762 -0.00495868 0.0103659 -0.00693642 0.00681818
internal_weight=2263 1310 492 818 718 100 457 300 202 672 632 558 513 70 443 953 244 709 201 553 78 156 475 406 100 201 120 81 172 65
internal_count=2263 1310 492 818 718 100 457 300 202 672 632 558 513 70 443 953 244 709 201 553 78 156 475 406 100 201 120 81 172 65
is_linear=0
shrinkage=0.05


Tree=28
num_leaves=31
num_cat=0
split_feature=23 17 21 4 48 45 48 42 42 17 47 43 23 2 33 26 30 42 47 17 17 16 17 17 17 21 42 46 32 33
split_gain=45.4827 16.4441 8.37516 6.88019 7.53168 6.28379 5.7349 5.25854 6.01946 5.55891 5.21762 5.06779 8.16461 6.8461 6.08775 8.60504 5.93254 10.7034 5.10941 4.99693 4.79117 4.68746 9.39367 6.16408 4.09875 6.16482 3.76027 5.61074 5.27214 5.16881
threshold=11.387500000000001 18.062500000000004 6.166500000000001 1.5500000000000003 7.5000000000000009 1.0000000180025095e-35 14.500000000000002 0.78200000000000014 0.58550000000000002 67.187500000000014 1.7385000000000004 6.0295000000000014 6.354000000000001 211.31250000000003 1.4165000000000003 12.687500000000002 2.1665000000000005 0.16050000000000003 3.7930000000000006 38.062500000000007 30.062500000000004 60.100000000000009 68.562500000000014 85.402000000000015 79.625000000000014 18.583500000000004 0.36050000000000004 2.4085000000000005 2.7750000000000004 2.5835000000000004
decision_type=2 2 2 2 2 2 2 2 2 2 2 2 2 2 2 2 2 2 2 2 2 2 2 2 2 2 2 2 2 2
left_child=1 2 5 6 -5 -1 11 8 10 -10 -2 -3 -13 14 19 -16 -17 -18 -19 20 -14 -9 -23 -24 25 26 28 -28 29 -12
right_child=7 3 -4 4 -6 -7 -8 21 9 -11 24 12 13 -15 15 16 17 18 -20 -21 -22 22 23 -25 -26 -27 27 -29 -30 -31
leaf_value=-0.29931212157796366 -0.40505176330847131 -0.12930289127638109 -0.45877131371912472 -0.067945532963492636 0.26941508536280578 0.064732521831074405 -0.38919274576906671 1.1393161221699866 0.35994831727726651 -0.23127657897492426 0.01288389445523066 0.26891161306170641 -0.17042668414570494 0.16792492737696102 0.27914100919427404 -0.35034742300542043 0.73315808312010733 0.045711182474559568 -0.45661112271808035 -0.016289054330752253 -0.50676318151270028 -0.37969918037860673 1.1282064188733765 0.60670979771311417 1.3151515810635381 -0.24738274770755933 0.039625114020564928 0.89343824397111726 -0.040469319486780009 1.1342393345178152
leaf_weight=403 41 370 38 75 42 51 56 32 45 35 54 57 50 31 73 47 35 33 37 67 43 39 62 59 35 40 40 82 112 79
leaf_count=403 41 370 38 75 42 51 56 32 45 35 54 57 50 31 73 47 35 33 37 67 43 39 62 59 35 40 40 82 112 79
internal_value=-0.00108216 -0.00609675 -0.0135903 -0.00245821 0.00889831 -0.0116484 -0.00394444 0.00892857 0.00647163 -0.00617284 0.00857438 -0.00290284 0.000527426 -0.00191847 -0.00375648 0.00154867 -0.00522876 0.00141509 -0.00985915 -0.0111801 -0.018617 0.0160622 0.0124224 0.0192623 0.010158 0.00870098 0.0107337 0.0178862 0.00711382 0.013806
internal_weight=2263 1508 492 1016 117 454 899 755 563 80 483 843 473 416 385 225 152 105 70 160 93 192 160 121 442 407 367 122 245 133
internal_count=2263 1508 492 1016 117 454 899 755 563 80 483 843 473 416 385 225 152 105 70 160 93 192 160 121 442 407 367 122 245 133
is_linear=0
shrinkage=0.05


Tree=29
num_leaves=31
num_cat=0
split_feature=22 17 21 45 21 45 35 44 47 21 39 8 33 17 25 2 47 32 47 48 41 6 16 41 16 17 26 39 22 25
split_gain=41.7582 11.72 7.29752 8.02444 6.82484 5.94665 6.38356 5.97289 5.93682 6.65708 8.72268 7.47505 7.52386 7.51634 5.37272 6.4691 5.25409 5.19717 6.58534 5.63804 5.23879 5.20905 5.10293 6.33545 4.93214 5.10999 4.85378 8.17414 4.8493 10.3918
threshold=9.2665000000000024 18.062500000000004 16.166500000000003 0.30400000000000005 6.166500000000001 0.25850000000000006 1.8660000000000003 11.784500000000003 3.5225000000000004 3.8335000000000004 32.427500000000002 19.812500000000004 2.1665000000000005 34.937500000000007 9.7750000000000021 218.26650000000004 0.65150000000000008 1.2680000000000002 1.3450000000000002 8.5000000000000018 30.348500000000005 17.416500000000003 11.550000000000002 15.033500000000002 70.300000000000026 77.812500000000014 8.6460000000000026 31.361000000000001 13.100000000000001 13.500000000000002
decision_type=2 2 2 2 2 2 2 2 2 2 2 2 2 2 2 2 2 2 2 2 2 2 2 2 2 2 2 2 2 2
left_child=1 4 3 14 22 6 -4 -8 9 10 16 12 17 -13 15 -2 -3 18 19 21 -19 -11 -1 -24 -9 -26 27 -25 -16 -30
right_child=2 8 5 -5 -6 -7 7 24 -10 11 -12 13 -14 -15 28 -17 -18 20 -20 -21 -22 -23 23 26 25 -27 -28 -29 29 -31
leaf_value=-0.30126575051019489 -0.088050013283043432 0.095503285096578336 1.6826010350416316 -0.31572721242808993 -0.43583274803316852 0.91371642216649307 -0.33791696397444204 0.75233749145363904 -0.12703658323106967 -0.13986572192422875 -0.34667331969498322 0.21942928218963403 0.14905054045995556 -0.28414088669470566 0.43764577440365537 0.28210529692853509 -0.34156768432378126 -0.52079615540763735 0.32606848054542914 0.056326312399499659 -0.05254449409140563 -0.36709377167080981 0.01641849097036099 -0.44516246703309448 -0.26843103055111472 1.2643549996793331 0.22346201870597771 0.17955814378443488 0.56372812164291941 -0.035585207142043274
leaf_weight=184 160 42 33 54 38 32 30 73 53 164 43 82 120 30 206 30 46 55 41 73 30 39 118 86 61 60 34 32 39 175
leaf_count=184 160 42 33 54 38 32 30 73 53 164 43 82 120 30 206 30 46 55 41 73 30 39 118 86 61 60 34 32 39 175
internal_value=-0.001303 -0.00709382 0.00665618 0.0037594 -0.0131846 0.0132759 0.0106589 0.00755556 -0.0034188 -0.0022846 -0.0125 -0.00015748 -0.00267686 0.0115044 0.00540098 -0.00157068 -0.00337079 -0.00595533 -0.00298742 -0.00577617 -0.0168605 -0.010049 -0.0114286 -0.00701107 0.0107692 0.0045082 -0.0137255 -0.0184874 0.00855107 0.00325581
internal_weight=2263 1310 953 664 492 289 257 224 818 765 131 634 522 112 610 190 88 402 317 276 85 203 454 270 194 121 152 118 420 214
internal_count=2263 1310 953 664 492 289 257 224 818 765 131 634 522 112 610 190 88 402 317 276 85 203 454 270 194 121 152 118 420 214
is_linear=0
shrinkage=0.05


Tree=30
num_leaves=31
num_cat=0
split_feature=21 17 45 16 16 5 41 16 48 26 2 21 0 15 47 46 30 45 41 25 47 30 47 35 33 17 25 41 32 15
split_gain=32.6027 12.4339 8.47152 6.27303 5.98322 6.56962 5.69681 5.39889 5.24936 4.73246 4.62788 6.89062 5.21633 7.64041 4.67478 9.26607 6.63753 6.16739 5.87021 7.31914 10.3038 8.48826 6.25784 5.72656 6.0451 5.68549 5.4064 5.20355 4.8875 4.86468
threshold=5.166500000000001 17.585500000000007 0.060500000000000005 98.800000000000011 10.450000000000001 1.1550000000000002 18.519000000000002 7.6335000000000006 14.500000000000002 36.330500000000008 227.93750000000003 7.416500000000001 172.83350000000004 43.166500000000006 3.7030000000000007 3.1055000000000006 2.8335000000000004 0.06900000000000002 44.690500000000007 13.775000000000002 2.4230000000000005 1.4165000000000003 0.26150000000000007 3.7085000000000004 1.1665000000000003 33.062500000000007 23.100000000000005 30.071500000000004 3.6460000000000004 55.833500000000008
decision_type=2 2 2 2 2 2 2 2 2 2 2 2 2 2 2 2 2 2 2 2 2 2 2 2 2 2 2 2 2 2
left_child=2 -2 4 6 5 7 -3 -1 9 10 12 -12 14 -14 18 -16 -17 26 19 21 -21 22 -8 24 -20 -22 -18 -24 -19 -26
right_child=1 3 -4 -5 -6 -7 8 -9 -10 -11 11 -13 13 -15 15 16 17 28 23 20 25 -23 27 -25 29 -27 -28 -29 -30 -31
leaf_value=-0.038175186993208189 -0.42706125485373836 0.51447876770054479 0.077866525390751215 1.578421865864118 -0.16279508810625318 -0.40064615818145555 0.53930585937092157 -0.38158754185665889 -0.19886015556708259 0.77591838918086831 0.00045719124209799846 0.52051315158404532 0.017182384108658157 -0.27879847487888521 -0.26506339996280043 0.52461449810406435 -0.088164124134651092 -0.3751861709268095 0.70656767581337443 -0.5210290289133489 0.22692464821023003 0.29935077694936896 0.029074080270900728 0.89249439728901447 0.54930178024746612 -0.3602030201431406 0.63581833630303586 -0.16682208649919322 0.055337442235414792 0.012959877148561817
leaf_weight=60 68 32 85 50 477 37 41 63 66 49 32 31 48 38 76 37 32 33 67 38 35 63 104 31 122 33 42 79 46 227
leaf_count=60 68 32 85 50 477 37 41 63 66 49 32 31 48 38 76 37 32 33 67 38 35 63 104 31 122 33 42 79 46 227
internal_value=-0.000802497 0.00335306 -0.00954357 0.00433586 -0.0115204 -0.0198758 0.00370634 -0.0141129 0.00320934 0.00390805 0.00330414 0.0164063 0.00259849 -0.0091954 0.00352304 -0.00224719 0.00366492 -0.000974026 0.00535077 0.000888325 -0.0102804 0.00503472 0.000444444 0.00926339 0.00767386 0.00144928 0.00933333 -0.00353261 -0.010625 0.005
internal_weight=2242 1520 722 1452 637 160 1402 123 1370 1304 1255 63 1192 86 1106 266 190 153 840 393 106 287 224 447 416 68 74 183 79 349
internal_count=2242 1520 722 1452 637 160 1402 123 1370 1304 1255 63 1192 86 1106 266 190 153 840 393 106 287 224 447 416 68 74 183 79 349
is_linear=0
shrinkage=0.05


Tree=31
num_leaves=31
num_cat=0
split_feature=21 45 42 16 42 1 10 43 25 44 32 49 21 16 43 49 36 22 44 25 26 48 16 16 49 24 23 33 24 25
split_gain=30.8277 7.85073 7.5729 5.83172 5.72539 5.80295 5.80685 4.84843 4.62166 5.65851 7.16528 4.16254 4.07199 4.43207 6.37603 4.06631 3.90273 5.24835 3.78243 4.57765 6.58197 5.74723 3.58993 5.64166 3.93262 7.14145 11.8262 5.05191 6.46765 5.93096
threshold=5.166500000000001 0.060500000000000005 0.39250000000000007 98.800000000000011 0.29000000000000004 205.10000000000002 26.633500000000005 4.5635000000000003 36.300000000000004 23.258500000000005 3.0625000000000004 4.5000000000000009 6.416500000000001 81.700000000000003 18.155000000000005 10.500000000000002 254.79150000000001 3.5500000000000003 19.683500000000006 14.900000000000002 12.937500000000002 8.5000000000000018 17.300000000000001 19.100000000000005 12.500000000000002 6.8335000000000008 12.708500000000003 2.1665000000000005 32.500000000000007 23.266500000000004
decision_type=2 2 2 2 2 2 2 2 2 2 2 2 2 2 2 2 2 2 2 2 2 2 2 2 2 2 2 2 2 2
left_child=1 4 22 8 5 6 -1 -6 9 12 -11 -7 -4 14 18 -3 17 -13 19 20 21 -14 -2 -24 27 -26 -27 -25 29 -29
right_child=2 15 3 -5 7 11 -8 -9 -10 10 -12 16 13 -15 -16 -17 -18 -19 -20 -21 -22 -23 23 24 25 26 -28 28 -30 -31
leaf_value=-0.21139626487431668 -0.18291578692064681 -0.02846917297774745 -0.23690226851222454 1.5701905975737405 0.068313942963599494 -0.51235843736296371 0.25235984976291875 -0.28262559200100129 0.87735715612319753 -0.56627068851231488 0.28827769587806851 -0.41758466225176988 0.18335479234714855 -0.080963850992698927 0.97193852145512027 0.37343487225511418 -0.093466006323462913 -0.13194899619065481 1.032649724656683 -0.095265423216150863 1.3870170202414056 -0.27785016539175306 0.26057675484825238 -0.041152033667702086 0.32947866707940449 -0.50294514645151944 0.083953873841321788 0.16972109097198107 -0.10105532391291927 0.7271344563936073
leaf_weight=325 55 50 40 45 76 41 35 33 38 42 59 38 144 58 31 35 46 43 30 58 33 32 35 342 41 55 50 215 56 61
leaf_count=325 55 50 40 45 76 41 35 33 38 42 59 38 144 58 31 35 46 43 30 58 33 32 35 342 41 55 50 215 56 61
internal_value=-0.000490415 -0.00899032 0.0035503 0.00785597 -0.0108934 -0.0130435 -0.00941828 -0.000454545 0.00644876 0.00520833 -0.00539216 -0.0207101 0.00772834 0.00930233 0.0115502 0.00523256 -0.0160156 -0.022561 0.00922819 0.00727612 0.0107143 0.00677966 0.000658617 0.00146028 0.000609013 -0.00680272 -0.0136792 0.00222222 0.00660661 0.00974729
internal_weight=2242 722 1520 610 637 528 360 109 565 527 101 168 426 386 328 85 127 81 297 267 209 176 910 855 820 146 105 674 332 276
internal_count=2242 722 1520 610 637 528 360 109 565 527 101 168 426 386 328 85 127 81 297 267 209 176 910 855 820 146 105 674 332 276
is_linear=0
shrinkage=0.05


Tree=32
num_leaves=31
num_cat=0
split_feature=17 40 42 16 17 26 44 41 15 11 13 38 42 43 42 24 43 25 44 25 22 42 15 15 15 22 16 29 29 16
split_gain=27.1476 8.20657 10.6427 8.86931 7.53438 7.33433 5.14544 7.08942 6.63395 5.08029 6.15715 6.39471 5.93944 10.1821 8.59794 7.93345 5.19341 5.03438 8.61587 8.56689 5.91138 5.25411 4.76001 4.59268 4.99328 4.51043 4.3664 4.30206 6.94452 7.96037
threshold=24.309500000000003 0.63050000000000017 0.27550000000000008 10.100000000000001 52.562500000000007 16.291500000000003 18.738500000000005 31.354000000000003 48.166500000000006 33.312500000000007 0.3665000000000001 19.408500000000004 0.10550000000000002 6.8090000000000002 0.31400000000000006 12.583500000000003 10.913000000000002 22.266500000000004 23.944500000000001 18.500000000000004 12.225000000000001 0.46450000000000008 37.833500000000008 32.500000000000007 26.166500000000003 17.366500000000002 32.633500000000005 0.13400000000000004 1.0000000180025095e-35 71.100000000000009
decision_type=2 2 2 2 2 2 2 2 2 2 2 2 2 2 2 2 2 2 2 2 2 2 2 2 2 2 2 2 2 2
left_child=1 3 -3 -1 5 9 -7 -8 22 10 12 -12 13 -2 15 23 26 19 -19 20 -6 -21 -9 24 -14 -20 -16 28 29 -22
right_child=4 2 -4 -5 17 6 7 8 -10 -11 11 -13 14 -15 16 -17 -18 18 25 21 27 -23 -24 -25 -26 -27 -28 -29 -30 -31
leaf_value=-0.22370109552384854 0.40963393173305884 -0.29722552791790385 0.057669697018367751 -0.048777097351032063 -0.03187073829208522 -0.37195649784909784 0.31198308705639888 -0.1517086998097911 0.20995394652191487 -0.1317383455859262 0.52296065672248382 0.015197539584005071 -0.23477616848228974 -0.0070954569981374511 0.098276590195292446 0.049943851505506842 0.44443141503282463 0.78280762354922795 0.47970229436429757 -0.23584710816411239 0.67032519194624762 0.022146233582914832 -0.51949437650029562 -0.51529748720209001 0.1093049494131086 -0.30432767569105545 -0.11554252922096203 -0.071300245058754541 1.1353385884089051 -0.16434209708984968
leaf_weight=126 62 136 33 497 81 58 36 40 46 46 39 48 38 95 42 43 45 60 116 36 84 45 40 45 30 36 48 43 67 81
leaf_count=126 62 136 33 497 81 58 36 40 46 46 39 48 38 95 42 43 45 60 116 36 84 45 40 45 30 36 48 43 67 81
internal_value=-0.000757914 -0.00819672 -0.0179412 -0.00552885 0.00330806 6.23441e-05 -0.00769231 -0.00306748 -0.00866142 0.00300687 0.00438433 0.0164773 0.00200445 0.00981013 -0.00222603 -0.0101911 0.00698529 0.00730769 0.013615 0.00422374 0.00756303 -0.0103659 -0.017284 -0.0171053 -0.00869565 0.00718954 0 0.0110507 0.0137339 0.00813253
internal_weight=2242 792 169 623 1450 801 220 162 126 581 535 87 448 157 291 156 135 649 212 437 356 81 80 113 68 152 90 275 232 165
internal_count=2242 792 169 623 1450 801 220 162 126 581 535 87 448 157 291 156 135 649 212 437 356 81 80 113 68 152 90 275 232 165
is_linear=0
shrinkage=0.05


Tree=33
num_leaves=31
num_cat=0
split_feature=17 16 18 32 15 36 15 17 15 15 35 49 46 9 6 40 43 46 38 7 20 44 21 16 25 25 41 16 15 25
split_gain=23.1681 11.2612 5.9562 8.30951 5.80998 5.6004 4.60432 5.32669 4.56535 9.71535 6.13738 4.52318 4.74463 4.13635 5.47972 6.81834 10.1851 5.94047 6.22578 6.67467 6.33389 5.79153 4.08358 3.98978 4.23733 6.31774 4.02018 5.93256 4.97095 5.38893
threshold=52.562500000000007 11.550000000000002 1.0000000180025095e-35 4.0625000000000009 60.166500000000006 229.12500000000003 107.83350000000002 54.875000000000007 53.416500000000006 50.500000000000007 4.5980000000000008 6.5000000000000009 2.3925000000000005 38.833500000000008 24.166500000000003 0.60550000000000004 5.9500000000000011 0.21100000000000005 20.966500000000003 19.100000000000005 0.13400000000000004 1.9645000000000004 6.166500000000001 41.300000000000004 29.100000000000005 21.450000000000003 18.309500000000003 17.900000000000002 28.416500000000003 3.9000000000000004
decision_type=2 2 2 2 2 2 2 2 2 2 2 2 2 2 2 2 2 2 2 2 2 2 2 2 2 2 2 2 2 2
left_child=1 5 11 6 8 -1 7 -4 9 10 13 -2 -13 14 15 17 -17 18 19 20 -3 -19 -22 24 25 26 -23 -28 29 -29
right_child=2 4 3 -5 -6 -7 -8 -9 -10 -11 -12 12 -14 -15 -16 16 -18 21 -20 -21 22 23 -24 -25 -26 -27 27 28 -30 -31
leaf_value=-0.19151591209885602 -0.13005786701382754 0.30271879688424835 0.82133486470193984 0.96432939824608688 0.7080020970149159 -0.34854956238360191 1.7723547154434371 0.13031939682673119 -0.23301107580921504 0.55831633881680076 -0.3514340125817233 -0.42786628060757242 0.35062428902309278 -0.23900057906078676 0.23218817984735562 -0.2854593897964377 0.25446445563991044 -0.17991578524513019 -0.42442108143119239 0.48803942228144631 -0.49519397030762247 -0.17501958299578915 0.20502235610617811 -0.35177937358340117 0.64145126111609174 -0.32372103912619821 0.24998677197339136 0.2483007861395187 0.12474257621164569 -0.19854997012268996
leaf_weight=170 63 65 33 46 46 43 42 381 45 42 43 32 52 31 48 121 34 55 31 38 39 132 33 94 38 51 51 41 151 151
leaf_count=170 63 65 33 46 46 43 42 381 45 42 43 32 52 31 48 121 34 55 31 38 39 132 33 94 38 51 51 41 151 151
internal_value=-0.000802497 -0.00404642 0.00715385 0.00974155 -0.00238957 -0.0147196 0.00765864 0.0060241 -0.00299625 -0.00244186 -0.00324519 -0.00168919 0.00588235 -0.00257261 -0.00208688 -0.00279751 -0.0125 -0.00123584 0.00628019 0.00994318 0.00471014 -0.00326797 -0.00547945 -0.00204225 -0.000568182 -0.0016436 0 0.00253165 0.000145349 -0.00518135
internal_weight=2242 1593 649 502 1380 213 456 414 1334 1289 1247 147 84 1204 1173 1125 155 970 206 175 137 764 72 709 615 577 526 394 343 192
internal_count=2242 1593 649 502 1380 213 456 414 1334 1289 1247 147 84 1204 1173 1125 155 970 206 175 137 764 72 709 615 577 526 394 343 192
is_linear=0
shrinkage=0.05


Tree=34
num_leaves=31
num_cat=0
split_feature=23 16 16 5 11 9 49 2 39 11 20 23 23 17 41 41 16 33 16 32 17 49 26 26 31 44 48 49 23 23
split_gain=22.7657 8.92088 6.25556 5.99219 5.7501 10.6992 5.20305 5.54743 5.7789 4.85815 4.2845 4.04042 4.05037 4.03357 4.02513 8.75129 7.90037 6.11119 5.81075 7.63719 5.56241 6.13161 4.33453 3.90684 4.3572 3.9059 3.8244 3.72015 5.00375 7.30768
threshold=7.6460000000000008 11.550000000000002 98.800000000000011 1.1550000000000002 33.854000000000006 33.833500000000008 1.5000000000000002 221.22900000000001 25.784000000000002 35.134000000000007 0.93750000000000011 3.1340000000000003 6.464500000000001 19.937500000000004 19.4145 15.033500000000002 20.100000000000005 0.83350000000000013 21.100000000000005 1.1835000000000002 23.708500000000004 5.5000000000000009 4.2680000000000007 12.812500000000002 0.90000000000000013 3.9085000000000005 17.500000000000004 10.500000000000002 5.9375000000000009 4.5355000000000008
decision_type=2 2 2 2 2 2 2 2 2 2 2 2 2 2 2 2 2 2 2 2 2 2 2 2 2 2 2 2 2 2
left_child=1 3 6 -1 5 11 25 8 10 -6 26 -3 14 -11 15 17 22 -13 19 -16 21 -20 -17 24 -14 -2 -8 28 29 -22
right_child=2 4 -4 -5 9 -7 7 -9 -10 13 -12 12 23 -15 18 16 -18 -19 20 -21 27 -23 -24 -25 -26 -27 -28 -29 -30 -31
leaf_value=-0.18006560124946561 0.017253299604619878 -0.4186645850731438 1.3899857521343595 -0.36418157873459067 -0.32614664141070959 0.11933146473385339 0.037454251835062458 0.38170819409028828 -0.18792613562456639 0.10167391391734776 0.47978671071042228 0.1951749858909794 -0.33556312844002001 -0.23614437118042045 0.014056377153870248 -0.38196575961373125 0.3234775228341093 -0.31407375093635537 -0.43502898698617554 0.44472870115360386 0.08205491416265992 -0.019495746933134852 -0.14130444795818173 -0.32602459063970513 0.11850544740106345 0.99119877943433865 -0.25652463623154736 0.46099537859828993 0.26827857963365737 -0.21925005507607598
leaf_weight=167 31 54 50 44 35 41 812 36 30 36 80 46 68 43 48 49 35 46 30 32 32 44 53 41 33 51 32 33 34 76
leaf_count=167 31 54 50 44 35 41 812 36 30 36 80 46 68 43 48 49 35 46 30 32 32 44 53 41 33 51 32 33 34 76
internal_value=-0.000579581 -0.00561998 0.00445236 -0.0148585 -0.00346154 -0.00194724 0.00363467 0.00262361 0.00188482 -0.013913 0.00259459 -0.00331126 -0.00228245 -0.006875 -0.000357782 -0.00543478 -0.0134058 0.00645161 0.00318182 0.0148148 -0.0006 -0.012 -0.0203883 -0.00979021 -0.00441176 0.0156627 0.00153846 0.00426136 0.000699301 -0.00458716
internal_weight=2242 1120 1122 211 909 795 1072 990 954 114 924 754 700 79 558 229 137 92 329 80 249 74 102 142 101 82 844 175 142 108
internal_count=2242 1120 1122 211 909 795 1072 990 954 114 924 754 700 79 558 229 137 92 329 80 249 74 102 142 101 82 844 175 142 108
is_linear=0
shrinkage=0.05


Tree=35
num_leaves=31
num_cat=0
split_feature=16 43 25 43 29 42 30 24 24 44 24 43 46 46 43 17 3 3 16 15 16 25 16 20 42 23 46 41 16 17
split_gain=30.5873 7.93574 9.36633 5.91375 5.59409 7.69481 4.79078 5.06318 10.3779 5.5299 7.34566 6.12653 5.02476 6.79667 4.72544 4.64045 5.41704 5.53018 6.21005 7.47442 4.55295 6.2645 8.26918 4.50706 5.75439 4.4559 4.73297 6.13719 8.11963 7.22113
threshold=29.450000000000003 17.225000000000005 25.733500000000003 3.8090000000000006 0.13400000000000004 0.70300000000000007 4.416500000000001 24.583500000000004 26.416500000000003 13.380000000000001 17.833500000000004 8.4835000000000012 3.3800000000000003 2.7575000000000007 7.1340000000000012 18.268000000000004 1.5835000000000001 0.58350000000000013 21.100000000000005 13.833500000000003 22.633500000000005 6.5500000000000007 25.900000000000002 0.46450000000000008 0.13800000000000004 5.6125000000000007 1.2585000000000002 16.732000000000003 9.6335000000000015 13.562500000000002
decision_type=2 2 2 2 2 2 2 2 2 2 2 2 2 2 2 2 2 2 2 2 2 2 2 2 2 2 2 2 2 2
left_child=3 6 4 -1 5 -3 7 9 -9 11 -11 14 13 -10 23 25 17 18 19 -17 -20 22 -22 24 -2 26 27 28 -5 -30
right_child=1 2 -4 15 -6 -7 -8 8 12 10 -12 -13 -14 -15 -16 16 -18 -19 20 -21 21 -23 -24 -25 -26 -27 -28 -29 29 -31
leaf_value=-0.17009277650127252 0.1133648914971607 0.34724939536117483 -0.14742758885879256 -0.31540692617135591 0.58313708508177808 1.6052170053309873 0.56691086198712881 -0.49708448602053101 -0.021871605512134452 0.65848102960388111 0.03929295504248867 -0.014850525550565942 -0.099071380026873615 1.0096304553033419 0.46177169744242302 -0.093376791762662226 0.13900386633113451 -0.32817570835228838 -0.41984178479562095 0.24354260897337757 0.27800123450060854 -0.16657430931284101 -0.2100095068097633 0.40919307730765447 -0.40618334111779292 -0.378877356607074 0.12506382730836627 -0.43966052360123681 0.24930707146986839 -0.27043709852296111
