tree
version=v4
num_class=1
num_tree_per_iteration=1
label_index=0
max_feature_idx=51
objective=binary sigmoid:1
feature_names=home_last_5_avg_goals_scored home_last_10_avg_goals_scored home_last_20_avg_goals_scored home_season_avg_goals_scored home_last_5_avg_goals_allowed home_last_10_avg_goals_allowed home_last_20_avg_goals_allowed home_season_avg_goals_allowed home_last_5_avg_margin home_last_10_avg_margin home_season_avg_margin home_last_5_win_rate home_last_10_win_rate home_season_win_rate home_last_10_avg_shots_for home_season_avg_shots_for home_last_10_avg_shots_against home_season_avg_shots_against home_last_5_avg_shooting_pct home_last_10_avg_shooting_pct home_last_5_avg_save_pct home_last_10_avg_save_pct home_days_rest home_is_back_to_back home_games_played_season home_is_playoffs away_last_5_avg_goals_scored away_last_10_avg_goals_scored away_last_20_avg_goals_scored away_season_avg_goals_scored away_last_5_avg_goals_allowed away_last_10_avg_goals_allowed away_last_20_avg_goals_allowed away_season_avg_goals_allowed away_last_5_avg_margin away_last_10_avg_margin away_season_avg_margin away_last_5_win_rate away_last_10_win_rate away_season_win_rate away_last_10_avg_shots_for away_season_avg_shots_for away_last_10_avg_shots_against away_season_avg_shots_against away_last_5_avg_shooting_pct away_last_10_avg_shooting_pct away_last_5_avg_save_pct away_last_10_avg_save_pct away_days_rest away_is_back_to_back away_games_played_season away_is_playoffs
feature_infos=[0:8] [0:8] [0:8] [0:8] [0:8] [0:8] [0:8] [0:8] [-7:7] [-7:7] [-7:7] [0:1] [0:1] [0:1] [0:60] [0:60] [0:49] [0:49] [0:0.30769230769230771] [0:0.30769230769230771] [0.69230769230769229:1] [0.69230769230769229:1] [1:14] [0:1] [0:71] none [0:7] [0:7] [0:7] [0:7] [0:7] [0:7] [0:7] [0:7] [-6:6] [-6:6] [-6:6] [0:1] [0:1] [0:1] [0:47.5] [0:47.5] [0:60] [0:60] [0:0.26923076923076922] [0:0.26923076923076922] [0.73076923076923084:1] [0.73076923076923084:1] [1:14] [0:1] [0:70] none
tree_sizes=1674 1719 1718 1710 1723 1726 1718 1721 1725

Tree=0
num_leaves=15
num_cat=0
split_feature=42 19 9 15 20 2 29 6 17 18 17 29 7 17
split_gain=13.6058 12.4719 9.14139 9.47312 8.58112 8.16551 8.7903 7.27834 6.48653 5.68692 5.11998 5.04683 5.8337 5.68449
threshold=29.387500000000003 0.12706998140555517 1.2250000000000003 29.281746031746035 0.91669248493442057 2.552777777777778 3.2296703296703302 2.4365079365079372 26.145502645502649 0.11744584901821746 25.53170289855073 2.8628526645768031 3.0404081632653068 29.595695970695974
decision_type=2 2 2 2 2 2 2 2 2 2 2 2 2 2
left_child=2 4 3 7 5 -2 9 -1 10 -7 -9 -10 -13 -14
right_child=1 -3 -4 -5 -6 6 -8 8 11 -11 -12 12 13 -15
leaf_value=0.10183044743000969 0.07417342667344734 0.12142056334405843 0.10399666217050546 0.094725586396816455 0.063921689471333629 0.10459479609138861 0.082680187330520433 0.071377498345598159 0.090638337937448174 0.13605664032984294 0.039359609429905726 0.061812480381903526 0.094799127452662738 0.069960383987647187
leaf_weight=9.2326949983835203 10.729888781905172 17.217728510499001 17.217728510499001 33.437327831983566 8.2345658093690854 16.718663915991787 11.728017970919607 10.729888781905176 20.212116077542305 7.4859689176082602 7.7355012148618689 23.705568239092827 15.221470132470129 18.215857699513435
leaf_count=37 43 69 69 134 33 67 47 43 81 30 31 95 61 73
internal_value=0.0883705 0.0991433 0.0833812 0.0808182 0.0921563 0.0971389 0.103997 0.0763916 0.0739404 0.114325 0.0579646 0.077754 0.0731967 0.0812676
internal_weight=227.823 72.1148 155.708 138.49 54.8971 46.6625 35.9327 105.053 95.8204 24.2046 18.4654 77.355 57.1429 33.4373
internal_count=913 289 624 555 220 187 144 421 384 97 74 310 229 134
is_linear=0
shrinkage=1


Tree=1
num_leaves=15
num_cat=0
split_feature=12 41 15 33 5 34 19 44 46 33 48 17 13 20
split_gain=12.9202 9.33854 10.6028 7.47334 6.83583 6.63148 9.74161 13.8484 7.78227 6.92788 6.42 6.38615 8.55612 8.0788
threshold=0.64583333333333337 31.016129032258068 28.932383536861149 3.3273278061224496 2.683333333333334 -0.54999999999999993 0.12302110357742684 0.11005548541920798 0.87726557780080705 2.6614583333333335 1.5000000000000002 30.097619047619052 0.44365079365079368 0.88826165380513222
decision_type=2 2 2 2 2 2 2 2 2 2 2 2 2 2
left_child=1 2 5 4 -2 6 7 8 -1 -7 -4 12 13 -11
right_child=3 -3 10 -5 -6 9 -8 -9 -10 11 -12 -13 -14 -15
leaf_value=-0.027854701705697267 -0.0012782676243620328 -0.023748245074272589 0.033307222931078594 0.038362891562695955 0.031739381975929064 0.012048940674844695 0.031838540361602205 0.030124161990005734 0.0055178948721188153 -0.0091422350677964215 0.0066766165320358431 -0.033006377177188739 0.004451860661742601 -0.043011314597759462
leaf_weight=14.725073724985124 17.955420270562175 15.473441138863562 9.97822158038616 11.219297230243681 8.2301636636257154 11.226667463779448 9.4748768508434278 8.7338967323303205 10.976823359727858 20.213802471756939 44.402526810765266 12.230447754263876 23.705462366342545 9.233933210372923
leaf_count=59 72 62 40 45 33 45 38 35 44 81 178 49 95 37
internal_value=0.00175758 -0.00140948 0.000566813 0.0178766 0.00909922 -0.00439483 0.00490027 -0.0025117 -0.0136019 -0.00972249 0.011563 -0.0134607 -0.00896333 -0.0197626
internal_weight=227.78 190.375 174.902 37.4049 26.1856 120.521 43.9107 34.4358 25.7019 76.6103 54.3807 65.3836 53.1532 29.4477
internal_count=913 763 701 150 105 483 176 138 103 307 218 262 213 118
is_linear=0
shrinkage=0.03


Tree=2
num_leaves=15
num_cat=0
split_feature=42 19 9 24 44 4 2 29 45 46 39 10 30 50
split_gain=12.5942 11.4256 8.33432 7.09284 7.10751 7.06395 8.28412 7.62091 6.2644 11.8745 7.87615 7.79088 8.22623 6.36666
threshold=29.387500000000003 0.12706998140555517 1.2250000000000003 15.500000000000002 0.12241384295653747 2.2666666666666671 2.552777777777778 3.2296703296703302 0.10379699871407462 0.88804463707949466 0.41897974493623413 -0.22765732416710732 3.1000000000000005 41.500000000000007
decision_type=2 2 2 2 2 2 2 2 2 2 2 2 2 2
left_child=2 5 3 4 -1 -2 -7 -8 9 10 -5 12 -10 -13
right_child=1 -3 -4 8 -6 6 7 -9 11 -11 -12 13 -14 -15
leaf_value=-0.002789183336769373 -0.018930260829777338 0.033438012302173852 0.016607680245008881 0.0064216212735212766 0.029025803865027115 -0.014007028860340279 0.026664546193325721 -0.0026529118663262395 -0.014755952258284044 0.019782532950353267 -0.029174139913604184 -0.034960436029232593 0.018526337560647532 -0.011600508799503445
leaf_weight=18.955606117844585 8.9850410968065244 17.16662186384201 17.191808685660362 9.9793729335069674 9.4804231226444227 9.9880934059619886 23.917068466544151 11.975495904684065 17.725257366895679 16.71398638188839 12.732234016060827 19.717157691717148 10.729496791958807 22.463791862130165
leaf_count=76 36 69 69 40 38 40 96 48 71 67 51 79 43 90
internal_value=0.00170562 0.0120778 -0.00309326 -0.00553876 0.00781777 0.00539454 0.0101582 0.0168828 -0.00898963 0.000590397 -0.0135335 -0.0143368 -0.00220613 -0.0225199
internal_weight=227.721 72.0323 155.689 138.497 28.436 54.8657 45.8807 35.8926 110.061 39.4256 22.7116 70.6357 28.4548 42.1809
internal_count=913 289 624 555 114 220 184 144 441 158 91 283 114 169
is_linear=0
shrinkage=0.03


Tree=3
num_leaves=15
num_cat=0
split_feature=12 40 15 18 28 14 47 30 14 33 5 43 40 41
split_gain=11.7314 11.6514 8.98002 12.3695 10.0499 8.3313 8.11223 9.32631 7.5792 7.01732 6.41241 11.2225 6.24473 12.9306
threshold=0.64583333333333337 29.450000000000003 28.910571808510642 0.091776812843309033 2.552777777777778 24.650000000000002 0.90501455977362777 2.6750000000000003 26.225000000000005 3.3273278061224496 2.683333333333334 26.66939890710383 31.550000000000004 32.035714285714292
decision_type=2 2 2 2 2 2 2 2 2 2 2 2 2 2
left_child=1 2 4 -4 8 -3 7 -6 -1 10 11 -2 -7 -14
right_child=9 5 3 -5 6 12 -8 -9 -10 -11 -12 -13 13 -15
leaf_value=-0.0012857757910364578 0.025768335860989429 -0.042213686641577 -0.0083847188115305869 0.025800408277447465 -0.032098778155774187 -0.017123560985858099 0.011960805457319727 -0.0049724114342125213 0.037183695044019777 0.036925910276203983 0.030494405124384845 -0.022145799040178507 0.034383018514546962 -0.019241019237309281
leaf_weight=9.2236955314874667 7.7253695726394715 7.7433708906173697 14.208663627505301 28.90671806037426 15.234028428792952 27.686704128980637 16.459878981113434 45.406260624527931 9.2134421765804273 11.179296255111693 8.2070269435644132 10.219272583723066 7.73222588002682 8.491596579551695
leaf_count=37 31 31 57 116 61 111 66 182 37 45 33 41 31 34
internal_value=0.00165539 -0.00136096 0.0031698 0.0145347 -0.00195912 -0.0135227 -0.00671722 -0.0117871 0.0179383 0.0170322 0.00852811 -0.00151823 -0.00846323 0.00631604
internal_weight=227.638 190.307 138.653 43.1154 95.5373 51.6539 77.1002 60.6403 18.4371 37.331 26.1517 17.9446 43.9105 16.2238
internal_count=913 763 556 173 383 207 309 243 74 150 105 72 176 65
is_linear=0
shrinkage=0.03


Tree=4
num_leaves=15
num_cat=0
split_feature=12 40 15 18 28 47 30 16 33 43 39 15 39 12
split_gain=11.0561 10.9608 8.45767 11.6612 9.46353 7.63204 8.76765 6.92295 6.63834 6.4174 6.29139 8.98653 6.11979 7.94681
threshold=0.64583333333333337 29.450000000000003 28.910571808510642 0.091776812843309033 2.552777777777778 0.90501455977362777 2.6750000000000003 25.050000000000004 3.3273278061224496 28.631026659103803 0.35450268817204306 25.653010033444819 0.42146381578947373 0.43650793650793657
decision_type=2 2 2 2 2 2 2 2 2 2 2 2 2 2
left_child=1 2 4 -4 -1 6 -6 -3 -2 -9 -8 -12 -13 -14
right_child=8 7 3 -5 5 -7 10 9 -10 -11 11 12 13 -15
leaf_value=0.017422093585287689 0.0082797233075267117 0.012577834953445383 -0.0081297493460411509 0.025066090423444553 -0.031117321026775158 0.011608532301527592 -0.029952099561595721 -0.026318935825581129 0.035934349440132116 -0.0022742721709715472 0.02267051535885611 0.012665147097324117 -0.036022061623460812 0.003353084098836558
leaf_weight=18.414585828781128 26.130150586366653 7.9815140217542639 14.214562982320784 28.861613556742668 15.242924466729162 16.450728818774223 7.4879236221313468 28.22114434838295 11.143671065568922 15.46407927572727 11.218891903758047 7.9845201820135143 10.488083913922312 8.2352998405694944
leaf_count=74 105 32 57 116 61 66 30 113 45 62 45 32 42 33
internal_value=0.00160681 -0.00132014 0.00307616 0.0141119 -0.00190042 -0.00651492 -0.0114301 -0.0131135 0.0165476 -0.0178074 -0.00482233 0.000139069 -0.00932547 -0.0187033
internal_weight=227.54 190.266 138.599 43.0762 95.523 77.1084 60.6576 51.6667 37.2738 43.6852 45.4147 37.9268 26.7079 18.7234
internal_count=913 763 556 173 383 309 243 207 150 175 182 152 107 75
is_linear=0
shrinkage=0.03


Tree=5
num_leaves=15
num_cat=0
split_feature=42 33 48 20 14 44 18 38 21 21 29 0 14 4
split_gain=11.0333 7.77238 13.8587 7.95169 8.94351 11.4673 7.30059 10.1257 7.39541 7.44726 8.72606 8.87619 7.17184 6.10598
threshold=29.31666666666667 3.3712316968130929 1.5000000000000002 0.90966413941776958 28.050000000000004 0.12101297452341096 0.098067855347267127 0.29285714285714287 0.91437035754365936 0.89608290673964808 3.0695704779189357 3.4500000000000006 25.850000000000005 3.6333333333333337
decision_type=2 2 2 2 2 2 2 2 2 2 2 2 2 2
left_child=6 2 -2 4 5 -4 -1 -8 9 10 11 -9 -11 -12
right_child=1 -3 3 -5 -6 -7 7 8 -10 12 13 -13 -14 -15
leaf_value=-0.013877177185000937 0.033618840717524849 0.024883053297924517 0.01027405714798639 -0.027676743759308085 0.021785971906528666 -0.039165936290226334 0.025948961874604888 0.0010305636937792471 0.020014894549846236 -0.044394397441391099 0.020343563193796838 -0.035565581507665124 -0.0097845427772663869 -0.0091539593481632497
leaf_weight=51.380814701318741 10.683651655912398 21.107577845454216 9.7034717053175026 10.218355536460875 12.939462661743162 7.4747423082590094 11.932489365339277 15.449388042092325 10.697806403040884 7.493293076753619 19.953389719128612 9.7161141186952573 19.184539303183556 9.2407027184963209
leaf_count=206 43 85 39 41 52 30 48 62 43 30 80 39 77 37
internal_value=-0.000121164 0.00957224 0.00323794 -0.00480893 0.00294968 -0.0112387 -0.00463046 -4.75041e-05 -0.003429 -0.00652385 -0.000152754 -0.0130988 -0.0195058 0.0110068
internal_weight=227.176 72.1273 51.0197 40.336 30.1177 17.1782 155.049 103.668 91.7352 81.0374 54.3596 25.1655 26.6778 29.1941
internal_count=912 290 205 162 121 69 622 416 368 325 218 101 107 117
is_linear=0
shrinkage=0.03


Tree=6
num_leaves=15
num_cat=0
split_feature=42 13 28 48 20 18 38 2 9 7 29 1 14 29
split_gain=10.3889 7.88648 8.32062 8.84807 7.60621 6.86434 9.54439 6.53717 7.21395 10.5721 7.53705 10.9499 6.66365 6.39911
threshold=29.31666666666667 0.59417229729729748 2.4142857142857146 1.5000000000000002 0.90966413941776958 0.098067855347267127 0.29285714285714287 2.552777777777778 1.2250000000000003 2.8444102112676064 3.0916083916083923 3.1547619047619051 28.105555555555558 3.2164414414414417
decision_type=2 2 2 2 2 2 2 2 2 2 2 2 2 2
left_child=5 2 -2 -4 13 -1 -7 -8 9 -9 11 -11 -12 -5
right_child=1 -3 3 4 -6 6 7 8 -10 10 12 -13 -14 -15
leaf_value=-0.013454590471080054 0.032200063253568556 0.037039635521002048 0.02450344569082534 0.013700047273273617 -0.028309239544004421 0.025221125056992404 0.023070711189356708 -0.03060748631132235 0.014639356656998854 0.0086283338403576118 -0.0063438692527559267 -0.030301090425299659 0.023248207533168051 -0.012726465108455504
leaf_weight=51.404387310147285 9.1645569801330549 8.1746274679899198 11.653967693448065 18.385536536574364 9.7232091724872571 11.908888712525366 7.731789991259574 16.4642114341259 13.162121728062628 10.973479196429254 14.228187084198 15.961224943399428 13.204543590545653 14.954522415995596
leaf_count=206 37 33 47 74 39 48 31 66 53 44 57 64 53 60
internal_value=-0.000117217 0.00929487 0.00574451 0.00131348 -0.00496228 -0.00449161 -4.58258e-05 -0.00332628 -0.00575617 -0.00954612 -0.00316806 -0.0144408 0.00790006 0.00184656
internal_weight=227.095 72.0564 63.8818 54.7172 43.0633 155.039 103.634 91.7256 83.9938 70.8316 54.3674 26.9347 27.4327 33.3401
internal_count=912 290 257 220 173 622 416 368 337 284 218 108 110 134
is_linear=0
shrinkage=0.03


Tree=7
num_leaves=15
num_cat=0
split_feature=42 15 33 45 38 43 45 10 36 46 31 11 43 5
split_gain=9.7839 9.74114 9.75108 6.81532 11.5704 10.1627 8.56557 10.4399 14.7271 8.78391 8.6943 6.74844 6.47451 6.38615
threshold=29.31666666666667 26.684863523573203 3.2518656716417915 0.088041256113583946 0.29285714285714287 25.383152173913047 0.099639552051746696 -0.20383522727272727 -0.094788858939802323 0.88804463707949466 2.7071428571428577 0.55000000000000016 27.391176470588238 2.3166666666666669
decision_type=2 2 2 2 2 2 2 2 2 2 2 2 2 2
left_child=3 2 -2 12 -5 11 9 8 -8 -7 -10 -6 -1 -9
right_child=1 -3 -4 4 5 6 7 13 10 -11 -12 -13 -14 -15
leaf_value=-0.032569854137023013 -0.026854699159748197 0.01607894714184047 0.014360264330083269 0.029089937591690811 0.00052477888164593589 -0.013267161513589712 -0.03179247267879276 0.0020301987489313219 -0.0042750920495754846 0.029217262745360604 0.036099823786104594 0.032248438870929472 -0.0014338087501888966 -0.026265678506421062
leaf_weight=13.69882293045521 11.443515822291376 51.108364477753639 9.4185208231210691 10.169944375753401 15.974851757287981 7.9779137969017055 8.2398075908422488 8.7058262526988965 9.4871015399694461 9.7119358330965024 9.7161947190761548 9.699245408177374 10.709846079349516 40.918447375297546
leaf_count=55 46 206 38 41 64 32 33 35 38 39 39 39 43 164
internal_value=-0.00011339 0.00902745 -0.0082475 -0.00435744 -0.00163798 -0.00423282 -0.00876908 -0.0130904 0.00175748 0.0100573 0.0161532 0.0125094 -0.0189082 -0.0213016
internal_weight=226.98 71.9704 20.862 155.01 130.601 120.431 94.7572 77.0674 27.4431 17.6898 19.2033 25.6741 24.4087 49.6243
internal_count=912 290 84 622 524 483 380 309 110 71 77 103 98 199
is_linear=0
shrinkage=0.03


Tree=8
num_leaves=15
num_cat=0
split_feature=32 46 9 15 41 42 20 4 43 45 18 41 44 1
split_gain=9.50237 10.4263 8.78377 7.36321 7.15948 9.63066 6.99741 7.8861 7.20566 6.92185 6.80622 6.59912 6.27297 5.80335
threshold=3.0871212121212124 0.88254785212435816 1.3166666666666669 26.615222876366698 28.617857142857147 26.550000000000004 0.90987836261573241 3.4500000000000006 28.865151515151521 0.10104727703614912 0.091200780299750567 27.011904761904766 0.13263355201112131 2.9500000000000006
decision_type=2 2 2 2 2 2 2 2 2 2 2 2 2 2
left_child=1 9 6 12 5 -5 7 10 13 -1 -2 -8 -3 -9
right_child=2 3 -4 4 -6 -7 11 8 -10 -11 -12 -13 -14 -15
leaf_value=-0.038763986855915436 -0.0023794776580765764 -0.0031138305857600738 0.033177728838075439 -0.033565537391748224 0.017464155930506747 0.0046268746595595472 0.0073963442837201221 0.0017551840271228972 0.013102454476422609 -0.0099060666182248167 0.022992744548427969 -0.028051887403149355 -0.032613980229599458 -0.034270079140454907
leaf_weight=11.716776594519613 13.455671623349188 19.454077571630481 10.100454568862913 7.4842112064361563 25.633955121040344 28.839720398187637 8.4519684910774249 7.475504666566855 11.908899009227751 20.690249532461166 32.495419710874557 10.722998708486555 9.7330121695995313 8.7175904959440214
leaf_count=47 54 78 41 30 103 116 34 30 48 83 131 43 39 35
internal_value=-0.000109689 -0.00572435 0.00660388 -0.000527812 0.00532461 -0.00324232 0.00372483 0.00790711 -0.00461162 -0.0203397 0.0155631 -0.012427 -0.0129512 -0.0176391
internal_weight=226.881 123.552 103.329 91.145 61.9579 36.3239 93.2281 74.0531 28.102 32.407 45.9511 19.175 29.1871 16.1931
internal_count=912 496 416 366 249 146 375 298 113 130 185 77 117 65
is_linear=0
shrinkage=0.03


end of trees

feature_importances:
home_season_avg_shots_for=7
home_last_5_avg_shooting_pct=6
away_season_avg_goals_scored=6
away_season_avg_goals_allowed=6
away_last_10_avg_shots_against=6
home_last_10_avg_shots_for=5
home_last_5_avg_save_pct=5
away_season_avg_shots_against=5
home_last_10_avg_margin=4
home_last_10_win_rate=4
home_season_avg_shots_against=4
away_season_avg_shots_for=4
away_last_5_avg_shooting_pct=4
away_last_10_avg_shooting_pct=4
away_last_5_avg_save_pct=4
home_last_20_avg_goals_scored=3
home_last_5_avg_goals_allowed=3
home_last_10_avg_goals_allowed=3
home_last_10_avg_shooting_pct=3
away_last_20_avg_goals_scored=3
away_last_5_avg_goals_allowed=3
away_last_10_win_rate=3
away_season_win_rate=3
away_last_10_avg_shots_for=3
away_days_rest=3
home_last_10_avg_goals_scored=2
home_season_avg_goals_allowed=2
home_season_avg_margin=2
home_season_win_rate=2
home_last_10_avg_save_pct=2
away_last_10_avg_save_pct=2
home_last_5_avg_goals_scored=1
home_last_20_avg_goals_allowed=1
home_last_5_win_rate=1
home_last_10_avg_shots_against=1
home_games_played_season=1
away_last_10_avg_goals_allowed=1
away_last_20_avg_goals_allowed=1
away_last_5_avg_margin=1
away_season_avg_margin=1
away_games_played_season=1

parameters:
[boosting: gbdt]
[objective: binary]
[metric: auc]
[tree_learner: serial]
[device_type: cpu]
[data_sample_strategy: bagging]
[data: ]
[valid: ]
[num_iterations: 9]
[learning_rate: 0.03]
[num_leaves: 15]
[num_threads: 0]
[seed: 42]
[deterministic: 0]
[force_col_wise: 0]
[force_row_wise: 0]
[histogram_pool_size: -1]
[max_depth: -1]
[min_data_in_leaf: 30]
[min_sum_hessian_in_leaf: 0.001]
[bagging_fraction: 0.8]
[pos_bagging_fraction: 1]
[neg_bagging_fraction: 1]
[bagging_freq: 5]
[bagging_seed: 400]
[bagging_by_query: 0]
[feature_fraction: 0.8]
[feature_fraction_bynode: 1]
[feature_fraction_seed: 30056]
[extra_trees: 0]
[extra_seed: 12879]
[early_stopping_round: 0]
[early_stopping_min_delta: 0]
[first_metric_only: 0]
[max_delta_step: 0]
[lambda_l1: 0]
[lambda_l2: 0]
[linear_lambda: 0]
[min_gain_to_split: 0]
[drop_rate: 0.1]
[max_drop: 50]
[skip_drop: 0.5]
[xgboost_dart_mode: 0]
[uniform_drop: 0]
[drop_seed: 17869]
[top_rate: 0.2]
[other_rate: 0.1]
[min_data_per_group: 100]
[max_cat_threshold: 32]
[cat_l2: 10]
[cat_smooth: 10]
[max_cat_to_onehot: 4]
[top_k: 20]
[monotone_constraints: ]
[monotone_constraints_method: basic]
[monotone_penalty: 0]
[feature_contri: ]
[forcedsplits_filename: ]
[refit_decay_rate: 0.9]
[cegb_tradeoff: 1]
[cegb_penalty_split: 0]
[cegb_penalty_feature_lazy: ]
[cegb_penalty_feature_coupled: ]
[path_smooth: 0]
[interaction_constraints: ]
[verbosity: -1]
[saved_feature_importance_type: 0]
[use_quantized_grad: 0]
[num_grad_quant_bins: 4]
[quant_train_renew_leaf: 0]
[stochastic_rounding: 1]
[linear_tree: 0]
[max_bin: 255]
[max_bin_by_feature: ]
[min_data_in_bin: 3]
[bin_construct_sample_cnt: 200000]
[data_random_seed: 175]
[is_enable_sparse: 1]
[enable_bundle: 1]
[use_missing: 1]
[zero_as_missing: 0]
[feature_pre_filter: 1]
[pre_partition: 0]
[two_round: 0]
[header: 0]
[label_column: ]
[weight_column: ]
[group_column: ]
[ignore_column: ]
[categorical_feature: ]
[forcedbins_filename: ]
[precise_float_parser: 0]
[parser_config_file: ]
[objective_seed: 16083]
[num_class: 1]
[is_unbalance: 0]
[scale_pos_weight: 1]
[sigmoid: 1]
[boost_from_average: 1]
[reg_sqrt: 0]
[alpha: 0.9]
[fair_c: 1]
[poisson_max_delta_step: 0.7]
[tweedie_variance_power: 1.5]
[lambdarank_truncation_level: 30]
[lambdarank_norm: 1]
[label_gain: ]
[lambdarank_position_bias_regularization: 0]
[eval_at: ]
[multi_error_top_k: 1]
[auc_mu_weights: ]
[num_machines: 1]
[local_listen_port: 12400]
[time_out: 120]
[machine_list_filename: ]
[machines: ]
[gpu_platform_id: -1]
[gpu_device_id: -1]
[gpu_use_dp: 0]
[num_gpu: 1]

end of parameters

pandas_categorical:[]
