tree
version=v4
num_class=1
num_tree_per_iteration=1
label_index=0
max_feature_idx=17
objective=poisson
feature_names=last_5_avg_saves last_10_avg_saves last_20_avg_saves season_avg_saves last_10_rate_over_19.5_saves last_10_rate_over_24.5_saves last_10_rate_over_29.5_saves last_5_avg_shots_against last_10_avg_shots_against season_avg_shots_against last_5_avg_goalie_save_pct last_10_avg_goalie_save_pct last_5_avg_goalie_workload last_10_avg_goalie_workload last_5_avg_goals_against last_10_avg_goals_against days_rest games_played_season
feature_infos=[0:39] [0.66669999999999996:39] [0.66669999999999996:39] [0.66669999999999996:39] [0:0.90000000000000002] [0:0.80000000000000004] [0:0.66669999999999996] [0:43] [1.1667000000000001:43] [1.1667000000000001:43] [0:1] [0.079299999999999995:1] [0:43] [1.1667000000000001:43] [0:6] [0:6] [1:87] [1:64]
tree_sizes=1131 1211 1210 1210 1211 1203 1206 1211 1208 1205 1215 1211 1212 1206 1212 1216 1218 1200 1207 1197

Tree=0
num_leaves=10
num_cat=0
split_feature=3 14 8 2 7 1 7 10 2
split_gain=19.1334 20.2247 10.0542 9.28601 14.7842 9.79002 8.41789 8.18203 7.90486
threshold=16.606100000000005 2.1000000000000005 19.950000000000003 18.414300000000001 18.300000000000001 18.950000000000003 0.70000000000000007 0.14060000000000003 10.275000000000002
decision_type=2 2 2 2 2 2 2 2 2
left_child=1 6 8 5 -5 -2 -1 -8 -3
right_child=3 2 -4 4 -6 -7 7 -9 -10
leaf_value=3.1754432091297824 3.1727895958533456 3.1649809541480658 3.1645349071578752 3.168518231800511 3.1722647125077259 3.1765105577126183 3.162752006517306 3.1711730306637449 3.1699627581951009
leaf_weight=1152.204345703125 10801.915740966797 912.16177368164062 1296.2298889160156 3120.5534362792969 16802.980041503906 2112.3746337890625 288.05108642578125 52329.280700683594 6193.0983581542969
leaf_count=24 225 19 27 65 350 44 6 1090 129
internal_value=3.17138 3.17086 3.16858 3.17235 3.17168 3.1734 3.17122 3.17113 3.16932
internal_weight=95008.9 62171 8401.49 32837.8 19923.5 12914.3 53769.5 52617.3 7105.26
internal_count=1979 1295 175 684 415 269 1120 1096 148
is_linear=0
shrinkage=1


Tree=1
num_leaves=10
num_cat=0
split_feature=9 10 15 17 7 6 10 9 10
split_gain=12.8756 16.1333 13.725 9.43624 7.86395 8.06558 7.63508 7.47882 6.95478
threshold=17.552800000000001 0.63375000000000015 2.0500000000000003 38.500000000000007 0.70000000000000007 0.21110000000000004 0.14060000000000003 10.809100000000003 0.58265000000000011
decision_type=2 2 2 2 2 2 2 2 2
left_child=1 4 3 -3 -1 6 -6 -7 -8
right_child=-2 2 -4 -5 5 7 8 -9 -10
leaf_value=0.0039477937014649554 0.00071209091372716063 0.0001867474119487013 -0.0054396584029163114 -0.0041717394207123988 -0.0084869999059514183 0.0079068520911125643 -0.00039080771170782176 0.001092778209034748 0.0047299023753227636
leaf_weight=1156.8974304199219 38049.999664306641 4125.3427848815918 2679.8315505981445 1774.5757141113281 285.57694244384766 527.9852294921875 44057.641059875488 1679.9530029296875 671.21444320678711
leaf_count=24 792 86 56 37 6 11 918 35 14
internal_value=-4.28864e-08 -0.000475774 -0.00247372 -0.00112517 -0.000121362 -0.000221215 -0.000365984 0.00272791 -0.000313757
internal_weight=95009 56959 8579.75 5899.92 48379.3 47222.4 45014.4 2207.94 44728.9
internal_count=1979 1187 179 123 1008 984 938 46 932
is_linear=0
shrinkage=0.05


Tree=2
num_leaves=10
num_cat=0
split_feature=3 15 10 2 10 1 10 10 9
split_gain=17.512 19.174 13.7425 8.79511 9.44652 9.22312 8.33582 7.49771 7.28572
threshold=16.606100000000005 1.8944500000000002 0.50825000000000009 18.414300000000001 0.55280000000000007 18.950000000000003 0.53695000000000015 0.47850000000000004 18.403700000000004
decision_type=2 2 2 2 2 2 2 2 2
left_child=1 -1 -3 5 6 8 7 -5 -2
right_child=3 2 -4 4 -6 -7 -8 -9 -10
leaf_value=-8.3072072188081081e-05 0.0073576076215375987 0.00085800107592116915 -0.0033252414690232118 -0.0050890923564606942 0.00074662860876207953 0.0049577234656552043 -0.0049534281902798823 0.0022965353460850635 0.0010750077117053294
leaf_weight=50963.402500152588 481.10561370849609 2542.0488090515137 8610.3258399963379 479.23479843139648 16777.45832824707 2124.7560119628906 1487.228214263916 1199.795223236084 10343.770694732666
leaf_count=1062 10 53 180 10 349 44 31 25 215
internal_value=-7.11444e-08 -0.000494046 -0.00237174 0.000932725 0.000273851 0.00194726 -0.00223021 0.000184956 0.00135554
internal_weight=95009.1 62115.8 11152.4 32893.3 19943.7 12949.6 3166.26 1679.03 10824.9
internal_count=1979 1295 233 684 415 269 66 35 225
is_linear=0
shrinkage=0.05


Tree=3
num_leaves=10
num_cat=0
split_feature=3 15 10 2 7 1 7 9 15
split_gain=16.6452 18.2894 13.133 8.33769 13.7055 8.69772 7.31034 8.40444 8.09578
threshold=16.606100000000005 1.8944500000000002 0.50825000000000009 18.414300000000001 18.300000000000001 18.950000000000003 0.70000000000000007 7.6812000000000014 0.31665000000000004
decision_type=2 2 2 2 2 2 2 2 2
left_child=1 6 -3 5 -5 -2 -1 8 -8
right_child=3 2 -4 4 -6 -7 7 -9 -10
leaf_value=0.0038369839403274431 0.0013200902343955719 0.0008359880883554296 -0.0032536331459516628 -0.0027818619405373473 0.0008301411204852231 0.0048105508323705573 0.0028736694025769689 8.7125191810514158e-05 -0.0024283289347175902
leaf_weight=1161.3771057128906 10839.554595947266 2544.230842590332 8581.7419357299805 3109.4619979858398 16839.763126373291 2135.3162536621094 815.59060287475586 42937.593673706055 6044.6071815490723
leaf_count=24 225 53 180 65 350 44 17 895 126
internal_value=-1.00345e-07 -0.000482039 -0.00231846 0.000908668 0.00026692 0.00189518 -8.10163e-05 -0.000172542 -0.00179733
internal_weight=95009.2 62085.1 11126 32924.1 19949.2 12974.9 50959.2 49797.8 6860.2
internal_count=1979 1295 233 684 415 269 1062 1038 143
is_linear=0
shrinkage=0.05


Tree=4
num_leaves=10
num_cat=0
split_feature=9 14 11 17 0 15 12 10 0
split_gain=11.1443 14.5835 10.6624 10.7179 9.33939 8.78008 7.19263 7.52239 7.09754
threshold=17.552800000000001 2.1000000000000005 0.62245000000000006 30.500000000000004 20.300000000000001 2.3875000000000006 0.70000000000000007 0.14060000000000003 13.550000000000002
decision_type=2 2 2 2 2 2 2 2 2
left_child=1 6 3 5 -4 -3 -1 -8 -5
right_child=-2 2 4 8 -6 -7 7 -9 -10
leaf_value=0.0037273907413796397 0.00066130179675313958 -0.00059754242856218482 -0.0041820500852250688 -0.00027483652682007913 -0.013416606010827696 0.007139909250844444 -0.0083419011649861676 -0.00019563814540080331 -0.0065279639837976487
leaf_weight=1165.8418579101562 38125.816307067871 2432.810733795166 1564.7807426452637 716.79735946655273 330.93367767333984 429.6551399230957 283.04607772827148 48724.064189910889 1235.598258972168
leaf_count=24 792 51 33 15 7 9 6 1016 26
internal_value=-1.28143e-07 -0.000443455 -0.00263217 -0.00138046 -0.00580656 0.000568021 -0.000150623 -0.000243026 -0.00423484
internal_weight=95009.3 56883.5 6710.58 4814.86 1895.71 2862.47 50173 49007.1 1952.4
internal_count=1979 1187 141 101 40 60 1046 1022 41
is_linear=0
shrinkage=0.05


Tree=5
num_leaves=10
num_cat=0
split_feature=3 11 11 8 8 10 17 2 7
split_gain=15.237 11.9028 12.2934 12.261 11.574 8.84546 9.37365 7.89914 13.0476
threshold=16.606100000000005 0.50250000000000006 0.5273500000000001 15.683350000000003 15.422200000000002 0.50590000000000013 39.500000000000007 18.414300000000001 18.300000000000001
decision_type=2 2 2 2 2 2 2 2 2
left_child=1 -1 -3 4 -4 6 -5 -2 -9
right_child=7 2 3 5 -6 -7 -8 8 -10
leaf_value=8.2942469611779835e-05 0.0018269517585724412 -0.0044090817025185455 0.00016642956414895517 0.0034053698921574778 0.0069149718904384086 -0.002143137787520726 -0.0064896841473328472 -0.0027350895393904937 0.00079190463523133635
leaf_weight=38324.577110290527 13008.084953308105 2870.1415748596191 5414.9191856384277 1393.4371376037598 717.804931640625 13025.770404815674 286.97380065917969 3102.8752365112305 16864.898517608643
leaf_count=799 269 60 113 29 15 273 6 65 350
internal_value=-1.64767e-07 -0.00046182 -0.00134234 -0.000919572 0.00095831 -0.0017027 0.00170983 0.000868269 0.000243611
internal_weight=95009.5 62033.6 23709 20838.9 6132.72 14706.2 1680.41 32975.9 19967.8
internal_count=1979 1295 496 436 128 308 35 684 415
is_linear=0
shrinkage=0.05


Tree=6
num_leaves=10
num_cat=0
split_feature=3 14 11 9 2 8 8 3 8
split_gain=14.4841 16.7675 9.48309 7.54456 7.27779 10.9616 8.12978 8.56953 8.08159
threshold=16.606100000000005 2.1000000000000005 0.63545000000000007 18.443450000000002 10.275000000000002 12.750000000000002 15.050000000000002 16.095450000000003 13.612500000000002
decision_type=2 2 2 2 2 2 2 2 2
left_child=1 -1 4 -2 8 -6 -7 -8 -3
right_child=3 2 -4 -5 5 6 7 -9 -10
leaf_value=-0.00012720872927724687 0.0051795968948250282 -0.0018138044411117925 -0.0054678896781668934 0.00071403225286127854 0.0067310477648424493 -0.0050764977610692824 0.00034043924840836126 -0.0080249419528434559 -0.011995065996579075
leaf_weight=53699.992420196533 972.70066070556641 475.92476272583008 2074.281135559082 32031.829917907715 430.4943962097168 1238.3152542114258 3422.7386016845703 334.20268249511719 329.11988067626953
leaf_count=1120 20 10 44 664 9 26 72 7 7
internal_value=-1.95447e-07 -0.000450599 -0.00254108 0.000845946 -0.00156528 -0.000905975 -0.00156657 -0.000407586 -0.00599554
internal_weight=95009.6 62005.1 8305.08 33004.5 6230.8 5425.75 4995.26 3756.94 805.045
internal_count=1979 1295 175 684 131 114 105 79 17
is_linear=0
shrinkage=0.05


Tree=7
num_leaves=10
num_cat=0
split_feature=3 15 8 9 17 10 10 9 8
split_gain=13.7694 16.1981 12.2164 7.12623 7.04322 8.65181 9.03771 8.42531 7.28259
threshold=16.606100000000005 1.8944500000000002 12.816650000000001 18.443450000000002 40.500000000000007 0.53375000000000006 0.55280000000000007 22.339750000000006 16.550000000000004
decision_type=2 2 2 2 2 2 2 2 2
left_child=1 -1 -3 -2 5 8 7 -7 -5
right_child=3 2 -4 4 -6 6 -8 -9 -10
leaf_value=-6.3003963841528582e-05 0.0050248812475140519 0.005243737237903728 -0.0025463340881212715 0.00013519237819471355 0.0020557612122947965 -0.0014348461712648788 0.00036505917159117062 -0.0086435453018067279 0.0051242037722893825
leaf_weight=50922.10285949707 977.75195693969727 526.70207214355469 10528.466491699219 1351.9111862182617 7338.5044746398926 2650.3273735046387 18645.043098449707 476.7960205078125 1592.1278343200684
leaf_count=1062 20 11 222 28 152 55 386 10 33
internal_value=-2.30479e-07 -0.000439665 -0.00217431 0.000824237 0.000695801 0.000291881 -5.22134e-05 -0.00253879 0.00283488
internal_weight=95009.7 61977.3 11055.2 33032.5 32054.7 24716.2 21772.2 3127.12 2944.04
internal_count=1979 1295 233 684 664 512 451 65 61
is_linear=0
shrinkage=0.05


Tree=8
num_leaves=10
num_cat=0
split_feature=6 10 2 2 7 10 4 5 13
split_gain=9.48437 13.752 7.91658 14.5831 11.7636 7.54732 7.15227 11.8127 11.5979
threshold=0.21110000000000004 0.54195000000000004 15.410550000000002 16.788900000000002 24.100000000000005 0.55280000000000007 0.58570000000000011 0.29285000000000005 12.633350000000002
decision_type=2 2 2 2 2 2 2 2 2
left_child=6 -2 4 -4 -3 -5 8 -8 -1
right_child=1 2 3 5 -6 -7 7 -9 -10
leaf_value=0.00031610558430529481 0.0039341808860918542 -0.00051551557127118143 0.008769218476728435 -0.004830005950356521 -0.012530604065727811 0.00068571315864005868 -0.0024245731299485235 0.0013525578356417853 -0.0010215555848019759
leaf_weight=28927.764492034912 3474.6229820251465 717.7432975769043 532.24013137817383 670.5078239440918 282.55606079101562 7971.7343444824219 2455.0593605041504 13140.692863464355 36836.892616271973
leaf_count=603 72 15 11 14 6 165 51 273 769
internal_value=-2.51259e-07 0.00121931 0.00029161 0.000752396 -0.00392767 0.000256758 -0.000204876 0.000757733 -0.00043317
internal_weight=95009.8 13649.4 10174.8 9174.48 1000.3 8642.24 81360.4 15595.8 65764.7
internal_count=1979 283 211 190 21 179 1696 324 1372
is_linear=0
shrinkage=0.05


Tree=9
num_leaves=10
num_cat=0
split_feature=3 14 11 2 7 1 17 8 4
split_gain=12.7833 15.3854 9.06523 7.29258 12.245 7.90185 7.13799 9.12506 8.95461
threshold=16.606100000000005 2.1000000000000005 0.63545000000000007 18.414300000000001 18.300000000000001 18.950000000000003 29.500000000000004 12.450000000000001 0.58570000000000011
decision_type=2 2 2 2 2 2 2 2 2
left_child=1 -1 6 5 -5 -2 -3 -8 -9
right_child=3 2 -4 4 -6 -7 7 8 -10
leaf_value=-0.0001148097833758206 0.0011643848120252778 -0.00010555764819836355 -0.0053070916971943221 -0.0026958140121408109 0.00072282280317503779 0.004473800873771955 0.0026108240050987871 -0.0063135685630008685 0.0040153227241708361
leaf_weight=53673.051910400391 10904.4967918396 3751.4685478210449 2057.1794395446777 3097.3656044006348 16910.49881362915 2159.8781471252441 479.03555679321289 1739.7469596862793 237.20114898681641
leaf_count=1120 225 79 44 65 350 44 10 37 5
internal_value=-2.79483e-07 -0.000424076 -0.00243203 0.000793385 0.000193376 0.00171212 -0.00147782 -0.00357214 -0.00507147
internal_weight=95009.9 61937.7 8264.63 33072.2 20007.9 13064.4 6207.45 2455.98 1976.95
internal_count=1979 1295 175 684 415 269 131 52 42
is_linear=0
shrinkage=0.05


Tree=10
num_leaves=10
num_cat=0
split_feature=3 15 10 2 7 1 16 7 0
split_gain=12.1519 14.8653 11.8129 6.91616 11.6661 7.45868 6.49958 6.47723 8.35013
threshold=16.606100000000005 1.8944500000000002 0.50825000000000009 18.414300000000001 18.300000000000001 18.950000000000003 12.500000000000002 0.70000000000000007 7.9000000000000012
decision_type=2 2 2 2 2 2 2 2 2
left_child=1 7 -3 5 -5 -2 -4 -1 -9
right_child=3 2 6 4 -6 -7 -8 8 -10
leaf_value=0.0036202395644249091 0.0011341414091716581 0.00091322406943870513 -0.0032539404561994223 -0.0026361044580004069 0.00070436201450127284 0.0043431180397529596 0.0039009792201335092 -0.0011147183051943644 0.00029061288885527924
leaf_weight=1170.2404174804688 10917.201118469238 2536.5912628173828 8143.8638877868652 3089.0269584655762 16922.726680755615 2169.5626602172852 328.65010833740234 15237.577163696289 34494.571388244629
leaf_count=24 225 53 173 65 350 44 7 318 720
internal_value=-3.02643e-07 -0.000413753 -0.00207954 0.000773043 0.000188514 0.00166672 -0.00297554 -5.34118e-05 -0.000139998
internal_weight=95010 61911.5 11009.1 33098.5 20011.8 13086.8 8472.51 50902.4 49732.1
internal_count=1979 1295 233 684 415 269 180 1062 1038
is_linear=0
shrinkage=0.05


Tree=11
num_leaves=10
num_cat=0
split_feature=3 15 10 2 7 1 16 2 7
split_gain=11.5517 14.1736 11.281 6.55964 11.1142 7.04185 6.32853 8.35551 7.88363
threshold=16.606100000000005 1.8944500000000002 0.50825000000000009 18.414300000000001 18.300000000000001 18.950000000000003 1.5000000000000002 15.054400000000003 9.4500000000000011
decision_type=2 2 2 2 2 2 2 2 2
left_child=1 6 -3 5 -5 -2 7 -1 -8
right_child=3 2 -4 4 -6 -7 8 -9 -10
leaf_value=0.00078229649532891355 0.0011047172583670147 0.00088974465486224064 -0.0029104389702424736 -0.0025775617584372127 0.00068638558385278564 0.0042168095583582357 -0.0013982036554296504 0.0082784491531436005 0.00012245778387917221
leaf_weight=9690.8746681213379 10929.589950561523 2538.908821105957 8447.341968536377 3080.8947067260742 16934.650768280029 2179.0058403015137 12120.782325744629 384.60652160644531 28703.418727874756
leaf_count=202 225 53 180 65 350 44 253 8 599
internal_value=-3.19145e-07 -0.000403669 -0.00203222 0.00075324 0.000183775 0.0016226 -5.20948e-05 0.00107003 -0.000329076
internal_weight=95010.1 61885.9 10986.3 33124.1 20015.5 13108.6 50899.7 10075.5 40824.2
internal_count=1979 1295 233 684 415 269 1062 210 852
is_linear=0
shrinkage=0.05


Tree=12
num_leaves=10
num_cat=0
split_feature=3 14 11 14 2 9 17 11 10
split_gain=10.9852 13.9784 8.34778 7.19602 10.8097 6.43844 6.51009 7.35645 7.03144
threshold=16.673350000000003 2.1000000000000005 0.63545000000000007 2.3666500000000004 10.275000000000002 18.815350000000006 40.500000000000007 0.68015000000000014 0.53375000000000006
decision_type=2 2 2 2 2 2 2 2 2
left_child=1 -1 3 -3 -5 -2 8 -8 -7
right_child=5 2 -4 4 -6 6 7 -9 -10
leaf_value=-9.7297258053894415e-05 0.003131051544321967 -0.0037375476154124995 -0.0050395587652539726 -0.0062861117285332342 0.0009371765341093948 0.002601844539824726 0.00027020446695670585 0.0035378193762070388 -0.00016976355108983725
leaf_weight=53938.295906066895 2590.9484062194824 2124.4109230041504 2084.9262771606445 607.37092208862305 3450.1514205932617 2569.8849601745605 3486.1078987121582 3403.3431358337402 20754.691352844238
leaf_count=1126 53 45 45 13 73 53 72 70 429
internal_value=-3.33951e-07 -0.000390764 -0.00230504 -0.00138146 -0.000146642 0.000739982 0.000534746 0.00188494 0.000135807
internal_weight=95010.1 62205.2 8266.86 6181.93 4057.52 32805 30214 6889.45 23324.6
internal_count=1979 1302 176 131 86 677 624 142 482
is_linear=0
shrinkage=0.05


Tree=13
num_leaves=10
num_cat=0
split_feature=6 10 9 2 7 14 5 9 8
split_gain=8.14352 13.0742 9.61178 11.554 8.2368 7.24136 9.9773 9.85744 8.7406
threshold=0.21110000000000004 0.54195000000000004 16.231300000000001 16.975000000000005 24.100000000000005 2.7750000000000004 0.58570000000000011 18.605550000000004 13.050000000000002
decision_type=2 2 2 2 2 2 2 2 2
left_child=5 -2 4 -4 -3 7 -7 8 -1
right_child=1 2 3 -5 -6 6 -8 -9 -10
leaf_value=0.00020510356110457024 0.0037656823286843395 -0.00097841223077376241 0.0054480664450393583 3.7919881000405319e-05 -0.011083722831758356 -0.0024148280348380694 0.0079275389550278741 0.00094474636409224658 -0.0010287371766562789
leaf_weight=29962.791805267334 3495.1093521118164 526.26867294311523 1119.2896423339844 8231.7287445068359 325.35401153564453 5199.989086151123 242.21364974975586 18357.565841674805 27549.8952293396
leaf_count=625 72 11 23 170 7 109 5 379 578
internal_value=-3.53812e-07 0.00112739 0.000223028 0.000686525 -0.00485597 -0.000190354 -0.00195178 -6.3958e-05 -0.00038595
internal_weight=95010.2 13697.8 10202.6 9351.02 851.623 81312.5 5442.2 75870.3 57512.7
internal_count=1979 283 211 193 18 1696 114 1582 1203
is_linear=0
shrinkage=0.05


Tree=14
num_leaves=10
num_cat=0
split_feature=3 14 9 17 17 10 15 0 5
split_gain=9.98863 13.144 8.24999 12.915 9.16752 8.31425 7.02907 7.3393 9.86711
threshold=16.673350000000003 1.6333500000000003 18.320500000000006 15.500000000000002 17.500000000000004 0.53375000000000006 1.9500000000000002 7.9000000000000012 0.29285000000000005
decision_type=2 2 2 2 2 2 2 2 2
left_child=1 6 3 -3 5 -5 7 8 -1
right_child=-2 2 -4 4 -6 -7 -8 -9 -10
leaf_value=-0.00028171004528709814 0.0007048239383986777 0.0011965885639251225 -0.0072168279434490605 -0.002983503576589126 -0.0017414089332694815 -0.013340279660818077 -0.0035665604931769085 0.00069210089761973881 -0.0047615527478171134
leaf_weight=14808.014739990234 32850.147045135498 3903.7184944152832 614.02254867553711 471.76047515869141 12223.026584625244 328.72185134887695 1279.5706558227539 27192.847270965576 1338.444694519043
leaf_count=309 677 82 13 10 259 7 27 567 28
internal_value=-3.71727e-07 -0.000373062 -0.00153258 -0.00132555 -0.00208162 -0.00725921 8.28323e-05 0.000190738 -0.000653606
internal_weight=95010.3 62160.1 17541.2 16927.2 13023.5 800.482 44618.9 43339.3 16146.5
internal_count=1979 1302 371 358 276 17 931 904 337
is_linear=0
shrinkage=0.05


Tree=15
num_leaves=10
num_cat=0
split_feature=4 9 7 15 2 7 10 11 0
split_gain=7.18115 5.56427 11.4673 7.91763 10.9391 6.60158 7.03616 6.20867 17.411
threshold=0.81665000000000021 17.552800000000001 21.100000000000005 2.0500000000000003 15.410550000000002 0.70000000000000007 0.14060000000000003 0.44845000000000007 13.700000000000001
decision_type=2 2 2 2 2 2 2 2 2
left_child=1 2 5 4 -4 -1 -7 8 -8
right_child=-2 -3 3 -5 -6 6 7 -9 -10
leaf_value=0.0035260868468208525 0.0054976008649082744 0.00043539461111464448 -0.0039563251517285665 -0.0076836560039105252 0.0038453260885337793 -0.0081432483185312262 -5.185257426463242e-05 -0.00079722666785047962 0.0048352543027316477
leaf_weight=1174.1327438354492 588.22447967529297 37760.220638275146 1650.8413734436035 776.6051025390625 615.25931549072266 279.65250778198242 25638.274410247803 24567.270683288574 1959.9282722473145
leaf_count=24 12 780 35 17 13 6 535 516 41
internal_value=-4.06814e-07 -3.47736e-05 -0.000348104 -0.00333305 -0.00183661 -0.000178601 -0.000261672 -0.000219109 0.000295538
internal_weight=95010.4 94422.2 56662 3042.71 2266.1 53619.3 52445.1 52165.5 27598.2
internal_count=1979 1967 1187 65 48 1122 1098 1092 576
is_linear=0
shrinkage=0.05


Tree=16
num_leaves=10
num_cat=0
split_feature=4 14 12 16 2 17 12 2 12
split_gain=6.79219 6.71215 13.5187 10.1428 7.68424 9.91248 9.32261 8.68885 7.11322
threshold=0.81665000000000021 1.1000000000000003 8.4500000000000011 2.5000000000000004 15.105550000000003 15.500000000000002 21.100000000000005 5.7250000000000005 6.7000000000000002
decision_type=2 2 2 2 2 2 2 2 2
left_child=1 2 3 8 5 -3 7 -7 -1
right_child=-2 4 -4 -5 -6 6 -8 -9 -10
leaf_value=0.00072151501227353543 0.0053318937861567802 0.00064657190458299691 0.0015757768322389393 -0.0032931294312202085 0.00017884446669937497 -0.010544392706629485 -0.0046193005110568373 -0.0010013257055377785 -0.0025357613017830036
leaf_weight=8970.3155136108398 591.46719360351562 7552.2035751342773 15996.825450897217 2723.6356620788574 35198.567665100098 239.49034118652344 2100.9061241149902 19577.941417694092 2059.1232566833496
leaf_count=187 12 158 332 57 729 5 45 411 43
internal_value=-4.24209e-07 -3.39396e-05 0.000587588 -0.000561882 -0.000319872 -0.000915492 -0.00145373 -0.0011177 0.000113054
internal_weight=95010.5 94419 29749.9 13753.1 64669.1 29470.5 21918.3 19817.4 11029.4
internal_count=1979 1967 619 287 1348 619 461 416 230
is_linear=0
shrinkage=0.05


Tree=17
num_leaves=10
num_cat=0
split_feature=3 14 8 8 8 8 17 9 16
split_gain=8.88903 12.1508 8.0166 10.0759 9.85543 8.67356 8.92568 9.58742 9.3931
threshold=16.673350000000003 2.1000000000000005 12.816650000000001 14.242850000000002 13.612500000000002 19.950000000000003 29.500000000000004 18.320500000000006 3.5000000000000004
decision_type=2 2 2 2 2 2 2 2 2
left_child=1 -1 -3 4 -4 6 7 -5 -8
right_child=-2 2 3 5 -6 -7 8 -9 -10
leaf_value=-7.9503195674144979e-05 0.00066398846697060228 0.0024235902566932394 -0.0037486803580232065 0.001298501018204376 -0.015650834252328542 -0.0057482566447727181 -0.0050723221150063584 -0.0077136798297513859 0.0055367665028522011
leaf_weight=53899.514499664307 32902.770462036133 858.4477653503418 469.98208999633789 3010.1081886291504 275.78806304931641 1279.3609199523926 1754.3273162841797 325.16723251342773 235.09579849243164
leaf_count=1126 677 18 10 64 6 28 38 7 5
internal_value=-4.46779e-07 -0.000352454 -0.00214432 -0.00267836 -0.00818022 -0.00205477 -0.00116552 0.000415777 -0.00381431
internal_weight=95010.6 62107.8 8208.28 7349.83 745.77 6604.06 5324.7 3335.28 1989.42
internal_count=1979 1302 176 158 16 142 114 71 43
is_linear=0
shrinkage=0.05


Tree=18
num_leaves=10
num_cat=0
split_feature=3 15 13 2 10 17 9 14 17
split_gain=8.45753 11.6097 10.8402 6.38673 6.89423 6.3441 6.04385 6.38177 6.09856
threshold=16.606100000000005 1.8944500000000002 12.816650000000001 10.025000000000002 0.50825000000000009 45.500000000000007 18.443450000000002 1.7750000000000001 40.500000000000007
decision_type=2 2 2 2 2 2 2 2 2
left_child=1 -1 -3 5 -5 -4 7 -2 -8
right_child=6 2 3 4 -6 -7 8 -9 -10
leaf_value=-2.9470771396903139e-05 0.0074001834746723035 0.0051443801637927377 -0.012809026510497888 0.00076717772976972335 -0.0025502403010467813 -0.002112239778290457 0.00014818369970631635 -0.00098340643127404754 0.00178196671567928
leaf_weight=50853.246688842773 648.01603698730469 528.45461273193359 272.50857543945312 1955.2898712158203 7850.6622734069824 281.91299057006836 24858.411514282227 348.15130233764648 7414.0287132263184
leaf_count=1062 13 11 6 41 169 6 512 7 152
internal_value=-4.78133e-07 -0.00034676 -0.00182829 -0.00218487 -0.00188873 -0.00739705 0.000642156 0.0044741 0.000523604
internal_weight=95010.7 61742.1 10888.8 10360.4 9805.95 554.422 33268.6 996.167 32272.4
internal_count=1979 1295 233 222 210 12 684 20 664
is_linear=0
shrinkage=0.05


Tree=19
num_leaves=10
num_cat=0
split_feature=3 14 3 7 17 3 17 17 0
split_gain=8.05781 11.3504 7.56691 8.50768 8.48569 7.47674 6.58133 6.35563 7.33419
threshold=16.673350000000003 1.6333500000000003 16.155000000000005 16.900000000000002 15.500000000000002 15.410550000000002 58.500000000000007 17.500000000000004 18.100000000000005
decision_type=2 2 2 2 2 2 2 2 2
left_child=1 6 4 -4 -3 7 -1 8 -6
right_child=-2 2 3 -5 5 -7 -8 -9 -10
leaf_value=2.6859399674713496e-05 0.00063149991462494977 0.00087877312314243452 -0.01372468000531351 -0.0031367171093852893 -0.0029526665322602672 0.0012014058910470352 0.0062200722284449011 -0.0019878128267510789 -0.014334702030191618
leaf_weight=44180.256053924561 32944.75772857666 3952.0029296875 236.60940170288086 936.09443664550781 375.09968566894531 1792.0243797302246 431.17054748535156 9936.0571098327637 226.65730285644531
leaf_count=922 677 83 5 20 8 38 9 212 5
internal_value=-4.90432e-07 -0.000335962 -0.00141686 -0.00529272 -0.00113709 -0.00178326 8.69931e-05 -0.00229095 -0.0072731
internal_weight=95010.7 62066 17454.5 1172.7 16281.8 12329.8 44611.4 10537.8 601.757
internal_count=1979 1302 371 25 346 263 931 225 13
is_linear=0
shrinkage=0.05


end of trees

feature_importances:
last_5_avg_goalie_save_pct=22
last_20_avg_saves=18
season_avg_saves=17
last_5_avg_shots_against=16
season_avg_shots_against=15
games_played_season=15
last_10_avg_shots_against=14
last_5_avg_goals_against=12
last_10_avg_goals_against=11
last_10_avg_goalie_save_pct=8
last_5_avg_saves=6
last_10_avg_saves=6
last_10_rate_over_19.5_saves=4
last_5_avg_goalie_workload=4
days_rest=4
last_10_rate_over_24.5_saves=3
last_10_rate_over_29.5_saves=3
last_10_avg_goalie_workload=2

parameters:
[boosting: gbdt]
[objective: poisson]
[metric: poisson,l1]
[tree_learner: serial]
[device_type: cpu]
[data_sample_strategy: bagging]
[data: ]
[valid: ]
[num_iterations: 300]
[learning_rate: 0.05]
[num_leaves: 10]
[num_threads: 0]
[seed: 42]
[deterministic: 0]
[force_col_wise: 0]
[force_row_wise: 0]
[histogram_pool_size: -1]
[max_depth: -1]
[min_data_in_leaf: 5]
[min_sum_hessian_in_leaf: 0.001]
[bagging_fraction: 1]
[pos_bagging_fraction: 1]
[neg_bagging_fraction: 1]
[bagging_freq: 0]
[bagging_seed: 400]
[bagging_by_query: 0]
[feature_fraction: 0.8]
[feature_fraction_bynode: 1]
[feature_fraction_seed: 30056]
[extra_trees: 0]
[extra_seed: 12879]
[early_stopping_round: 0]
[early_stopping_min_delta: 0]
[first_metric_only: 0]
[max_delta_step: 0]
[lambda_l1: 0]
[lambda_l2: 2]
[linear_lambda: 0]
[min_gain_to_split: 0]
[drop_rate: 0.1]
[max_drop: 50]
[skip_drop: 0.5]
[xgboost_dart_mode: 0]
[uniform_drop: 0]
[drop_seed: 17869]
[top_rate: 0.2]
[other_rate: 0.1]
[min_data_per_group: 100]
[max_cat_threshold: 32]
[cat_l2: 10]
[cat_smooth: 10]
[max_cat_to_onehot: 4]
[top_k: 20]
[monotone_constraints: ]
[monotone_constraints_method: basic]
[monotone_penalty: 0]
[feature_contri: ]
[forcedsplits_filename: ]
[refit_decay_rate: 0.9]
[cegb_tradeoff: 1]
[cegb_penalty_split: 0]
[cegb_penalty_feature_lazy: ]
[cegb_penalty_feature_coupled: ]
[path_smooth: 0]
[interaction_constraints: ]
[verbosity: -1]
[saved_feature_importance_type: 0]
[use_quantized_grad: 0]
[num_grad_quant_bins: 4]
[quant_train_renew_leaf: 0]
[stochastic_rounding: 1]
[linear_tree: 0]
[max_bin: 255]
[max_bin_by_feature: ]
[min_data_in_bin: 3]
[bin_construct_sample_cnt: 200000]
[data_random_seed: 175]
[is_enable_sparse: 1]
[enable_bundle: 1]
[use_missing: 1]
[zero_as_missing: 0]
[feature_pre_filter: 1]
[pre_partition: 0]
[two_round: 0]
[header: 0]
[label_column: ]
[weight_column: ]
[group_column: ]
[ignore_column: ]
[categorical_feature: ]
[forcedbins_filename: ]
[precise_float_parser: 0]
[parser_config_file: ]
[objective_seed: 16083]
[num_class: 1]
[is_unbalance: 0]
[scale_pos_weight: 1]
[sigmoid: 1]
[boost_from_average: 1]
[reg_sqrt: 0]
[alpha: 0.9]
[fair_c: 1]
[poisson_max_delta_step: 0.7]
[tweedie_variance_power: 1.5]
[lambdarank_truncation_level: 30]
[lambdarank_norm: 1]
[label_gain: ]
[lambdarank_position_bias_regularization: 0]
[eval_at: ]
[multi_error_top_k: 1]
[auc_mu_weights: ]
[num_machines: 1]
[local_listen_port: 12400]
[time_out: 120]
[machine_list_filename: ]
[machines: ]
[gpu_platform_id: -1]
[gpu_device_id: -1]
[gpu_use_dp: 0]
[num_gpu: 1]

end of parameters

pandas_categorical:[]
