tree
version=v4
num_class=1
num_tree_per_iteration=1
label_index=0
max_feature_idx=51
objective=regression
feature_names=home_last_5_avg_goals_scored home_last_10_avg_goals_scored home_last_20_avg_goals_scored home_season_avg_goals_scored home_last_5_avg_goals_allowed home_last_10_avg_goals_allowed home_last_20_avg_goals_allowed home_season_avg_goals_allowed home_last_5_avg_margin home_last_10_avg_margin home_season_avg_margin home_last_5_win_rate home_last_10_win_rate home_season_win_rate home_last_10_avg_shots_for home_season_avg_shots_for home_last_10_avg_shots_against home_season_avg_shots_against home_last_5_avg_shooting_pct home_last_10_avg_shooting_pct home_last_5_avg_save_pct home_last_10_avg_save_pct home_days_rest home_is_back_to_back home_games_played_season home_is_playoffs away_last_5_avg_goals_scored away_last_10_avg_goals_scored away_last_20_avg_goals_scored away_season_avg_goals_scored away_last_5_avg_goals_allowed away_last_10_avg_goals_allowed away_last_20_avg_goals_allowed away_season_avg_goals_allowed away_last_5_avg_margin away_last_10_avg_margin away_season_avg_margin away_last_5_win_rate away_last_10_win_rate away_season_win_rate away_last_10_avg_shots_for away_season_avg_shots_for away_last_10_avg_shots_against away_season_avg_shots_against away_last_5_avg_shooting_pct away_last_10_avg_shooting_pct away_last_5_avg_save_pct away_last_10_avg_save_pct away_days_rest away_is_back_to_back away_games_played_season away_is_playoffs
feature_infos=[0:8] [0:8] [0:8] [0:8] [0:8] [0:8] [0:8] [0:8] [-7:7] [-7:7] [-7:7] [0:1] [0:1] [0:1] [0:60] [0:60] [0:49] [0:49] [0:0.30769230769230771] [0:0.30769230769230771] [0.69230769230769229:1] [0.69230769230769229:1] [1:14] [0:1] [0:71] none [0:7] [0:7] [0:7] [0:7] [0:7] [0:7] [0:7] [0:7] [-6:6] [-6:6] [-6:6] [0:1] [0:1] [0:1] [0:47.5] [0:47.5] [0:60] [0:60] [0:0.26923076923076922] [0:0.26923076923076922] [0.73076923076923084:1] [0.73076923076923084:1] [1:14] [0:1] [0:70] none
tree_sizes=1382 1428 1425 1420 1423 1416 1425 1419 1422 1429 1427 1426 1423 1420 1429 1426 1425 1431 1421 1425 1426 1424 1426 1413 1433 1436 1425 1431 1421 1439

Tree=0
num_leaves=15
num_cat=0
split_feature=43 41 6 28 15 18 43 15 19 27 36 24 33 7
split_gain=110.257 74.4248 83.9424 46.6449 53.7687 49.7494 44.5528 45.9383 36.8974 39.5187 48.3804 54.9261 36.7126 32.1913
threshold=27.767054263565893 33.202037351443131 2.4602941176470594 2.4142857142857146 29.779235382308851 0.11041664138747484 26.384057971014496 26.858803986710967 0.13412881414164829 3.6125000000000003 0.12599206349206352 17.500000000000004 3.2711309523809526 3.1518445322793149
decision_type=2 2 2 2 2 2 2 2 2 2 2 2 2 2
left_child=1 2 -1 12 8 -6 -4 -8 9 10 11 -5 -2 -13
right_child=3 -3 6 4 5 -7 7 -9 -10 -11 -12 13 -14 -15
leaf_value=0.11641580177975912 0.10288867026018274 0.034749135275650572 0.085667502691151282 0.044749135411115672 0.095463420869952909 0.14389199295417543 0.039749134032758267 0.07522990457884153 0.11202186272177317 0.058320563982544246 0.11236818324303702 0.078542239136861425 0.14571687712548553 0.1087491356733761
leaf_weight=54 43 33 196 30 42 35 48 104 55 42 63 87 31 50
leaf_count=54 43 33 196 30 42 35 48 104 55 42 63 87 31 50
internal_value=0.0889879 0.0780595 0.0816148 0.0989332 0.0949224 0.117476 0.0762147 0.0640255 0.0896115 0.08508 0.0899665 0.0815156 0.12083 0.0895667
internal_weight=913 435 402 478 404 77 348 152 327 272 230 167 74 137
internal_count=913 435 402 478 404 77 348 152 327 272 230 167 74 137
is_linear=0
shrinkage=1


Tree=1
num_leaves=15
num_cat=0
split_feature=41 12 26 44 20 29 9 39 21 46 15 33 36 41
split_gain=87.4197 72.5718 77.2694 84.4367 83.1733 80.0728 51.5922 50.8624 38.3859 54.101 50.0537 38.2916 46.0616 44.763
threshold=33.427272727272729 0.5634920634920636 3.2250000000000005 0.10439166250090311 0.91152851148055769 3.5037313432835826 -1.0000000180025095e-35 0.42146381578947373 0.8996567002140009 0.88624010665213915 28.816964285714288 3.3538899430740043 -0.065248226950354593 27.992647058823533
decision_type=2 2 2 2 2 2 2 2 2 2 2 2 2 2
left_child=1 2 3 4 8 7 -5 -4 9 10 -1 12 -3 -13
right_child=-2 11 5 6 -6 -7 -8 -9 -10 -11 -12 13 -14 -15
leaf_value=-0.032281269545064252 -0.047139213513582946 -0.011235742829740047 0.0064229430701281572 0.036136431405038541 -0.046810357620318731 0.020981880085808889 -0.004234899446368217 -0.032983806104495604 0.033924225270748135 0.014175229410330455 0.014238485991954803 0.060188031950417692 0.019894640334816867 0.012504385307028486
leaf_weight=68 32 64 37 99 36 42 40 145 30 90 30 34 129 37
leaf_count=68 32 64 37 99 36 42 40 145 30 90 30 34 129 37
internal_value=0.00156914 0.00333834 -0.00229384 0.00572128 -0.00456554 -0.0163561 0.0245188 -0.0249725 0.00241067 -0.00261809 -0.0180405 0.0165014 0.00957161 0.0353388
internal_weight=913 881 617 393 254 224 139 182 218 188 98 264 193 71
internal_count=913 881 617 393 254 224 139 182 218 188 98 264 193 71
is_linear=0
shrinkage=0.03


Tree=2
num_leaves=15
num_cat=0
split_feature=42 1 41 9 24 29 44 13 37 49 32 18 28 39
split_gain=90.7825 77.5327 62.5731 62.1447 56.3836 54.3961 54.0009 51.4611 60.7674 44.1168 42.312 39.4537 38.2552 38.6143
threshold=29.250000000000004 2.6125000000000003 33.202037351443131 1.2250000000000003 15.500000000000002 2.9728937728937734 0.12241384295653747 0.59417229729729748 0.29166666666666669 1.0000000180025095e-35 3.0250000000000004 0.12369973929891982 3.1055555555555561 0.47247474747474755
decision_type=2 2 2 2 2 2 2 2 2 2 2 2 2 2
left_child=2 -2 3 4 6 -6 -1 8 -3 -10 11 -7 -12 -14
right_child=1 7 -4 -5 5 10 -8 -9 9 -11 12 -13 13 -15
leaf_value=-0.0020538039757655216 -0.010861181756118676 0.04301557056984659 -0.045264179544015362 0.02611508664488792 0.002495599410750649 -0.020950964370911769 0.044166316815784999 0.057461689506258282 -0.0035289369128188304 0.038048187494277956 0.012029141131437049 -0.057528718819743703 -0.039979168911312903 0.0028034398135016944
leaf_weight=65 77 59 33 60 165 88 35 35 98 30 53 38 43 34
leaf_count=65 77 59 33 60 165 88 35 35 98 30 53 38 43 34
internal_value=0.00152206 0.0150782 -0.00507937 -0.00279693 -0.00612653 -0.0109364 0.0141232 0.0240752 0.0178264 0.0062157 -0.0195938 -0.0319824 -0.00758648 -0.0210881
internal_weight=913 299 614 581 521 421 100 222 187 128 256 126 130 77
internal_count=913 299 614 581 521 421 100 222 187 128 256 126 130 77
is_linear=0
shrinkage=0.03


Tree=3
num_leaves=15
num_cat=0
split_feature=43 41 6 28 15 18 43 15 12 19 32 32 27 45
split_gain=96.6495 62.4422 75.4523 42.4892 48.3895 46.5453 40.7941 41.8318 40.9769 62.9391 37.9749 35.8106 35.5168 39.5757
threshold=27.767054263565893 33.202037351443131 2.4602941176470594 2.4142857142857146 29.779235382308851 0.11041664138747484 26.384057971014496 26.858803986710967 0.5634920634920636 0.114295001115388 3.1715686274509807 2.8619047619047624 2.5500000000000003 0.10288311631710613
decision_type=2 2 2 2 2 2 2 2 2 2 2 2 2 2
left_child=1 2 -1 -2 12 -6 8 -8 9 10 11 -4 -5 -14
right_child=3 -3 6 4 5 -7 7 -9 -10 -11 -12 -13 13 -15
leaf_value=0.027495260768466524 0.031686636604167318 -0.048426339247009974 0.0058873410427823982 -0.024945949224325324 0.0070635993991579327 0.053906727535384037 -0.045448279567062856 -0.011590446961613802 0.02067049632469813 -0.046331232027574019 0.02842525167390704 -0.036065660893917086 0.030120579016451932 0.00052447213288630396
leaf_weight=54 74 33 47 39 42 35 48 104 54 33 32 30 49 239
leaf_count=54 74 33 47 39 42 35 48 104 54 33 32 30 49 239
internal_value=0.0014764 -0.00875547 -0.00549891 0.0107878 0.00695983 0.0283559 -0.0106187 -0.0222824 -0.00157337 -0.0100323 0.000957278 -0.010458 0.00192161 0.00555992
internal_weight=913 435 402 478 404 77 348 152 196 142 109 77 327 288
internal_count=913 435 402 478 404 77 348 152 196 142 109 77 327 288
is_linear=0
shrinkage=0.03


Tree=4
num_leaves=15
num_cat=0
split_feature=43 41 6 39 19 28 19 39 43 15 43 15 12 19
split_gain=90.9375 58.7518 70.9931 45.1268 56.5578 50.4319 46.9821 44.5239 41.1535 40.5183 38.3832 39.3596 38.5552 59.2194
threshold=27.767054263565893 33.202037351443131 2.4602941176470594 0.45738498789346255 0.13080794088757011 2.6055555555555561 0.10025469952445924 0.5763403263403265 30.789915966386555 28.628289473684216 26.384057971014496 26.858803986710967 0.5634920634920636 0.114295001115388
decision_type=2 2 2 2 2 2 2 2 2 2 2 2 2 2
left_child=1 2 -1 4 5 6 -2 -5 9 -7 12 -12 13 -4
right_child=3 -3 10 7 -6 8 -8 -9 -10 -11 11 -13 -14 -15
leaf_value=0.026670402718914878 0.06128980225324631 -0.046973548694090414 0.0009285596970024458 -0.007480745371431112 0.04683040373465594 -0.022718212631615723 0.012134728857449121 0.027906181141734123 0.024967303859944247 0.015546456277370453 -0.044084830731153483 -0.011242733551905705 0.020050380991564858 -0.044941294626756147
leaf_weight=54 30 33 109 160 51 66 42 40 49 40 48 104 54 33
leaf_count=54 30 33 109 160 51 66 42 40 49 40 48 104 54 33
internal_value=0.00143211 -0.00849281 -0.00533394 0.0104642 0.0182826 0.0118688 0.032616 -0.00040336 0.00223132 -0.00827871 -0.0103001 -0.0216139 -0.00152617 -0.00973134
internal_weight=913 435 402 478 278 227 72 200 155 106 348 152 196 142
internal_count=913 435 402 478 278 227 72 200 155 106 348 152 196 142
is_linear=0
shrinkage=0.03


Tree=5
num_leaves=15
num_cat=0
split_feature=14 42 20 4 33 9 43 29 28 18 33 46 7 35
split_gain=88.4354 77.1973 54.7786 48.6393 46.567 66.3282 45.7768 50.6433 43.2242 52.0635 62.5312 37.6653 39.227 35.295
threshold=24.550000000000004 29.31666666666667 0.89598870183547619 3.5500000000000003 3.0071428571428576 1.3166666666666669 28.608269394714412 3.1022388059701496 2.4142857142857146 0.08804586597385787 2.8099343185550087 0.88227684878788459 3.1185250219490785 0.76388888888888895
decision_type=2 2 2 2 2 2 2 2 2 2 2 2 2 2
left_child=2 4 3 -1 11 6 -6 -8 -3 -10 -11 12 -2 -13
right_child=1 8 -4 -5 5 -7 7 -9 9 10 -12 13 -14 -15
leaf_value=0.025111569225788118 -0.046446443601794861 0.048486105476106919 -0.0414962864798658 -0.026291729904509877 -0.008917786248799027 0.04637969222935763 -0.001474986121058464 0.050088295161724083 -0.012626552679321982 0.057994701645591042 0.011566019353866577 0.0080058425215055358 -0.0065902555820553793 -0.017859997388928434
leaf_weight=30 46 35 68 37 145 33 40 30 55 33 125 106 43 86
leaf_count=30 46 35 68 37 145 33 40 30 55 33 125 106 43 86
internal_value=-0.000115374 0.0037786 -0.0225274 -0.00327533 -0.00269595 0.00677863 0.000700327 0.0206236 0.0175892 0.0125123 0.0212631 -0.0110579 -0.0271901 -0.0035799
internal_weight=912 777 135 67 529 248 215 70 248 213 158 281 89 192
internal_count=912 777 135 67 529 248 215 70 248 213 158 281 89 192
is_linear=0
shrinkage=0.03


Tree=6
num_leaves=15
num_cat=0
split_feature=14 42 20 33 9 13 28 43 29 22 48 46 7 26
split_gain=83.2088 72.6349 51.5411 43.8149 62.4082 43.2378 62.0605 43.0714 47.6503 42.5245 39.86 35.4393 36.9087 35.0984
threshold=24.550000000000004 29.31666666666667 0.89598870183547619 3.0071428571428576 1.3166666666666669 0.58411949685534603 2.4142857142857146 28.608269394714412 3.1022388059701496 2.5000000000000004 1.5000000000000002 0.88227684878788459 3.1185250219490785 4.1000000000000005
decision_type=2 2 2 2 2 2 2 2 2 2 2 2 2 2
left_child=2 3 -1 11 7 6 -3 9 -9 -5 -8 12 -2 -13
right_child=1 5 -4 4 -6 -7 10 8 -10 -11 -12 13 -14 -15
leaf_value=-0.0031770678242640706 -0.045053051023379614 0.051625407203551257 -0.040251397832351571 -0.017986988671329043 0.044988301450555969 0.050203353858763171 0.03072616574439135 -0.0014307361096143722 0.048585647284984587 0.019619310001532234 -0.0019533518460434925 0.0026892339495512155 -0.0063925485832746634 -0.030173355887333549
leaf_weight=67 46 31 68 109 33 31 44 40 30 36 142 156 43 36
leaf_count=67 46 31 68 109 33 31 44 40 30 36 142 156 43 36
internal_value=-0.000111913 0.00366524 -0.0218515 -0.00261507 0.00657527 0.0170616 0.012327 0.000679318 0.0200049 -0.00865025 0.00577729 -0.0107261 -0.0263744 -0.0034725
internal_weight=912 777 135 529 248 248 217 215 70 145 186 281 89 192
internal_count=912 777 135 529 248 248 217 215 70 145 186 281 89 192
is_linear=0
shrinkage=0.03


Tree=7
num_leaves=15
num_cat=0
split_feature=14 42 40 28 31 41 31 40 13 28 14 43 18 42
split_gain=78.2912 68.3422 42.2365 41.7436 46.9687 71.8756 47.7922 81.1592 40.6824 58.3927 40.273 39.9231 52.4751 40.5093
threshold=24.550000000000004 29.31666666666667 24.650000000000002 2.3625000000000003 3.1714285714285722 28.683375104427743 2.8875000000000006 31.050000000000004 0.58411949685534603 2.4142857142857146 23.850000000000005 28.608269394714412 0.12947841400716578 26.350000000000005
decision_type=2 2 2 2 2 2 2 2 2 2 2 2 2 2
left_child=10 2 -2 -4 5 -5 7 -7 9 -3 -1 12 13 -6
right_child=1 8 3 4 11 6 -8 -9 -10 -11 -12 -13 -14 -15
leaf_value=-0.0098022470107445338 0.023137456683012154 0.050076644632124134 -0.037888511473482302 -0.024738051851053492 0.0085276160985231393 0.041747412254225534 -0.022164504894843468 -0.01485875241458416 0.048697252773469493 0.0056039680973176027 -0.044760349013588642 0.03284362688660622 0.031007685184478755 -0.033906870149984586
leaf_weight=91 52 31 33 148 40 53 39 40 31 186 44 48 35 41
leaf_count=91 52 31 33 148 40 53 39 40 31 186 44 48 35 41
internal_value=-0.000108556 0.00355529 -0.00253662 -0.00533547 -0.00291599 -0.0103835 0.00571096 0.0174007 0.0165497 0.0119572 -0.021196 0.00983345 0.000312 -0.0129516
internal_weight=912 777 529 477 444 280 132 93 248 217 135 164 116 81
internal_count=912 777 529 477 444 280 132 93 248 217 135 164 116 81
is_linear=0
shrinkage=0.03


Tree=8
num_leaves=15
num_cat=0
split_feature=14 42 20 4 32 9 47 21 3 41 43 29 13 28
split_gain=73.6642 64.3032 48.5087 45.5499 40.8616 54.1619 49.3015 56.3641 49.5515 46.7251 43.9592 42.0724 38.2781 54.9417
threshold=24.550000000000004 29.31666666666667 0.89598870183547619 3.5500000000000003 3.0801282051282057 1.2250000000000003 0.88366959677112333 0.89451809179467523 2.9354166666666672 28.368055555555561 28.631026659103803 3.1889880952380958 0.58411949685534603 2.4142857142857146
decision_type=2 2 2 2 2 2 2 2 2 2 2 2 2 2
left_child=2 4 3 -1 6 10 7 -2 11 -10 -6 -8 13 -3
right_child=1 12 -4 -5 5 -7 8 -9 9 -11 -12 -13 -14 -15
leaf_value=0.025027265727519989 -0.0056709519624710087 0.048574346284712515 -0.038410489655592864 -0.024716777656529399 -0.007567432599959613 0.044076657910500798 0.038187214223349961 -0.054297519965869623 -0.029435035561521848 0.0047428357104460396 0.024327407479286193 -0.0069483856769169076 0.04723633445078327 0.0054358487456075601
leaf_weight=30 45 31 68 37 139 31 41 41 72 72 54 34 31 186
leaf_count=30 45 31 68 37 139 31 41 41 72 72 54 34 31 186
internal_value=-0.000105299 0.00344863 -0.0205601 -0.00244333 -0.00246052 0.00726868 -0.0096059 -0.0288534 -0.00204752 -0.0123461 0.00135651 0.0177257 0.0160532 0.0115985
internal_weight=912 777 135 67 529 224 305 86 219 144 193 75 248 217
internal_count=912 777 135 67 529 224 305 86 219 144 193 75 248 217
is_linear=0
shrinkage=0.03


Tree=9
num_leaves=15
num_cat=0
split_feature=14 42 20 4 40 28 16 36 15 4 13 28 15 18
split_gain=69.3106 60.5028 45.6419 42.8579 39.6931 39.3817 55.2416 44.841 54.3684 41.5711 36.0158 51.6947 38.4926 43.3703
threshold=24.550000000000004 29.31666666666667 0.89598870183547619 3.5500000000000003 24.650000000000002 2.3625000000000003 24.414285714285715 0.35147058823529415 28.487043189368773 3.3666666666666671 0.58411949685534603 2.4142857142857146 26.964576802507839 0.12026687157236358
decision_type=2 2 2 2 2 2 2 2 2 2 2 2 2 2
left_child=2 4 3 -1 -2 -6 -7 9 -9 -8 11 -3 -13 -14
right_child=1 10 -4 -5 5 6 7 8 -10 -11 -12 12 13 -15
leaf_value=0.024276448130607607 0.022502345213523275 0.047117115797535067 -0.037258174638537797 -0.023975274498398237 -0.036718648021871393 0.026954808318614961 0.010563189101062322 -0.004824108881736869 -0.046653859280049795 -0.012690694590253153 0.045819245759517908 -0.022114311633883294 0.0014269251376390457 0.036679225603739422
leaf_weight=30 52 31 68 37 33 50 152 67 48 127 31 37 104 45
leaf_count=30 52 31 68 37 33 50 152 67 48 127 31 37 104 45
internal_value=-0.00010214 0.00334517 -0.0199433 -0.00237003 -0.00238671 -0.00509998 -0.00274994 -0.00651958 -0.0222835 -2.19121e-05 0.0155716 0.0112505 0.00527277 0.0120736
internal_weight=912 777 135 67 529 477 444 394 115 279 248 217 186 149
internal_count=912 777 135 67 529 477 444 394 115 279 248 217 186 149
is_linear=0
shrinkage=0.03


Tree=10
num_leaves=15
num_cat=0
split_feature=42 2 4 21 33 14 21 19 41 31 39 42 45 45
split_gain=72.1439 80.1612 57.3452 50.5201 66.2565 58.8158 52.292 47.6469 36.0357 76.7675 49.0669 34.4941 29.5919 31.9051
threshold=29.387500000000003 2.552777777777778 3.3666666666666671 0.87860667394962755 2.6930926216640505 28.450000000000003 0.9187511648625265 0.095424628079529686 28.216898954703836 2.7638888888888893 0.47114317425083246 27.350000000000005 0.12779695689230311 0.11408049457516511
decision_type=2 2 2 2 2 2 2 2 2 2 2 2 2 2
left_child=2 -2 3 5 -5 -1 -6 -3 9 -4 -10 -11 13 -9
right_child=1 7 8 4 6 -7 -8 12 10 11 -12 -13 -14 -15
leaf_value=-0.00045351289650973146 -0.019059350086109976 -0.010906502256790797 -0.060960615660463062 -0.025898177609211058 -0.00036068276079689583 0.057177776694297786 0.039811130551730883 0.026369044374082686 -0.02519272201020142 -0.031327211506226485 0.013047816497938973 0.010808682193358739 0.0091651349087230483 0.060511266700923438
leaf_weight=34 56 36 42 82 205 30 34 107 58 34 63 36 61 32
leaf_count=34 56 36 42 82 205 30 34 107 58 34 63 36 61 32
internal_value=0.000920156 0.0132088 -0.00488612 0.00222312 -0.00262932 0.0265612 0.00535414 0.0208656 -0.0166331 -0.0288961 -0.00528236 -0.00965732 0.0265846 0.0342291
internal_weight=910 292 618 385 321 64 239 236 233 112 121 70 200 139
internal_count=910 292 618 385 321 64 239 236 233 112 121 70 200 139
is_linear=0
shrinkage=0.03


Tree=11
num_leaves=15
num_cat=0
split_feature=42 13 4 21 14 21 21 37 37 41 31 39 29 44
split_gain=67.8802 76.2948 53.9561 47.5343 55.3398 43.9636 43.2798 35.0201 44.1706 33.906 72.2305 46.167 33.1852 50.1285
threshold=29.387500000000003 0.43669871794871801 3.3666666666666671 0.87860667394962755 28.450000000000003 0.9014382319008899 0.8886128936995874 0.45000000000000007 0.36666666666666675 28.216898954703836 2.7638888888888893 0.47114317425083246 3.0074626865671648 0.10613170061624264
decision_type=2 2 2 2 2 2 2 2 2 2 2 2 2 2
left_child=2 6 3 4 -1 12 -2 8 -7 10 -4 -11 13 -5
right_child=1 -3 9 5 -6 7 -8 -9 -10 11 -12 -13 -14 -15
leaf_value=-0.00043990752276252295 0.0080762882124293944 0.026741016302257774 -0.059131796232291624 -0.018305069195463302 0.055462442636489868 0.00082222258172384125 -0.028364115479317577 -0.006495500864351497 0.045132916197180746 -0.024436940314440891 -0.0093676038214138557 0.01265638169788179 -0.025028969107135649 0.030375219974666832
leaf_weight=34 88 160 42 47 30 41 44 68 40 58 70 63 93 32
leaf_count=34 88 160 42 47 30 41 44 68 40 58 70 63 93 32
internal_value=0.000892551 0.0128125 -0.00473954 0.00215643 0.0257643 -0.00255044 -0.00407051 0.00937808 0.022704 -0.0161342 -0.0280292 -0.00512389 -0.0128839 0.00141353
internal_weight=910 292 618 385 64 321 132 149 81 233 112 121 172 79
internal_count=910 292 618 385 64 321 132 149 81 233 112 121 172 79
is_linear=0
shrinkage=0.03


Tree=12
num_leaves=15
num_cat=0
split_feature=42 41 44 20 16 31 2 20 16 41 19 44 32 43
split_gain=64.2048 77.9352 51.9084 56.7339 48.8305 59.3782 47.3447 61.8568 43.1652 41.8557 47.0415 41.7324 39.4568 37.4853
threshold=27.050000000000004 27.652147610405326 0.13340405678486175 0.88883548335722262 28.133333333333336 2.683333333333334 3.6306818181818188 0.90966413941776958 29.242857142857144 28.368055555555561 0.099979135981638767 0.14937984620743244 2.5857142857142863 29.587595907928392
decision_type=2 2 2 2 2 2 2 2 2 2 2 2 2 2
left_child=4 2 3 -2 9 12 7 -3 -7 -1 -11 -4 -6 -5
right_child=1 6 11 13 5 8 -8 -9 -10 10 -12 -13 -14 -15
leaf_value=-0.014387097816641737 0.010721294125137122 -0.0006757405685617569 -0.027179624925960193 0.064068633263761332 -0.019078610062599182 -0.033142014008301954 0.027843067476878296 -0.037927764303543984 0.0055961806975401837 -0.017883859455585478 0.026320584897811597 0.01723663580417633 -0.066968355216085906 0.026445133594366222
leaf_weight=82 92 188 33 44 30 39 37 51 77 30 78 45 32 52
leaf_count=82 92 188 33 44 30 39 37 51 77 30 78 45 32 52
internal_value=0.000865774 0.00743189 0.0190197 0.027556 -0.00880497 -0.0200954 -0.00373609 -0.00862492 -0.00742787 0.00177236 0.0140416 -0.00155486 -0.0437959 0.0436892
internal_weight=910 542 266 188 368 178 276 239 116 190 108 78 62 96
internal_count=910 542 266 188 368 178 276 239 116 190 108 78 62 96
is_linear=0
shrinkage=0.03


Tree=13
num_leaves=15
num_cat=0
split_feature=42 13 4 21 33 21 40 21 28 43 41 39 40 33
split_gain=61.1453 70.4087 50.5195 44.1452 59.7438 47.106 41.8304 40.435 34.5917 31.7031 31.3663 43.5053 41.1235 31.806
threshold=29.387500000000003 0.43669871794871801 3.3666666666666671 0.87860667394962755 2.6930926216640505 0.9187511648625265 27.133333333333336 0.8886128936995874 3.1055555555555561 29.587595907928392 28.216898954703836 0.47114317425083246 25.683333333333337 3.0188746438746441
decision_type=2 2 2 2 2 2 2 2 2 2 2 2 2 2
left_child=2 7 3 -1 6 -6 -5 8 -2 -3 12 -12 -4 -14
right_child=1 9 10 4 5 -7 -8 -9 -10 -11 11 -13 13 -15
leaf_value=0.024917880445718764 0.021893368203725134 0.041677639507330382 -0.0010908699680019069 -0.0025084045529365539 -0.00021192211930344743 0.037915905486134917 -0.045375035234860008 -0.02754731390963901 -0.017206880841404201 0.01448735543301231 -0.023689502847605737 0.012318633369037083 -0.059018008410930634 -0.019941687342282889
leaf_weight=64 56 65 37 40 205 34 42 44 32 95 58 63 38 37
leaf_count=64 56 65 37 40 205 34 42 44 32 95 58 63 38 37
internal_value=0.000839801 0.012153 -0.00450559 0.00216715 -0.00236882 0.00521212 -0.0244645 -0.00406571 0.0076751 0.0255334 -0.0155314 -0.00494146 -0.0269722 -0.0397404
internal_weight=910 292 618 385 321 239 82 132 88 160 233 121 112 75
internal_count=910 292 618 385 321 239 82 132 88 160 233 121 112 75
is_linear=0
shrinkage=0.03


Tree=14
num_leaves=15
num_cat=0
split_feature=4 20 31 0 43 8 45 3 47 44 44 21 21 46
split_gain=57.3707 69.875 50.361 47.8699 59.3618 56.0218 49.4721 34.435 32.0276 55.8964 48.7353 45.3539 31.3901 27.6825
threshold=3.4500000000000006 0.86119878329555766 2.7638888888888893 3.1000000000000005 28.631026659103803 0.45000000000000007 0.11756332140663282 3.2395652173913052 0.90664979617295838 0.13465208261413197 0.11864350483276316 0.90191998021014708 0.87199632328585508 0.89193570563766922
decision_type=2 2 2 2 2 2 2 2 2 2 2 2 2 2
left_child=1 -1 12 5 6 8 7 -5 9 10 11 -3 -2 -4
right_child=2 3 13 4 -6 -7 -8 -9 -10 -11 -12 -13 -14 -15
leaf_value=0.047479233058059914 -0.012186238353069012 -0.014394121452381736 -0.011016754247248172 -0.027038424579160551 0.029352649382569571 -0.040196387519439061 0.021928346846784862 0.004729115196010646 0.022747910459836321 -0.035322256508198646 0.033091916876870235 0.025543114813891325 -0.050248974745090193 0.013291971940260668
leaf_weight=34 39 114 120 56 110 36 70 68 45 44 37 33 39 65
leaf_count=34 39 114 120 56 110 36 70 68 45 44 37 33 39 65
internal_value=0.000814607 0.00561715 -0.011 0.00329528 0.0117474 -0.00502006 0.00176501 -0.00961752 -0.000381427 -0.00494643 0.00231736 -0.00542862 -0.0312176 -0.00247585
internal_weight=910 647 263 613 304 309 194 124 273 228 184 147 78 185
internal_count=910 647 263 613 304 309 194 124 273 228 184 147 78 185
is_linear=0
shrinkage=0.03


Tree=15
num_leaves=15
num_cat=0
split_feature=41 11 8 43 10 1 11 1 4 41 45 18 45 3
split_gain=101.549 63.8209 42.5163 40.1554 37.5329 39.5546 33.5433 79.6931 41.2495 76.9583 68.5325 34.4298 44.2928 43.3451
threshold=31.942076502732245 0.55000000000000016 -1.4499999999999997 27.471663135593221 -0.73414855072463758 3.8166666666666669 0.63333333333333341 3.6125000000000003 2.5500000000000003 27.385046113306988 0.14703509215112828 0.079895611895012694 0.088041256113583946 2.6759615384615389
decision_type=2 2 2 2 2 2 2 2 2 2 2 2 2 2
left_child=2 -2 3 -1 -4 6 7 8 9 -6 11 -10 -13 -14
right_child=1 -3 4 -5 5 -7 -8 -9 10 -11 -12 12 13 -15
leaf_value=-0.043932916950434442 -0.064587552792885722 -0.0064605114214560562 0.03390594273805618 -0.0020703703165054319 0.0071126054298310051 0.021497771191470165 0.016902452916214145 -0.048177105635404588 0.03670774345462386 -0.042196357032427419 -0.03306903418741728 -0.020427927225828171 -0.019351598072696378 0.015581813114754697
leaf_weight=32 34 34 38 58 63 94 97 32 37 52 38 48 37 235
leaf_count=32 34 34 38 58 63 94 97 32 37 52 38 48 37 235
internal_value=-0.000230203 -0.035524 0.00255723 -0.0169548 0.0048349 0.00332781 0.00065492 -0.00225285 0.000628673 -0.0151836 0.00523225 0.00930914 0.00614118 0.0108298
internal_weight=929 68 861 90 771 733 639 542 510 115 395 357 320 272
internal_count=929 68 861 90 771 733 639 542 510 115 395 357 320 272
is_linear=0
shrinkage=0.03


Tree=16
num_leaves=15
num_cat=0
split_feature=43 8 32 15 21 21 2 46 35 14 31 12 50 9
split_gain=75.4469 80.9781 38.2279 37.0332 44.5591 44.646 47.3054 35.5901 32.2295 37.2224 40.9819 32.189 40.4554 35.2332
threshold=27.767054263565893 -1.6333333333333331 2.5477272727272733 29.779235382308851 0.92076745996039733 0.89490510502745602 2.5941176470588241 0.88804463707949466 -1.0499999999999998 28.105555555555558 3.1055555555555561 0.31666666666666671 42.500000000000007 0.18333333333333338
decision_type=2 2 2 2 2 2 2 2 2 2 2 2 2 2
left_child=1 -1 -2 4 5 6 -4 -5 -3 -10 -11 12 -8 -13
right_child=2 8 3 7 -6 -7 11 -9 9 10 -12 13 -14 -15
leaf_value=-0.052260039051373802 -0.018666911971839992 -0.033303530111032376 -0.010894126512787558 0.054727598178771236 0.040773451980203386 -0.013211836128523854 0.012400439148768783 0.011150492800248636 -0.011657676959037782 -0.0013522310669605549 0.031595298621965494 -0.0037216529846191403 0.060487012122907947 0.031298496047171151
leaf_weight=36 44 34 66 31 32 99 32 37 200 130 46 70 31 41
leaf_count=36 44 34 66 31 32 99 32 37 200 130 46 70 31 41
internal_value=-0.000223297 -0.00912023 0.00799209 0.0106641 0.00693369 0.00373938 0.0107318 0.0310165 -0.00533235 -0.00280304 0.00725906 0.0189347 0.0360621 0.00921372
internal_weight=929 446 483 439 371 339 240 68 410 376 176 174 63 111
internal_count=929 446 483 439 371 339 240 68 410 376 176 174 63 111
is_linear=0
shrinkage=0.03


Tree=17
num_leaves=15
num_cat=0
split_feature=2 40 39 42 15 18 18 45 45 44 45 28 5 21
split_gain=61.7031 73.4407 89.6652 50.8257 46.3527 37.2355 45.1742 36.1533 62.6032 30.5213 29.1329 28.5783 30.3287 36.1757
threshold=2.4142857142857146 27.050000000000004 0.46609195402298859 27.050000000000004 25.298437500000002 0.14129298905587992 0.12837695808194077 0.090487774361371856 0.10288311631710613 0.11005548541920798 0.1107673741993347 2.4142857142857146 2.2250000000000005 0.89276444744433681
decision_type=2 2 2 2 2 2 2 2 2 2 2 2 2 2
left_child=1 9 -3 4 -2 6 11 -6 -9 -1 -10 -5 -13 -14
right_child=3 2 -4 5 7 -7 -8 8 10 -11 -12 12 13 -15
leaf_value=-0.016593020379543303 -0.037915179278399491 -0.0068718377351760862 -0.075276271735920622 0.034462091238112058 -0.023830894359520502 0.026245221829284789 -0.017591705024242399 0.030629664659500122 -0.032212578558152724 0.026200418710708617 -0.00011213254340937439 0.034946119874715798 0.011184634057704559 -0.01276411285234052
leaf_weight=30 37 35 34 37 56 92 66 56 31 30 142 30 167 86
leaf_count=30 37 35 34 37 56 92 66 56 31 30 142 30 167 86
internal_value=-0.000216598 -0.0194704 -0.0405784 0.00288808 -0.00632498 0.00909437 0.0050066 -0.0022238 0.00306004 0.0048037 -0.00586424 0.0096675 0.00642581 0.00304395
internal_weight=929 129 69 800 322 478 386 285 229 60 173 320 283 253
internal_count=929 129 69 800 322 478 386 285 229 60 173 320 283 253
is_linear=0
shrinkage=0.03


Tree=18
num_leaves=15
num_cat=0
split_feature=41 11 18 18 12 42 5 31 32 32 39 6 20 40
split_gain=90.9731 57.8794 38.5425 48.6903 45.191 60.2397 61.5883 69.2621 67.9906 44.866 41.7449 59.204 57.3491 41.8788
threshold=31.942076502732245 0.55000000000000016 0.098067855347267127 0.10218986658911565 0.5634920634920636 27.350000000000005 3.4500000000000006 3.0500000000000003 3.3819444444444451 2.9198717948717952 0.45383522727272735 3.4472222222222229 0.90178969238646667 28.225000000000005
decision_type=2 2 2 2 2 2 2 2 2 2 2 2 2 2
left_child=2 -2 10 -4 5 -5 8 -8 9 -7 -1 12 13 -12
right_child=1 -3 3 4 -6 6 7 -9 -10 -11 11 -13 -14 -15
leaf_value=0.0054759306150178114 -0.061293144191012658 -0.0059378973263151504 0.038157573342323302 -0.018886283054467171 0.015380590537276403 -0.019437521025538442 0.062654675412923092 0.0037616781635982231 -0.04448115739226341 0.026053628683090208 -0.010431185912002216 -0.048933664468618542 -0.042213632941246033 0.031922618624042061
leaf_weight=144 34 34 42 124 208 32 32 41 30 50 55 39 30 34
leaf_count=144 34 34 42 124 208 32 32 41 30 50 55 39 30 34
internal_value=-0.0002101 -0.0336155 0.00242819 0.00709357 0.00457 -0.00270704 0.00813743 0.0295778 -0.00583709 0.00830098 -0.0062074 -0.0168555 -0.00634248 0.00574892
internal_weight=929 68 861 559 517 309 185 73 112 82 302 158 119 89
internal_count=929 68 861 559 517 309 185 73 112 82 302 158 119 89
is_linear=0
shrinkage=0.03


Tree=19
num_leaves=15
num_cat=0
split_feature=41 11 11 4 41 45 8 19 39 19 1 42 38 5
split_gain=85.5966 54.4587 36.3026 43.4896 77.2122 71.9868 53.1293 39.909 59.7698 46.4614 45.3926 46.0174 43.5544 40.1409
threshold=31.942076502732245 0.55000000000000016 0.63333333333333341 2.4500000000000006 27.385046113306988 0.14703509215112828 -1.4499999999999997 0.10714835959504072 0.43513323983169711 0.099815483101870314 3.8166666666666669 29.387500000000003 0.47222222222222227 3.4500000000000006
decision_type=2 2 2 2 2 2 2 2 2 2 2 2 2 2
left_child=2 -2 3 4 -1 6 -5 8 13 -10 11 12 -9 -8
right_child=1 -3 -4 5 -6 -7 7 10 9 -11 -12 -13 -14 -15
leaf_value=0.0054636311271916271 -0.059454349647550017 -0.0057597601764342362 0.016101036400844652 -0.015710822416514884 -0.041069143146276473 -0.02898287983317124 -0.0056591669412759636 -0.027051696471869943 0.021759536630577513 0.066528044605956349 0.032397591861394737 0.018234614198024458 0.0056047211324467376 0.034696048286653333
leaf_weight=69 34 34 144 82 60 57 78 80 54 34 39 65 68 31
leaf_count=69 34 34 144 82 60 57 78 80 54 34 39 65 68 31
internal_value=-0.000203797 -0.0326071 0.00235534 -0.000405296 -0.0161795 0.00305538 0.00649451 0.0105498 0.0206656 0.0390565 0.00264183 -0.00280641 -0.0120474 0.005818
internal_weight=929 68 861 717 129 588 531 449 197 88 252 213 148 109
internal_count=929 68 861 717 129 588 531 449 197 88 252 213 148 109
is_linear=0
shrinkage=0.03


Tree=20
num_leaves=15
num_cat=0
split_feature=42 13 44 21 34 35 29 8 44 6 17 34 32 16
split_gain=60.638 61.1066 56.2576 47.8179 46.579 42.5292 44.5932 36.8599 33.6878 50.0544 52.568 37.611 58.1732 36.6052
threshold=29.250000000000004 0.59417229729729748 0.13283605954976926 0.90737958713883693 1.1000000000000003 0.95000000000000007 3.2719568567026198 0.7333333333333335 0.091440791730001983 2.5131578947368425 27.181985294117649 -0.54999999999999993 2.948684210526316 25.633333333333336
decision_type=2 2 2 2 2 2 2 2 2 2 2 2 2 2
left_child=5 2 3 7 -4 8 -7 -2 -1 -10 13 -12 -13 -11
right_child=1 -3 4 -5 -6 6 -8 -9 9 10 11 12 -14 -15
leaf_value=-0.01307401268919812 0.013942519738230595 0.046000486096510515 -0.038361809447407719 -0.018549392114986071 0.0090277575935636244 -0.04844333273799796 -0.0087271488719172282 0.049912601904943586 0.033939739424128861 0.0021017841202147463 0.029892937408553227 0.021707127094268801 -0.017279267695389292 -0.033385317770101258
leaf_weight=158 129 39 40 33 35 38 77 32 43 47 54 63 76 59
leaf_count=158 129 39 40 33 35 38 77 32 43 47 54 63 76 59
internal_value=4.07882e-05 0.0109064 0.00581843 0.0143488 -0.0162467 -0.00540086 -0.0218508 0.0210919 -0.00161738 0.00367544 -0.000676945 0.0086453 0.000390825 -0.0176505
internal_weight=923 308 269 194 75 615 115 161 500 342 299 193 139 106
internal_count=923 308 269 194 75 615 115 161 500 342 299 193 139 106
is_linear=0
shrinkage=0.03


Tree=21
num_leaves=15
num_cat=0
split_feature=43 4 47 32 43 43 20 16 36 48 18 20 8 39
split_gain=70.1116 56.7803 58.1382 51.2743 40.6687 55.6318 36.4043 34.7295 34.6563 39.4322 55.9251 39.108 50.1225 45.9911
threshold=30.723180076628356 3.4500000000000006 0.89611007638523776 2.759615384615385 28.608269394714412 29.452991452991455 0.85779716721128063 27.633333333333336 0.62731481481481499 1.5000000000000002 0.11269291965730588 0.90519538377862696 1.2250000000000003 0.48181216931216936
decision_type=2 2 2 2 2 2 2 2 2 2 2 2 2 2
left_child=1 4 3 -3 8 7 -4 -6 9 10 -1 13 -13 -11
right_child=-2 2 6 -5 5 -7 -8 -9 -10 11 -12 12 -14 -15
leaf_value=-0.0048821686208248135 0.025194111138582231 0.027021390719073158 -0.013647008221596479 -0.013694663893650559 0.05567845225334167 0.00093110223656350918 -0.056576791271567346 0.013399031197323519 -0.024575924559643393 0.017197359227217161 0.04918591810898347 -0.03422441882245681 0.0074581916417394362 -0.014256018315042767
leaf_weight=36 90 35 32 136 36 110 40 34 57 104 33 68 42 70
leaf_count=36 90 35 32 136 36 110 40 34 57 104 33 68 42 70
internal_value=3.95647e-05 -0.00267821 -0.0148827 -0.00536097 0.00234839 0.0142356 -0.0374969 0.0351427 -0.0028704 0.000634461 0.0209765 -0.00430779 -0.0183092 0.0045437
internal_weight=923 833 243 171 590 180 72 70 410 353 69 284 110 174
internal_count=923 833 243 171 590 180 72 70 410 353 69 284 110 174
is_linear=0
shrinkage=0.03


Tree=22
num_leaves=15
num_cat=0
split_feature=43 4 47 32 43 43 14 39 13 20 16 45 28 43
split_gain=65.968 53.4245 54.7022 48.244 38.2651 52.344 35.2509 40.3456 40.5181 34.2528 32.677 32.3095 58.3898 42.7275
threshold=30.723180076628356 3.4500000000000006 0.89611007638523776 2.759615384615385 28.608269394714412 29.452991452991455 27.828571428571433 0.44274004683840756 0.39694211017740433 0.85779716721128063 27.633333333333336 0.088041256113583946 2.6770833333333335 27.441520467836259
decision_type=2 2 2 2 2 2 2 2 2 2 2 2 2 2
left_child=1 4 3 -3 6 10 7 -1 -9 -4 -6 -8 -13 -14
right_child=-2 2 9 -5 5 -7 11 8 -10 -11 -12 12 13 -15
leaf_value=0.008745347086725563 0.024438287526369094 0.026210748910903928 -0.013237597849220037 -0.013283824107664472 0.054008098915219308 0.00090316898849877446 -0.023440785378217695 -0.051920053541660308 -0.012345038841550167 -0.054879487797617907 0.012997060102574965 0.046318990154699848 0.011659752037214196 -0.024336901679635047
leaf_weight=58 90 35 32 136 36 110 30 30 104 40 34 33 115 40
leaf_count=58 90 35 32 136 36 110 30 30 104 40 34 33 115 40
internal_value=3.83777e-05 -0.00259787 -0.0144362 -0.00520014 0.00227794 0.0138086 -0.00278429 -0.0121576 -0.0212051 -0.036372 0.0340885 0.00547109 0.0100847 0.00237029
internal_weight=923 833 243 171 590 180 410 192 134 72 70 218 188 155
internal_count=923 833 243 171 590 180 410 192 134 72 70 218 188 155
is_linear=0
shrinkage=0.03


Tree=23
num_leaves=15
num_cat=0
split_feature=43 4 47 47 7 28 28 16 15 49 2 21 43 15
split_gain=62.0693 50.2672 51.5147 40.5436 61.2035 37.0671 97.8648 55.8322 53.072 38.389 77.5559 31.4825 30.9088 45.6929
threshold=30.723180076628356 3.4500000000000006 0.89498884989225114 0.87922033790582188 3.2589399744572165 2.0250000000000004 2.6055555555555561 24.725000000000005 28.991228070175442 1.0000000180025095e-35 3.0250000000000004 0.87445325312226763 28.608269394714412 28.137027379400262
decision_type=2 2 2 2 2 2 2 2 2 2 2 2 2 2
left_child=1 5 3 4 -3 -1 8 -8 -7 12 -11 -4 -9 -14
right_child=-2 2 11 -5 -6 6 7 9 -10 10 -12 -13 13 -15
leaf_value=-0.028198381925330442 0.023705138802528381 -0.053246650388163903 -0.018452725887298585 0.008987567156553267 0.0012908368006996486 0.051609021309349266 0.023570173000511913 -0.016580512237764591 0.0033187292922626844 -0.019045550258536086 0.03916068802277247 -0.05774216193345285 -0.015231773601128503 0.026306976601481437
leaf_weight=34 90 31 45 90 46 54 69 221 33 38 45 31 52 44
leaf_count=34 90 31 45 90 46 54 69 221 33 38 45 31 52 44
internal_value=3.72264e-05 -0.00251993 -0.0140032 -0.00468495 -0.0206658 0.0022096 0.00406908 -0.0013518 0.033292 -0.00565085 0.012512 -0.0344787 -0.0104064 0.00380682
internal_weight=923 833 243 167 77 590 556 469 87 400 83 76 317 96
internal_count=923 833 243 167 77 590 556 469 87 400 83 76 317 96
is_linear=0
shrinkage=0.03


Tree=24
num_leaves=15
num_cat=0
split_feature=42 13 44 21 34 35 28 10 7 44 6 17 18 34
split_gain=50.6593 56.1226 50.481 43.0823 42.6896 36.6181 41.7808 31.9302 38.7257 30.6484 44.9365 51.705 36.503 34.0902
threshold=29.250000000000004 0.59417229729729748 0.13283605954976926 0.90737958713883693 1.1000000000000003 0.95000000000000007 3.5131578947368425 -0.044610281923714752 3.175191815856778 0.091440791730001983 2.5131578947368425 27.181985294117649 0.10288335254818827 -0.54999999999999993
decision_type=2 2 2 2 2 2 2 2 2 2 2 2 2 2
left_child=5 2 3 7 -4 9 -7 8 -2 -1 -11 12 -12 -13
right_child=1 -3 4 -5 -6 6 -8 -9 -10 10 11 13 -14 -15
leaf_value=-0.012354561682743362 -0.017390835827047174 0.043600009109538339 -0.036981822431087497 -0.018054681989279658 0.008386109794889178 -0.042754616896311437 -0.0057033278218337462 0.036906299471855163 0.022216011956334113 0.03229681067688521 0.0082827768255682548 0.028971688184473252 -0.029433855762084325 0.00088434368586368692
leaf_weight=158 33 39 40 33 35 45 70 60 68 43 34 54 72 139
leaf_count=158 33 39 40 33 35 45 70 60 68 43 34 54 72 139
internal_value=3.61096e-05 0.00996755 0.00509147 0.013172 -0.0158101 -0.00493769 -0.0202017 0.0195725 0.00927516 -0.00142697 0.00362145 -0.000502436 -0.0173361 0.00874298
internal_weight=923 308 269 194 75 615 115 161 101 500 342 299 106 193
internal_count=923 308 269 194 75 615 115 161 101 500 342 299 106 193
is_linear=0
shrinkage=0.03


Tree=25
num_leaves=15
num_cat=0
split_feature=12 14 42 19 14 36 36 26 46 13 10 13 45 46
split_gain=71.2406 49.7921 53.411 48.3806 45.5794 36.778 55.1391 36.1624 35.3186 44.4235 44.0169 33.5904 32.3384 31.9386
threshold=0.61250000000000016 24.788888888888895 29.387500000000003 0.096001847491138922 24.150000000000002 0.35741935483870974 0.15504807692307696 3.9000000000000004 0.8384749743458858 0.52344322344322358 0.13100686498855837 0.34851621808143551 0.11141685577178022 0.89883496133496144
decision_type=2 2 2 2 2 2 2 2 2 2 2 2 2 2
left_child=1 4 5 -4 13 6 8 -7 -3 10 11 -10 -13 -1
right_child=-2 2 3 -5 -6 7 -8 -9 9 -11 -12 12 -14 -15
leaf_value=0.0025125301449463282 0.01645254096464039 0.021933218181133269 -0.010180844650818753 0.021600606220308689 -0.051232760027050975 -0.011101973690092564 0.023404215756109206 -0.046969146237180043 0.0093278805989968159 -0.043289217998584109 0.018281026863037272 -0.0097291147250395549 -0.042599613368511195 -0.0320806577874393
leaf_weight=58 156 30 65 128 36 80 59 37 38 36 47 65 46 41
leaf_count=58 156 30 65 128 36 80 59 37 38 36 47 65 46 41
internal_value=-0.00202617 -0.00578946 -0.00225161 0.010897 -0.0223256 -0.00804541 -0.00279711 -0.0224446 -0.00869741 -0.0126583 -0.00703218 -0.0150169 -0.0233511 -0.0118139
internal_weight=922 766 631 193 135 438 321 117 262 232 196 149 111 99
internal_count=922 766 631 193 135 438 321 117 262 232 196 149 111 99
is_linear=0
shrinkage=0.03


Tree=26
num_leaves=15
num_cat=0
split_feature=12 14 14 18 27 5 18 18 32 16 33 4 5 22
split_gain=67.0303 46.8494 42.959 35.1215 46.8432 36.6611 59.0978 33.8889 33.6005 35.6478 37.7249 58.8438 48.4088 31.1376
threshold=0.61250000000000016 24.788888888888895 23.950000000000003 0.095559227510840436 2.8819444444444451 3.3666666666666671 0.083500111000111024 0.11744584901821746 2.5477272727272733 24.725000000000005 2.7559293987865421 3.5500000000000003 3.4500000000000006 2.5000000000000004
decision_type=2 2 2 2 2 2 2 2 2 2 2 2 2 2
left_child=1 2 -1 4 -3 6 -6 -2 -5 -10 -11 13 -13 -12
right_child=7 3 -4 8 5 -7 -8 -9 9 10 11 12 -14 -15
leaf_value=-0.009689373463392258 0.037252705350835275 0.0053005532324314122 -0.045588826596736902 -0.021581936221231113 0.01324156657854716 -0.043034959566593166 -0.035654000368985264 0.006777259887563526 0.033272913006635811 0.027401897832751276 0.0020109638204313302 -0.051047301460057495 -0.0047926206727113042 0.032822426517267488
leaf_weight=90 47 90 45 44 45 50 44 109 39 48 146 32 56 37
leaf_count=90 47 90 45 44 45 50 44 109 39 48 146 32 56 37
internal_value=-0.00196539 -0.00561578 -0.0216559 -0.00218406 -0.0115616 -0.0224795 -0.0109315 0.015959 0.00315786 0.00619851 0.00288847 -0.00145339 -0.0216125 0.0082406
internal_weight=922 766 135 631 229 139 89 156 402 358 319 271 88 183
internal_count=922 766 135 631 229 139 89 156 402 358 319 271 88 183
is_linear=0
shrinkage=0.03


Tree=27
num_leaves=15
num_cat=0
split_feature=12 14 42 19 14 3 3 2 36 36 26 18 40 30
split_gain=63.0688 44.0806 50.3727 44.9931 40.7175 39.4089 38.6709 35.9356 44.656 50.8651 40.9638 31.8861 28.2454 27.4613
threshold=0.61250000000000016 24.788888888888895 29.387500000000003 0.096001847491138922 24.150000000000002 3.3303030303030305 3.4778981581798489 3.4226190476190479 0.28708791208791212 0.15122927387078333 3.9000000000000004 0.11744584901821746 28.81666666666667 3.9000000000000004
decision_type=2 2 2 2 2 2 2 2 2 2 2 2 2 2
left_child=1 4 6 -4 12 -5 7 8 9 13 -10 -2 -1 -3
right_child=11 2 3 5 -6 -7 -8 -9 10 -11 -12 -13 -14 -15
leaf_value=-0.00050486616466356368 0.036135124795614405 -0.012209539492925007 -0.0096759236454963676 0.030583348544314506 -0.048328112289309499 -0.0078592403791844841 -0.037993001971926003 0.018156492360509358 -0.012914002900538237 0.030125686573354821 -0.054904773354530333 0.0065739418814864453 -0.035372893512248989 0.017188157106147094
leaf_weight=69 47 180 65 96 36 32 35 52 69 38 30 109 30 34
leaf_count=69 47 180 65 96 36 32 35 52 69 38 30 109 30 34
internal_value=-0.00190643 -0.0054473 -0.00211854 0.0106506 -0.0210062 0.0209727 -0.00774514 -0.00511815 -0.00856625 -0.0018593 -0.0256385 0.0154802 -0.0110709 -0.00753888
internal_weight=922 766 631 193 135 128 438 403 351 252 99 156 99 214
internal_count=922 766 631 193 135 128 438 403 351 252 99 156 99 214
is_linear=0
shrinkage=0.03


Tree=28
num_leaves=15
num_cat=0
split_feature=14 42 14 4 18 3 36 19 46 27 44 18 3 6
split_gain=58.7663 51.3351 49.8071 42.6331 43.7822 50.4748 40.8679 40.0691 37.3632 28.465 27.9898 30.3654 35.3491 25.4808
threshold=24.788888888888895 29.31666666666667 24.150000000000002 3.4500000000000006 0.11216151794572261 2.9420168067226897 0.50438596491228083 0.096001847491138922 0.89883496133496144 3.1055555555555561 0.08712048799193324 0.12331275526001693 2.8143841515934542 3.1464285714285718
decision_type=2 2 2 2 2 2 2 2 2 2 2 2 2 2
left_child=2 3 8 4 5 -2 -6 9 13 -3 -5 12 -12 -1
right_child=1 7 -4 10 6 -7 -8 -9 -10 -11 11 -13 -14 -15
leaf_value=0.022911904539380756 0.0074341684374315984 0.010828767235462482 -0.048815073637585887 -0.042985666215419764 0.017606381845728651 -0.02435605303895089 -0.018983962644230235 0.020695599614490946 -0.03027723623270338 -0.027684733415803599 -0.028772343575954439 -0.035465992174365302 0.010793554016521999 -0.014766249984502792
leaf_weight=35 87 39 38 30 164 93 33 172 44 31 30 33 63 30
leaf_count=35 87 39 38 30 164 93 33 172 44 31 30 33 63 30
internal_value=-0.00184923 0.00144935 -0.0192397 -0.00375326 0.0017046 -0.00899078 0.011477 0.012908 -0.00892908 -0.00622721 -0.0169431 -0.0107425 -0.00196964 0.00552199
internal_weight=922 775 147 533 377 180 197 242 109 70 156 126 93 65
internal_count=922 775 147 533 377 180 197 242 109 70 156 126 93 65
is_linear=0
shrinkage=0.03


Tree=29
num_leaves=15
num_cat=0
split_feature=12 14 42 19 3 14 3 46 8 13 14 18 18 2
split_gain=57.3693 38.7238 44.7427 40.0544 37.0798 36.0438 35.5032 39.0506 30.8564 60.9642 52.8691 30.2831 27.3907 30.6667
threshold=0.61250000000000016 24.788888888888895 29.387500000000003 0.096001847491138922 3.3303030303030305 23.950000000000003 3.4778981581798489 0.84561777724486353 -1.4499999999999997 0.34400614754098363 25.850000000000005 0.11744584901821746 0.082236548858946504 3.4226190476190479
decision_type=2 2 2 2 2 2 2 2 2 2 2 2 2 2
left_child=1 5 6 -4 -5 -1 7 -3 -9 -10 -11 -2 -12 -14
right_child=11 2 3 4 -6 -7 -8 8 9 10 12 -13 13 -15
leaf_value=-0.0087926227053006494 0.034917714713101691 0.02329567690193653 -0.0091950208040384156 0.029044979936443269 -0.0082443304918706408 -0.041675969123840327 -0.036336291023663106 -0.029820691841840743 0.032873483764273778 -0.04541235961485654 0.021012373349883338 0.0061091566372902016 -0.014085310010349048 0.014273353066555288
leaf_weight=90 47 40 65 96 32 45 35 50 35 32 33 109 170 43
leaf_count=90 47 40 65 96 32 45 35 50 35 32 33 109 170 43
internal_value=-0.00179376 -0.00517085 -0.0020509 0.00998354 0.0197227 -0.0197537 -0.00735375 -0.00483665 -0.00793663 -0.00444078 -0.00913862 0.0147887 -0.00442008 -0.00836032
internal_weight=922 766 631 193 128 135 438 403 363 313 278 156 246 213
internal_count=922 766 631 193 128 135 438 403 363 313 278 156 246 213
is_linear=0
shrinkage=0.03


end of trees

feature_importances:
away_season_avg_shots_against=25
home_last_10_avg_shots_for=21
home_last_5_avg_shooting_pct=21
away_last_10_avg_shots_against=21
home_last_10_avg_save_pct=18
away_season_avg_shots_for=18
away_last_20_avg_goals_scored=17
home_last_5_avg_goals_allowed=15
home_season_win_rate=13
home_season_avg_shots_for=13
home_last_10_avg_shooting_pct=13
away_last_5_avg_shooting_pct=13
home_last_5_avg_save_pct=12
away_last_20_avg_goals_allowed=12
away_season_win_rate=12
away_last_10_avg_shooting_pct=12
home_season_avg_goals_scored=9
home_last_10_win_rate=9
away_season_avg_goals_allowed=9
away_season_avg_margin=9
away_last_5_avg_save_pct=9
home_last_10_avg_shots_against=8
away_last_10_avg_goals_allowed=8
away_last_10_avg_shots_for=8
home_last_20_avg_goals_scored=7
home_last_20_avg_goals_allowed=7
home_last_5_avg_margin=7
away_season_avg_goals_scored=7
home_last_10_avg_margin=6
away_last_10_avg_save_pct=6
home_last_10_avg_goals_allowed=5
home_season_avg_goals_allowed=5
home_last_5_win_rate=5
home_last_10_avg_goals_scored=4
away_last_5_avg_goals_scored=4
away_last_10_avg_goals_scored=4
away_last_5_avg_margin=4
away_last_10_avg_margin=4
home_season_avg_margin=3
away_last_5_win_rate=3
home_season_avg_shots_against=2
home_days_rest=2
home_games_played_season=2
away_days_rest=2
away_is_back_to_back=2
home_last_5_avg_goals_scored=1
away_last_5_avg_goals_allowed=1
away_last_10_win_rate=1
away_games_played_season=1

parameters:
[boosting: gbdt]
[objective: regression]
[metric: l1]
[tree_learner: serial]
[device_type: cpu]
[data_sample_strategy: bagging]
[data: ]
[valid: ]
[num_iterations: 30]
[learning_rate: 0.03]
[num_leaves: 15]
[num_threads: 0]
[seed: 42]
[deterministic: 0]
[force_col_wise: 0]
[force_row_wise: 0]
[histogram_pool_size: -1]
[max_depth: -1]
[min_data_in_leaf: 30]
[min_sum_hessian_in_leaf: 0.001]
[bagging_fraction: 0.8]
[pos_bagging_fraction: 1]
[neg_bagging_fraction: 1]
[bagging_freq: 5]
[bagging_seed: 400]
[bagging_by_query: 0]
[feature_fraction: 0.8]
[feature_fraction_bynode: 1]
[feature_fraction_seed: 30056]
[extra_trees: 0]
[extra_seed: 12879]
[early_stopping_round: 0]
[early_stopping_min_delta: 0]
[first_metric_only: 0]
[max_delta_step: 0]
[lambda_l1: 0]
[lambda_l2: 0]
[linear_lambda: 0]
[min_gain_to_split: 0]
[drop_rate: 0.1]
[max_drop: 50]
[skip_drop: 0.5]
[xgboost_dart_mode: 0]
[uniform_drop: 0]
[drop_seed: 17869]
[top_rate: 0.2]
[other_rate: 0.1]
[min_data_per_group: 100]
[max_cat_threshold: 32]
[cat_l2: 10]
[cat_smooth: 10]
[max_cat_to_onehot: 4]
[top_k: 20]
[monotone_constraints: ]
[monotone_constraints_method: basic]
[monotone_penalty: 0]
[feature_contri: ]
[forcedsplits_filename: ]
[refit_decay_rate: 0.9]
[cegb_tradeoff: 1]
[cegb_penalty_split: 0]
[cegb_penalty_feature_lazy: ]
[cegb_penalty_feature_coupled: ]
[path_smooth: 0]
[interaction_constraints: ]
[verbosity: -1]
[saved_feature_importance_type: 0]
[use_quantized_grad: 0]
[num_grad_quant_bins: 4]
[quant_train_renew_leaf: 0]
[stochastic_rounding: 1]
[linear_tree: 0]
[max_bin: 255]
[max_bin_by_feature: ]
[min_data_in_bin: 3]
[bin_construct_sample_cnt: 200000]
[data_random_seed: 175]
[is_enable_sparse: 1]
[enable_bundle: 1]
[use_missing: 1]
[zero_as_missing: 0]
[feature_pre_filter: 1]
[pre_partition: 0]
[two_round: 0]
[header: 0]
[label_column: ]
[weight_column: ]
[group_column: ]
[ignore_column: ]
[categorical_feature: ]
[forcedbins_filename: ]
[precise_float_parser: 0]
[parser_config_file: ]
[objective_seed: 16083]
[num_class: 1]
[is_unbalance: 0]
[scale_pos_weight: 1]
[sigmoid: 1]
[boost_from_average: 1]
[reg_sqrt: 0]
[alpha: 0.9]
[fair_c: 1]
[poisson_max_delta_step: 0.7]
[tweedie_variance_power: 1.5]
[lambdarank_truncation_level: 30]
[lambdarank_norm: 1]
[label_gain: ]
[lambdarank_position_bias_regularization: 0]
[eval_at: ]
[multi_error_top_k: 1]
[auc_mu_weights: ]
[num_machines: 1]
[local_listen_port: 12400]
[time_out: 120]
[machine_list_filename: ]
[machines: ]
[gpu_platform_id: -1]
[gpu_device_id: -1]
[gpu_use_dp: 0]
[num_gpu: 1]

end of parameters

pandas_categorical:[]
