tree
version=v4
num_class=1
num_tree_per_iteration=1
label_index=0
max_feature_idx=29
objective=poisson
feature_names=last_5_avg_strikeouts_pitcher last_10_avg_strikeouts_pitcher last_20_avg_strikeouts_pitcher season_avg_strikeouts_pitcher last_10_rate_over_4.5_strikeouts_pitcher last_10_rate_over_5.5_strikeouts_pitcher last_10_rate_over_6.5_strikeouts_pitcher last_10_rate_over_7.5_strikeouts_pitcher last_5_avg_outs_recorded last_10_avg_outs_recorded last_20_avg_outs_recorded season_avg_outs_recorded last_5_avg_batters_faced last_10_avg_batters_faced last_20_avg_batters_faced last_5_avg_hits_allowed last_10_avg_hits_allowed last_5_avg_walks_allowed last_10_avg_walks_allowed last_5_avg_earned_runs last_10_avg_earned_runs season_avg_earned_runs days_rest games_played_season lineup_last_10_k_rate lineup_last_20_k_rate lineup_last_10_avg_runs lineup_last_20_avg_runs lineup_last_10_avg_tb lineup_last_10_walk_rate
feature_infos=[0:12] [0.29999999999999999:12] [0.33329999999999999:12] [0:12] [0:1] [0:1] [0:1] [0:0.90000000000000002] [0:25] [1.2:22] [2.3999999999999999:22] [0:27] [0:29.199999999999999] [1.5:29] [3:29] [0:11] [0:11] [0:7] [0:7] [0:8] [0:8] [0:10] [0:504] [0:114] [0.1149:0.3493] [0.13569999999999999:0.31900000000000001] [1.4286000000000001:9.8000000000000007] [1.4286000000000001:7.5999999999999996] [6.5999999999999996:24.5] [0.0286:0.1593]
tree_sizes=3254 3462 3473 3456 3475 3469 3477 3476 3475 3461 3472 3473 3465 3476 3478 3460 3478 3474 3470 3469 3487 3483 3496 3481 3479 3459 3489 3481 3474 3489 3472 3473 3462 3485 3506 3484 3491 3493 3500 3496 3486 3481 3492 3483 3495 3491 3492 3482 3485 3482 3493 3495 3497 3512 3488 3488 3485 3482 3490 3490

Tree=0
num_leaves=31
num_cat=0
split_feature=2 2 25 25 25 4 2 7 3 25 4 7 1 20 25 25 18 25 3 14 11 3 14 25 25 4 17 16 19 21
split_gain=431.767 92.768 54.6561 27.436 21.0059 20.7189 19.7325 11.6835 10.8477 10.5531 9.50179 9.00218 8.75878 8.81581 6.95601 6.47267 5.84404 5.70462 5.67919 11.5183 5.63154 5.60546 5.51935 5.37395 5.33162 5.15465 5.0305 4.82065 4.64261 4.63622
threshold=4.7573500000000015 5.8787000000000011 0.23155000000000003 0.24765000000000001 0.22175000000000003 0.38750000000000007 4.0741500000000004 1.0000000180025095e-35 5.0606500000000008 0.18785000000000004 0.8660500000000001 0.18335000000000004 8.1214500000000012 1.7071500000000002 0.19115000000000001 0.20495000000000002 2.5857000000000006 0.21675000000000003 2.4629000000000008 14.105550000000003 18.086950000000005 7.3798000000000004 23.297050000000002 0.21215000000000003 0.27595000000000008 0.73215000000000019 2.2916500000000002 4.6125000000000007 3.1000000000000005 1.9865000000000002
decision_type=2 2 2 2 2 2 2 2 2 2 2 2 2 2 2 2 2 2 2 2 2 2 2 2 2 2 2 2 2 2
left_child=2 3 5 8 10 15 18 -6 17 -7 16 23 13 25 -10 -1 20 22 -4 -20 -3 -12 29 -11 28 -9 -19 -16 -8 -2
right_child=1 4 6 -5 7 9 24 12 14 11 21 -13 -14 -15 27 -17 -18 26 19 -21 -22 -23 -24 -25 -26 -27 -28 -29 -30 -31
leaf_value=1.6032510996645866 1.6116421914872647 1.6108220500169019 1.6054888349150296 1.6129045398672166 1.6103272681233876 1.6035082311610496 1.6101016404690609 1.6101388633007796 1.608129241468516 1.605293502765903 1.6138728864669483 1.6100271301948854 1.6209885757281861 1.61622353665828 1.6094551137671809 1.6049480880124247 1.6159819181236996 1.6103120466612098 1.6115193295008716 1.6070577020610883 1.6141540907048508 1.6186044529988564 1.604866561468512 1.6075947140714228 1.6132606467481481 1.6145865594647075 1.6063972632598662 1.6113643931339645 1.6073643079782713 1.6070873065606373
leaf_weight=6452.6880559921265 513.39639759063721 4187.7039489746094 2717.9809284210205 5677.5601615905762 654.32874202728271 1489.8562126159668 4298.436505317688 614.06235790252686 1822.0538816452026 2989.7790212631226 1962.9862260818481 1449.5898284912109 503.32980155944824 6986.2176456451416 2979.7124252319336 8123.7429971694946 503.32980155944824 2506.5824117660522 1046.9259872436523 8002.9438447952271 1006.6596031188965 503.32980155944824 1137.525351524353 3553.5083990097046 664.39533805847168 1298.5908880233765 664.39533805847168 7298.2821226119995 1288.5242919921875 1177.7917356491089
leaf_count=641 51 416 270 564 65 148 427 61 181 297 195 144 50 694 296 807 50 249 104 795 100 50 113 353 66 129 66 725 128 117
internal_value=1.60925 1.61212 1.60639 1.61048 1.61427 1.60514 1.60806 1.6155 1.60972 1.6066 1.61276 1.60718 1.61586 1.61556 1.61041 1.6042 1.61187 1.60833 1.60709 1.60757 1.61147 1.61484 1.60702 1.60654 1.60987 1.61316 1.60949 1.61081 1.60947 1.60847
internal_weight=84076.2 41997.8 42078.4 23777.3 18220.5 24059.2 18019.2 10056.5 18099.7 9482.73 8164.01 7992.88 9402.2 8898.87 12100 14576.4 5697.69 5999.69 11767.9 9049.87 5194.36 2466.32 2828.71 6543.29 6251.36 1912.65 3170.98 10278 5586.96 1691.19
internal_count=8352 4172 4180 2362 1810 2390 1790 999 1798 942 811 794 934 884 1202 1448 566 596 1169 899 516 245 281 650 621 190 315 1021 555 168
is_linear=0
shrinkage=1


Tree=1
num_leaves=31
num_cat=0
split_feature=2 2 25 25 4 25 2 23 3 25 4 7 2 5 25 25 9 20 3 14 18 11 25 29 16 3 25 25 29 29
split_gain=414.737 88.2888 52.9371 26.2125 20.1412 19.8774 19.0072 11.2118 10.4132 10.2452 9.01927 8.68249 8.61 7.50383 6.6711 6.31492 5.76061 5.55629 6.59168 8.77631 5.55434 5.97771 5.49611 6.10612 5.46399 5.27846 5.20582 5.09628 5.26918 5.0159
threshold=4.7573500000000015 5.8787000000000011 0.23155000000000003 0.24765000000000001 0.38750000000000007 0.22175000000000003 4.0741500000000004 3.5000000000000004 5.0606500000000008 0.18785000000000004 0.8660500000000001 0.18335000000000004 7.5857000000000001 0.58570000000000011 0.19115000000000001 0.20495000000000002 15.894450000000001 0.52780000000000016 2.5064000000000006 14.816650000000001 2.2111000000000005 18.086950000000005 0.21675000000000003 0.10040000000000002 4.4365000000000014 7.3798000000000004 0.21215000000000003 0.27595000000000008 0.10235000000000001 0.084350000000000022
decision_type=2 2 2 2 2 2 2 2 2 2 2 2 2 2 2 2 2 2 2 2 2 2 2 2 2 2 2 2 2 2
left_child=2 3 4 8 15 10 17 13 22 -6 20 26 -9 -7 29 16 -1 -4 -19 -20 21 -3 23 24 -2 -12 -11 28 -8 -10
right_child=1 5 6 -5 9 7 27 12 14 11 25 -13 -14 -15 -16 -17 -18 18 19 -21 -22 -23 -24 -25 -26 -27 -28 -29 -30 -31
leaf_value=-0.0064219000385486169 0.0005574593029334026 0.001247692678469244 0.0013284145055496128 0.0035953805023901252 -0.0056333116142112116 0.00099523304933677738 -0.00027962600143003897 0.0063605609185274862 -0.002625911467364554 -0.0038663933983367912 0.0045365289747773627 0.00078788249883867051 0.011156668722292758 0.006134167682445622 0.0015541919806151638 -0.0042077612192064455 -0.0031952717023290135 -0.004121137695315337 0.001740093051138598 -0.0022516921631990424 0.0052108519534577137 0.0047481623979557354 0.00026373514491683664 0.0014847290088245292 -0.0041755432414400141 0.0091087351284663259 -0.0015982030747626694 0.0039416997729280487 0.0031309411005595211 0.0017663362569297764
leaf_weight=5353.5643672943115 503.40653610229492 3670.1061897277832 713.48261642456055 5698.502758026123 1481.3668365478516 1020.2004976272583 4732.4864768981934 7629.6600399017334 1176.5046615600586 2978.0548152923584 1972.1359634399414 1450.7565765380859 649.90159034729004 820.07633876800537 10294.335360527039 8089.0918436050415 1060.7062110900879 2497.733060836792 997.9862003326416 7533.6198806762695 1051.2770862579346 991.40343856811523 3171.8355302810669 582.72053337097168 1736.3735256195068 508.07418823242188 3547.7281694412231 667.0836124420166 855.8623218536377 643.55810546875
leaf_count=535 50 364 71 564 148 101 470 753 117 297 195 144 64 81 1021 807 106 249 99 750 104 98 315 58 173 50 353 66 85 64
internal_value=3.15456e-05 0.0028355 -0.00278314 0.00122933 -0.0040145 0.00492357 -0.00114382 0.00610933 0.00048478 -0.0025784 0.00345894 -0.00201106 0.00673703 0.00328528 0.00115951 -0.00495101 -0.00588832 -0.00209256 -0.00231386 -0.00178475 0.00258448 0.00199217 -0.000878824 -0.0021628 -0.00311177 0.00547315 -0.0026333 0.00063717 0.000242706 -0.00107285
internal_weight=84079.6 42120.1 41959.5 23807.2 23961.3 18312.8 17998.3 10119.8 18108.7 9457.91 8193 7976.54 8279.56 1840.28 12114.4 14503.4 6414.27 11742.8 11029.3 8531.61 5712.79 4661.51 5994.34 2822.5 2239.78 2480.21 6525.78 6255.43 5588.35 1820.06
internal_count=8352 4172 4180 2362 2390 1810 1790 999 1798 942 811 794 817 182 1202 1448 641 1169 1098 849 566 462 596 281 223 245 650 621 555 181
is_linear=0
shrinkage=0.04


Tree=2
num_leaves=31
num_cat=0
split_feature=2 2 25 25 4 25 2 7 3 25 4 7 1 20 25 25 9 18 3 21 25 29 16 11 25 3 25 29 4 17
split_gain=398.387 84.0448 51.2652 25.0466 19.576 18.8169 18.3076 10.6797 9.9962 9.94462 8.56374 8.37359 7.96905 8.18389 6.39837 6.15969 5.62148 5.35885 5.35866 10.9234 5.29509 5.88853 5.28491 5.12292 5.04225 4.97322 4.87191 5.046 4.86826 4.83863
threshold=4.7573500000000015 5.8787000000000011 0.23155000000000003 0.24765000000000001 0.38750000000000007 0.22175000000000003 4.0741500000000004 1.0000000180025095e-35 5.0606500000000008 0.18785000000000004 0.8660500000000001 0.18335000000000004 8.1214500000000012 1.7071500000000002 0.19115000000000001 0.20495000000000002 15.894450000000001 2.5857000000000006 2.4629000000000008 1.8909000000000002 0.21675000000000003 0.10040000000000002 4.4365000000000014 18.086950000000005 0.21215000000000003 7.3798000000000004 0.27595000000000008 0.10235000000000001 0.89445000000000008 2.2916500000000002
decision_type=2 2 2 2 2 2 2 2 2 2 2 2 2 2 2 2 2 2 2 2 2 2 2 2 2 2 2 2 2 2
left_child=2 3 4 8 15 10 18 -7 20 -6 17 24 13 28 -10 16 -1 23 -4 -20 21 22 -2 -3 -11 -12 27 -8 -9 -22
right_child=1 5 6 -5 9 7 26 12 14 11 25 -13 -14 -15 -16 -17 -18 -19 19 -21 29 -23 -24 -25 -26 -27 -28 -29 -30 -31
leaf_value=-0.0063353023496859019 0.00054607859070329419 0.0015277846259141598 -0.0036190892112088163 0.0035111887131734792 -0.0055529227006371777 0.0010186191188889136 -0.00027414918791122527 0.0021704627034128017 -0.0010527226747113093 -0.0038044226343083294 0.0044260886660683523 0.00077161789014777856 0.01113804877110495 0.006644698257434657 0.0015209308416352818 -0.0041417471034833116 -0.0031419274383717526 0.0064425131956315921 0.00090725915626759445 -0.002364193641242207 0.0010610865106909877 0.0014530562563692055 -0.0041099008300429889 0.0046923891124349614 -0.0015689882279461252 0.0088460334001281178 0.0038480516729707706 0.0030590596354757127 0.0063318807170008127 -0.0027816627777263463
leaf_weight=5319.2941951751709 503.68723487854004 4201.7285003662109 2698.7888736724854 5719.0279655456543 1473.045280456543 657.02421379089355 4731.1632385253906 1218.1243524551392 1818.1152276992798 2966.5628671646118 1981.1028957366943 1451.8999786376953 513.52418041229248 7080.0973329544067 10310.346920013428 8055.1264171600342 1057.3223419189453 509.39092636108398 2141.4811220169067 6878.021502494812 2509.9764976501465 583.58635520935059 1729.138334274292 1016.4603862762451 3542.0627365112305 512.7232551574707 669.71825981140137 858.54618072509766 713.10519790649414 662.69557571411133
leaf_count=535 50 416 270 564 148 65 470 120 181 297 195 144 50 694 1021 807 106 50 213 686 249 58 173 100 353 50 66 85 70 66
internal_value=3.07663e-05 0.00277113 -0.00273559 0.00120337 -0.00395078 0.00480175 -0.00112244 0.00595109 0.000474883 -0.00253381 0.00337835 -0.00197515 0.00629133 0.00601513 0.00113513 -0.004877 -0.0058058 0.0025265 -0.00205536 -0.00158746 -0.000862176 -0.00212453 -0.00305959 0.00214422 -0.00258788 0.00533482 0.000624084 0.000237812 0.00370706 0.000258428
internal_weight=84082.9 42239.9 41843 23836.6 23865.3 18403.3 17977.7 10181.9 18117.5 9433.57 8221.41 7960.53 9524.85 9011.33 12128.5 14431.7 6376.62 5727.58 11718.3 9019.5 5989.08 2816.41 2232.83 5218.19 6508.63 2493.83 6259.43 5589.71 1931.23 3172.67
internal_count=8352 4172 4180 2362 2390 1810 1790 999 1798 942 811 794 934 884 1202 1448 641 566 1169 899 596 281 223 516 650 245 621 555 190 315
is_linear=0
shrinkage=0.04


Tree=3
num_leaves=31
num_cat=0
split_feature=3 25 1 4 1 25 25 21 25 3 1 25 0 1 26 21 6 0 3 25 25 23 21 24 9 3 10 4 0 27
split_gain=368.706 62.9779 47.514 33.2782 25.2571 17.9956 16.0699 13.5495 11.7815 8.64433 8.61116 8.40649 8.46461 8.33149 9.69512 8.03496 7.96344 7.4194 7.05292 6.47733 5.35547 5.33672 5.09233 5.0274 4.81399 4.53888 9.3986 4.47889 4.4383 4.38852
threshold=5.0606500000000008 0.23155000000000003 6.0500000000000007 0.35415000000000002 3.8944500000000004 0.24675000000000002 0.22175000000000003 2.0851500000000005 0.27595000000000008 6.5590500000000009 4.3875000000000011 0.21675000000000003 4.633350000000001 7.267850000000001 4.9500000000000011 1.6716000000000004 0.41430000000000006 5.3666500000000008 5.8248000000000006 0.19165000000000001 0.20495000000000002 3.5000000000000004 2.4097000000000004 0.24865000000000001 15.894450000000001 2.4629000000000008 9.4557500000000001 0.68335000000000001 2.7750000000000004 4.0250000000000012
decision_type=2 2 2 2 2 2 2 2 2 2 2 2 2 2 2 2 2 2 2 2 2 2 2 2 2 2 2 2 2 2
left_child=1 3 5 20 25 10 13 -7 17 -8 -2 12 -5 -4 -15 -14 -11 -6 -12 -20 24 -18 23 -23 -1 -3 -27 -13 29 -22
right_child=2 4 6 11 8 7 9 -9 -10 16 18 27 15 14 -16 -17 21 -19 19 -21 28 22 -24 -25 -26 26 -28 -29 -30 -31
leaf_value=-0.0062001863509887692 -0.0025267896237432231 -0.00351834027064101 0.002567417681599733 -0.003880551349674132 -0.00028636540191000019 0.0010808684404052327 0.0045742674041016184 0.0055010680665703209 0.0042772423883275955 0.0034773936636570469 0.00080855215358969005 -0.001153099202258923 0.0032326689273273952 0.003382021442957411 0.0094617678577550521 -0.0021140861336465416 0.0044835857209332506 0.0025201445911591396 -0.0012248821036310734 0.0034222059387856302 -0.0080596267045591561 0.0092910541603761828 0.011464845572447894 0.0056519303260591141 -0.0033151579270575627 0.0028256604149053304 -0.002081624582574034 0.0026110730219162971 -0.0034580714159527098 -0.0044658784924894272
leaf_weight=5237.4161262512207 962.12510871887207 2689.4955854415894 5330.1640129089355 4862.7088384628296 8544.7005844116211 1716.936484336853 4039.6634693145752 3136.669792175293 1279.1699295043945 798.60140323638916 9880.0479555130005 4207.3053798675537 531.69193077087402 1084.0839042663574 684.73578929901123 2916.1670322418213 622.66403579711914 1829.9147424697876 555.83783435821533 3512.8979740142822 745.52350044250488 1355.538459777832 730.33108234405518 1100.5143423080444 1123.9856863021851 696.37047481536865 6046.636326789856 574.8741397857666 5281.2067575454712 2008.1137142181396
leaf_count=530 96 270 525 488 848 169 395 308 126 78 978 419 53 106 67 292 61 181 55 346 75 132 71 107 113 69 604 57 531 202
internal_value=3.00084e-05 -0.00223469 0.0031279 -0.00349613 -0.000590223 0.00182192 0.00476714 0.00393745 0.000655243 0.00592495 0.0011333 -0.00203675 -0.00280561 0.00335681 0.00573558 -0.00128957 0.00710913 0.000208658 0.00138575 0.00278736 -0.00482338 0.00787055 0.00853241 0.00766043 -0.00569044 -0.00212899 -0.00157483 -0.000700601 -0.00413691 -0.00543885
internal_weight=84086.1 48575.3 35510.8 27489 21086.3 19764.5 15746.3 4853.61 11653.8 8647.31 14910.9 13092.7 8310.57 7098.98 1768.82 3447.86 4607.65 10374.6 13948.8 4068.74 14396.2 3809.05 3186.38 2456.05 6361.4 9432.5 6743.01 4782.18 8034.84 2753.64
internal_count=8352 4858 3494 2760 2098 1952 1542 477 1155 844 1475 1309 833 698 173 345 449 1029 1379 401 1451 371 310 239 643 943 673 476 808 277
is_linear=0
shrinkage=0.04


Tree=4
num_leaves=31
num_cat=0
split_feature=2 2 25 25 4 2 25 23 25 3 7 4 2 24 25 26 11 24 28 20 3 14 18 11 24 0 29 25 29 24
split_gain=368.818 76.5 47.9738 22.9898 18.3814 17.1216 16.9439 9.93511 9.59236 9.11763 7.98939 7.93319 7.64471 6.21 6.06774 5.91371 5.8934 6.67899 5.82312 5.34504 6.03263 8.12422 5.09919 5.39633 4.99549 4.90308 4.82145 4.76278 4.75075 4.87788
threshold=4.7573500000000015 5.8787000000000011 0.23155000000000003 0.24765000000000001 0.38750000000000007 4.0741500000000004 0.22175000000000003 2.5000000000000004 0.18785000000000004 5.0606500000000008 0.18335000000000004 0.8660500000000001 7.5857000000000001 0.24075000000000002 0.19115000000000001 3.8166500000000005 15.603550000000002 0.21905000000000002 14.316650000000001 0.52780000000000016 2.5064000000000006 14.816650000000001 2.2111000000000005 18.086950000000005 0.20305000000000004 5.1000000000000005 0.084350000000000022 0.21215000000000003 0.075950000000000004 0.26755000000000007
decision_type=2 2 2 2 2 2 2 2 2 2 2 2 2 2 2 2 2 2 2 2 2 2 2 2 2 2 2 2 2 2
left_child=2 3 4 9 16 19 11 15 -6 13 27 22 -9 25 26 -8 17 -1 -18 -4 -21 -22 23 -3 -12 -2 -11 -10 -7 -30
right_child=1 6 5 -5 8 28 7 12 10 14 24 -13 -14 -15 -16 -17 18 -19 -20 20 21 -23 -24 -25 -26 -27 -28 -29 29 -31
leaf_value=-0.005836746453214847 -0.0022822612862630899 0.0011366911709165689 0.0013664597963411788 0.0033574501717420387 -0.0054321135905703094 -0.00089817389978421973 0.0057698853772344431 0.005810219425661305 -0.0036932351932879586 -0.0025736985534755004 0.0039463992672679219 0.0051031210527344604 0.010139298627455913 0.0019734133049511943 0.0014596139070294349 0.00046358625288264342 -0.0046302647219133141 -0.0036759693706877395 -0.0012577735220601325 -0.003949169382021959 0.0016816586318339768 -0.0021556049664978724 0.0049111398608443118 0.0044445192296283173 -0.00096017002894093016 0.00042306734795639699 0.0017327130247117236 -0.0015150890859552072 0.00053286307681426281 0.0035970353156208608
leaf_weight=7605.513726234436 3353.591667175293 3689.5055980682373 712.20400428771973 5756.8921327590942 1460.7140226364136 2197.7050361633301 552.40649223327637 8178.0404767990112 2946.1645526885986 1172.9517517089844 514.07378578186035 2516.9693984985352 709.26924133300781 1047.7713575363159 10339.995749473572 857.97221565246582 2048.1650505065918 3274.1429605484009 1365.1775436401367 2470.7426910400391 1000.6929121017456 7492.7402391433716 1063.9950304031372 1003.7876062393188 937.40534019470215 1575.4335536956787 644.5600643157959 3531.6579895019531 2904.4518547058105 1164.513147354126
leaf_count=772 335 364 71 564 148 218 54 793 297 117 51 245 68 104 1021 84 207 331 138 249 99 750 104 98 93 157 64 353 288 115
internal_value=2.92715e-05 0.00265211 -0.00264632 0.00115521 -0.00382829 -0.00108623 0.00457775 0.00566076 -0.00245343 0.000456088 -0.00190471 0.0032299 0.00615571 -0.000823112 0.00108496 0.00254192 -0.00473153 -0.00518648 -0.00328143 -0.00199143 -0.00220955 -0.0017035 0.00241096 0.00184416 0.000777601 -0.00141757 -0.00104648 -0.00250573 0.000600406 0.00140981
internal_weight=84089.2 42463.1 41626.1 23891.2 23683 17943 18571.9 10297.7 9390.02 18134.3 7929.3 8274.26 8887.31 5976.8 12157.5 1410.38 14293 10879.7 3413.34 11676.4 10964.2 8493.43 5757.29 4693.29 1451.48 4929.03 1817.51 6477.82 6266.67 4068.97
internal_count=8352 4172 4180 2362 2390 1790 1810 999 942 1798 794 811 861 596 1202 138 1448 1103 345 1169 1098 849 566 462 144 492 181 650 621 403
is_linear=0
shrinkage=0.04


Tree=5
num_leaves=31
num_cat=0
split_feature=2 2 25 4 25 1 25 22 25 6 8 21 11 3 6 6 0 25 20 3 24 24 19 28 10 12 7 2 12 2
split_gain=346.952 62.4401 38.8892 24.616 20.0206 16.7964 16.5591 11.0864 9.31532 7.88766 10.3976 7.67027 7.42899 8.50471 7.31148 7.2001 7.17953 6.69644 6.64969 8.97422 6.25402 5.94645 5.83978 5.83032 5.78656 5.74176 5.06834 5.05141 5.02079 4.98156
threshold=4.8062500000000012 6.0513000000000003 0.21735000000000002 0.35415000000000002 0.21975000000000003 4.267850000000001 0.22175000000000003 7.5000000000000009 0.23605000000000001 0.38750000000000007 19.266650000000002 2.8481000000000005 15.139650000000001 6.9472000000000014 0.18335000000000004 1.0000000180025095e-35 4.5500000000000007 0.20495000000000002 1.8944500000000002 5.7071000000000014 0.27875000000000005 0.26095000000000007 1.4500000000000002 15.250000000000002 11.297050000000002 23.550000000000004 0.21110000000000004 5.5751500000000007 25.100000000000005 3.6055500000000005
decision_type=2 2 2 2 2 2 2 2 2 2 2 2 2 2 2 2 2 2 2 2 2 2 2 2 2 2 2 2 2 2
left_child=2 4 5 8 16 17 12 15 -4 -8 11 28 -3 -14 20 -6 -2 -1 -17 21 -10 26 -7 -15 -5 -19 -20 -18 -11 -26
right_child=1 6 3 24 7 22 9 -9 14 10 -12 -13 13 23 -16 18 27 25 19 -21 -22 -23 -24 -25 29 -27 -28 -29 -30 -31
leaf_value=-0.0056577466180716763 -0.0022721881650800023 -0.00048857234894065745 -0.004032322832617956 0.0030148251634291938 -0.00055852827685675809 0.0014875488548592719 0.003261931392027725 -0.00095457266924511689 -0.002793085387467531 0.0068900422406853136 0.0014781026584256716 0.0023799045831145046 0.0024953041706212609 0.0043444874329084662 0.0015267456563719292 0.0010447417559864538 -0.00022408411869792664 -0.0042941872656418337 0.0025636128540752639 0.0054225116056877921 7.987769677730974e-05 0.0044608431543906027 -0.0026374185774813868 0.008999037878549462 -0.0032584638361292597 -0.0002858599118400804 -0.00058044433110818628 0.0017231539368963915 0.010539968179988394 -0.0001689703533763719
leaf_weight=7290.0490646362305 1755.4207715988159 794.8452787399292 5278.2218713760376 835.72872543334961 1023.5751953125 635.1002140045166 1580.9494934082031 1495.5968294143677 6957.1019792556763 4944.4082431793213 624.13564300537109 548.47935485839844 3801.6493558883667 1533.3837566375732 886.38898849487305 2433.500373840332 5548.0513610839844 3828.0647525787354 4658.6652145385742 2562.6906261444092 1468.1630220413208 2200.2728967666626 4056.6600294113159 598.70177173614502 917.79872894287109 672.19843101501465 995.69736003875732 3461.4120616912842 686.76574039459229 9261.4964475631714
leaf_count=744 175 78 534 83 101 64 153 147 698 476 60 53 372 149 88 239 551 388 459 250 147 215 409 58 92 68 98 341 66 921
internal_value=-3.26499e-05 0.00257441 -0.00258776 -0.00161222 0.00139094 -0.00410326 0.00462095 0.00231746 -0.00268986 0.00580704 0.00639843 0.00689537 0.00314293 0.00362938 -0.0019289 0.00267017 6.8061e-05 -0.00490876 0.00292734 0.00336712 -0.00229245 0.00269651 -0.00207904 0.00565151 -0.000184834 -0.00369547 0.00200996 0.00052404 0.00733518 -0.000447529
internal_weight=83335.2 41248.2 42087 25604.9 26134.9 16482.1 15113.3 15370 14589.9 8384.74 6803.79 6179.65 6728.58 5933.73 9311.65 13874.4 10764.9 11790.3 12850.8 10417.3 8425.27 7854.64 4691.76 2132.09 11015 4500.26 5654.36 9009.46 5631.17 10179.3
internal_count=8277 4041 4236 2563 2576 1673 1465 1509 1467 808 655 595 657 579 933 1362 1067 1200 1261 1022 845 772 473 207 1096 456 557 892 542 1013
is_linear=0
shrinkage=0.04


Tree=6
num_leaves=31
num_cat=0
split_feature=2 2 25 4 25 1 25 22 25 6 8 25 21 23 11 3 0 6 0 2 25 28 21 3 25 27 29 3 11 11
split_gain=333.317 59.4623 37.6848 23.8294 19.1591 16.2698 15.6901 10.6069 9.01012 7.45915 9.84022 7.3097 7.24557 7.17587 7.09149 8.07281 6.90894 6.88166 6.12285 5.71417 5.50419 5.49389 5.09949 7.1816 4.92783 5.68685 4.89733 5.58755 4.93153 4.87523
threshold=4.8062500000000012 6.0513000000000003 0.21855000000000002 0.35415000000000002 0.21975000000000003 4.267850000000001 0.22175000000000003 7.5000000000000009 0.23605000000000001 0.38750000000000007 19.266650000000002 0.20495000000000002 2.8481000000000005 19.500000000000004 15.139650000000001 6.9472000000000014 4.5500000000000007 1.0000000180025095e-35 5.7750000000000012 3.8856500000000005 0.28115000000000007 15.250000000000002 2.1550000000000007 5.7071000000000014 0.24950000000000003 4.7889000000000008 0.082450000000000009 5.1270000000000007 17.067850000000004 17.918350000000004
decision_type=2 2 2 2 2 2 2 2 2 2 2 2 2 2 2 2 2 2 2 2 2 2 2 2 2 2 2 2 2 2
left_child=2 4 5 8 16 11 14 17 -4 -8 12 -1 -11 19 -3 29 -2 -6 -7 -10 22 -17 -19 24 25 -24 27 -18 -29 -16
right_child=1 6 3 -5 7 18 9 -9 13 10 -12 -13 -14 -15 15 21 26 20 -20 -21 -22 -23 23 -25 -26 -27 -28 28 -30 -31
leaf_value=-0.0055771467644417363 -0.0022321720947868886 -0.0004791040708391709 -0.0040148947700892256 -0.00012649955153554607 -0.00054774296809671677 -0.0025658252638015872 0.0031866210517088218 -0.00093651422832520396 -0.0029670368146732773 0.0071363834472028265 0.0014465809216644074 -0.0035886629370900846 0.0023270305475569138 0.0007981029687595696 0.0015567040905390471 0.0042395446744088938 -0.0028008752566683172 0.0016430556462724572 0.0017224088247781582 -0.00047758890089725419 0.0066783006360538492 0.0087404688976103727 0.00088153786611824565 0.0056644160745819554 0.0042753606995862038 0.0042248060859417643 0.0014172961437947302 0.0016988487488331979 -0.0015159485540004747 0.0047578237810476879
leaf_weight=7248.920313835144 1751.4366626739502 794.4570255279541 4893.8331956863403 10712.92178440094 1023.0036468505859 4222.55433177948 1586.1148586273193 1494.1698417663574 5982.3483095169067 5672.6355237960815 625.0588493347168 4996.697546005249 549.78624057769775 1353.2405700683594 2760.0223331451416 1540.0599966049194 1179.1915903091431 4685.1022100448608 609.65946769714355 1958.1319265365601 577.20464515686035 604.11382007598877 2801.6456823348999 1640.5625762939453 2036.5575456619263 1147.4489135742188 4646.4618797302246 1921.876389503479 1266.6600904464722 1051.1251316070557
leaf_count=744 175 78 497 1066 101 427 153 147 602 542 60 508 53 136 270 149 118 459 61 195 56 58 276 159 198 113 459 190 125 102
internal_value=-3.21335e-05 0.00251663 -0.00254304 -0.00155051 0.00136135 -0.0039902 0.00450798 0.00226607 -0.00262577 0.00565832 0.00623086 -0.00476577 0.00671145 -0.00189429 0.00307067 0.00354422 6.66865e-05 0.00261004 -0.0020248 -0.00235314 0.00286068 0.00550767 0.0026817 0.00331978 0.00267716 0.00185296 0.000513349 -0.000448284 0.000421756 0.00243958
internal_weight=83333 41354.7 41978.3 24900.5 26171.3 17077.8 15183.4 15405.7 14187.6 8433.6 6847.48 12245.6 6222.42 9293.72 6749.78 5955.32 10765.6 13911.5 4832.21 7940.48 12888.5 2144.17 12311.3 7626.21 5985.65 3949.09 9014.19 4367.73 3188.54 3811.15
internal_count=8277 4041 4236 2496 2576 1740 1465 1509 1430 808 655 1252 595 933 657 579 1067 1362 488 797 1261 207 1205 746 587 389 892 433 315 372
is_linear=0
shrinkage=0.04


Tree=7
num_leaves=31
num_cat=0
split_feature=2 2 25 4 25 25 0 11 22 25 2 6 8 6 21 11 3 0 23 3 21 24 29 10 28 2 24 28 14 25
split_gain=320.221 56.6385 36.5063 22.9273 18.3365 14.872 13.3595 10.5756 10.149 8.74516 7.09779 7.0568 9.3164 6.98205 6.84747 6.77028 7.66519 6.64827 6.64171 6.64742 8.07056 6.04584 5.97429 5.56482 5.49395 5.45119 5.38763 5.17955 5.13627 6.46723
threshold=4.8062500000000012 6.0513000000000003 0.21735000000000002 0.35415000000000002 0.21975000000000003 0.22175000000000003 5.7750000000000012 16.929800000000004 7.5000000000000009 0.23605000000000001 3.6754500000000005 0.38750000000000007 19.266650000000002 0.18335000000000004 2.8481000000000005 15.139650000000001 6.9472000000000014 4.5500000000000007 4.5000000000000009 5.7379500000000005 1.9865000000000002 0.27875000000000005 0.086900000000000019 10.025000000000002 12.450000000000001 3.6055500000000005 0.25595000000000007 15.250000000000002 22.677100000000003 0.24435000000000004
decision_type=2 2 2 2 2 2 2 2 2 2 2 2 2 2 2 2 2 2 2 2 2 2 2 2 2 2 2 2 2 2
left_child=2 4 6 9 17 15 7 10 18 -4 22 -7 14 21 -13 -3 -17 -2 -6 26 -21 -11 -1 -5 -24 -25 -20 -18 -27 -30
right_child=1 5 3 23 8 11 -8 -9 -10 13 -12 12 -14 -15 -16 16 27 -19 19 20 -22 -23 24 25 -26 28 -28 -29 29 -31
leaf_value=-0.0064856063543767741 -0.0021927721997815454 -0.00046981465819919739 -0.0039049131443405706 0.0037983612067715822 0.00063941150869026493 0.0031132862537483819 0.0018320630978380119 -0.001523946499876642 -0.00091878064816008898 -0.0027110601691182792 -0.0036138516983978942 0.0069443883995195946 0.00141577660151851 0.0015149480456749422 0.0022754527667860867 0.0023852153952085868 0.0041375753906331102 0.00050286392561692435 0.0017427919477083032 0.0011397522786503215 0.0061335441531684973 0.00011703429629885652 -0.0012062030445533284 -0.0030640971686942044 -0.0050705914325223098 0.00067050652764114645 0.0038232575935007772 0.0084915468642574807 -0.0029098094873178039 0.00047258620484198462
leaf_weight=4012.6162519454956 1747.5314903259277 794.07650566101074 5236.0814456939697 535.8854455947876 2405.5223245620728 1591.1772546768188 610.2654972076416 2054.5854845046997 1492.7711849212646 6923.8318452835083 6289.4009160995483 5713.2624340057373 625.96371459960938 886.87812423706055 551.0670919418335 3820.4603633880615 1546.6030216217041 9018.8308811187744 5981.6152448654175 717.98704147338867 1857.1404895782471 1465.4327049255371 758.95596694946289 1085.7585382461548 2622.8940019607544 5769.965428352356 2985.6455593109131 609.41720962524414 1845.0356063842773 1774.193699836731
leaf_count=413 175 78 534 53 236 153 61 209 147 698 642 542 60 88 53 372 149 892 587 70 179 147 78 109 270 574 290 58 184 176
internal_value=-3.16218e-05 0.00246029 -0.00249897 -0.0015537 0.00133242 0.00439828 -0.0039747 -0.00419986 0.00221592 -0.00259797 -0.00460164 0.00551426 0.00606872 -0.00186024 0.00653367 0.00300029 0.00346135 6.53244e-05 0.00255141 0.00294989 0.00474119 -0.00221705 -0.00544182 -0.000177355 -0.00420334 -0.000380748 0.00243548 0.00536826 -7.04473e-05 -0.00125171
internal_weight=83330.9 41459.1 41871.8 25523.1 26207 15252 16348.7 15738.5 15440.7 14512.2 13683.9 8481.47 6890.29 9276.14 6264.33 6770.56 5976.48 10766.4 13947.9 11542.4 2575.13 8389.26 7394.47 11010.8 3381.85 10475 8967.26 2156.02 9389.19 3619.23
internal_count=8277 4041 4236 2563 2576 1465 1673 1612 1509 1467 1403 808 655 933 595 657 579 1067 1362 1126 249 845 761 1096 348 1043 877 207 934 360
is_linear=0
shrinkage=0.04


Tree=8
num_leaves=31
num_cat=0
split_feature=2 2 25 4 25 1 25 15 25 22 23 6 8 3 14 11 3 25 0 3 19 12 2 10 27 28 3 19 2 11
split_gain=307.646 53.9592 35.3567 22.1221 17.5655 15.571 14.1011 9.60675 8.47251 7.77779 6.9192 6.67874 8.82378 6.54122 7.93414 6.46461 7.2801 6.34132 5.92945 5.89474 5.60789 5.55211 5.4705 5.38853 5.08088 4.88563 4.75097 5.38036 4.63697 4.63096
threshold=4.8062500000000012 6.0513000000000003 0.21735000000000002 0.35415000000000002 0.21675000000000003 4.267850000000001 0.22175000000000003 3.1000000000000005 0.23605000000000001 7.5000000000000009 19.500000000000004 0.38750000000000007 19.266650000000002 5.0161500000000006 23.547750000000004 15.139650000000001 6.9472000000000014 0.20495000000000002 5.5500000000000007 5.3694000000000015 1.4500000000000002 23.550000000000004 3.8856500000000005 11.297050000000002 5.0250000000000012 15.250000000000002 4.9564000000000012 1.5500000000000003 3.6055500000000005 17.918350000000004
decision_type=2 2 2 2 2 2 2 2 2 2 2 2 2 2 2 2 2 2 2 2 2 2 2 2 2 2 2 2 2 2
left_child=2 4 5 8 13 17 15 -6 -4 19 22 -8 18 14 -2 -3 29 -1 -13 26 -7 24 -10 -5 -19 -18 -9 -28 -25 -17
right_child=1 6 3 23 7 20 11 9 10 -11 -12 12 -14 -15 -16 16 25 21 -20 -21 -22 -23 -24 28 -26 -27 27 -29 -30 -31
leaf_value=-0.0054302903442031173 -0.00043534601508956423 -0.00046070116446648806 -0.0038424748092675248 0.0029057103029405231 -0.0028683603061421181 0.0015402628544297625 0.0030418643949914944 0.0032078081876021525 -0.0028818084884028234 -0.00044232923846036207 0.00081768332106985531 0.0024318564425284488 0.0013856713783331289 0.00055118580430368489 -0.0055747493203931985 0.0014724339551947802 0.0040384746944565359 -0.0050535346640787713 0.0067445987988825305 0.0033765544565528454 -0.002508337468276165 -0.00014449188913615057 -0.00044285993685367161 -0.0031497738538142123 -0.0018429292069254179 0.0082517887194366868 -0.0022881843007860202 0.0015716781608383099 -0.00016012843903525116 0.0045825799632098867
leaf_weight=7175.1627521514893 1743.8688774108887 793.70352935791016 5215.6748046875 839.73372650146484 600.17469215393066 633.5360631942749 1596.1387720108032 2397.7925386428833 5952.3237743377686 1511.7591676712036 1351.9593200683594 559.76001739501953 626.85056018829346 7335.9270191192627 663.46304512023926 2770.9236268997192 1553.015453338623 2660.3866376876831 5745.6380052566528 7254.7436180114746 4026.4879961013794 667.37934398651123 1954.6302995681763 911.83018207550049 1120.9466581344604 614.61414527893066 673.67547035217285 4060.6313524246216 9257.3402767181396 1058.6602411270142
leaf_count=744 175 78 534 83 59 64 153 235 602 149 136 53 60 724 67 270 149 273 542 704 409 68 195 92 115 58 66 397 921 102
internal_value=-3.11171e-05 0.00240536 -0.00245557 -0.00152527 0.00130415 -0.00391146 0.00429173 0.00209943 -0.00255307 0.00228696 -0.00182674 0.00537465 0.00591177 -4.25287e-05 -0.00185177 0.00293174 0.00338072 -0.00469463 0.00636174 0.00257375 -0.00195793 -0.00350812 -0.00227889 -0.000173896 -0.00410178 0.00523313 0.00175715 0.00102243 -0.000428198 0.00233221
internal_weight=83328.7 41561.3 41767.4 25483.5 26242 16283.9 15319.3 16498.8 14474.6 15898.6 9258.91 8528.39 6932.25 9743.26 2407.33 6790.92 5997.21 11623.9 6305.4 14386.8 4660.02 4448.71 7906.95 11008.9 3781.33 2167.63 7132.1 4734.31 10169.2 3829.58
internal_count=8277 4041 4236 2563 2576 1673 1465 1610 1467 1551 933 808 655 966 242 657 579 1200 595 1402 473 456 797 1096 388 207 698 463 1013 372
is_linear=0
shrinkage=0.04


Tree=9
num_leaves=31
num_cat=0
split_feature=2 2 25 4 24 1 25 3 25 25 23 1 11 3 25 19 25 2 6 8 21 17 10 0 28 22 2 24 11 10
split_gain=295.568 51.4166 34.2531 21.4411 17.1311 15.055 13.3745 12.6622 8.20651 6.90499 6.66919 6.38089 6.17358 6.91636 5.90329 5.75784 5.38475 5.28521 4.81869 6.06003 6.00621 4.81129 4.71331 4.70671 4.61062 4.60708 4.54663 4.44061 4.41108 11.7742
threshold=4.8062500000000012 6.0513000000000003 0.21855000000000002 0.35415000000000002 0.24075000000000002 4.267850000000001 0.22175000000000003 5.162300000000001 0.23605000000000001 0.20495000000000002 19.500000000000004 8.0500000000000025 15.139650000000001 6.9472000000000014 0.21975000000000003 1.4500000000000002 0.28115000000000007 3.8856500000000005 0.38750000000000007 19.266650000000002 2.8481000000000005 2.1000000000000005 11.151900000000003 1.9000000000000001 15.250000000000002 7.5000000000000009 3.6055500000000005 0.23585000000000003 17.918350000000004 17.581100000000003
decision_type=2 2 2 2 2 2 2 2 2 2 2 2 2 2 2 2 2 2 2 2 2 2 2 2 2 2 2 2 2 2
left_child=2 4 5 8 7 9 12 -2 21 -1 17 18 -3 28 -9 -7 25 -10 -8 20 -20 -4 -5 -11 -15 -6 -24 -16 29 -14
right_child=1 6 3 22 16 15 11 14 10 23 -12 -13 13 24 27 -17 -18 -19 19 -21 -22 -23 26 -25 -26 -27 -28 -29 -30 -31
leaf_value=-0.00535170110279068 -0.00094647127443906246 -0.000451760210503748 -0.0044487441756338236 0.0028321004185074428 0.0027202439713315675 0.0016099400622021801 0.0029722955431849534 0.00059865890427749215 -0.002832800284797969 -0.0068233469073757979 0.00080077957799524026 0.009131078814687112 0.0027731058332753473 0.0039421421238937174 0.0029900701753981826 -0.0024533387472799677 0.0059832255345953532 -0.00043425744961004544 0.0062059370968552867 0.0012978155596856896 0.0017573963687022324 -0.0012658786251517188 -0.0030850106207663619 -0.0029604380821401078 0.008020742649568053 -0.00056635843332651376 -8.7096835162735593e-05 -0.0004974480305957558 0.0044708106923699734 -0.0036553259814850084
leaf_weight=7136.3051643371582 5956.565637588501 793.33793354034424 3892.3964576721191 801.92064380645752 7332.7364940643311 644.51976871490479 1601.0013952255249 6994.4044036865234 5935.1947860717773 570.54929637908936 1353.0652542114258 624.94630718231201 2199.9849643707275 1559.2999811172485 3812.1104907989502 4156.2144985198975 738.20046424865723 1953.76487159729 5292.0385408401489 521.70886135101318 534.67010116577148 944.21121311187744 889.23847770690918 4370.8284530639648 619.70679187774658 752.44646644592285 9016.846489906311 689.8701171875 1063.5227565765381 575.02161121368408
leaf_count=744 593 78 400 79 711 65 153 689 602 59 136 58 214 149 371 423 71 195 496 50 51 97 90 449 58 74 897 67 102 56
internal_value=-3.06166e-05 0.00235178 -0.00241282 -0.0014664 0.00127652 -0.00380266 0.00418821 0.000550328 -0.00249241 -0.00455584 -0.00179378 0.00523932 0.00286495 0.00330222 0.00132586 -0.00190783 0.00271296 -0.00223878 0.00493337 0.00542793 0.00579773 -0.00382738 -0.000117438 -0.00340646 0.00510209 0.00241438 -0.00035621 0.00245565 0.00228049 0.00144104
internal_weight=83326.6 41661.6 41665.1 24786.6 26276.3 16878.4 15385.2 17453 14078.6 12077.7 9242.02 8574.37 6810.87 6017.54 11496.4 4800.73 8823.38 7888.96 7949.42 6348.42 5826.71 4836.61 10708 4941.38 2179.01 8085.18 9906.08 4501.98 3838.53 2775.01
internal_count=8277 4041 4236 2496 2576 1740 1465 1720 1430 1252 933 808 657 579 1127 488 856 797 750 597 547 497 1066 508 207 785 987 438 372 270
is_linear=0
shrinkage=0.04


Tree=10
num_leaves=31
num_cat=0
split_feature=2 2 25 2 25 24 3 0 7 9 15 25 19 2 3 21 16 25 14 25 2 1 18 23 12 4 18 21 2 15
split_gain=300.283 55.238 40.2014 21.5881 15.7662 14.3642 14.9409 13.7887 8.88012 7.9076 7.63084 7.48208 6.92842 8.68339 6.58772 8.74795 6.86348 6.57277 5.7156 5.96961 5.76072 5.3983 5.0827 4.89205 4.65295 4.58911 4.57087 4.41352 4.30302 4.25214
threshold=4.7573500000000015 6.0513000000000003 0.21855000000000002 3.8856500000000005 0.22315000000000004 0.24075000000000002 5.1464500000000006 5.7750000000000012 0.35415000000000002 14.354150000000002 3.2916500000000002 0.18785000000000004 1.2250000000000003 7.7639000000000005 2.4104500000000004 1.8596000000000001 2.0500000000000003 0.18245000000000003 22.658350000000002 0.23535000000000003 4.0741500000000004 4.1055500000000009 2.1833500000000003 4.5000000000000009 14.366650000000002 0.76390000000000013 1.6833500000000001 1.8545000000000003 7.307900000000001 4.9000000000000012
decision_type=2 2 2 2 2 2 2 2 2 2 2 2 2 2 2 2 2 2 2 2 2 2 2 2 2 2 2 2 2 2
left_child=2 5 7 14 8 6 23 9 -3 -1 -7 -11 -6 -14 16 29 -4 -8 20 -20 -5 -22 -19 -2 -18 -10 -17 -25 -27 -16
right_child=1 4 3 18 12 10 17 -9 25 11 -12 -13 13 -15 15 26 24 22 19 -21 21 -23 -24 27 -26 28 -28 -29 -30 -31
leaf_value=-0.0050868309502720404 -0.0027546172241046853 0.0014502510962838501 -0.0014706810371590904 -0.0013095843406984798 0.0028730773676959704 -0.0018857795705883504 -0.0014022965077167895 0.002260557416942839 0.0020405336037220521 -0.0054991332434060495 0.0028364079613670346 -0.002673320272302685 0.0054836369863714221 0.010225305867428966 -0.00077835824240872118 -0.0035683609693697139 -0.0076702413148374751 0.0013480927537574048 -0.0032904194511499908 -0.00015719954423493138 0.0040106791282863812 0.00069523721001191771 0.0035421851039998775 0.0031629436989063023 -0.0039126478527752454 0.0041347877718503345 -0.0015817005456030401 -0.00071200228270265056 0.007764537937703501 0.0031397827159753951
leaf_weight=7444.211784362793 1732.4422979354858 3509.4858675003052 1202.6490135192871 1789.3881874084473 1414.4663791656494 582.94661331176758 1148.3596258163452 558.67008304595947 1024.4729442596436 1932.5717782974243 9011.5251665115356 6685.2464427947998 6459.1345119476318 683.31259632110596 1907.2516193389893 3841.657096862793 797.16753768920898 8518.0189085006714 1465.0341367721558 2896.5484552383423 971.76474094390869 4105.3281030654907 2107.188271522522 533.30193042755127 1557.292142868042 1746.7976837158203 3579.5335006713867 3980.9079761505127 745.62172412872314 577.31110668182373
leaf_count=776 173 339 123 180 133 57 114 56 99 201 872 688 606 63 192 391 82 833 148 288 97 408 206 53 160 167 364 397 70 58
internal_value=4.20168e-05 0.00237374 -0.00239617 -0.00137241 0.00427783 0.00129924 0.000633564 -0.00391703 0.00287376 -0.0041319 0.00254949 -0.00330702 0.00543075 0.00593727 -0.00245255 -0.00192232 -0.00392912 0.00147252 -7.72755e-05 -0.00120963 0.000641997 0.00132982 0.00178322 -0.00094768 -0.00518489 0.00429428 -0.00261012 -0.000254222 0.00522065 0.000132058
internal_weight=84509.6 43198 41311.6 24690.9 15583.3 27614.7 18020.2 16620.7 7026.38 16062 9594.47 8617.82 8556.91 7142.45 13462.9 9905.75 3557.11 11773.6 11228.1 4361.58 6866.48 5077.09 10625.2 6246.65 2354.46 3516.89 7421.19 4514.21 2492.42 2484.56
internal_count=8394 4182 4212 2491 1477 2705 1776 1721 675 1665 929 889 802 669 1370 1005 365 1153 1121 436 685 505 1039 623 242 336 755 450 237 250
is_linear=0
shrinkage=0.04


Tree=11
num_leaves=31
num_cat=0
split_feature=3 1 1 24 24 7 0 7 24 20 1 24 24 23 16 0 24 29 8 17 3 17 26 12 3 20 8 24 28 4
split_gain=277.956 45.1318 33.9925 26.5507 20.1902 9.87945 8.83389 9.48054 8.49654 8.00704 6.88738 6.60547 6.19143 6.17481 6.17473 6.61836 6.3911 5.34036 5.16088 4.88039 4.82103 6.27817 5.00605 4.54259 5.28828 5.34811 4.37336 4.36252 4.31352 4.11763
threshold=5.0465500000000008 3.8660500000000004 6.1339500000000013 0.23995000000000002 0.21615000000000004 0.38750000000000007 5.1000000000000005 0.10555000000000002 0.25100000000000006 1.8944500000000002 4.3875000000000011 0.23355000000000004 0.19105000000000003 15.500000000000002 1.1500000000000001 1.9000000000000001 0.26865000000000006 0.068950000000000025 14.450000000000001 1.7750000000000001 6.0161500000000006 1.9000000000000001 4.2250000000000005 21.775000000000002 6.9472000000000014 2.2928500000000001 15.366650000000002 0.24265000000000003 12.183350000000003 0.61250000000000016
decision_type=2 2 2 2 2 2 2 2 2 2 2 2 2 2 2 2 2 2 2 2 2 2 2 2 2 2 2 2 2 2
left_child=1 4 8 6 18 11 12 13 10 -10 -2 26 -3 -8 -6 -16 -17 -13 -1 -9 -12 22 -22 -7 25 -25 -4 -27 -20 -5
right_child=2 3 5 29 14 23 7 19 9 -11 20 17 -14 -15 15 16 -18 -19 28 -21 21 -23 -24 24 -26 27 -28 -29 -30 -31
leaf_value=-0.0056152666409116491 -0.0021376828325955196 -0.0038204863726558238 -0.0012315192081233963 0.00047811547853377352 0.0020717228962763489 0.0027701810580651291 -0.00032701851773572088 0.0036379255610996487 2.2018437297382975e-05 0.0037795007353202009 0.0010839553085628811 0.0011575979803386564 -0.0018053428307998392 -0.005239483388031786 -0.004857269519155407 -0.0026005423010069004 -8.4984255732635085e-05 0.0054188201148010016 -0.00048116324112284803 -0.00059423791946258816 0.0043444091723795174 0.0055511255679647894 -0.00042610385204274891 0.002771468202563371 0.0066764422706982749 0.0044601889653043039 0.0025657998656353409 0.008641305142595734 -0.0042683765547230721 0.0028758021808578953
leaf_weight=5232.9616270065308 936.49179172515869 3241.3040456771851 558.18269157409668 8428.0788946151733 490.53721523284912 1116.923846244812 1095.3915281295776 1099.5118808746338 1142.5450305938721 4408.9322080612183 12706.131238937378 591.78888130187988 9861.5193557739258 653.7230978012085 1657.987720489502 8911.6121082305908 1973.8677005767822 2297.2655057907104 586.10330009460449 722.39732933044434 570.06369304656982 956.93261241912842 919.88045501708984 1631.1108989715576 3258.4956398010254 1111.6775016784668 3714.7983617782593 623.05477428436279 2688.0348920822144 1326.3430948257446
leaf_count=549 94 334 54 834 50 106 110 109 111 423 1244 56 999 66 171 913 200 216 61 72 55 92 89 155 303 106 355 58 280 129
internal_value=4.10651e-05 -0.00196116 0.00266926 -0.000853465 -0.00332016 0.00413933 -0.00182318 -5.95678e-05 0.00165687 0.00300618 0.00119131 0.00306862 -0.00230384 -0.00216303 -0.00233081 -0.00250298 -0.0021444 0.00454596 -0.00483596 0.00195985 0.00139705 0.00302291 0.00139913 0.00512993 0.0055278 0.00441579 0.00206975 0.0059619 -0.00359043 0.000804137
internal_weight=84513.6 47969.4 36544.3 26428.3 21541.1 14903.3 16673.8 3571.02 21641 5551.48 16089.5 7162.04 13102.8 1749.11 13034 12543.5 10885.5 2889.05 8507.1 1821.91 15153 2446.88 1489.94 7741.26 6624.34 3365.84 4272.98 1734.73 3274.14 9754.42
internal_count=8394 4877 3517 2653 2224 1409 1690 357 2108 534 1574 681 1333 176 1334 1284 1113 272 890 181 1480 236 144 728 622 319 409 164 341 963
is_linear=0
shrinkage=0.04


Tree=12
num_leaves=31
num_cat=0
split_feature=2 2 25 2 25 25 0 3 22 7 9 25 3 12 24 20 2 3 21 16 16 25 21 18 23 9 29 29 25 11
split_gain=277.907 50.2441 37.9675 20.2503 14.6818 13.2731 13.0567 8.94054 8.52528 8.08986 7.52523 7.22077 7.018 6.81914 6.62775 6.47815 6.56227 6.30512 8.3945 6.61673 5.52018 7.68893 7.06328 5.25729 5.1254 5.464 5.28694 4.77785 4.83962 4.76442
threshold=4.7573500000000015 6.0513000000000003 0.21855000000000002 3.8856500000000005 0.22315000000000004 0.21675000000000003 5.7750000000000012 5.0465500000000008 7.5000000000000009 0.35415000000000002 14.354150000000002 0.18785000000000004 5.3694000000000015 22.366650000000003 0.23995000000000002 1.6833500000000001 7.7639000000000005 2.4104500000000004 1.8596000000000001 2.0500000000000003 4.6125000000000007 0.23875000000000005 2.4387500000000002 1.7639000000000002 7.5000000000000009 16.472200000000004 0.071900000000000006 0.10885000000000002 0.24765000000000001 17.358550000000005
decision_type=2 2 2 2 2 2 2 2 2 2 2 2 2 2 2 2 2 2 2 2 2 2 2 2 2 2 2 2 2 2
left_child=2 5 6 17 9 7 10 -2 12 -3 -1 -12 14 -14 -7 -6 27 19 -19 -4 22 -22 -5 -23 -15 -26 -27 28 -17 -16
right_child=1 4 3 20 15 8 -8 -9 -10 -11 11 -13 13 24 29 16 -18 18 -20 -21 21 23 -24 -25 25 26 -28 -29 -30 -31
leaf_value=-0.0049483054230341781 -0.0019428819575464541 0.0013701031661173919 -0.0014046812142384287 0.00014413948274827495 0.0030430436956437722 0.00010269470292835642 0.0022015611387234931 0.00078949987808868015 -0.00078185035222375174 0.004075940060762763 -0.0053693292205236722 -0.0025819387655781753 0.0013854978241786776 0.0014316766090046369 0.0031398035016650199 0.0039442116661134704 0.0095330275795240671 0.00016141938184579998 -0.0025278683656253936 -0.0050610300837923596 -0.0021992004537618533 0.0017577192146809948 0.0041343236053712476 -0.00097714701668123001 0.0074205284318529146 0.0062919643200271373 0.0027639768302413514 0.0088248219881576894 0.0063089759565625007 0.00014985921302347393
leaf_weight=7375.0728902816772 2589.2091026306152 3522.7327718734741 1198.3489046096802 2621.0103349685669 1789.8884172439575 3648.1824083328247 560.16383361816406 7369.4208192825317 1708.4555492401123 3548.968204498291 1915.264289855957 6649.8959426879883 2624.1345987319946 1078.1828746795654 3408.2191324234009 3141.85071849823 661.30457019805908 2480.9197540283203 7385.9811315536499 2334.7593574523926 3129.4914312362671 2236.7007141113281 973.42516899108887 2261.9612474441528 834.190354347229 960.41439437866211 2324.6164121627808 571.66293144226074 2475.8917598724365 1137.2453556060791
leaf_count=776 262 339 123 261 167 359 56 725 168 336 201 688 253 104 329 292 60 250 755 242 316 222 97 225 80 92 223 53 230 110
internal_value=4.01427e-05 0.002273 -0.00231605 -0.0013211 0.00407961 0.00124757 -0.00380077 7.90901e-05 0.00190412 0.00272804 -0.0040117 -0.00320523 0.00219066 0.00304768 0.00137255 0.00518578 0.00574561 -0.00237089 -0.00185168 -0.00382088 -6.76234e-05 -0.000676593 0.00122474 0.000382608 0.00388691 0.00452955 0.00379542 0.00534095 0.00498643 0.00239174
internal_weight=84517.6 43394.6 41123 24622.6 15712.3 27682.3 16500.4 9958.63 17723.6 7071.7 15940.2 8565.16 16015.2 7821.54 8193.65 8640.6 6850.71 13400 9866.9 3533.11 11222.6 7628.15 3594.44 4498.66 5197.4 4119.22 3285.03 6189.41 5617.74 4545.46
internal_count=8394 4182 4212 2491 1477 2705 1721 987 1718 675 1665 889 1550 752 798 802 635 1370 1005 365 1121 763 358 447 499 395 315 575 522 439
is_linear=0
shrinkage=0.04


Tree=13
num_leaves=31
num_cat=0
split_feature=2 2 25 4 25 2 25 25 16 3 22 7 3 12 0 24 20 19 2 14 24 14 23 9 29 29 9 17 11 4
split_gain=266.976 47.8967 36.8643 17.6714 13.9334 13.7455 12.7089 10.2294 8.6347 8.59833 8.1624 7.7075 6.69668 6.49561 6.35264 6.34206 6.30407 6.28166 7.57621 5.61484 5.0205 5.63537 4.87477 5.16585 5.01312 4.75841 4.69429 4.67562 4.55078 4.24821
threshold=4.7573500000000015 6.0513000000000003 0.23605000000000001 0.35415000000000002 0.22315000000000004 3.8856500000000005 0.21675000000000003 0.18785000000000004 4.5278000000000009 5.0465500000000008 7.5000000000000009 0.35415000000000002 5.3694000000000015 22.366650000000003 5.1000000000000005 0.23995000000000002 0.52780000000000016 1.2250000000000003 7.7639000000000005 23.297050000000002 0.21615000000000004 22.945900000000005 7.5000000000000009 16.472200000000004 0.071900000000000006 0.093850000000000003 14.387500000000001 1.4500000000000002 17.358550000000005 0.76390000000000013
decision_type=2 2 2 2 2 2 2 2 2 2 2 2 2 2 2 2 2 2 2 2 2 2 2 2 2 2 2 2 2 2
left_child=2 6 3 20 11 16 9 -5 14 19 12 -3 15 -14 -9 -8 -4 -6 -19 -2 21 25 -15 -24 -25 -1 -27 -18 -17 -13
right_child=1 4 5 7 17 -7 10 8 -10 -11 -12 29 13 22 -16 28 27 18 -20 -21 -22 -23 23 24 -26 26 -28 -29 -30 -31
leaf_value=-0.005897860181634294 -0.00036600813263223091 0.0013410310115376869 0.0021572687607319292 -0.0049567317546512103 0.0026326718696236635 0.00051452073485347503 0.00010064439212336612 -0.00072834572645999712 -0.0022274581744108259 0.00077320084257464551 -0.00076692561203684135 0.0018197577320271828 0.0013560779039849 0.0014012108461289715 0.0037120187862265288 0.0030676911838050775 -0.003142836575979093 0.0051111350712875871 0.009487684639922677 -0.004162494789466847 -0.0031861180544630295 -0.0027118377504560596 0.0072188164068428705 0.0061279122070820868 0.0027015215830290375 -0.0048721953443714855 -0.00091844151896063964 -0.001202915354559786 0.00014686023394045516 0.0048621323911911445
leaf_weight=4949.3209266662598 1534.5632677078247 3527.5625505447388 584.90470504760742 1553.6658382415771 1429.5821409225464 7282.3873281478882 3648.5570774078369 1808.1985769271851 6327.9820194244385 7375.2412910461426 1707.1203117370605 1034.9040384292603 2627.7728586196899 1079.7275848388672 721.08968067169189 3418.9371118545532 3865.8956613540649 6555.4742059707642 700.48489952087402 1049.6201915740967 5720.3524236679077 1823.7392921447754 840.40351486206055 966.47634220123291 2331.0504951477051 1614.2785367965698 684.08656787872314 4092.0668106079102 1137.4158010482788 2528.5590572357178
leaf_count=524 155 339 59 163 133 723 359 184 645 725 168 99 253 104 72 329 395 606 63 107 596 191 80 92 223 171 72 417 110 237
internal_value=3.92347e-05 0.00222267 -0.00227541 -0.00322552 0.00398208 -0.000762298 0.00122121 -0.001963 -0.00143787 7.74986e-05 0.00186267 0.00266647 0.00214235 0.00297791 0.000537584 0.0013434 -0.00185072 0.00505616 0.00553364 -0.00190803 -0.00411412 -0.00469931 0.00379471 0.00441926 0.00370577 -0.00519942 -0.0036954 -0.00214531 0.00233856 0.00397856
internal_weight=84521.4 43493.5 41028 25202.7 15776.6 15825.3 27716.9 10410.9 8857.27 9959.42 17757.5 7091.03 16050.3 7845.43 2529.29 8204.91 8542.87 8685.54 7255.96 2584.18 14791.8 9071.43 5217.66 4137.93 3297.53 7247.69 2298.37 7957.96 4556.35 3563.46
internal_count=8394 4182 4212 2618 1477 1594 2705 1064 901 987 1718 675 1550 752 256 798 871 802 669 262 1554 958 499 395 315 767 243 812 439 336
is_linear=0
shrinkage=0.04


Tree=14
num_leaves=31
num_cat=0
split_feature=2 2 25 2 25 0 24 3 2 15 23 2 29 25 3 21 16 19 2 14 2 25 18 1 12 24 18 23 2 21
split_gain=256.477 45.6673 35.7205 18.9372 13.2279 12.4253 12.1994 12.8014 7.2292 7.14667 6.96753 7.33006 6.362 6.1681 6.11411 8.2764 6.20513 5.97205 7.11455 5.34849 5.4314 5.36042 5.25433 5.25171 5.12769 5.03421 4.93192 4.63739 4.33031 4.20166
threshold=4.7573500000000015 6.0513000000000003 0.21855000000000002 3.8856500000000005 0.22345000000000001 5.7750000000000012 0.24075000000000002 5.1464500000000006 4.3717000000000015 3.2916500000000002 2.5000000000000004 7.307900000000001 0.088050000000000003 0.18245000000000003 2.4629000000000008 1.7018500000000001 2.0500000000000003 1.2250000000000003 7.7639000000000005 22.658350000000002 4.0741500000000004 0.23535000000000003 1.6833500000000001 4.1055500000000009 13.900000000000002 0.23765000000000003 2.1180500000000007 4.5000000000000009 2.8535500000000007 1.8545000000000003
decision_type=2 2 2 2 2 2 2 2 2 2 2 2 2 2 2 2 2 2 2 2 2 2 2 2 2 2 2 2 2 2
left_child=2 6 5 14 10 8 7 27 12 -8 -3 -12 -1 -9 16 -16 -4 -6 -19 20 -5 -21 28 -22 -18 26 -15 -2 -17 -29
right_child=1 4 3 19 17 -7 9 13 -10 -11 11 -13 -14 25 15 22 24 18 -20 21 23 -23 -24 -25 -26 -27 -28 29 -30 -31
leaf_value=-0.0050551839690162496 -0.0026523147837633283 -0.0011285500380098239 -0.0013315662129812498 -0.0012624108074506342 0.0025735249437699209 0.0021678475988038937 -0.0019451086448946968 -0.0014298853203888182 -0.0020756791974844259 0.0026163780512207064 0.0024589931034192632 0.0062406719574454386 -0.0032611816741741051 0.0014102501445201318 0.00056116000950540059 -0.00049950346792039556 -0.00748632373552787 0.0049879081308339982 0.0092105275314749713 -0.0031404492940928083 0.0039423489215060824 -0.00016263040051265367 -0.0012603819260724072 0.00067630591805237087 -0.0035742755059401522 -0.0021608633709356605 0.0036138514838495463 0.0031180872895256511 -0.0039514741911679183 -0.00066006961738404688
leaf_weight=7441.8086490631104 1722.1446981430054 717.37917423248291 1204.4132041931152 1784.8501510620117 1433.3507165908813 561.02102756500244 584.87679862976074 1150.0783262252808 2876.1394300460815 9099.729043006897 5449.2335662841797 965.36617374420166 5500.4657115936279 8132.1211786270142 1956.4669303894043 704.40323638916016 791.78558540344238 6567.0555295944214 707.16250610351562 1451.8958225250244 974.55401515960693 2897.3469581604004 3689.7214698791504 4109.1119079589844 1660.0020294189453 526.47785663604736 2030.9010763168335 534.34285736083984 3330.8324766159058 3970.142165184021
leaf_count=787 173 69 124 180 133 56 57 114 298 872 519 89 580 791 197 72 83 604 63 148 97 288 378 408 173 51 197 53 343 397
internal_value=3.83496e-05 0.00217357 -0.00223539 -0.00127034 0.00388727 -0.00368215 0.00119543 0.000581387 -0.00388962 0.0023409 0.00261001 0.00302812 -0.00429273 0.00135356 -0.00228907 -0.00176277 -0.00368268 0.00493341 0.00539841 -5.90998e-05 0.000635921 -0.00115671 -0.00235134 0.00130242 -0.00483764 0.00165303 0.0018506 -0.000886854 -0.00334889 -0.000211887
internal_weight=84525.2 43590.4 40934.8 24555.4 15839.5 16379.4 27750.8 18066.2 15818.4 9684.61 7131.98 6414.6 12942.3 11839.6 13337.6 9681.42 3656.2 8707.57 7274.22 11217.8 6868.52 4349.24 7724.96 5083.67 2451.79 10689.5 10163 6226.63 4035.24 4504.49
internal_count=8394 4182 4212 2491 1477 1721 2705 1776 1665 929 677 608 1367 1153 1370 990 380 800 667 1121 685 436 793 505 256 1039 988 623 415 450
is_linear=0
shrinkage=0.04


Tree=15
num_leaves=31
num_cat=0
split_feature=2 2 24 0 0 24 3 3 24 24 12 18 11 2 10 11 2 10 4 16 15 24 21 17 17 28 27 13 27 13
split_gain=237.833 48.7765 25.5214 18.1288 13.1725 9.92694 10.319 9.63955 9.45959 7.80309 7.58981 7.04046 6.85649 11.2408 5.57213 4.93576 4.84093 4.68657 4.67047 4.66369 4.64154 4.53169 8.20451 4.50052 5.56053 4.49031 7.98388 5.06831 4.82882 4.47079
threshold=4.7182500000000003 6.0513000000000003 0.23315000000000002 5.7750000000000012 3.3666500000000004 0.24075000000000002 5.162300000000001 4.1017000000000001 0.23245000000000002 0.25955000000000006 22.775000000000002 2.2361000000000004 15.33975 7.307900000000001 17.052800000000001 15.918350000000002 4.4472000000000014 17.146450000000005 0.88195000000000012 4.9500000000000011 3.2916500000000002 0.20885000000000004 2.5578000000000007 1.9000000000000001 0.36665000000000009 12.292850000000003 4.0871000000000013 16.535700000000002 3.6833500000000003 20.414300000000001
decision_type=2 2 2 2 2 2 2 2 2 2 2 2 2 2 2 2 2 2 2 2 2 2 2 2 2 2 2 2 2 2
left_child=2 5 3 7 23 6 -2 25 12 14 -8 21 -3 18 -6 16 -11 -17 -14 -20 -7 -12 -23 24 -4 26 27 -1 -27 -22
right_child=1 8 4 -5 9 20 10 -9 -10 15 11 -13 13 -15 -16 17 -18 -19 19 -21 29 22 -24 -25 -26 28 -28 -29 -30 -31
leaf_value=-0.0073327953843950631 -0.00072437528592171759 -9.2682156537707633e-05 0.00065905801037993911 0.002739732019731168 -0.0007463060665002225 -0.0016210395207656237 -0.00012474027144576509 -0.0021200119323690186 0.0048970890234155511 -0.0007169141115249333 0.00034947349501810153 0.0050022908278194835 0.00185316317307407 0.0066754573837372322 -0.0045034248843189737 0.0040862685791577206 0.0035304127200230235 -0.00049257910190662424 0.0056114327744126056 0.0018577089472975601 0.0051303951934262996 0.0014394049731182379 0.0061181487446490502 -0.0008220856014533516 -0.0038041499971258564 -0.0011513632301330039 0.0001904876875542419 -0.0028297776620588213 -0.0044806034544831721 0.0019913649305871822
leaf_weight=549.05516815185547 7011.8470907211304 1060.1530609130859 506.7616138458252 814.04604339599609 5498.7401866912842 521.86194229125977 4348.8234844207764 7049.3816814422607 6970.7797355651855 2506.9858627319336 3035.6872959136963 1055.26877784729 4177.4542264938354 1335.3997611999512 713.54226207733154 1185.8195610046387 518.08543682098389 512.11013793945312 1337.7902784347534 876.56617164611816 792.1962308883667 2752.6875638961792 766.69758129119873 1663.7496204376221 3763.5602235794067 743.90569972991943 1093.0542278289795 1472.3810052871704 11069.499932289124 8682.7698831558228
leaf_count=58 703 102 52 81 556 51 424 728 639 252 297 102 395 122 72 118 51 51 124 82 76 266 74 171 388 78 115 154 1169 831
internal_value=6.07864e-06 0.00200575 -0.00224899 -0.00312195 -0.00106957 0.00103148 0.000493963 -0.00333907 0.00379674 -0.00024618 0.00120829 0.00197004 0.00292385 0.00333772 -0.00117785 0.000979268 1.04995e-05 0.00270525 0.00264038 0.0041255 0.00205154 0.00148189 0.00245867 -0.00258691 -0.0032745 -0.00391475 -0.00256363 -0.00405287 -0.00427096 0.00225382
internal_weight=84386.7 44726 39660.7 22791.3 16869.4 28967.8 18971 21977.3 15758.1 10935.3 11959.2 7610.34 8787.36 7727.21 6212.28 4723 3025.07 1697.93 6391.81 2214.36 9996.83 6555.07 3519.39 5934.07 4270.32 14927.9 3114.49 2021.44 11813.4 9474.97
internal_count=8382 4288 4094 2383 1711 2824 1866 2302 1464 1100 1163 739 825 723 628 472 303 169 601 206 958 637 340 611 440 1574 327 212 1247 907
is_linear=0
shrinkage=0.04


Tree=16
num_leaves=31
num_cat=0
split_feature=1 1 25 3 25 1 25 3 20 3 28 25 25 25 25 9 8 23 23 24 16 3 20 3 17 18 25 27 12 25
split_gain=218.951 45.3911 34.6971 17.7437 15.6723 11.7391 10.6005 7.85124 7.08744 6.56947 6.37767 6.65425 6.11823 5.84271 5.52965 5.17495 5.12883 4.94051 4.92159 4.86597 4.70516 4.53071 4.2755 5.30978 4.06365 4.04313 5.29328 4.38808 5.45302 4.23172
threshold=4.7321500000000007 6.1339500000000013 0.23095000000000002 4.2457000000000003 0.24805000000000002 3.8660500000000004 0.22175000000000003 5.1464500000000006 1.8944500000000002 6.5590500000000009 11.15 0.20735000000000003 0.18785000000000004 0.19115000000000001 0.25565000000000004 17.585700000000006 15.366650000000002 12.500000000000002 16.500000000000004 0.27330000000000004 4.5857000000000001 5.2546500000000007 1.9500000000000002 2.4629000000000008 1.1000000000000003 1.3166500000000003 0.21675000000000003 4.7889000000000008 24.366650000000003 0.22795000000000001
decision_type=2 2 2 2 2 2 2 2 2 2 2 2 2 2 2 2 2 2 2 2 2 2 2 2 2 2 2 2 2 2
left_child=2 4 5 15 7 10 16 25 -6 14 -1 -12 -7 -9 -8 22 -3 -5 -11 -19 -15 24 23 -4 -10 -2 -27 28 29 -28
right_child=1 6 3 17 8 12 9 13 21 18 11 -13 -14 20 -16 -17 -18 19 -20 -21 -22 -23 -24 -25 -26 26 27 -29 -30 -31
leaf_value=-0.00097728138641492847 0.00092944692492358499 -0.00060669964032510472 -0.0024110458316386934 -9.2264955103455874e-06 -3.1329780381591227e-05 -0.0043706176604971685 0.0023624933957816035 -0.00098037831463693593 -0.0010369468524955828 0.0046535644237072201 -0.0052663355488089319 -0.0033163831659069488 -0.0017199812994609961 4.0910656409844455e-05 0.0055781067054242609 0.0021250364645648916 0.0028909954183290948 0.0014186843679279326 0.0073218541508469253 0.0056403180663319565 0.0018627908070499208 0.0042937197023360883 -0.0023408896623249979 0.00061324552669768221 0.002829008679115428 -0.0023787439488688021 0.00063358836367721479 0.0026450815924133242 0.0025364927932361682 -0.003660943448511019
leaf_weight=1012.3831186294556 2143.0434303283691 754.02278137207031 1657.0818862915039 3092.5468816757202 1296.8885221481323 1675.6176624298096 2676.1564388275146 1955.194296836853 546.03983306884766 3152.1015577316284 5606.6020727157593 5593.7533941268921 8269.6597528457642 3080.737813949585 1257.7865409851074 553.01764297485352 6075.3064918518066 1894.5501899719238 1703.8641223907471 567.76008129119873 8597.9128675460815 3063.2775592803955 8275.0642757415771 2113.6261911392212 2139.9215402603149 2724.672794342041 583.50000858306885 778.37283420562744 557.14522075653076 989.9725980758667
leaf_count=107 214 73 172 306 125 177 248 193 53 287 603 589 851 298 116 56 574 186 153 55 828 288 846 213 206 277 58 77 55 98
internal_value=5.86235e-06 0.0019544 -0.00212463 -0.000828119 0.00100339 -0.00318683 0.00368703 0.000464882 0.00263973 0.00460556 -0.00401766 -0.00429248 -0.00216657 0.00104338 0.00339061 -0.00165849 0.00250482 0.00105522 0.00558982 0.00239211 0.00138219 0.00324225 -0.00183219 -0.000715815 0.00204308 -0.000549324 -0.00111185 7.47749e-05 -0.000864228 -0.00206838
internal_weight=84387.6 44075.9 40311.7 18153.6 28456.7 22158 15619.2 21410.6 7046.13 8789.91 12212.7 11200.4 9945.28 13633.8 3933.94 12598.8 6829.33 5554.86 4855.97 2462.31 11678.7 5749.24 12045.8 3770.71 2685.96 7776.71 5633.66 2908.99 2130.62 1573.47
internal_count=8382 4221 4161 1834 2770 2327 1451 2098 672 804 1299 1192 1028 1319 364 1287 647 547 440 241 1126 547 1231 385 259 779 565 288 211 156
is_linear=0
shrinkage=0.04


Tree=17
num_leaves=31
num_cat=0
split_feature=2 2 25 2 7 25 25 2 20 25 22 0 20 1 3 12 24 16 20 3 3 9 29 21 25 12 7 12 25 17
split_gain=220.125 44.5677 29.9944 16.1708 13.3328 11.7979 11.0155 8.10519 7.76566 7.41236 8.18915 6.27936 6.19101 5.8478 5.70724 7.23719 5.65144 8.67492 5.60528 5.42685 5.14016 5.08103 5.04596 7.66036 4.88847 4.74285 4.67572 4.39832 4.39624 4.35286
threshold=4.7182500000000003 6.0513000000000003 0.23155000000000003 4.0741500000000004 0.18335000000000004 0.22175000000000003 0.21675000000000003 3.9045500000000004 1.9500000000000002 0.28115000000000007 8.5000000000000018 4.5500000000000007 0.52780000000000016 8.1214500000000012 5.358550000000001 22.366650000000003 0.20065000000000002 4.0500000000000007 2.2111000000000005 2.5064000000000006 6.5819500000000009 16.683350000000001 0.074450000000000002 2.9258500000000001 0.20495000000000002 23.100000000000005 0.35415000000000002 22.550000000000004 0.19115000000000001 2.1000000000000005
decision_type=2 2 2 2 2 2 2 2 2 2 2 2 2 2 2 2 2 2 2 2 2 2 2 2 2 2 2 2 2 2
left_child=2 6 4 12 7 26 11 24 -6 10 14 -2 -4 18 -8 -16 17 -13 20 -14 -7 -22 -5 -24 -1 -19 -3 -28 -27 -21
right_child=1 5 3 22 8 13 9 -9 -10 -11 -12 16 19 -15 15 -17 -18 25 -20 29 21 -23 23 -25 -26 28 27 -29 -30 -31
leaf_value=-0.0049704389404503476 -0.002145079196430769 0.0012943069715784983 0.0018133159909259841 -0.00097339599343079797 0.003974248604774736 0.001864133345133079 0.0009318923803077223 -0.0024240371611062945 -0.0016655180093510546 0.005222437645634799 -0.0017363837407589331 0.0059811765891616044 -0.0037013757406596051 0.0084416498730112387 0.0006940448185906704 0.0032836182449432279 -0.00070349845314017132 -0.0010162953802375296 0.0053780305966022084 -0.0020663796243244113 0.0013108197652194251 0.0056029983817342524 0.0026097401634112222 -0.0015517136516589335 -0.0033784255648998474 6.6719278539783357e-05 0.00073979591220464506 0.0041791148982169672 0.0034373329029850118 2.1345919263670867e-05
leaf_weight=5382.4040555953979 1878.2805423736572 3342.5152969360352 721.51109981536865 1713.074236869812 582.27189636230469 2072.9446907043457 8728.8935642242432 7903.9529933929443 1186.9505214691162 849.88151073455811 1240.1370735168457 569.55830001831055 2378.4131374359131 582.22801494598389 2587.8687210083008 5189.4345798492432 3939.4749536514282 1564.1649761199951 4050.4816226959229 6322.4023427963257 579.95019912719727 1845.5682907104492 3000.9141139984131 926.18388366699219 7233.248233795166 1206.2138147354126 768.81231307983398 2630.3391361236572 1272.0623331069946 2138.3212146759033
leaf_count=582 190 319 73 170 59 190 848 825 121 80 122 56 249 51 248 492 388 155 367 646 53 167 296 92 763 120 73 244 125 218
internal_value=5.65579e-06 0.00192158 -0.0021727 -0.000917804 -0.00314113 0.00362577 0.000989637 -0.0034284 0.000190595 0.00157321 0.00139844 -5.08661e-05 -0.00177446 0.0045628 0.00163397 0.00242195 0.000409115 0.00135949 0.00429863 -0.00201328 0.00332673 0.00457672 0.000838083 0.00162828 -0.00405765 0.000708316 0.00235661 0.00340122 0.00179681 -0.00153874
internal_weight=84388.5 44898.8 39489.6 17200.8 22288.8 15872.8 29026 20519.6 1769.22 18596.2 17746.3 10429.8 11560.6 9131.17 16506.2 7777.3 8551.47 4612 8548.94 10839.1 4498.46 2425.52 5640.17 3927.1 12615.7 4042.44 6741.67 3399.15 2478.28 8460.72
internal_count=8382 4288 4094 1744 2350 1464 2824 2170 180 1790 1710 1034 1186 828 1588 740 844 456 777 1113 410 220 558 388 1345 400 636 317 245 864
is_linear=0
shrinkage=0.04


Tree=18
num_leaves=31
num_cat=0
split_feature=2 2 25 2 0 25 25 25 22 6 14 0 18 0 18 1 20 3 25 20 2 18 11 0 23 3 3 9 21 7
split_gain=211.564 43.8446 27.8692 14.1038 12.5696 12.2721 11.2131 8.43578 7.74496 7.41641 8.13883 6.63646 6.50825 6.35813 6.14502 5.52945 5.46902 6.02998 5.46333 5.3779 5.27174 5.30885 5.09808 4.97914 4.92154 4.87266 4.72133 4.73462 4.54731 4.52572
threshold=4.6961500000000012 6.0513000000000003 0.23095000000000002 4.0741500000000004 5.7750000000000012 0.21675000000000003 0.22175000000000003 0.20535000000000003 7.5000000000000009 1.0000000180025095e-35 14.612500000000002 4.5500000000000007 2.2361000000000004 1.9000000000000001 1.5635000000000001 8.0500000000000025 0.52780000000000016 2.5064000000000006 0.28115000000000007 2.2111000000000005 5.5941000000000001 1.3875000000000002 16.114350000000005 5.3666500000000008 3.5000000000000004 5.7543000000000015 6.5819500000000009 16.683350000000001 1.9865000000000002 0.23610000000000003
decision_type=2 2 2 2 2 2 2 2 2 2 2 2 2 2 2 2 2 2 2 2 2 2 2 2 2 2 2 2 2 2
left_child=2 5 4 16 7 11 29 -1 18 13 -11 -2 20 -9 -12 19 -4 -18 24 26 21 -13 -14 -5 -7 -26 -8 -28 -27 -3
right_child=1 6 3 23 -6 8 15 9 -10 10 14 12 22 -15 -16 -17 17 -19 -20 -21 -22 -23 -24 -25 25 28 27 -29 -30 -31
leaf_value=-0.0042203762676711037 -0.0022105599013082784 0.00034655545097529494 0.0015444879839996446 0.00020078885774087816 0.0020066099268118364 -0.00010222020782385006 0.0018204171892862477 -0.006837946188686315 -0.00093239374474121846 0.0031931584288376054 -0.003750976785048057 0.00092470238289301169 0.0006074999889473067 -0.0030704729080290346 -0.0009841139214561154 0.00799378623199575 -0.0037312686397497235 -0.0014833838739149801 0.0050566164334347463 0.0052350417651640538 0.0012266566658269745 -0.0019689151175175524 0.0055103676465533945 0.0036266250655597994 0.001574898076232451 0.000638612370594646 0.0012830823510286472 0.00543077013961203 0.0044532123308434306 0.0028516337426736753
leaf_weight=9238.6158866882324 2016.6712646484375 1476.4991598129272 751.12457847595215 4694.9290323257446 733.42403984069824 2210.3929710388184 2066.0557441711426 847.57044506072998 1821.3494491577148 515.25442600250244 2112.6539249420166 1539.3411359786987 734.70101642608643 4642.4273271560669 3275.545485496521 654.76792430877686 2454.7265043258667 8594.1108379364014 791.33135604858398 4049.6518449783325 2801.3184967041016 2975.2163372039795 630.57219505310059 793.52790355682373 11652.037760734558 671.15323543548584 580.71090888977051 1821.7627849578857 1960.7984676361084 5281.0811166763306
leaf_count=994 205 141 76 465 73 215 189 91 179 54 220 153 73 490 340 57 258 879 74 365 273 296 62 78 1123 64 53 164 183 495
internal_value=5.45193e-06 0.00184668 -0.00217309 -0.000979094 -0.00313925 0.000941232 0.00354071 -0.00332217 0.00154856 -0.00259384 -0.00160969 -0.000143507 0.000336678 -0.00365211 -0.00206897 0.00445156 -0.00175827 -0.0019828 0.00180998 0.00417928 -0.000136451 -0.00098227 0.00287196 0.000696101 0.00165422 0.00192602 0.00322248 0.00442822 0.00348048 0.00230429
internal_weight=84389.3 45735.4 38653.9 17288.4 21365.5 29804.9 15930.5 20632.1 19107.1 11393.5 5903.45 10697.8 8681.15 5490 5388.2 9172.95 11800 11048.8 17285.7 8518.18 7315.88 4514.56 1365.27 5488.46 16494.4 14284 4468.53 2402.47 2631.95 6757.58
internal_count=8382 4364 4018 1756 2262 2900 1464 2189 1838 1195 614 1062 857 581 560 828 1213 1137 1659 771 722 449 135 543 1585 1370 406 217 247 636
is_linear=0
shrinkage=0.04


Tree=19
num_leaves=31
num_cat=0
split_feature=2 2 25 2 0 25 25 25 22 3 0 18 20 0 23 1 25 2 18 20 11 4 23 3 3 2 10 0 2 21
split_gain=203.308 41.8503 26.9823 14.5985 12.563 11.7617 10.6598 10.4756 7.42207 6.74654 6.38834 6.23257 5.8962 6.25383 5.44234 5.22838 5.20321 5.06391 5.1105 5.04179 4.85309 4.76969 4.71132 4.65269 4.64778 4.5912 4.49081 5.06983 4.35327 4.3307
threshold=4.6961500000000012 6.0513000000000003 0.23875000000000005 4.1716000000000006 5.7750000000000012 0.21675000000000003 0.22175000000000003 0.20535000000000003 7.5000000000000009 1.3944500000000002 4.5500000000000007 2.2361000000000004 0.52780000000000016 1.9000000000000001 27.500000000000004 8.1214500000000012 0.28115000000000007 5.5941000000000001 1.3875000000000002 2.2111000000000005 16.114350000000005 0.35415000000000002 3.5000000000000004 6.5819500000000009 5.7543000000000015 6.7596000000000007 15.341650000000001 5.9000000000000012 4.4330500000000006 1.9865000000000002
decision_type=2 2 2 2 2 2 2 2 2 2 2 2 2 2 2 2 2 2 2 2 2 2 2 2 2 2 2 2 2 2
left_child=2 5 4 12 7 10 26 28 16 -9 -2 17 -4 -14 21 19 22 18 -12 23 -13 -11 -7 -8 -24 -25 -3 -28 -1 -26
right_child=1 6 3 -5 -6 8 15 9 -10 14 11 20 13 -15 -16 -17 -18 -19 -20 -21 -22 -23 24 25 29 -27 27 -29 -30 -31
leaf_value=-0.0044890182771820265 -0.0021714940357984154 -0.00084736672348952838 0.0023313777155964336 0.0013851988256987952 0.0017010264055738419 -0.00010020011761808187 0.0017835301185071635 -0.005711401852975858 -0.00091473432835710187 -0.0029754116876663196 0.00090548846677684653 0.00059506772187909688 -0.0048973680347988643 -0.0014259843788893185 0.0015257279256386438 0.0079802460908865464 0.0049309234175192304 0.0012008022396545553 -0.0019336476454073091 0.0051111737555560623 0.0053709331899231298 -0.0014109169042503145 0.0015411614852959689 0.0071234581011894154 0.00062552373750988423 0.0032717129210662848 -3.344026555263532e-05 0.0031012365693901603 -0.0018928328332734495 0.0043451659807156855
leaf_weight=8013.3240251541138 2012.2182292938232 673.11576652526855 596.53639984130859 3834.6035900115967 907.04889011383057 2210.1670484542847 2080.6633768081665 941.20903968811035 1819.6520252227783 8192.7993927001953 1540.7652349472046 735.14748573303223 922.0873498916626 8346.066593170166 596.56442356109619 591.87624835968018 795.34294891357422 2804.7568645477295 2969.3641538619995 4093.7615699768066 634.056471824646 5033.4656009674072 11670.402973175049 689.22404956817627 671.58197498321533 1758.3652477264404 984.36851501464844 5115.6889533996582 1186.3835725784302 1969.5497932434082
leaf_count=869 205 65 60 378 90 215 190 100 179 867 153 73 97 854 62 51 74 273 296 367 62 516 1123 62 64 158 94 477 125 183
internal_value=5.25551e-06 0.00180657 -0.00213465 -0.00070914 -0.00291984 0.000921621 0.00345794 -0.00309475 0.00151541 -0.00243458 -0.00014072 0.000329837 -0.00152325 -0.00177135 -0.00221145 0.00434352 0.00177076 -0.000133782 -0.000963733 0.00409387 0.00280669 -0.00238002 0.00161864 0.00317417 0.00188408 0.00435634 0.00225325 0.00259539 -0.00415422 0.00339934
internal_weight=84390.2 45820.1 38570.1 13699.3 24870.8 29833 15987.1 23963.7 19136.7 14764 10696.3 8684.09 9864.69 9268.15 13822.8 9213.89 17317 7314.89 4510.13 8622.01 1369.2 13226.3 16521.7 4528.25 14311.5 2447.59 6773.17 6100.06 9199.71 2641.13
internal_count=8382 4364 4018 1389 2629 2900 1464 2539 1838 1545 1062 857 1011 951 1445 828 1659 722 449 777 135 1383 1585 410 1370 220 636 571 994 247
is_linear=0
shrinkage=0.04


Tree=20
num_leaves=31
num_cat=0
split_feature=1 1 25 7 25 14 0 3 23 3 25 25 1 25 18 18 19 21 11 20 10 28 1 29 27 18 29 28 25 29
split_gain=176.028 38.358 27.4459 15.7547 14.1096 12.2444 10.8275 8.43505 8.13743 10.4303 8.1178 7.95608 7.13161 5.80526 5.66872 6.67158 5.46448 7.64173 4.95004 4.83358 4.62834 4.55266 4.67725 4.47306 4.3909 5.06709 4.38109 4.45384 4.32483 4.95836
threshold=4.6833500000000008 6.0500000000000007 0.20535000000000003 1.0000000180025095e-35 0.24835000000000004 14.612500000000002 1.9000000000000001 5.1464500000000006 3.5000000000000004 7.2554500000000006 0.26425000000000004 0.25675000000000003 4.211100000000001 0.22175000000000003 2.6833500000000003 2.4365000000000001 1.9000000000000001 1.0801000000000001 17.951200000000004 1.8944500000000002 17.581100000000003 14.550000000000002 3.8660500000000004 0.078850000000000017 4.7071500000000013 2.2678500000000006 0.085350000000000023 12.450000000000001 0.18835000000000005 0.084950000000000012
decision_type=2 2 2 2 2 2 2 2 2 2 2 2 2 2 2 2 2 2 2 2 2 2 2 2 2 2 2 2 2 2
left_child=2 4 12 6 7 -5 -4 14 -3 13 16 21 26 18 15 -2 17 -8 20 -6 -10 22 -7 -19 -18 -26 -1 -28 29 -9
right_child=1 8 3 5 19 11 10 28 9 -11 -12 -13 -14 -15 -16 -17 24 23 -20 -21 -22 -23 -24 -25 25 -27 27 -29 -30 -31
leaf_value=-0.0054312336054990785 -0.00067481822653353942 0.00103459900375712 -0.0047389055687812962 0.0049043730605966181 4.1642024770494187e-05 -0.004682658604469982 -0.0029959421789898604 -0.0028512615542444419 0.0019854120770690705 0.0058676161095854917 0.00037470172196631536 0.0019047113937487633 -0.00178582021160221 0.0038061751820662516 0.0031374951285137605 -0.005473636431526401 -0.0030282448618543507 -0.0015250273132243711 0.004094935771125221 0.0027978983902318681 -0.0014805995532700042 0.00056666527588348982 -0.0012346370501145195 0.0016800809633479932 -0.0021779448330233493 0.0013831042591855127 -7.9962630596401327e-05 -0.0040919677479463725 0.00115721413719837 0.0020352307845315156
leaf_weight=3924.5634441375732 8006.8399286270142 2538.0405626296997 2113.1267919540405 754.20550727844238 1237.8765602111816 785.20475482940674 1716.9142713546753 954.61181640625 3357.6177444458008 2453.06946849823 2559.5270547866821 1756.6971187591553 1922.8224573135376 6629.6043844223022 579.107590675354 492.01600551605225 8056.9439687728882 1175.6760568618774 1410.7817459106445 5731.3543128967285 755.05312252044678 1679.8761596679688 3173.5849332809448 1710.029088973999 2718.6163110733032 835.9017391204834 525.69194507598877 2805.0696086883545 11535.33660030365 509.6206169128418
leaf_count=429 803 236 225 77 119 82 179 95 318 217 259 174 202 599 58 50 835 121 132 542 72 172 321 176 283 87 57 306 1109 50
internal_value=-3.67143e-05 0.00162479 -0.00204502 -0.00144233 0.000739227 4.92986e-05 -0.00202434 0.000243907 0.00312516 0.00348843 -0.00171879 -0.000445839 -0.0039517 0.0030082 -0.000691711 -0.000952632 -0.00204927 -0.000882916 0.00205042 0.00230833 0.00134908 -0.00117814 -0.00191853 0.000374276 -0.00251159 -0.00134051 -0.00452571 -0.00345876 0.000897276 -0.00115054
internal_weight=84405.4 46190.9 38214.5 29036.3 29046.8 8149.57 20886.7 22077.5 17144.2 14606.1 18773.6 7395.36 9178.15 12153.1 9077.96 8498.86 16214.1 4602.62 5523.45 6969.23 4112.67 5638.67 3958.79 2885.71 11611.5 3554.52 7255.32 3330.76 12999.6 1464.23
internal_count=8385 4400 3985 2991 2826 826 2165 2165 1574 1338 1940 749 994 1121 911 853 1681 476 522 661 390 575 403 297 1205 370 792 363 1254 145
is_linear=0
shrinkage=0.04


Tree=21
num_leaves=31
num_cat=0
split_feature=2 4 2 25 25 24 11 2 6 25 24 20 3 6 7 1 29 4 10 16 25 25 23 11 25 14 3 11 2 2
split_gain=176.366 31.4278 22.3034 19.0808 17.7338 8.22038 8.64262 9.69048 8.09128 7.30736 7.01981 6.82811 6.24257 5.73652 5.8644 5.56543 4.95578 5.47443 8.48283 5.26901 4.77771 4.71317 4.53741 4.3728 4.30028 4.19462 3.89347 3.8654 4.33532 4.57065
threshold=5.0513000000000003 0.35415000000000002 6.0513000000000003 0.21855000000000002 0.23605000000000001 0.23205000000000003 15.289900000000001 7.307900000000001 0.18335000000000004 0.17175000000000004 0.27815000000000006 2.2111000000000005 6.2240000000000011 0.38750000000000007 0.21110000000000004 4.3541500000000015 0.091250000000000012 1.0000000180025095e-35 6.5894500000000003 3.7889000000000004 0.27595000000000008 0.28115000000000007 5.5000000000000009 17.245700000000003 0.20495000000000002 24.193750000000005 3.9487000000000005 14.953450000000002 3.2566000000000002 3.9750000000000005
decision_type=2 2 2 2 2 2 2 2 2 2 2 2 2 2 2 2 2 2 2 2 2 2 2 2 2 2 2 2 2 2
left_child=1 4 9 11 16 6 -4 -8 10 -2 -6 15 21 -7 -15 -3 17 19 -19 -1 23 22 -11 26 -20 -25 -5 -18 -29 -30
right_child=2 3 5 20 8 13 7 -9 -10 12 -12 -13 -14 14 -16 -17 27 18 24 -21 -22 -23 -24 25 -26 -27 -28 28 29 -31
leaf_value=-0.0078987830929508687 -0.0035030893689552002 -0.0031459225315537422 -0.0010510956057031241 -0.0010064863817829269 -0.0022631766358315185 0.001602998352742429 0.00214008353961786 0.0057981131644240392 0.0019258886254243806 -0.00027774895372366387 0.00071724316838966148 -0.0028840221222802432 0.0040459893020973296 0.007554217354432468 0.0041232108291063569 0.00049995307941738524 -0.0033350232672874885 0.0015978272640092398 -0.005133340324205881 -0.00378125159091445 0.0029444158910792509 0.0044657256863081668 0.0013074684493360675 -0.0030572153813575656 -0.0031461480164362886 0.00080401391857712237 0.00081204311865593027 0.0020251634133063639 -0.0048264643274680925 -0.00012461793383087704
leaf_weight=1023.0154190063477 520.77211570739746 949.90338325500488 1056.7544937133789 2396.9972877502441 6920.3619422912598 1172.0636768341064 6389.8937873840332 1415.348443031311 1101.4580144882202 3588.3390493392944 1547.0838689804077 5623.2879981994629 1239.6797122955322 945.37713527679443 5081.1654529571533 2272.7088308334351 3138.8418855667114 480.86691284179688 2769.8439235687256 967.5316915512085 1032.9786767959595 649.42704200744629 14824.135352134705 1223.3582715988159 4696.940806388855 712.23189067840576 8796.9042196273804 529.95682144165039 603.84594631195068 731.55431175231934
leaf_count=112 52 101 101 243 716 107 591 126 109 349 158 588 118 85 451 232 340 52 304 105 100 60 1425 121 499 70 871 57 65 77
internal_value=-3.60675e-05 -0.00164696 0.00203939 -0.000585211 -0.0026436 0.00315938 0.00234377 0.00280341 -0.00129911 0.00117552 -0.00171863 -0.00204273 0.00129553 0.00416346 0.00466143 -0.000574712 -0.00350459 -0.00402151 -0.00355168 -0.0058974 0.000325156 0.00111666 0.000998531 0.000119083 -0.00388331 -0.00163641 0.000422634 -0.00247801 -0.00103592 -0.00225072
internal_weight=84402.6 47519.7 36883 23008.4 24511.3 16060.6 8862 7805.24 9568.9 20822.4 8467.45 8845.9 20301.6 7198.61 6026.54 3222.61 14942.4 9938.2 7947.65 1990.55 14162.5 19061.9 18412.5 13129.5 7466.78 1935.59 11193.9 5004.2 1865.36 1335.4
internal_count=8385 4920 3465 2326 2594 1461 818 717 983 2004 874 921 1952 643 536 333 1611 1072 855 217 1405 1834 1774 1305 803 191 1114 539 199 142
is_linear=0
shrinkage=0.04


Tree=22
num_leaves=31
num_cat=0
split_feature=2 4 2 25 25 25 6 0 25 24 11 2 3 6 29 4 10 12 24 25 15 29 23 11 25 14 29 7 11 3
split_gain=169.369 30.3415 21.2876 18.3732 17.1655 7.9291 7.78157 7.64331 7.0275 6.76597 6.25865 7.9413 5.95781 5.6922 4.80929 5.33138 8.19733 5.12634 4.59836 4.57403 4.48873 4.37816 4.33774 4.20563 4.18232 4.04553 3.8509 3.8274 3.76573 3.73949
threshold=5.0513000000000003 0.35415000000000002 6.0513000000000003 0.21855000000000002 0.23605000000000001 0.23325000000000004 0.18335000000000004 5.1000000000000005 0.17175000000000004 0.27815000000000006 15.255450000000002 7.4059000000000017 6.2240000000000011 0.38750000000000007 0.091250000000000012 1.0000000180025095e-35 6.5894500000000003 16.900000000000002 0.23995000000000002 0.27595000000000008 3.4500000000000006 0.074950000000000003 5.5000000000000009 17.245700000000003 0.20495000000000002 24.193750000000005 0.080950000000000008 0.18335000000000004 15.574150000000001 3.9487000000000005
decision_type=2 2 2 2 2 2 2 2 2 2 2 2 2 2 2 2 2 2 2 2 2 2 2 2 2 2 2 2 2 2
left_child=1 4 8 7 14 10 9 -3 -2 -6 -4 -12 18 -7 15 17 -17 -1 20 23 -10 -15 -22 29 -18 -25 -23 -9 -16 -5
right_child=2 3 5 19 6 13 -8 27 12 -11 11 -13 -14 21 28 16 24 -19 -20 -21 22 26 -24 25 -26 -27 -28 -29 -30 -31
leaf_value=-0.007954138234088191 -0.0034456771639135393 -0.0026908373906481061 -0.00061557937640336713 -0.00098749757761401038 -0.0022232990873153557 0.0016875214858379369 0.0018839652282585777 -0.0015585880917043725 0.0035422806784373142 0.00070248713568085567 0.0021675474804780529 0.0056696361764269057 0.0039494475304407955 0.0062331599378169658 -0.0030886591568313766 0.0015635632622118742 -0.0050575314570876226 -0.003877329218758194 0.0019178363609651126 0.0028773589269400065 -0.0012280157782537902 0.0012964826927298659 0.0007924889316446161 -0.0030057566005025995 -0.0030934701983899296 0.00078740374885342274 0.0045052319513262766 0.0017588584394496798 -0.00058861716496603621 0.00079526056770180776
leaf_weight=940.44357395172119 518.95099830627441 6596.56467628479 1032.8435478210449 2394.5859594345093 6904.7176580429077 1265.8384323120117 1103.5813446044922 1171.2759437561035 789.55150699615479 1548.1939067840576 6957.4817628860474 1217.2459688186646 1244.7056064605713 1877.641242980957 3686.4924259185791 481.6358757019043 2755.6618041992188 1038.4032249450684 6905.0219841003418 1036.0246810913086 2079.9128265380859 746.69558048248291 9308.7200155258179 1219.6239252090454 4682.1867427825928 712.80476379394531 3013.7089109420776 1060.0181837081909 1305.3316497802734 8804.0506067276001
leaf_count=104 52 695 99 243 716 115 109 120 77 158 642 108 118 165 400 52 304 113 651 100 204 66 902 121 499 70 266 106 139 871
internal_value=-3.54302e-05 -0.00161698 0.00199473 -0.000573958 -0.00259806 0.00308672 -0.001275 -0.00200631 0.00115078 -0.00168743 0.00231833 0.00268902 0.00126812 0.0041115 -0.0034472 -0.0039577 -0.00349366 -0.00581483 0.00109323 0.000318573 0.000625685 0.00465572 0.000423483 0.000116688 -0.00382114 -0.00160659 0.00386808 1.74272e-05 -0.00243491 0.000414056
internal_weight=84399.9 47441.6 36958.3 22994.9 24446.6 16111.5 9556.49 8827.86 20846.9 8452.91 9207.57 8174.73 20327.9 6903.88 14890.2 9898.33 7919.48 1978.85 19083.2 14167.1 12178.2 5638.05 11388.6 13131.1 7437.85 1932.43 3760.4 2231.29 4991.82 11198.6
internal_count=8385 4920 3465 2326 2594 1461 983 921 2004 874 849 750 1952 612 1611 1072 855 217 1834 1405 1183 497 1106 1305 803 191 332 226 539 1114
is_linear=0
shrinkage=0.04


Tree=23
num_leaves=31
num_cat=0
split_feature=2 4 2 24 24 23 16 24 11 2 0 0 6 7 11 24 29 0 19 28 24 1 11 13 26 8 0 6 19 17
split_gain=162.651 29.29 20.321 15.6187 11.1633 8.52452 7.89805 7.55056 7.97996 8.85701 6.66865 6.17494 5.22759 5.53508 5.08041 5.04632 4.71992 4.66789 4.22639 6.15113 5.33369 5.21175 4.2157 3.96886 3.96239 3.95732 4.33931 3.89621 3.80056 5.17002
threshold=5.0513000000000003 0.35415000000000002 6.0513000000000003 0.23315000000000002 0.24655000000000002 22.500000000000004 5.7889000000000008 0.23205000000000003 15.289900000000001 7.307900000000001 1.9000000000000001 5.5500000000000007 0.38750000000000007 0.21110000000000004 16.911050000000003 0.23995000000000002 0.091250000000000012 5.9000000000000012 2.1000000000000005 15.535700000000002 0.18865000000000001 4.316650000000001 14.953450000000002 21.050000000000004 2.8819500000000002 19.100000000000005 5.7750000000000012 0.13395000000000004 1.9000000000000001 1.9000000000000001
decision_type=2 2 2 2 2 2 2 2 2 2 2 2 2 2 2 2 2 2 2 2 2 2 2 2 2 2 2 2 2 2
left_child=1 3 15 14 6 10 11 8 -4 -10 -5 18 -9 -14 16 17 -1 -2 19 -3 21 -20 -18 -13 -6 26 -15 -17 -12 -30
right_child=2 4 7 5 24 -7 -8 12 9 -11 28 23 13 25 -16 27 22 -19 20 -21 -22 -23 -24 -25 -26 -27 -28 -29 29 -31
leaf_value=-0.0042461125595090249 0.000131402571461237 -0.00094430093535345552 -0.0010297763781383065 -0.0046604212602094196 -0.0025713420312335699 0.0023689737092952466 -0.0030298430012603967 0.0015324608824731931 0.0020402483239453308 0.0055204615549225948 7.2081671681096207e-06 0.00376170199842035 0.007239470608052103 0.0012016835440192709 -0.0011541176586479975 -0.00069471017128066518 -0.0034943844645230972 0.0016897784259683596 -0.0074173410346995627 0.0026010473303559861 -0.0011552129243184537 -0.0022205174458138979 -0.00086006638554843729 8.4743143798648158e-05 0.0011018041945531373 0.0010164972594997354 0.0048428842096863928 0.0022962750318674262 -0.0029337889833693327 -0.00057280375037373091
leaf_weight=8206.2842626571655 8880.302339553833 3467.3933267593384 1055.5582695007324 1097.1525392532349 508.90378856658936 888.79349994659424 2870.4548416137695 1175.9277153015137 6419.0183897018433 1430.8296852111816 2383.4182958602905 678.93851757049561 956.35583591461182 605.74137592315674 1417.4772834777832 780.43886280059814 2929.9235420227051 4704.6398820877075 459.58278751373291 1011.3753271102905 5390.1499967575073 940.88868522644043 1454.4807186126709 1523.9504384994507 6130.1537485122681 653.25953578948975 3864.6019077301025 6505.5070095062256 3326.7131481170654 2679.0238647460938
leaf_count=894 867 355 101 117 50 91 296 107 591 126 245 67 85 54 151 74 319 452 50 104 552 99 155 151 602 58 339 611 345 277
internal_value=-3.48015e-05 -0.00158749 0.00195113 -0.00255318 -0.000562915 -0.00137685 -0.00112481 0.00301595 0.00223552 0.0026746 -0.0017278 -0.000718916 0.00397379 0.00444596 -0.00342443 0.00112659 -0.00368002 0.000671088 -0.00109753 -0.000143706 -0.00172663 -0.00392592 -0.00262048 0.001218 0.000820246 0.00392454 0.00434949 0.00197589 -0.00134427 -0.00188061
internal_weight=84397.2 47365.1 37032.2 24383.3 22981.8 10375.1 16342.7 16161.3 8905.41 7849.85 9486.31 13472.3 7255.89 6079.96 14008.2 20870.9 12590.7 13584.9 11269.4 4478.77 6790.62 1400.47 4384.4 2202.89 6639.06 5123.6 4470.34 7285.95 8389.16 6005.74
internal_count=8385 4920 3465 2594 2326 1075 1674 1461 818 717 984 1378 643 536 1519 2004 1368 1319 1160 459 701 149 474 218 652 451 393 685 867 622
is_linear=0
shrinkage=0.04


Tree=24
num_leaves=31
num_cat=0
split_feature=2 25 4 2 1 24 25 23 25 6 23 2 25 3 25 4 29 0 24 25 25 8 21 21 29 28 27 11 11 0
split_gain=156.202 28.4298 20.4231 19.4006 12.2734 8.41155 7.32021 6.99787 6.72205 6.58701 6.30744 6.07249 6.05484 5.6426 5.40496 4.80393 5.73336 4.76701 4.72624 4.39134 4.31486 4.31332 4.39534 4.26405 4.11138 4.30372 4.04592 7.19142 4.03638 3.91401
threshold=5.0513000000000003 0.21855000000000002 0.35415000000000002 6.0513000000000003 4.267850000000001 0.22935000000000003 0.22175000000000003 20.500000000000004 0.17175000000000004 0.38750000000000007 2.5000000000000004 7.307900000000001 0.20535000000000003 6.2240000000000011 0.26965000000000006 0.29285000000000005 0.083400000000000016 5.5500000000000007 0.19345000000000004 0.28115000000000007 0.27595000000000008 19.266650000000002 2.8481000000000005 2.1132500000000003 0.085350000000000023 12.450000000000001 4.9487000000000014 14.836650000000001 17.245700000000003 2.9000000000000004
decision_type=2 2 2 2 2 2 2 2 2 2 2 2 2 2 2 2 2 2 2 2 2 2 2 2 2 2 2 2 2 2
left_child=1 4 5 8 12 -3 10 14 -2 -8 -5 -12 24 19 15 -7 -17 -6 -19 23 28 22 -11 -10 -1 -26 -14 -28 -4 -9
right_child=3 2 20 6 17 7 9 29 13 21 11 -13 26 -15 -16 16 -18 18 -20 -21 -22 -23 -24 -25 25 -27 27 -29 -30 -31
leaf_value=-0.0051860412133873978 -0.0033991672348942432 -0.0034698504636997236 0.0004093258440867722 -0.0015982270626611914 -0.0019223416565617821 -0.0027318218781070889 0.0014115526875774565 -0.0012399443595853508 0.00010728473450928762 0.0047870854517918114 0.0018204489347341027 0.0052102116572379014 -0.0032695542446666854 0.0038193079502908097 0.00047991201474141044 -0.0025489586992161308 0.0014650924289883369 0.0038096059458212843 -0.0011915906506626025 0.0042661475618954491 0.0027951314001416643 0.0011096951299417197 0.0012193037050649994 0.0013802802300544505 7.9915078241920833e-05 -0.0038825507504590051 -0.0029429198498679855 0.0025609638234777416 -0.001571820291247921 0.0031791146921604403
leaf_weight=3796.3202018737793 517.48501873016357 3699.0131406784058 11201.249682426453 713.92651462554932 5647.3776264190674 5419.2283744812012 1677.0885515213013 528.36561393737793 6491.5110721588135 6338.2087717056274 5198.3362150192261 1009.826114654541 3208.4160413742065 1251.5454273223877 1586.761323928833 1138.9328575134277 1138.3826694488525 501.83715343475342 760.50427150726318 654.79852199554443 1039.7843942642212 667.52149963378906 605.2351188659668 11979.08514213562 521.47768115997314 2758.2993516921997 978.6949291229248 620.75306224822998 1928.7550392150879 815.88274192810059
leaf_count=423 52 394 1114 68 590 568 152 55 626 553 485 89 346 118 163 117 116 50 76 60 100 60 54 1148 57 305 106 66 191 83
internal_value=-3.41823e-05 -0.0015585 -0.000762022 0.00190857 -0.00276618 -0.00182699 0.002947 -0.00125518 0.00110295 0.00368081 0.00196237 0.00237183 -0.00354562 0.00121728 -0.00164576 -0.002084 -0.000542418 -0.00142561 0.000796609 0.00104701 0.000314729 0.00418084 0.00447609 0.000932885 -0.00428986 -0.00325253 -0.00245027 -0.000806837 0.000118302 0.00144217
internal_weight=84394.6 47290 28496.4 37104.6 18793.7 14326.6 16210.1 10627.6 20894.4 9288.05 6922.09 6208.16 11884 20376.9 9283.31 7696.54 2277.32 6909.72 1262.34 19125.4 14169.8 7610.97 6943.44 18470.6 7076.1 3279.78 4807.86 1599.45 13130 1344.25
internal_count=8385 4920 2901 3465 2019 1496 1461 1102 2004 819 642 574 1303 1952 964 801 233 716 126 1834 1405 667 607 1774 785 362 518 172 1305 138
is_linear=0
shrinkage=0.04


Tree=25
num_leaves=31
num_cat=0
split_feature=2 2 25 2 12 0 24 14 23 25 6 11 24 20 1 2 15 21 2 17 10 0 3 28 17 2 17 22 3 16
split_gain=152.505 28.0265 25.1801 15.6435 12.5724 12.0877 11.1923 9.49035 8.1259 7.43819 7.43031 6.37718 6.0861 6.02926 8.28744 5.34106 5.22852 4.9249 4.84893 4.69497 5.55285 6.1606 5.27034 4.55793 4.49945 7.44044 4.33843 4.24451 4.04149 4.4903
threshold=4.8062500000000012 5.8787000000000011 0.21675000000000003 4.0741500000000004 18.900000000000002 5.5500000000000007 0.24075000000000002 22.658350000000002 4.5000000000000009 0.25625000000000003 0.61250000000000016 16.929800000000004 0.23285000000000003 0.52780000000000016 1.7639000000000002 5.1937500000000005 3.5500000000000003 2.1633500000000008 3.6754500000000005 2.1000000000000005 10.025000000000002 3.3666500000000004 3.5477500000000002 11.15 1.9000000000000001 6.3798000000000004 2.4500000000000006 7.5000000000000009 6.1017000000000001 4.5857000000000001
decision_type=2 2 2 2 2 2 2 2 2 2 2 2 2 2 2 2 2 2 2 2 2 2 2 2 2 2 2 2 2 2
left_child=2 6 5 13 -3 11 8 26 15 -9 12 18 -6 -4 -15 -2 -10 -12 23 20 21 -16 -21 -1 -14 -26 27 -5 29 -18
right_child=1 4 3 7 10 -7 -8 9 16 -11 17 -13 24 14 19 -17 28 -19 -20 22 -22 -23 -24 -25 25 -27 -28 -29 -30 -31
leaf_value=-0.00070646911313847281 -0.0038311015585193882 -0.0030855986489559894 0.0012954875246841762 0.0013837928428461364 0.0019382370720750603 0.001975997288708147 0.0019218611094996374 -0.0022035809800279864 0.0041722117683537932 0.0016106757177126354 0.0060192919130483066 -0.0010958116586752432 0.0027128424940704864 -0.0055060057212259119 -0.0021675517178131607 -0.00023360331315847537 -0.0014306849561576912 0.0029079091686803719 -0.0027671799498240487 -0.0019934572258892562 -0.0025454531837235043 0.0021926009526866954 0.0011905571520019764 -0.0046434640116198266 0.0026057336825779454 0.0069646654787849406 0.004286970048393725 -0.0025208659558113057 0.003535651349220105 0.00056233661198645693
leaf_weight=509.47585582733154 1244.9858636856079 569.8001127243042 988.70925617218018 4205.7296533584595 9507.5376205444336 736.28365135192871 8220.2319822311401 2933.2103748321533 595.78232765197754 1134.3904438018799 1874.6109352111816 1864.9160776138306 4220.3634576797485 969.53443717956543 1179.9369716644287 1406.02490234375 2263.3655595779419 1438.6516990661621 5896.0359621047974 1631.7892284393311 8536.8027782440186 924.9178409576416 1696.5921955108643 6149.8238277435303 1215.8895683288574 1292.6755533218384 728.76693725585938 498.19673919677734 598.31454277038574 9004.32106590271
leaf_count=56 126 54 102 417 881 74 775 297 58 111 164 199 376 105 125 138 222 126 636 171 894 94 175 683 110 114 72 50 57 881
internal_value=3.05241e-05 0.00167732 -0.00173263 -0.000963416 0.00277131 -0.00302315 0.000734002 0.000321226 8.7895e-05 -0.00113984 0.00294202 -0.0032784 0.00258975 -0.00172963 -0.00192983 -0.00192309 0.000515693 0.0046683 -0.0036026 -0.00168164 -0.00209174 -0.000251608 -0.000370454 -0.00434226 0.00351029 0.00485191 0.00141517 0.000970247 0.000332102 0.000161994
internal_weight=84037.7 43452.6 40585.1 25428.6 20119.5 15156.5 23333 9500.29 15112.8 4067.6 19549.7 14420.3 16236.5 15928.3 14939.6 2651.01 12461.8 3313.26 12555.3 13970 10641.7 2104.85 3328.38 6659.3 6728.93 2508.57 5432.69 4703.93 11866 11267.7
internal_count=8343 4082 4261 2613 1825 1648 2257 947 1482 408 1771 1574 1481 1666 1564 264 1218 290 1375 1459 1113 219 346 739 600 224 539 467 1160 1103
is_linear=0
shrinkage=0.04


Tree=26
num_leaves=31
num_cat=0
split_feature=2 2 25 2 12 0 25 14 1 25 25 11 29 20 1 22 23 8 17 10 0 3 2 17 22 5 14 3 5 25
split_gain=146.511 26.7827 24.3299 15.0642 12.0462 11.6631 10.3113 9.11161 7.20761 7.15812 6.39785 6.17603 6.15324 5.80602 8.03539 5.60776 5.52246 4.71657 4.52922 5.36068 5.91965 5.06908 4.50935 4.13965 4.07835 4.06022 3.99274 6.07765 5.38279 3.81922
threshold=4.8062500000000012 5.8787000000000011 0.21675000000000003 4.0741500000000004 18.900000000000002 5.5500000000000007 0.21675000000000003 22.658350000000002 8.1214500000000012 0.25625000000000003 0.18515000000000001 16.929800000000004 0.085350000000000023 0.52780000000000016 1.7639000000000002 8.5000000000000018 2.5000000000000004 12.100000000000001 2.1000000000000005 10.025000000000002 3.3666500000000004 3.5477500000000002 3.6754500000000005 2.4500000000000006 7.5000000000000009 0.29285000000000005 23.303850000000004 5.0161500000000006 0.47220000000000006 0.24675000000000002
decision_type=2 2 2 2 2 2 2 2 2 2 2 2 2 2 2 2 2 2 2 2 2 2 2 2 2 2 2 2 2 2
left_child=2 6 5 13 -3 11 26 23 10 -9 -6 12 22 -4 -15 25 -12 -14 19 20 -16 -20 -1 24 -5 -8 -2 -28 -29 -27
right_child=1 4 3 7 8 -7 15 9 -10 -11 16 -13 17 14 18 -17 -18 -19 21 -21 -22 -23 -24 -25 -26 29 27 28 -30 -31
leaf_value=-0.0054003843251935277 0.00028085500146522068 -0.0030337490918642272 0.001268094238123901 0.00135441143278504 -0.00010502391464901732 0.0019328852931443296 -0.00028323635896303288 -0.002164623208651266 0.0059881969636456072 0.0015761157260573175 0.00083693227875143055 -0.0010752346137710741 -0.0043748392767021718 -0.005426735683696878 -0.0021291534248392432 -0.0013133085286335386 0.0031345155832475215 -0.0019074580946884766 -0.0019577987463053207 -0.0025013149828754487 0.0021442939047569727 0.0011655060821456887 -0.0032888089239162675 0.004183659729432884 -0.0024770925615500258 0.0012511759994812597 -0.0043717787545371842 0.0015554056981341639 -0.0022977694575398991 0.0027001899620651727
leaf_weight=3410.0743589401245 5134.9597043991089 568.04464244842529 989.99094581604004 4211.5535411834717 1226.8207178115845 737.73997592926025 1664.9493064880371 2926.7539262771606 1121.787036895752 1136.2190465927124 1878.2296142578125 1862.8736085891724 1745.8032112121582 964.21085071563721 1177.3821744918823 1170.8829507827759 15380.516201972961 4274.9051151275635 1628.5395736694336 8515.100380897522 926.94804096221924 1698.6132860183716 3079.4100685119629 731.89783763885498 496.94243335723877 7378.7847099304199 870.14711475372314 1113.0399503707886 1211.4558172225952 4805.9702281951904
leaf_count=382 509 54 102 417 115 74 161 297 96 111 174 199 194 105 125 115 1386 464 171 894 94 175 335 72 50 707 90 109 118 448
internal_value=2.98426e-05 0.00164118 -0.00170123 -0.000945245 0.00270863 -0.00297219 0.000718862 0.0003147 0.002875 -0.00111852 0.00268607 -0.00322396 -0.00354392 -0.00169827 -0.00189522 0.00134481 0.00288447 -0.00262292 -0.00165107 -0.00205455 -0.000246719 -0.000363256 -0.00439839 0.00138505 0.000950028 0.00156954 -0.000409903 -0.0015202 -0.000452751 0.0018227
internal_weight=84040.5 43525.6 40515 25404.2 20175.4 15110.8 23350.2 9503.37 19607.4 4062.97 18485.6 14373.1 12510.2 15900.8 14910.8 15020.6 17258.7 6020.71 13946.6 10619.4 2104.33 3327.15 6489.48 5440.39 4708.5 13849.7 8329.6 3194.64 2324.5 12184.8
internal_count=8343 4082 4261 2613 1825 1648 2257 947 1771 408 1675 1574 1375 1666 1564 1431 1560 658 1459 1113 219 346 717 539 467 1316 826 317 227 1155
is_linear=0
shrinkage=0.04


Tree=27
num_leaves=31
num_cat=0
split_feature=2 2 25 2 12 0 25 14 1 25 18 9 25 16 3 21 22 17 13 23 23 25 9 25 17 5 13 1 0 18
split_gain=140.754 25.5974 23.5061 14.5057 11.543 11.2526 9.88938 8.74812 7.01848 6.88842 6.04374 6.01381 6.81069 5.6805 8.13692 6.31123 5.37852 4.65472 4.46672 4.11434 4.0007 4.18764 4.00847 3.98687 3.95059 3.88827 3.86174 4.01837 4.09206 4.72424
threshold=4.8062500000000012 5.8787000000000011 0.21675000000000003 4.0741500000000004 18.900000000000002 5.5500000000000007 0.21675000000000003 22.658350000000002 7.1833500000000008 0.25625000000000003 2.6833500000000003 14.354150000000002 0.17175000000000004 1.1500000000000001 2.2709500000000005 1.4317000000000004 8.5000000000000018 2.1000000000000005 12.535700000000002 3.5000000000000004 2.5000000000000004 0.22945000000000002 18.292850000000005 0.18515000000000001 2.4500000000000006 0.29285000000000005 21.950000000000003 4.1055500000000009 5.1000000000000005 1.7071500000000002
decision_type=2 2 2 2 2 2 2 2 2 2 2 2 2 2 2 2 2 2 2 2 2 2 2 2 2 2 2 2 2 2
left_child=2 6 5 13 -3 11 -2 24 10 -9 20 -1 -13 -4 19 -16 25 18 -17 -15 -6 22 23 -22 26 -8 27 -5 29 -29
right_child=1 4 3 7 8 -7 16 9 -10 -11 -12 12 -14 14 15 17 -18 -19 -20 -21 21 -23 -24 -25 -26 -27 -28 28 -30 -31
leaf_value=-0.0040705964699371587 -0.00040195615965383494 -0.0029826146125669318 0.0025534396956917284 0.0028468570129433759 0.00010699185313390023 0.0018907962489553712 -0.00027768975319282025 -0.002126270508835802 0.0041501739578612643 0.0015423512144424392 0.0053853331491347228 -0.0066502405661589981 -0.0020951941355788388 -0.0019448167839059166 0.00087706963504879498 0.0015416732625897528 -0.0012889305009439287 -0.00030441902789140246 -0.0024420727313638649 -0.0050788695087294446 -0.0019212870682768189 0.0032010986625207148 0.0035091943029082018 0.00159155057030998 0.0040832651254389977 0.0017832063338262118 0.0025282481325503239 -6.1198621423143038e-05 0.0024866393010493353 -0.004239662928847727
leaf_weight=6491.5593404769897 8326.2012996673584 566.32394790649414 494.27101039886475 672.82337665557861 1360.0125408172607 739.16732120513916 1664.4777927398682 2920.4254598617554 4742.3154382705688 1138.0112743377686 1001.2378702163696 566.10177993774414 7269.1588897705078 1149.643684387207 1722.2357873916626 478.39098739624023 1169.3462247848511 2746.5626573562622 7675.6440420150757 1607.0838756561279 579.64148330688477 5631.1621370315552 1571.0699653625488 4778.3816423416138 734.96626567840576 12206.987446784973 1598.8095331192017 1256.4252004623413 524.38358020782471 660.53287696838379
leaf_count=724 826 54 51 67 127 74 161 297 413 111 91 63 787 124 177 50 115 285 805 174 55 497 145 443 72 1155 158 125 51 66
internal_value=2.91779e-05 0.00160588 -0.00167035 -0.000927398 0.00264755 -0.00292194 0.000704044 0.000308309 0.0028097 -0.00109757 0.00238367 -0.00317025 -0.0024243 -0.00166743 -0.00180308 -0.00137311 0.0013163 -0.00172863 -0.00220835 -0.00377187 0.00216777 0.00239091 0.00173249 0.00121152 0.00135561 0.00153591 0.00093025 0.000109839 -0.000644472 -0.00150099
internal_weight=84043.4 43597.2 40446.2 25380.2 20230.1 15066 23367 9506.38 19663.8 4058.44 14921.5 14326.8 7835.26 15873.8 15379.6 12622.8 15040.8 10900.6 8154.04 2756.73 13920.3 12560.3 6929.09 5358.02 5447.94 13871.5 4712.97 3114.17 2441.34 1916.96
internal_count=8343 4082 4261 2613 1825 1648 2257 947 1771 408 1358 1574 850 1666 1615 1317 1431 1140 855 298 1267 1140 643 498 539 1316 467 309 242 191
is_linear=0
shrinkage=0.04


Tree=28
num_leaves=31
num_cat=0
split_feature=2 2 25 2 12 24 29 23 16 1 16 6 9 24 18 25 29 0 23 20 25 0 21 2 24 24 1 1 15 27
split_gain=135.225 24.4667 22.7352 17.1224 11.0616 10.1761 8.36905 7.7626 7.53956 9.83395 7.5348 6.68012 6.42433 5.6002 5.45674 5.23519 5.82295 5.07252 4.8945 4.73498 6.10932 5.41762 4.6226 4.56042 5.93657 4.62457 4.28124 4.90407 4.26077 4.03657
threshold=4.8062500000000012 5.8787000000000011 0.21175000000000002 4.0741500000000004 18.900000000000002 0.24075000000000002 0.085150000000000017 5.5000000000000009 1.1500000000000001 1.7639000000000002 4.6125000000000007 0.61250000000000016 15.763900000000001 0.23285000000000003 1.0500000000000003 0.24395000000000003 0.074450000000000002 4.2916500000000015 15.500000000000002 1.8944500000000002 0.25415000000000004 2.7750000000000004 2.1633500000000008 6.3798000000000004 0.27475000000000005 0.25905000000000006 4.1055500000000009 4.7071500000000013 3.5500000000000003 5.6750000000000016
decision_type=2 2 2 2 2 2 2 2 2 2 2 2 2 2 2 2 2 2 2 2 2 2 2 2 2 2 2 2 2 2
left_child=2 5 6 8 -3 7 17 -2 -4 -10 26 13 -8 -6 -15 -12 -17 -1 -18 20 21 -11 -13 -16 25 -25 -5 -28 -9 -30
right_child=1 4 3 10 11 -7 12 28 9 19 15 22 -14 14 23 16 18 -19 -20 -21 -22 -23 -24 24 -26 -27 27 -29 29 -31
