tree
version=v4
num_class=1
num_tree_per_iteration=1
label_index=0
max_feature_idx=21
objective=poisson
feature_names=last_5_avg_assists last_10_avg_assists last_20_avg_assists season_avg_assists last_10_rate_over_2.5_assists last_10_rate_over_4.5_assists last_10_rate_over_6.5_assists last_5_avg_minutes last_10_avg_minutes last_20_avg_minutes season_avg_minutes last_10_avg_turnovers last_10_avg_fg_attempted last_10_avg_points last_10_avg_rebounds days_rest games_played_season opp_last10_allowed_assists_to_pos last_10_avg_usage_rate last_10_avg_ast_to_pts_ratio team_close_game_rate career_avg_assists_vs_opp
feature_infos=[0:4] [0:4] [0:4] [0:4] [0:0.66669999999999996] none none [0.5:37] [0.5:37] [0.5:37] [0.5:37] [0:13] [0:23] [0:31] [0:16] [1:8] [1:5] [0.39340000000000003:0.7329] [0:0.31080000000000002] [0:0.66669999999999996] [0:1] none
tree_sizes=1683 1711 1718 1715 1717 1721

Tree=0
num_leaves=15
num_cat=0
split_feature=8 17 17 14 13 18 17 13 13 19 19 17 11 14
split_gain=17.8337 11.877 2.75309 5.79594 2.73511 4.32959 1.72017 3.43798 2.48603 2.23725 1.96109 2.45908 1.43526 1.9872
threshold=29.833350000000003 0.68840000000000012 0.57990000000000008 4.4166500000000015 10.166650000000002 0.12290000000000002 0.71060000000000012 6.4166500000000015 7.5833500000000003 0.19790000000000005 0.077800000000000022 0.63710000000000011 1.2916500000000002 3.2916500000000002
decision_type=2 2 2 2 2 2 2 2 2 2 2 2 2 2
left_child=4 2 -2 -4 6 -6 8 -8 9 10 -1 -12 -7 -14
right_child=1 -3 3 -5 5 12 7 -9 -10 -11 11 -13 13 -15
leaf_value=-0.23444571843031242 -0.22928107558611921 -0.17090627289377386 -0.22679363898531274 -0.18668778550524717 -0.21068708330727967 -0.24243081723836063 -0.23549819080132503 -0.2103850694678088 -0.24507083522939521 -0.24479657688795242 -0.23415015282413493 -0.21379543053276165 -0.21383154947225816 -0.23340093850763907
leaf_weight=123.45926594734192 25.653873443603516 17.637037992477417 19.240405082702637 16.033670902252197 35.274075984954834 20.843772172927856 35.274075984954834 20.843772172927856 54.514481067657471 33.670708894729614 27.257240533828735 30.463974714279175 17.637037992477417 41.687544345855713
leaf_count=77 16 11 12 10 22 13 22 13 34 21 17 19 11 26
internal_value=-0.227699 -0.205908 -0.216797 -0.20793 -0.231623 -0.225029 -0.233963 -0.226027 -0.235618 -0.233151 -0.230905 -0.22335 -0.231473 -0.227446
internal_weight=519.491 78.565 60.9279 35.2741 440.926 115.442 325.484 56.1178 269.366 214.851 181.18 57.7212 80.1684 59.3246
internal_count=324 49 38 22 275 72 203 35 168 134 113 36 50 37
is_linear=0
shrinkage=1


Tree=1
num_leaves=15
num_cat=0
split_feature=7 17 13 19 0 12 17 14 17 13 12 19 19 17
split_gain=16.6886 10.3704 2.621 3.26814 2.86282 2.97914 2.5503 5.20638 1.68365 1.6463 1.49301 1.28878 2.37829 2.20509
threshold=29.833350000000003 0.68840000000000012 10.166650000000002 0.048700000000000007 1.3666500000000001 8.5833500000000011 0.57990000000000008 4.4166500000000015 0.72315000000000007 7.5833500000000003 10.833350000000001 0.19790000000000005 0.077800000000000022 0.63710000000000011
decision_type=2 2 2 2 2 2 2 2 2 2 2 2 2 2
left_child=2 6 8 10 5 -5 -2 -8 9 11 -4 12 -1 -14
right_child=1 -3 3 4 -6 -7 7 -9 -10 -11 -12 -13 13 -15
leaf_value=-0.0069527768174725696 -0.0013556083228567037 0.052686060383160815 -0.01402978304290281 0.03051206510347625 -0.0032655502545866433 0.0039183514424281684 0.0010734029368744476 0.038691119678435679 0.0087189146509069788 -0.014074077996079218 0.0036672087113419054 -0.013108479706863938 -0.0061435899633983174 0.012331465160835256
leaf_weight=140.23742151260376 25.618318557739258 18.671326279640198 29.07822597026825 21.132269620895386 25.657246470451355 20.734993577003479 19.261590957641602 16.7081618309021 17.624832987785339 61.744537472724915 19.171943545341492 39.511727452278137 27.087250828742981 37.342337489128113
leaf_count=88 16 11 18 13 16 13 12 10 11 39 12 25 17 23
internal_value=0.000190471 0.0210095 -0.00365201 0.00278656 0.00982737 0.01774 0.0107179 0.019121 -0.0059574 -0.00682858 -0.0070663 -0.00494651 -0.00331473 0.00458907
internal_weight=519.582 80.2594 439.323 115.775 67.5245 41.8673 61.5881 35.9698 323.548 305.923 48.2502 244.179 204.667 64.4296
internal_count=324 49 275 72 42 26 38 22 203 192 30 153 128 40
is_linear=0
shrinkage=0.05


Tree=2
num_leaves=15
num_cat=0
split_feature=8 17 13 18 14 17 17 13 13 19 19 17 17 12
split_gain=15.6285 9.10192 2.51182 3.91799 2.36838 4.71761 1.62662 3.26799 2.4057 2.15225 1.79567 2.18824 1.32098 1.29824
threshold=29.833350000000003 0.68840000000000012 10.166650000000002 0.12290000000000002 4.4166500000000015 0.57990000000000008 0.71060000000000012 6.4166500000000015 7.5833500000000003 0.19790000000000005 0.077800000000000022 0.63710000000000011 0.67220000000000002 11.166650000000002
decision_type=2 2 2 2 2 2 2 2 2 2 2 2 2 2
left_child=2 4 6 12 -2 -6 8 -8 9 10 -1 -12 -4 -5
right_child=1 -3 3 13 5 -7 7 -9 -10 -11 11 -13 -14 -15
leaf_value=-0.0063050854179385043 -0.0019087117761630704 0.048900163117894691 0.024539578403504819 0.00091272755138939769 0.0015551635924238353 0.036411636837054506 -0.0074711793038364756 0.016947475345747361 -0.016938266699790146 -0.01666809587759404 -0.006032563040426789 0.013114784001369006 0.0051852835396449387 -0.012570469292022324
leaf_weight=121.80323421955109 24.079204916954041 19.681419730186462 19.758623957633972 54.350387096405029 20.786685109138489 17.367287874221802 34.996437430381775 21.137420296669006 52.83720850944519 32.675233840942383 26.921348690986633 31.27987813949585 16.485828757286072 25.497647643089294
leaf_count=77 15 11 12 34 13 10 22 13 34 21 17 19 10 16
internal_value=0.000186836 0.0200944 -0.00357577 0.00271161 0.0103553 0.0179462 -0.00584642 0.00185945 -0.00747641 -0.00505748 -0.00286942 0.00430576 0.0161118 -0.00349505
internal_weight=519.658 81.9146 437.743 116.092 62.2332 38.154 321.651 56.1339 265.517 212.68 180.004 58.2012 36.2445 79.848
internal_count=324 49 275 72 38 23 203 35 168 134 113 36 22 50
is_linear=0
shrinkage=0.05


Tree=3
num_leaves=15
num_cat=0
split_feature=7 17 13 18 17 13 11 17 11 13 13 0 18 20
split_gain=14.6472 8.09706 2.40757 3.67953 1.59045 1.57547 1.38578 1.89643 2.2739 1.26467 1.23325 1.8152 2.04181 1.33429
threshold=29.833350000000003 0.64220000000000022 10.166650000000002 0.12290000000000002 0.72315000000000007 7.5833500000000003 1.2916500000000002 0.70600000000000007 2.7083500000000007 17.750000000000004 5.4166500000000015 0.41665000000000002 0.072550000000000017 0.41665000000000002
decision_type=2 2 2 2 2 2 2 2 2 2 2 2 2 2
left_child=2 9 4 -4 5 10 -5 8 -8 -2 13 -12 -13 -1
right_child=1 -3 3 6 -6 -7 7 -9 -10 -11 11 12 -14 -15
leaf_value=-0.012355672826764426 -0.002384937490233878 0.036833844099331013 0.015487707234857571 -0.014326151685995365 0.0084630164733807568 -0.013790321483511321 0.020431933716935316 -0.012783273445653609 -0.0030470872799743115 0.013659078435989581 -0.010756239272208531 -0.0046432439398185867 0.015663904559185645 -0.0033597615038245899
leaf_weight=69.134504914283752 24.611337304115295 35.891250729560852 36.821026086807251 20.405964016914368 17.767991662025452 60.13169002532959 16.119061708450317 17.664238810539246 25.389889121055603 23.028813719749451 22.081691741943359 22.522677063941956 25.543470501899719 102.62741816043854
leaf_count=44 15 20 22 13 11 39 10 11 16 14 14 14 16 65
internal_value=0.00018284 0.0192352 -0.00350121 0.00263943 -0.00573747 -0.006598 -0.00342386 0.00051141 0.00633662 0.00549197 -0.00476079 0.000819149 0.00624775 -0.00703119
internal_weight=519.741 83.5314 436.21 116.4 319.809 302.041 79.5792 59.1732 41.509 47.6402 241.91 70.1478 48.0661 171.762
internal_count=324 49 275 72 203 192 50 37 26 29 153 44 30 109
is_linear=0
shrinkage=0.05


Tree=4
num_leaves=15
num_cat=0
split_feature=7 17 13 18 11 17 17 13 13 11 14 17 12 11
split_gain=13.725 7.36857 2.30537 3.45409 2.23651 3.48374 1.53623 3.10928 2.32555 1.34313 1.82295 1.1908 0.864115 1.12313
threshold=29.833350000000003 0.68840000000000012 10.166650000000002 0.12290000000000002 3.4166500000000002 0.57990000000000008 0.71060000000000012 6.7083500000000003 7.5833500000000003 1.2916500000000002 3.2916500000000002 0.67220000000000002 5.9000000000000012 1.0000000180025095e-35
decision_type=2 2 2 2 2 2 2 2 2 2 2 2 2 2
left_child=2 4 6 11 -2 -6 8 -8 12 -5 -11 -4 13 -1
right_child=1 -3 3 9 5 -7 7 -9 -10 10 -12 -13 -14 -15
leaf_value=0.0044914758636571198 -0.0035502632084492541 0.043112344773503945 0.022692326214040315 -0.014181776720047038 0.001358473675782677 0.029781994904590534 -0.006271103572915296 0.018350118980659493 -0.01669673848524067 0.013361579628180237 -0.0052951977595642324 0.0046056054846820823 0.0043288585072088484 -0.0073623186886276754
leaf_weight=22.015422821044922 21.314451932907104 21.443231582641602 20.565550327301025 20.115709066390991 20.950320601463318 21.428144812583923 38.057168841362 18.102386236190796 51.238286733627319 17.97913646697998 41.225167512893677 16.830187797546387 22.143782258033752 166.44937062263489
leaf_count=14 13 11 12 13 13 12 24 11 34 11 26 10 14 106
internal_value=0.000177207 0.0184142 -0.00342841 0.00256579 0.00956135 0.0160857 -0.00562956 0.00184745 -0.00723412 -0.0033548 0.000498314 0.0148842 -0.00486396 -0.00596123
internal_weight=519.858 85.1361 434.722 116.716 63.6929 42.3785 318.006 56.1596 261.847 79.32 59.2043 37.3957 210.609 188.465
internal_count=324 49 275 72 38 25 203 35 168 50 37 22 134 120
is_linear=0
shrinkage=0.05


Tree=5
num_leaves=15
num_cat=0
split_feature=7 14 17 18 18 1 19 7 13 1 19 17 7 17
split_gain=10.2279 7.75807 4.24674 2.42203 2.63931 2.89022 4.31833 4.64968 2.29798 2.2944 2.02207 1.61666 1.54726 1.33786
threshold=28.583350000000003 4.4166500000000015 0.64220000000000022 0.031450000000000006 0.064600000000000005 1.3666500000000001 0.048700000000000007 22.125000000000004 10.750000000000002 0.77500000000000013 0.13790000000000002 0.64220000000000022 9.1250000000000018 0.67220000000000002
decision_type=2 2 2 2 2 2 2 2 2 2 2 2 2 2
left_child=3 9 -3 12 -5 6 11 10 -9 -2 -8 -6 13 -1
right_child=1 2 -4 4 5 -7 7 8 -10 -11 -12 -13 -14 -15
leaf_value=-0.0097207160713885486 -0.012996532082462584 0.012549861005721578 0.039432636996855508 -0.012368790419216085 -0.00090004947842929357 -0.013580685797615811 -0.007765746051971602 0.029906018451030331 0.0076313623280681673 0.0070721827029994536 0.011086709899587105 -0.013591366285849438 0.017809908008194399 0.0099294739747331703
leaf_weight=17.190314769744873 22.226186156272888 34.443023920059204 26.618685364723206 101.30984735488892 46.006524562835693 50.102389335632324 47.338755011558533 21.377325534820557 25.950473070144653 35.826831817626953 19.181250095367432 54.600186347961426 17.171770572662354 15.537690520286558
leaf_count=11 14 20 14 65 29 32 30 13 16 21 12 35 11 10
internal_value=-0.000430522 0.0124254 0.0247154 -0.00413463 -0.0055448 -0.00289487 -0.000346932 0.0062974 0.0181032 -0.000701298 -0.00224589 -0.00785372 0.00611054 -0.000373942
internal_weight=534.881 119.115 61.0617 415.767 365.867 264.557 214.455 113.848 47.3278 58.053 66.52 100.607 49.8998 32.728
internal_count=333 69 34 264 232 167 135 71 29 35 42 64 32 21
is_linear=0
shrinkage=0.05


end of trees

feature_importances:
opp_last10_allowed_assists_to_pos=23
last_10_avg_points=16
last_10_avg_ast_to_pts_ratio=9
last_10_avg_usage_rate=7
last_5_avg_minutes=6
last_10_avg_turnovers=6
last_10_avg_rebounds=6
last_10_avg_fg_attempted=4
last_5_avg_assists=2
last_10_avg_assists=2
last_10_avg_minutes=2
team_close_game_rate=1

parameters:
[boosting: gbdt]
[objective: poisson]
[metric: poisson,l1]
[tree_learner: serial]
[device_type: cpu]
[data_sample_strategy: bagging]
[data: ]
[valid: ]
[num_iterations: 500]
[learning_rate: 0.05]
[num_leaves: 15]
[num_threads: 0]
[seed: 42]
[deterministic: 0]
[force_col_wise: 0]
[force_row_wise: 0]
[histogram_pool_size: -1]
[max_depth: -1]
[min_data_in_leaf: 10]
[min_sum_hessian_in_leaf: 0.001]
[bagging_fraction: 0.8]
[pos_bagging_fraction: 1]
[neg_bagging_fraction: 1]
[bagging_freq: 5]
[bagging_seed: 400]
[bagging_by_query: 0]
[feature_fraction: 0.8]
[feature_fraction_bynode: 1]
[feature_fraction_seed: 30056]
[extra_trees: 0]
[extra_seed: 12879]
[early_stopping_round: 0]
[early_stopping_min_delta: 0]
[first_metric_only: 0]
[max_delta_step: 0]
[lambda_l1: 0]
[lambda_l2: 1]
[linear_lambda: 0]
[min_gain_to_split: 0]
[drop_rate: 0.1]
[max_drop: 50]
[skip_drop: 0.5]
[xgboost_dart_mode: 0]
[uniform_drop: 0]
[drop_seed: 17869]
[top_rate: 0.2]
[other_rate: 0.1]
[min_data_per_group: 100]
[max_cat_threshold: 32]
[cat_l2: 10]
[cat_smooth: 10]
[max_cat_to_onehot: 4]
[top_k: 20]
[monotone_constraints: ]
[monotone_constraints_method: basic]
[monotone_penalty: 0]
[feature_contri: ]
[forcedsplits_filename: ]
[refit_decay_rate: 0.9]
[cegb_tradeoff: 1]
[cegb_penalty_split: 0]
[cegb_penalty_feature_lazy: ]
[cegb_penalty_feature_coupled: ]
[path_smooth: 0]
[interaction_constraints: ]
[verbosity: -1]
[saved_feature_importance_type: 0]
[use_quantized_grad: 0]
[num_grad_quant_bins: 4]
[quant_train_renew_leaf: 0]
[stochastic_rounding: 1]
[linear_tree: 0]
[max_bin: 255]
[max_bin_by_feature: ]
[min_data_in_bin: 3]
[bin_construct_sample_cnt: 200000]
[data_random_seed: 175]
[is_enable_sparse: 1]
[enable_bundle: 1]
[use_missing: 1]
[zero_as_missing: 0]
[feature_pre_filter: 1]
[pre_partition: 0]
[two_round: 0]
[header: 0]
[label_column: ]
[weight_column: ]
[group_column: ]
[ignore_column: ]
[categorical_feature: ]
[forcedbins_filename: ]
[precise_float_parser: 0]
[parser_config_file: ]
[objective_seed: 16083]
[num_class: 1]
[is_unbalance: 0]
[scale_pos_weight: 1]
[sigmoid: 1]
[boost_from_average: 1]
[reg_sqrt: 0]
[alpha: 0.9]
[fair_c: 1]
[poisson_max_delta_step: 0.7]
[tweedie_variance_power: 1.5]
[lambdarank_truncation_level: 30]
[lambdarank_norm: 1]
[label_gain: ]
[lambdarank_position_bias_regularization: 0]
[eval_at: ]
[multi_error_top_k: 1]
[auc_mu_weights: ]
[num_machines: 1]
[local_listen_port: 12400]
[time_out: 120]
[machine_list_filename: ]
[machines: ]
[gpu_platform_id: -1]
[gpu_device_id: -1]
[gpu_use_dp: 0]
[num_gpu: 1]

end of parameters

pandas_categorical:[]
